{"model": "linear", "weights": [0.002521071804354745, 4.771308893456673e-05, 5.214459236504438e-05, -1.5845618519177679e-06, 2.4206823137421768e-05, 3.6549241443395156e-05, 3.218125109955783e-05, 2.8876452696237084e-05, 3.210745751710098e-06, -1.740243193930767e-06, -0.00010706264111479473, 0.000127480101465758, 0.0021180735553645983, -0.004636972162112688, -6.260481515417224e-05, -0.0036178212571009926, 0.009085670614927889, 5.887442536683827e-05, 0.0007839186082394419, -0.001337958137089842, -0.003570176740211648, -5.3707736758890224e-05, -3.109398066434953e-07, 3.7980449361835977e-07, -1.8569385884278687e-06, -3.858265031514305e-06, 2.5822360449024873e-05, 0.0005422115616817497, -4.8388530870952603e-05, -1.8656982117703256e-06, 4.2031752496281274e-05, 8.647121567976019e-05, -2.2334086670569366e-05, -0.0005562263890366957, -2.41226628401172e-05, 0.0023218472607954336, -0.0025570267963923405, -0.0008364133486210372, 0.10953392392265983, 0.5347483166527789, -0.00034728781528517915, 0.00024001168845116998, 6.681703463398602e-05, 2.4186369090415463e-05, 0.0004237985259479842, -0.00031407386937311744, -2.2606989467363753e-05, 0.00029011951587843364, -0.00021367205037818872, -0.0003717571652709027, 0.00025898305513448905, -5.7457182638844135e-05, 7.612098100848664e-06, 0.008174505986592319, -0.0054187995785013226, 0.0018302502398647369, 2.0054283074005345e-06, 1.2956434505726345e-06, -0.007486191063925493, 0.0037872341975038813, 0.28019029075230095, 1.684667244049822e-05, -3.10568893290603e-05, 7.362618613600123e-05, -1.1912472140993859e-05, -2.5318310857834805e-05, -1.3186733204269563e-07, 2.250592647154271e-07, 1.6413418970611795e-05, 7.228365884407814e-05, -5.9761402448154235e-05, -1.6666731749169467e-05, -1.2038809220466158e-05, 1.3939765990271718e-05, 0.0005463935240687495, -0.0003715786850274345, -4.358984834829909e-05, 1.635196518604126e-05, -0.0005086311154367271, 0.00032594874398332943, -3.6695909790197994e-06, -0.0005200914080312655, 0.00032712851093300255, 0.00047970501532438296, -0.00030415515297367633, 9.089448914981482e-05, -3.4825280639092876e-05, -0.0005602928055314476, 0.0005759087784087264, -0.0002731495961241042, 0.001569040193167862, -0.0006267340779609627, 0.0007772699819818691, -0.0005226438855715698, -0.0015596490857476269, 0.0003805041535298168], "scale": [238.27417713172204, 841.4849764931672, 0.7871009719888403, 1.7106710466758084, 22.71963640955836, 5.3131816655420545, 8.678771301320403, 1.7329180221000564, 0.42992406377658965, 0.42992406377658954, 2.3133524204175604, 0.7017887753092958, 1070.893488978808, 356.9655052095232, 0.4397715460134327, 330.61578168981686, 99.69769740657071, 0.5402900929110258, 295557.1589603487, 97210.69359732965, 33.6385215388613, 1.9652088674525527, 0.66646472279015, 0.2206275929590759, 11.755027968701482, 3.7724945378172055, 720.368414096746, 229.96953846920044, 11.73617963181699, 3.737708991950296, 4.337194179849161, 2.5825886301091328, 730.3230570802035, 233.22198261665196, 294.62281748766827, 2476.5963756571095, 887.0601153654164, 623.2785034999596, 638366286.2120825, 304020918.855084, 1.5608084364073767, 0.3979341355844085, 0.543664319034312, 0.1696726764555906, 2.7973640163755675, 0.7608165262998224, 1.2068847869736086, 1.6100771955661388, 0.4235973599444964, 2.8240662861582497, 0.7703065474657396, 0.5457937966516953, 1.2176681725039065, 688.1632898444103, 200.80334788715354, 143.33932827752028, 21036873.461330827, 6101106.645181805, 688.1331106483699, 200.8005382687225, 21036873.33102735, 6101106.625306113, 3.977608728955865, 1.1976369516195147, 1.2603161809186687, 0.6287701388537806, 25.37585494580248, 8.28284233511746, 9.623400619381812, 40.20285830429307, 13.973363326582698, 7.473447370602289, 5011.190796000346, 1929.7669813595455, 2.0300590195458823, 0.5066134782096677, 0.5893559489137365, 0.21719403031199278, 4.923794892770277, 1.3328099433111336, 1.7374066601320535, 2.118218078284036, 0.5532506452051402, 4.9746442137544005, 1.3475951441098866, 0.6434928479912737, 1.828008201640765, 24.586307597671478, 7.674625597300401, 4.1406037639947915, 1881.141068108714, 592.1601781106464, 24.362502108964613, 7.595329527219522, 1878.2357793468932, 591.2025205456359], "bias": null, "columns": ["tango_variance", "tango_v_variance", "tango_sigma", "tango_v_sigma", "distances_sum", "distances_mean", "ge_distances_sum", "ge_distances_mean", "first_is_not_largest", "first_is_not_closest", "rsl_sum_1", "rsl_mean_1", "rsl_sum_2", "rsl_mean_2", "rsl_norm_2", "rsl_sum_1v", "rsl_mean_1v", "rsl_wmean_1v", "rsl_sum_2v", "rsl_mean_2v", "rsl_norm_2v", "rsl_wmean_2v", "c_penalty_sum_1", "c_penalty_mean_1", "c_penalty_ell_sum_1", "c_penalty_ell_mean_1", "c_penalty_ell_sum_2", "c_penalty_ell_mean_2", "rc_sum_1", "rc_mean_1", "rc_wmean_1v", "rc_norm_2", "rc_sum_2", "rc_mean_2", "rc_wmean_2v", "rc_sum_1v", "rc_mean_1v", "rc_norm_2v", "rc_sum_2v", "rc_mean_2v", "rc_cap_sum_1", "rc_cap_mean_1", "rc_cap_wmean_1v", "rc_cap_norm_2", "rc_cap_sum_2", "rc_cap_mean_2", "rc_cap_wmean_2v", "rc_sum_1_penalty_removed", "rc_mean_1_penalty_removed", "rc_sum_2_penalty_removed", "rc_mean_2_penalty_removed", "rc_wmean_1v_penalty_removed", "rc_wmean_2v_penalty_removed", "rc_cap_sum_1v", "rc_cap_mean_1v", "rc_cap_norm_2v", "rc_cap_sum_2v", "rc_cap_mean_2v", "rc_sum_1v_penalty_removed", "rc_mean_1v_penalty_removed", "rc_sum_2v_penalty_removed", "rc_mean_2v_penalty_removed", "rth_sum_1", "rth_mean_1", "rth_wmean_1v", "rth_norm_2", "rth_sum_2", "rth_mean_2", "rth_wmean_2v", "rth_sum_1v", "rth_mean_1v", "rth_norm_2v", "rth_sum_2v", "rth_mean_2v", "rth_cap_sum_1", "rth_cap_mean_1", "rth_cap_wmean_1v", "rth_cap_norm_2", "rth_cap_sum_2", "rth_cap_mean_2", "rth_cap_wmean_2v", "rth_sum_1_penalty_removed", "rth_mean_1_penalty_removed", "rth_sum_2_penalty_removed", "rth_mean_2_penalty_removed", "rth_wmean_1v_penalty_removed", "rth_wmean_2v_penalty_removed", "rth_cap_sum_1v", "rth_cap_mean_1v", "rth_cap_norm_2v", "rth_cap_sum_2v", "rth_cap_mean_2v", "rth_sum_1v_penalty_removed", "rth_mean_1v_penalty_removed", "rth_sum_2v_penalty_removed", "rth_mean_2v_penalty_removed"]}