{"model": "linear", "weights": [-2.084591914232816, 1.7982062933257459, -3.1569616982136846, -0.9934078639734576, 2.481429089066512, 1.5199550088096838, -1.8288467896642366, 5.384990555578215, -0.19676092210337148, -0.6906723541509193, 2.924156734301804, 0.48857974411690874, -0.3911376776988906, -1.8489376997717892, 0.03995353112023005, 1.0202125304717715, 0.6140577470699192, 2.0331602618406905, 1.112466577522201, -1.5442197187640228, 1.5892266934181098, 1.8057017697052566, 3.0913582888987046, -0.5548513929178284, -2.2405666494619036, 0.4121310329070332, 0.6462873851375067, 4.7059751962679055, 5.97178259473478, 0.5782483716097744, 0.35702458670736736, -0.9456892610579769, -0.33141502783981175, -2.278957139722795, 1.0048367296831844, 2.1440679738014548, -0.5684244843281856, 0.9862888057177943, -0.1583923568206422, 3.4210947016016533, 2.0020570428566855, 0.054400330083312035, -0.9200236414768984, 1.1047886587087499, -3.3656929879080417, 0.2799200343869269], "scale": [841.4849764931672, 13.973363326582698, 2.8263429953457044, 1.2204880747996123, 1.1976369516195147, 0.5538487286351177, 0.7710363002491839, 1.3489986976977582, 1.2176681725039065, 0.6006366548505075, 8.678771301320403, 3.7724945378172055, 9.00016079759795, 0.40725419025556187, 25.37585494580248, 0.543664319034312, 0.4235973599444964, 0.17451250826225634, 887.0601153654164, 233.22198261665196, 0.5532506452051402, 0.6473992353638894, 4.979657197203491, 0.6287701388537806, 0.21719403031199278, 3.737708991950296, 0.42992406377658965, 7.597408949214924, 2.9640706279447318, 592.2056188835788, 0.66646472279015, 2.0300590195458823, 1.7374066601320535, 2.1173337724974375, 2.5825886301091328, 3.26053824141153, 1884.7541411094687, 0.6434928479912737, 0.5511591954241813, 22.71963640955836, 4.337194179849161, 1.2603161809186687, 0.5487734901001236, 1.7106710466758084, 4.1406037639947915, 0.7871009719888403], "bias": null, "scaled_weights": [-0.0024772776371126846, 0.1286881512559591, -1.1169775584252966, -0.8139431138125309, 2.0719376483090124, 2.744350452072715, -2.3719334473269145, 3.9918426643171725, -0.16158829354861884, -1.1499004407628448, 0.3369321108688413, 0.12951105408348842, -0.043458965511291886, -4.540009026332021, 0.0015744703461444919, 1.8765486252324448, 1.4496260013291364, 11.650513089785344, 0.0012541050581041289, -0.00662124428168619, 2.872525693718512, 2.789162654309145, 0.6207974096359022, -0.8824391596097378, -10.315967921601695, 0.11026300704378476, 1.5032593883215395, 0.6194184395923819, 2.0147234476917903, 0.0009764317547339106, 0.5356991518060946, -0.4658432350747736, -0.19075270945181147, -1.076333438461485, 0.38908121795638934, 0.6575809927851849, -0.00030159078679279624, 1.5327113716905976, -0.2873804122940211, 0.1505787610299242, 0.4616018927993473, 0.043164033682134104, -1.6765089022595467, 0.6458218024181711, -0.8128507772646355, 0.3556342125707547], "columns": ["tango_v_variance", "rth_mean_1v", "rc_sum_2_penalty_removed_tango", "rc_wmean_2v_penalty_removed_tango", "rth_mean_1", "rth_mean_1_penalty_removed_tango", "rc_mean_2_penalty_removed_tango", "rth_mean_2_penalty_removed_tango", "rc_wmean_2v_penalty_removed", "rth_norm_2_tango", "ge_distances_sum", "c_penalty_ell_mean_1", "rth_wmean_2v_tango", "rc_cap_mean_1_tango", "rth_sum_2", "rc_cap_wmean_1v", "rc_mean_1_penalty_removed", "rc_cap_norm_2_tango", "rc_mean_1v", "rc_mean_2", "rth_mean_1_penalty_removed", "rth_wmean_1v_penalty_removed_tango", "rth_cap_sum_2_tango", "rth_norm_2", "rth_cap_norm_2", "rc_mean_1", "first_is_not_largest", "rth_mean_1v_penalty_removed_tango", "rc_mean_1_tango", "rth_cap_mean_2v_tango", "c_penalty_sum_1", "rth_cap_sum_1", "rth_cap_wmean_2v", "rth_sum_1_penalty_removed_tango", "rc_norm_2", "rc_wmean_1v_tango", "rth_mean_2v_tango", "rth_wmean_1v_penalty_removed", "rc_cap_wmean_1v_tango", "distances_sum", "rc_wmean_1v", "rth_wmean_1v", "rc_wmean_1v_penalty_removed_tango", "tango_v_sigma", "rth_cap_norm_2v", "tango_sigma"]}