{"model": "linear", "weights": [0.3255326790552153, -3.742693926535666, 1.201175860711733, -5.904034960793211, 2.918044735341643, 13.901308362215524, -1.0067435808728453, 0.4314701162956993, 0.8824860174974614, -0.6824029580222696, -0.9892062102592681, 0.29639711567246346, 0.997442253482151, -3.511218382342733, 4.352027759364363, 4.30125674527052, -4.487881662645598, 9.433963427651433, 16.66697069171581, 1.8569765878996145, -0.8289643296418682, -0.47771331252795524, 2.6142041478268037, -1.1512286239184237, 0.865116534289852, 5.250114510297361, 3.392338949704352, -0.9341767572874542, 8.923761060672021, 2.80310018398656, -0.5740155798555561, 0.46952882396511103, -1.2758258158040439, -2.2122760413852154], "scale": [1.3475951441098866, 2.8240662861582497, 13.973363326582698, 2.8263429953457044, 1.1976369516195147, 1.3489986976977582, 0.6006366548505075, 40.00419058692647, 3.7724945378172055, 9.00016079759795, 0.543664319034312, 0.17451250826225634, 887.0601153654164, 233.22198261665196, 0.5532506452051402, 0.7644269497396028, 0.21719403031199278, 7.597408949214924, 2.9640706279447318, 0.66646472279015, 2.0300590195458823, 1.2004084842626195, 2.5825886301091328, 0.5457937966516953, 3.26053824141153, 0.6434928479912737, 1.333418967849009, 0.5211129002610803, 4.337194179849161, 40.20285830429307, 294.62281748766827, 24.939169433900044, 0.5487734901001236, 1.5608084364073767], "bias": null, "scaled_weights": [0.2415656367404293, -1.3252854385465158, 0.08596182841869114, -2.0889308093588475, 2.436501922720147, 10.304908659986044, -1.6761274436762668, 0.010785622955128743, 0.23392638707651373, -0.07582119623956006, -1.8195165208126098, 1.698429061755503, 0.0011244359161287098, -0.015055263414487556, 7.866285917751928, 5.626772769766577, -20.663006511730035, 1.2417343189912513, 5.623000523193533, 2.786308898879741, -0.40834494054626297, -0.3979589604628648, 1.0122417938920203, -2.1092739253925488, 0.26532936289541315, 8.158776786231751, 2.5440908157896303, -1.7926571321098113, 2.0574963191946303, 0.06972390278248525, -0.0019483066001145077, 0.01882696315166279, -2.32486779849965, -1.4173911351205712], "columns": ["rth_mean_2_penalty_removed", "rc_sum_2_penalty_removed", "rth_mean_1v", "rc_sum_2_penalty_removed_tango", "rth_mean_1", "rth_mean_2_penalty_removed_tango", "rth_norm_2_tango", "rth_sum_1v_tango", "c_penalty_ell_mean_1", "rth_wmean_2v_tango", "rc_cap_wmean_1v", "rc_cap_norm_2_tango", "rc_mean_1v", "rc_mean_2", "rth_mean_1_penalty_removed", "rc_cap_mean_2_tango", "rth_cap_norm_2", "rth_mean_1v_penalty_removed_tango", "rc_mean_1_tango", "c_penalty_sum_1", "rth_cap_sum_1", "rth_wmean_1v_tango", "rc_norm_2", "rc_wmean_1v_penalty_removed", "rc_wmean_1v_tango", "rth_wmean_1v_penalty_removed", "rth_cap_mean_2_tango", "rth_cap_mean_1_tango", "rc_wmean_1v", "rth_sum_1v", "rc_wmean_2v", "rth_sum_2_tango", "rc_wmean_1v_penalty_removed_tango", "rc_cap_sum_1"]}