{"model": "linear", "weights": [0.0002901195156506719, 0.0005422115649281418, -0.0005562263922573434, -0.004636972154592378, -1.8569193474525495e-06, 2.8876453183398024e-05, 0.5347483249098339, 0.0007772699966515784, -0.00010706264118355006, 7.228366201548829e-05, 0.003787234329228266, -2.412266293891174e-05, -1.1912472083527493e-05, -0.00030415515355734166, -5.745718214286821e-05, 2.582235802224261e-05, -0.0005226438960396342, -0.0005602928224861163, -0.0008364133295539153, -0.000520091408461515, 3.2181250431593325e-05, 0.002118073562795612, -0.0005086311188062644, 5.887442544787857e-05, -5.976140390181518e-05, -0.0025570268134966078, -0.001337958134798194, 0.10953391533972104, -0.0003717571648220509, 0.0005759087878176237, 0.008174506170202378, 9.08944887983138e-05, -0.0036178212677349594, 1.6351965053830492e-05, -3.8582639781887735e-06, 3.6549240482775605e-05, 2.2505697228240476e-07, -0.007486191278748243, 0.0004237985276409296, 0.0004797050155739383, 7.362619212252937e-05, 0.0025210717894155596, 0.2801902911631174, -4.3589848010948706e-05, 0.0018302502225379697, 6.681703422026233e-05, -0.0015596490985758124, 0.000380504160267598, 7.612098086755348e-06, 0.009085670667520947, -1.6666733252721256e-05, -0.0054187996689036445, -0.0003472878138216248, 0.0003271285109458591, 0.0023218472498434785, -1.7402432291568088e-06, -3.482528099026764e-05, 0.00012748010158030132, -1.8656994083485246e-06, -0.0003715786886884137, 0.0015690402127568768, 2.4186369358448434e-05, -0.0003140738718244464, 0.0005463935280568152, 5.214459254320937e-05, -0.0002731495936245152, -6.260481538353608e-05, -3.1056893022253736e-05, 8.647121568056445e-05, -3.669590877993643e-06, 0.00024001169010525833, -0.00357017677365465, 1.684637656425096e-05, 4.2031752690539946e-05, -1.2038809952645412e-05, -0.0006267340906972091, 1.2956124115819592e-06, -2.531831073853764e-05, 2.005393314876071e-06, -1.318667700839347e-07, 0.0007839186045975294, -5.370773673250661e-05, -0.0002136720512810033, 1.3939767034587533e-05, 3.210745728819368e-06, -4.838854982712134e-05, -3.1093721326107393e-07, -2.260698945388962e-05, 0.00032594874752220793, -1.5845618479533735e-06, 0.000258983055611688, 4.7713088851058694e-05, -2.2334084299966194e-05, 3.7980052396683235e-07, 1.6413418924647895e-05, 2.420682475776087e-05], "scale": [1.6100771955661388, 229.96953846920044, 233.22198261665196, 356.9655052095232, 11.755027968701482, 1.7329180221000564, 304020918.855084, 24.362502108964613, 2.3133524204175604, 40.20285830429307, 200.8005382687225, 294.62281748766827, 1.2603161809186687, 1.3475951441098866, 0.5457937966516953, 720.368414096746, 7.595329527219522, 24.586307597671478, 623.2785034999596, 2.118218078284036, 8.678771301320403, 1070.893488978808, 4.923794892770277, 0.5402900929110258, 13.973363326582698, 887.0601153654164, 97210.69359732965, 638366286.2120825, 2.8240662861582497, 7.674625597300401, 688.1632898444103, 0.6434928479912737, 330.61578168981686, 0.21719403031199278, 3.7724945378172055, 5.3131816655420545, 8.28284233511746, 688.1331106483699, 2.7973640163755675, 4.9746442137544005, 1.1976369516195147, 238.27417713172204, 21036873.33102735, 0.5893559489137365, 143.33932827752028, 0.543664319034312, 1878.2357793468932, 591.2025205456359, 1.2176681725039065, 99.69769740657071, 7.473447370602289, 200.80334788715354, 1.5608084364073767, 0.5532506452051402, 2476.5963756571095, 0.42992406377658954, 1.828008201640765, 0.7017887753092958, 3.737708991950296, 0.5066134782096677, 1881.141068108714, 0.1696726764555906, 0.7608165262998224, 2.0300590195458823, 0.7871009719888403, 4.1406037639947915, 0.4397715460134327, 3.977608728955865, 2.5825886301091328, 1.7374066601320535, 0.3979341355844085, 33.6385215388613, 6101106.625306113, 4.337194179849161, 5011.190796000346, 592.1601781106464, 6101106.645181805, 0.6287701388537806, 21036873.461330827, 25.37585494580248, 295557.1589603487, 1.9652088674525527, 0.4235973599444964, 1929.7669813595455, 0.42992406377658965, 11.73617963181699, 0.66646472279015, 1.2068847869736086, 1.3328099433111336, 1.7106710466758084, 0.7703065474657396, 841.4849764931672, 730.3230570802035, 0.2206275929590759, 9.623400619381812, 22.71963640955836], "bias": null, "columns": ["rc_sum_1_penalty_removed", "c_penalty_ell_mean_2", "rc_mean_2", "rsl_mean_2", "c_penalty_ell_sum_1", "ge_distances_mean", "rc_mean_2v", "rth_sum_1v_penalty_removed", "rsl_sum_1", "rth_sum_1v", "rc_mean_1v_penalty_removed", "rc_wmean_2v", "rth_wmean_1v", "rth_mean_2_penalty_removed", "rc_wmean_1v_penalty_removed", "c_penalty_ell_sum_2", "rth_mean_1v_penalty_removed", "rth_cap_sum_1v", "rc_norm_2v", "rth_sum_1_penalty_removed", "ge_distances_sum", "rsl_sum_2", "rth_cap_sum_2", "rsl_wmean_1v", "rth_mean_1v", "rc_mean_1v", "rsl_mean_2v", "rc_sum_2v", "rc_sum_2_penalty_removed", "rth_cap_mean_1v", "rc_cap_sum_1v", "rth_wmean_1v_penalty_removed", "rsl_sum_1v", "rth_cap_norm_2", "c_penalty_ell_mean_1", "distances_mean", "rth_mean_2", "rc_sum_1v_penalty_removed", "rc_cap_sum_2", "rth_sum_2_penalty_removed", "rth_mean_1", "tango_variance", "rc_sum_2v_penalty_removed", "rth_cap_wmean_1v", "rc_cap_norm_2v", "rc_cap_wmean_1v", "rth_sum_2v_penalty_removed", "rth_mean_2v_penalty_removed", "rc_wmean_2v_penalty_removed", "rsl_mean_1v", "rth_norm_2v", "rc_cap_mean_1v", "rc_cap_sum_1", "rth_mean_1_penalty_removed", "rc_sum_1v", "first_is_not_closest", "rth_wmean_2v_penalty_removed", "rsl_mean_1", "rc_mean_1", "rth_cap_mean_1", "rth_cap_sum_2v", "rc_cap_norm_2", "rc_cap_mean_2", "rth_cap_sum_1", "tango_sigma", "rth_cap_norm_2v", "rsl_norm_2", "rth_sum_1", "rc_norm_2", "rth_cap_wmean_2v", "rc_cap_mean_1", "rsl_norm_2v", "rc_mean_2v_penalty_removed", "rc_wmean_1v", "rth_sum_2v", "rth_cap_mean_2v", "rc_cap_mean_2v", "rth_norm_2", "rc_cap_sum_2v", "rth_sum_2", "rsl_sum_2v", "rsl_wmean_2v", "rc_mean_1_penalty_removed", "rth_mean_2v", "first_is_not_largest", "rc_sum_1", "c_penalty_sum_1", "rc_cap_wmean_2v", "rth_cap_mean_2", "tango_v_sigma", "rc_mean_2_penalty_removed", "tango_v_variance", "rc_sum_2", "c_penalty_mean_1", "rth_wmean_2v", "distances_sum"]}