{"model": "linear", "weights": [-3.627208609652479e-11, -3.6072781042279876e-10, 1.3578218899710835e-09, -5.654799351832652e-10, 2.6381134377652857e-10, 1.5765825497049424e-10, -1.5316543091287478, 0.2595689946136445, 4.6470432130055423e-10, -3.256267278024221e-10, 1.096420471152739, 5.027380915229899e-10, -1.0804298263038464e-09, 4.523369053363002, 3.331239130606986e-10, 6.392366135887606e-12, 0.3913183543057723, -0.18837686153057073, 8.072021062579917e-12, -1.6076610662094197, 4.718914247715978e-10, 9.897682570147529e-11, 2.835438747298182, 5.904679290757036, 1.2022561524765868e-09, 2.4173063593520276, 0.05996798299570012, 7.002047496980802e-10, -0.7609366150111825, -1.056488372940863e-09, -4.683801522197317, 3.531536302713203e-10, -1.6863502623450837, 0.6432559354201602, 3.8872880228005635e-10, 3.83845904364112, 2.088983463789285e-09, 2.3214351674824236, -0.25526035853377127, -1.493491304875613, -9.038761831491652e-10, -9.33939920767621e-10, 1.990161458019301e-09, -6.914269806444946e-10, 3.120502773041862, -1.301821225757294e-10, 2.4413704150299598, 8.461162988940081e-12, 1.87063095012044e-11, -1.070305347801403, 1.7205620009717193e-10, 4.0282696754673036e-10, 6.38809451089951, 3.3132450760766656, 0.23240183422451466, -0.8986144854060909, 1.41998148348884e-08, -0.03242556492542302, 2.909139005369456e-10, 1.1953828736189415e-09, 4.046543884899311, 4.5787541485950283e-10, -0.0657177169664312, -1.04699056129051e-10, 4.187431202564751e-10, -5.2745209035448876e-11, -7.928100693321573e-11, -3.867930173571598e-10, 1.901556831427869, 0.47239666631382904, 2.358559650081958e-10, 2.3584930079861765e-10, 2.131380590741294e-10, -2.0698627312203317e-10, 8.608108035700373e-10, 0.6692907193488458, -1.5528918620786415e-10, 2.043720866370082e-10, -1.7846841685212953, -0.32077744038018385, -5.060600673156602e-09, -0.9882877604087498, -0.9273428172672237, 3.8172680702992275e-10, 6.076787823923367e-10, 2.3585642862096576e-10, 1.1495653427523741e-09, -2.802022782054523, -2.2071324321893167e-10, 1.7383234756354002, 6.022812541887336e-10, 1.653856500155202e-10, -0.7491178015826493, -1.3683043883781563e-09, -6.129559406549702e-10, 1.5253024655924284e-09, 0.07758123048656455, -2.318167385588373e-09, 4.357715052902683e-11, -1.0860401571515382e-11, 1.4125362308687877e-09, -0.13004382056824615, 2.638334771969261e-10, 5.668937970569748e-10, -0.05761598649368565, -12.271214911032411, 4.771911045308646e-10, 2.2528685661331332e-10, 2.3742100169584774, -0.17911682559593287, 0.8237275560685637, 5.7167022007354315e-12, -6.838239263030859e-10, 2.638109516303832e-10, 2.54878318987866, -2.1767739309369855e-10, 2.0167055064728143, 2.638180215722186e-10, 1.4313209357715303e-10, 4.4478952302046676e-10, -1.1364291111277587, 2.3585991413126104e-10, 0.148590836065016, -0.4056357602461057, 4.8351106595734474e-11, -7.969163502655209e-10, -0.16489946905549857, -2.0840210924652975e-10, -1.2657289559402192, -0.5694798182497505, 1.117587351091781, 3.929490882501911e-11, -1.6219515819540245e-10, 1.681756058822032e-09, 0.7232399783532947, 2.858732474916737e-11, 1.8874858213548408e-10, -0.9843248082302795, 2.8663902199202074, -4.0046323575845045e-10, 1.1051436729761142, -4.3683137730609595e-10], "scale": [24.939169433900044, 4.977471157767449, 143.3601004509824, 1.6100771955661388, 6101112.302332298, 229.96953846920044, 233.22198261665196, 1.7404184751578247, 2.0745342454857685, 7.346704168032263, 0.17451250826225634, 2134.953064058175, 11.755027968701482, 2.9640706279447318, 0.7710363002491839, 304020918.855084, 9.00016079759795, 4959.802184146053, 593823596.2896891, 0.5211129002610803, 688.2556848410459, 1.8320217614689693, 7.681419479357841, 24.362502108964613, 200.82250330110892, 40.20285830429307, 0.6006366548505075, 200.8005382687225, 294.62281748766827, 1.2603161809186687, 2.8263429953457044, 1.3475951441098866, 0.5457937966516953, 720.368414096746, 7.595329527219522, 24.586307597671478, 623.2785034999596, 3.26053824141153, 2.118218078284036, 220.5670572264869, 0.5538487286351177, 0.5511591954241813, 759.0206829420099, 4.923794892770277, 13.973363326582698, 7.554401770805783, 887.0601153654164, 638366286.2120825, 2.8240662861582497, 2.1173337724974375, 7.674625597300401, 688.1632898444103, 1.3489986976977582, 0.6434928479912737, 4.979657197203491, 0.21719403031199278, 3.7724945378172055, 1.1324002276843517, 8.28284233511746, 200.82964186738758, 7.597408949214924, 688.2178717350724, 182.10585878306313, 1881.2682671787154, 688.1331106483699, 2.7973640163755675, 4.9746442137544005, 1.2204880747996123, 1.1976369516195147, 2.826731617025389, 21036873.33102735, 21036899.499552067, 40.00419058692647, 0.5893559489137365, 143.33932827752028, 0.543664319034312, 1878.2357793468932, 591.2025205456359, 1884.7541411094687, 0.6030619551577623, 1.2176681725039065, 1.2004084842626195, 7.473447370602289, 1.333418967849009, 200.80334788715354, 21036899.35737111, 530.412602629557, 1.5608084364073767, 4.0131209642953936, 0.5532506452051402, 2476.5963756571095, 591.2199307556597, 1.828008201640765, 4.144865164748456, 649.8851714283896, 3.737708991950296, 0.22391579856011207, 1.6097439548761938, 0.5066134782096677, 1881.141068108714, 24.36621967061161, 0.1696726764555906, 6101112.27388476, 0.7608165262998224, 2.0300590195458823, 4.1406037639947915, 0.6473992353638894, 3.977608728955865, 2.5825886301091328, 1.7374066601320535, 0.7644269497396028, 290993301.3966436, 0.3979341355844085, 6101106.625306113, 4.337194179849161, 5011.190796000346, 592.1601781106464, 6101106.645181805, 2.165258198484743, 592.2056188835788, 0.6287701388537806, 21036873.461330827, 25.37585494580248, 0.4238674140321679, 0.4235973599444964, 0.40725419025556187, 1929.7669813595455, 1878.2770520954314, 11.73617963181699, 0.5487734901001236, 0.66646472279015, 1.2068847869736086, 1.3328099433111336, 0.7703065474657396, 13.70100738048018, 730.3230570802035, 0.2206275929590759, 10.622483783103313, 1.588895840759247, 9.623400619381812, 24.61753608134031, 1.2111110898248543], "bias": null, "columns": ["rth_sum_2_tango", "rth_sum_2_penalty_removed_tango", "rc_cap_norm_2v_tango", "rc_sum_1_penalty_removed", "rc_cap_mean_2v_tango", "c_penalty_ell_mean_2", "rc_mean_2", "rth_cap_wmean_2v_tango", "rth_cap_sum_1_tango", "rth_norm_2v_tango", "rc_cap_norm_2_tango", "rc_sum_1v_tango", "c_penalty_ell_sum_1", "rc_mean_1_tango", "rc_mean_2_penalty_removed_tango", "rc_mean_2v", "rth_wmean_2v_tango", "rth_sum_2v_tango", "rc_sum_2v_tango", "rth_cap_mean_1_tango", "rc_cap_sum_1v_tango", "rth_wmean_2v_penalty_removed_tango", "rth_cap_mean_1v_tango", "rth_sum_1v_penalty_removed", "rc_mean_1v_penalty_removed_tango", "rth_sum_1v", "rth_norm_2_tango", "rc_mean_1v_penalty_removed", "rc_wmean_2v", "rth_wmean_1v", "rc_sum_2_penalty_removed_tango", "rth_mean_2_penalty_removed", "rc_wmean_1v_penalty_removed", "c_penalty_ell_sum_2", "rth_mean_1v_penalty_removed", "rth_cap_sum_1v", "rc_norm_2v", "rc_wmean_1v_tango", "rth_sum_1_penalty_removed", "rc_wmean_2v_tango", "rth_mean_1_penalty_removed_tango", "rc_cap_wmean_1v_tango", "rc_mean_1v_tango", "rth_cap_sum_2", "rth_mean_1v", "rth_mean_2_tango", "rc_mean_1v", "rc_sum_2v", "rc_sum_2_penalty_removed", "rth_sum_1_penalty_removed_tango", "rth_cap_mean_1v", "rc_cap_sum_1v", "rth_mean_2_penalty_removed_tango", "rth_wmean_1v_penalty_removed", "rth_cap_sum_2_tango", "rth_cap_norm_2", "c_penalty_ell_mean_1", "rth_mean_1_tango", "rth_mean_2", "rc_cap_mean_1v_tango", "rth_mean_1v_penalty_removed_tango", "rc_sum_1v_penalty_removed_tango", "rc_mean_2_tango", "rth_cap_sum_2v_tango", "rc_sum_1v_penalty_removed", "rc_cap_sum_2", "rth_sum_2_penalty_removed", "rc_wmean_2v_penalty_removed_tango", "rth_mean_1", "rc_cap_sum_2_tango", "rc_sum_2v_penalty_removed", "rc_cap_sum_2v_tango", "rth_sum_1v_tango", "rth_cap_wmean_1v", "rc_cap_norm_2v", "rc_cap_wmean_1v", "rth_sum_2v_penalty_removed", "rth_mean_2v_penalty_removed", "rth_mean_2v_tango", "rth_cap_wmean_1v_tango", "rc_wmean_2v_penalty_removed", "rth_wmean_1v_tango", "rth_norm_2v", "rth_cap_mean_2_tango", "rc_cap_mean_1v", "rc_sum_2v_penalty_removed_tango", "rc_norm_2v_tango", "rc_cap_sum_1", "rth_sum_1_tango", "rth_mean_1_penalty_removed", "rc_sum_1v", "rth_mean_2v_penalty_removed_tango", "rth_wmean_2v_penalty_removed", "rth_cap_norm_2v_tango", "rc_sum_2_tango", "rc_mean_1", "rth_cap_norm_2_tango", "rc_sum_1_penalty_removed_tango", "rth_cap_mean_1", "rth_cap_sum_2v", "rth_sum_1v_penalty_removed_tango", "rc_cap_norm_2", "rc_mean_2v_penalty_removed_tango", "rc_cap_mean_2", "rth_cap_sum_1", "rth_cap_norm_2v", "rth_wmean_1v_penalty_removed_tango", "rth_sum_1", "rc_norm_2", "rth_cap_wmean_2v", "rc_cap_mean_2_tango", "rc_mean_2v_tango", "rc_cap_mean_1", "rc_mean_2v_penalty_removed", "rc_wmean_1v", "rth_sum_2v", "rth_cap_mean_2v", "rc_cap_mean_2v", "rc_norm_2_tango", "rth_cap_mean_2v_tango", "rth_norm_2", "rc_cap_sum_2v", "rth_sum_2", "rc_mean_1_penalty_removed_tango", "rc_mean_1_penalty_removed", "rc_cap_mean_1_tango", "rth_mean_2v", "rth_sum_2v_penalty_removed_tango", "rc_sum_1", "rc_wmean_1v_penalty_removed_tango", "c_penalty_sum_1", "rc_cap_wmean_2v", "rth_cap_mean_2", "rc_mean_2_penalty_removed", "rth_mean_1v_tango", "rc_sum_2", "c_penalty_mean_1", "rc_sum_1_tango", "rc_cap_sum_1_tango", "rth_wmean_2v", "rth_cap_sum_1v_tango", "rc_cap_wmean_2v_tango"]}