{"model": "linear", "weights": [1.9746665376288284, -0.878955059221757, 7.563085123305286, -0.48919324469637876, 2.226882393613479, 4.26066616880421, -0.9635196624158131, -5.7907985142119065, 1.1705324742633352, 3.23089114659965, 1.3424613197647142, -3.424810325246106, 1.6429881575249417, 8.627771657933513, 8.601827497700445, -1.6231647130881577, 2.192601935046934, 0.33835434652485064, 0.4354517736150738, -0.5559652342860275, -2.1709108726916977, -2.5671100968707683, 4.175350470860251, 4.828328789846751, 1.7365503869496917, 7.104688349652664, -1.0519568970598663, 0.6391168147617393, 1.3329395627217058], "scale": [1.3475951441098866, 2.8240662861582497, 1.7329180221000564, 9.623400619381812, 13.973363326582698, 1.1976369516195147, 1.2176681725039065, 2.118218078284036, 0.1696726764555906, 5.3131816655420545, 887.0601153654164, 233.22198261665196, 4.923794892770277, 0.5532506452051402, 7.595329527219522, 0.6287701388537806, 0.42992406377658965, 0.42992406377658954, 0.66646472279015, 1.7374066601320535, 0.5066134782096677, 0.7608165262998224, 2.5825886301091328, 0.6434928479912737, 22.71963640955836, 4.337194179849161, 294.62281748766827, 1.7106710466758084, 0.7871009719888403], "bias": null, "scaled_weights": [1.4653262489552341, -0.3112374038562152, 4.36436405349393, -0.05083371918562023, 0.15936624143860156, 3.5575607140733996, -0.7912826204815023, -2.7338065771315767, 6.8987682561234625, 0.6080897191137228, 0.001513382572963163, -0.014684766362163563, 0.3336833059267719, 15.594688831739933, 1.1325153789409554, -2.581491411228773, 5.099974902047635, 0.7870095559495753, 0.6533755782182408, -0.319997181456511, -4.285142354213564, -3.374151333641144, 1.6167307569552076, 7.503313836228101, 0.07643389866129675, 1.6380839904889273, -0.0035705207968282937, 0.3736059109690767, 1.69347975692832], "columns": ["rth_mean_2_penalty_removed", "rc_sum_2_penalty_removed", "ge_distances_mean", "rth_wmean_2v", "rth_mean_1v", "rth_mean_1", "rc_wmean_2v_penalty_removed", "rth_sum_1_penalty_removed", "rc_cap_norm_2", "distances_mean", "rc_mean_1v", "rc_mean_2", "rth_cap_sum_2", "rth_mean_1_penalty_removed", "rth_mean_1v_penalty_removed", "rth_norm_2", "first_is_not_largest", "first_is_not_closest", "c_penalty_sum_1", "rth_cap_wmean_2v", "rth_cap_mean_1", "rc_cap_mean_2", "rc_norm_2", "rth_wmean_1v_penalty_removed", "distances_sum", "rc_wmean_1v", "rc_wmean_2v", "tango_v_sigma", "tango_sigma"]}