{"model": "linear", "weights": [-0.8285716019319649, 6.986211434105887e-12, -3.1037264990827157e-11, -1.0979118019813984e-11, 1.724616877570446e-10, 2.2589903489121013e-11, 7.446978048251436e-10, 1.615758097906873e-11, 2.4340520600886812e-11, -5.943041401797173e-11, 5.717433363376592e-13, 4.806799626610433e-11, 1.0031085830846123, 2.5545358958434004, -5.1862024327383715e-11, 0.5404756761653631, -1.550371075247719e-10, -9.649768603793185e-12, -1.7624500890273548e-11, 2.942427281102872, 6.023354194910797e-11, 7.161468077198061e-11, 4.949074082299065e-11, -1.2248086962918816e-10, -2.4283115288011533e-10, 1.2297065814141045e-11, 3.370261122461432e-11, 3.1743337575365003e-11, 3.3715680660883985e-11, 8.314829943620734e-12, -2.7451862977222605e-11, 3.7003525122059586, 3.2865318600358883e-12, -2.3140361423636293e-10, -0.04235499754260195, 3.392581121224935e-12, 2.0031410712287052e-10, 4.404746633738904e-11, -2.2375537613385667e-10, 1.5497012467306366, 0.5270210348121608, 1.8354913124126182e-11, -0.10406352109189317, -1.1255328610074093e-09, 2.8633532487829303e-11, -0.331745083011896, -0.8335421803499462, 1.2488966086155047, 1.0294575043329666e-11, -5.594820052585838e-12, 2.9283234043551234e-11, 9.342200741912526e-11, 5.534721107768756e-11, 8.316413858631059e-12, -4.919765513299042e-12, -1.4602352053449336e-11, -1.8024625576969105e-11, 8.315342994270837e-12, -5.853233921310326e-12, -1.3102804060515632, 4.1693517616045335e-11, 1.1249905007888573e-09, -6.239285413097517e-10, 8.516665226853616e-12, 5.277921568649487e-11, 1.4887685531906245, -9.875980252051177e-11, 5.225717430155592e-11, 2.9629635706358297e-11, 2.7483475079999074e-11, 1.8567083987707134e-11, 1.06840310411712e-11, 2.3614161559053285e-11, 1.04368134519352e-11, 8.31624487300269e-12, 4.2703421708839193e-11, -2.353730401659442e-11, 2.404766982156072e-11, 1.289725290890721e-10, -0.8347673728189019, -5.959452274008091e-12, 3.295303051868185e-10, -3.2178709082006696e-11, 2.309535027648368e-10, -3.0207706418856835e-11, 4.203848731101831e-10, 3.252823956955982e-11, -2.6184012889341907e-11, 6.118657302464943e-11, -1.951294174392652e-11, -0.0920338771747299, 7.769416282652215e-12, -2.6233863437603664e-10, -1.4953885547825732e-12, -0.2689548710788342, 2.148697187638035e-11, 0.17481805269761405, 1.6162087386061073, 1.623411537316389e-11, 9.589282977769928e-10, 2.042603464420787, -2.2085604960961287e-10, -5.4368396377591195e-12, -3.132762252774221e-11, 4.651473934966172e-10, -9.302734894666704e-10, -0.28166247808418243, 2.5760106849425633e-10, -1.457947917912454e-10, 4.029455154275908e-11, -8.320386990236882e-11, 1.1305435696944672, 3.07768025352655e-11, 3.018406569009479e-11, -1.443709849587949, 3.295307519660885e-11, 5.573316675004447e-11, 2.4251166506460625e-11, 1.0293360182847072e-11, 3.529857355532373e-11, 3.5945033210178656e-11, 2.4130415338276945e-10, 1.029671448459325e-11, 1.0442254656467639e-11, -3.756462747103692e-10, -4.1855755449511163e-13, 4.507641010501688e-11, -2.030553793645869e-10, -6.0329937133237974e-12, -1.0074900999994082e-10, 1.0296261229185024e-11, 3.8912698299064575e-12, -1.9842729280248214e-12, 1.2647875179273878e-09, -1.3546010815840537e-10, -8.786523536273462e-11, 9.165138526889523e-11, 0.7474708936232711, -9.038115898317943e-12, 4.1405608709224644e-12, 1.467475276365119e-11, 0.653766239931307], "scale": [2.8240662861582497, 1881.141068108714, 0.7608165262998224, 720.368414096746, 0.4235973599444964, 688.1632898444103, 24.36621967061161, 2.826731617025389, 0.4238674140321679, 1.7374066601320535, 0.5538487286351177, 1.8320217614689693, 1.1976369516195147, 7.597408949214924, 0.5511591954241813, 0.17451250826225634, 4.1406037639947915, 1.2111110898248543, 2.0745342454857685, 1.3489986976977582, 8.28284233511746, 11.755027968701482, 1.7404184751578247, 0.6006366548505075, 294.62281748766827, 7.473447370602289, 200.82250330110892, 200.8005382687225, 24.586307597671478, 21036873.461330827, 1.3328099433111336, 2.9640706279447318, 290993301.3966436, 0.5066134782096677, 1.2176681725039065, 5011.190796000346, 4.979657197203491, 11.73617963181699, 1.2068847869736086, 0.6434928479912737, 3.26053824141153, 1.828008201640765, 0.543664319034312, 0.5211129002610803, 200.80334788715354, 1.2004084842626195, 233.22198261665196, 3.7724945378172055, 6101106.625306113, 7.674625597300401, 591.2025205456359, 13.973363326582698, 759.0206829420099, 21036899.35737111, 182.10585878306313, 4959.802184146053, 730.3230570802035, 21036873.33102735, 4.144865164748456, 0.21719403031199278, 1.2603161809186687, 40.00419058692647, 2.0300590195458823, 304020918.855084, 13.70100738048018, 40.20285830429307, 2.118218078284036, 530.412602629557, 0.7703065474657396, 143.33932827752028, 592.1601781106464, 1878.2770520954314, 688.1331106483699, 638366286.2120825, 21036899.499552067, 2134.953064058175, 4.923794892770277, 688.2556848410459, 7.595329527219522, 2.8263429953457044, 649.8851714283896, 3.737708991950296, 4.9746442137544005, 2476.5963756571095, 4.977471157767449, 1.3475951441098866, 200.82964186738758, 1929.7669813595455, 3.977608728955865, 0.1696726764555906, 9.00016079759795, 1881.2682671787154, 1.6100771955661388, 0.6030619551577623, 0.5487734901001236, 592.2056188835788, 887.0601153654164, 0.5532506452051402, 7.346704168032263, 2.5825886301091328, 4.337194179849161, 1.6097439548761938, 0.5893559489137365, 0.22391579856011207, 25.37585494580248, 1.1324002276843517, 0.5457937966516953, 2.165258198484743, 229.96953846920044, 0.7710363002491839, 7.554401770805783, 1.333418967849009, 591.2199307556597, 143.3601004509824, 1.5608084364073767, 0.2206275929590759, 24.939169433900044, 688.2178717350724, 6101106.645181805, 7.681419479357841, 10.622483783103313, 24.362502108964613, 6101112.27388476, 1878.2357793468932, 1884.7541411094687, 1.588895840759247, 0.6473992353638894, 2.1173337724974375, 220.5670572264869, 2.7973640163755675, 6101112.302332298, 593823596.2896891, 0.40725419025556187, 623.2785034999596, 0.3979341355844085, 1.2204880747996123, 24.61753608134031, 0.7644269497396028, 9.623400619381812, 0.6287701388537806, 4.0131209642953936, 0.66646472279015], "bias": null, "scaled_weights": [-0.29339665502650847, 3.713815807088713e-15, -4.079467771523669e-11, -1.5240976429512745e-14, 4.0713588908968204e-10, 3.2826371040844764e-14, 3.0562714072685335e-11, 5.715994005851743e-12, 5.7424845116873214e-11, -3.420639242481933e-11, 1.0323095581471141e-12, 2.6237677563154046e-11, 0.8375731741811658, 0.33623777697360524, -9.409626974919621e-11, 3.0970598127736464, -3.7443116115799125e-11, -7.967698987207436e-12, -8.49564230073562e-12, 2.1811935668466598, 7.2720860197629e-12, 6.092259496332914e-12, 2.843611552589542e-11, -2.0391840664415067e-10, -8.242102731580838e-13, 1.6454341891150588e-12, 1.6782288175185903e-13, 1.5808392671181137e-13, 1.3713194031655706e-12, 3.952502713345087e-19, -2.0596982424233156e-11, 1.2484022739943144, 1.129418390135422e-20, -4.5676560965990314e-10, -0.034783694358625494, 6.770009882546688e-16, 4.022648531617081e-11, 3.753134982526647e-12, -1.8539911891254092e-10, 2.408264911674126, 0.1616362072122198, 1.0040935870884696e-11, -0.1914113497033184, -2.159863746308164e-09, 1.42594895897456e-13, -0.2763601618624668, -0.003574029218849594, 0.3310532582873204, 1.6873291479007963e-18, -7.29002344368936e-13, 4.953164613798498e-14, 6.685720913117657e-12, 7.291923964859355e-14, 3.95325077016023e-19, -2.7015965033611582e-14, -2.9441400102862115e-15, -2.4680345776060655e-14, 3.9527466194353663e-19, -1.412165097936436e-12, -6.032764363594083, 3.3081791892613905e-11, 2.8121816346823144e-11, -3.0734502558911937e-10, 2.801341848096054e-20, 3.852214236574268e-12, 0.03703141060076432, -4.662400134008717e-11, 9.852174334185761e-14, 3.8464733038863486e-11, 1.9173715553339363e-13, 3.1354833833891876e-14, 5.688208259400257e-15, 3.4316269910052213e-14, 1.6349255399850186e-20, 3.9531704152409746e-19, 2.000204239978344e-14, -4.7803177283348645e-12, 3.4940023527905304e-14, 1.69805047466171e-11, -0.29535246578124436, -9.170008081442674e-15, 8.816371362685278e-11, -6.468544824378744e-12, 9.325439746053026e-14, -6.068886280077599e-12, 3.1195190554642114e-10, 1.6196931522209736e-13, -1.356848424823547e-14, 1.5382753104705474e-11, -1.1500344163565874e-10, -0.010225803654451684, 4.129882174807417e-15, -1.629354388090644e-10, -2.4796599122081518e-12, -0.4901017923255795, 3.6282958471227294e-14, 0.00019707576709792585, 2.921295714001078, 2.2097140434486865e-12, 3.713050876927586e-10, 0.4709504300985262, -1.3719948998137347e-10, -9.225052615113086e-12, -1.3990804904876797e-10, 1.833031417030381e-11, -8.215059187766054e-10, -0.5160602407211466, 1.1897013883818875e-10, -6.339743635689017e-13, 5.226025224718559e-11, -1.101395880530378e-11, 0.8478532231457544, 5.205643608111884e-14, 2.1054718568933553e-13, -0.9249756830575815, 1.4936062509063088e-10, 2.2347643492203016e-12, 3.523762968450788e-14, 1.687130021071832e-18, 4.595319087856227e-12, 3.3838633171043046e-12, 9.90473606953439e-12, 1.6876782498606643e-18, 5.5596079955939594e-15, -1.9930783889364126e-13, -2.6342667892887533e-13, 6.962691279621358e-11, -9.590145021164001e-11, -2.7352197509390004e-14, -3.601569527961444e-11, 1.6876039513727731e-18, 6.552905364858813e-21, -4.872320470857874e-12, 2.029249381817433e-12, -3.4040836421200166e-10, -7.199188355622475e-11, 3.723012122986811e-12, 0.9778186050058706, -9.391810915691186e-13, 6.585174159941054e-12, 3.6566933551746846e-12, 0.9809465041065026], "columns": ["rc_sum_2_penalty_removed", "rth_cap_sum_2v", "rc_cap_mean_2", "c_penalty_ell_sum_2", "rc_mean_1_penalty_removed", "rc_cap_sum_1v", "rth_sum_1v_penalty_removed_tango", "rc_cap_sum_2_tango", "rc_mean_1_penalty_removed_tango", "rth_cap_wmean_2v", "rth_mean_1_penalty_removed_tango", "rth_wmean_2v_penalty_removed_tango", "rth_mean_1", "rth_mean_1v_penalty_removed_tango", "rc_cap_wmean_1v_tango", "rc_cap_norm_2_tango", "rth_cap_norm_2v", "rc_cap_wmean_2v_tango", "rth_cap_sum_1_tango", "rth_mean_2_penalty_removed_tango", "rth_mean_2", "c_penalty_ell_sum_1", "rth_cap_wmean_2v_tango", "rth_norm_2_tango", "rc_wmean_2v", "rth_norm_2v", "rc_mean_1v_penalty_removed_tango", "rc_mean_1v_penalty_removed", "rth_cap_sum_1v", "rc_cap_sum_2v", "rth_cap_mean_2", "rc_mean_1_tango", "rc_mean_2v_tango", "rth_cap_mean_1", "rc_wmean_2v_penalty_removed", "rth_sum_2v", "rth_cap_sum_2_tango", "rc_sum_1", "rc_cap_wmean_2v", "rth_wmean_1v_penalty_removed", "rc_wmean_1v_tango", "rth_wmean_2v_penalty_removed", "rc_cap_wmean_1v", "rth_cap_mean_1_tango", "rc_cap_mean_1v", "rth_wmean_1v_tango", "rc_mean_2", "c_penalty_ell_mean_1", "rc_mean_2v_penalty_removed", "rth_cap_mean_1v", "rth_mean_2v_penalty_removed", "rth_mean_1v", "rc_mean_1v_tango", "rc_sum_2v_penalty_removed_tango", "rc_mean_2_tango", "rth_sum_2v_tango", "rc_sum_2", "rc_sum_2v_penalty_removed", "rth_cap_norm_2v_tango", "rth_cap_norm_2", "rth_wmean_1v", "rth_sum_1v_tango", "rth_cap_sum_1", "rc_mean_2v", "rth_mean_1v_tango", "rth_sum_1v", "rth_sum_1_penalty_removed", "rc_norm_2v_tango", "rc_mean_2_penalty_removed", "rc_cap_norm_2v", "rth_cap_mean_2v", "rth_sum_2v_penalty_removed_tango", "rc_sum_1v_penalty_removed", "rc_sum_2v", "rc_cap_sum_2v_tango", "rc_sum_1v_tango", "rth_cap_sum_2", "rc_cap_sum_1v_tango", "rth_mean_1v_penalty_removed", "rc_sum_2_penalty_removed_tango", "rc_sum_2_tango", "rc_mean_1", "rth_sum_2_penalty_removed", "rc_sum_1v", "rth_sum_2_penalty_removed_tango", "rth_mean_2_penalty_removed", "rc_cap_mean_1v_tango", "rth_mean_2v", "rth_sum_1", "rc_cap_norm_2", "rth_wmean_2v_tango", "rth_cap_sum_2v_tango", "rc_sum_1_penalty_removed", "rth_cap_wmean_1v_tango", "rc_wmean_1v_penalty_removed_tango", "rth_cap_mean_2v_tango", "rc_mean_1v", "rth_mean_1_penalty_removed", "rth_norm_2v_tango", "rc_norm_2", "rc_wmean_1v", "rc_sum_1_penalty_removed_tango", "rth_cap_wmean_1v", "rth_cap_norm_2_tango", "rth_sum_2", "rth_mean_1_tango", "rc_wmean_1v_penalty_removed", "rc_norm_2_tango", "c_penalty_ell_mean_2", "rc_mean_2_penalty_removed_tango", "rth_mean_2_tango", "rth_cap_mean_2_tango", "rth_mean_2v_penalty_removed_tango", "rc_cap_norm_2v_tango", "rc_cap_sum_1", "c_penalty_mean_1", "rth_sum_2_tango", "rc_sum_1v_penalty_removed_tango", "rc_cap_mean_2v", "rth_cap_mean_1v_tango", "rc_sum_1_tango", "rth_sum_1v_penalty_removed", "rc_mean_2v_penalty_removed_tango", "rth_sum_2v_penalty_removed", "rth_mean_2v_tango", "rc_cap_sum_1_tango", "rth_wmean_1v_penalty_removed_tango", "rth_sum_1_penalty_removed_tango", "rc_wmean_2v_tango", "rc_cap_sum_2", "rc_cap_mean_2v_tango", "rc_sum_2v_tango", "rc_cap_mean_1_tango", "rc_norm_2v", "rc_cap_mean_1", "rc_wmean_2v_penalty_removed_tango", "rth_cap_sum_1v_tango", "rc_cap_mean_2_tango", "rth_wmean_2v", "rth_norm_2", "rth_sum_1_tango", "c_penalty_sum_1"]}