{"model": "linear", "weights": [-0.00021129025040423003, 0.001397783699084841, -0.0004391985279612478, -0.0011052259360535854, -0.0004921280652617342, -0.0026135019778175204, 0.0007430843488841235, -9.795576937672553e-05, 4.713625320876619e-05, -2.2168926052046303e-07, 0.00010828043879951791, -3.683049493707356e-05, -4.6854145447392224e-05, 2.4198104894034323e-05, -0.0005678285012231683, 5.424360447349801e-07, -3.77944881088699e-05, 6.505184768894036e-05, 0.0002383572533165921, -4.249846708414833e-07, -0.0005446307508137557, -0.00010512488683523305, 3.761805312748928e-07, 0.00010796176560477607, -7.338930365391786e-06, -4.585241380853747e-06, -1.6773819563967066e-05, -1.9701634129533443e-05, -0.0004920825954721678, 0.013270832839977032, -0.007314168218326171, 4.6295601940123874e-05, 1.551793739513878e-05, 0.00045829984337461056, 0.0002395769028209185, 0.026613725317075343, -0.0007007657726422827, 2.8771756588716532e-05, 0.0001865928044380686, -5.5199797429466295e-05, -0.00010657731939553828, -2.4139904530366515e-05, 5.492682828615194e-05, 9.158503795549935e-05, -2.8650363802128746e-06, 6.483196876466644e-05, 0.00010821200624197464, -0.011269096111667641, -9.59810591941364e-05, -0.0021014114446468966, 8.539138056664254e-06, 4.962953270762587e-06, -0.0004608626782905688, -0.0010639201065924886, 0.0005875130610767093, 0.0008689817612896086, 0.5095475872326786, -0.00027252136414799904, 5.527702578567299e-06, -0.00019429330107842066, 0.0011835094761370973, 4.277071588968953e-05, -0.0009296563315487864, -4.688832073648621e-05, 7.134962742054806e-05, 6.965077175898171e-05, 0.001335418298091659, 1.2881166138295307e-06, -0.0005642449102853292, -3.3724371233877377e-05, -0.0009636675616406337, -0.0020178923466300626, 0.00018110704031990015, 0.012217059900723552, 5.768068158989881e-05, -0.0016844701833177464, 0.012260530579533604, 0.0515413766313065, 7.670237265951128e-08, 0.002883325552479532, -0.0006613875844720933, 0.009855736472004968, 0.00019023614164212317, 1.2267888984978618e-05, -0.00034997320083243055, 0.00039062381681478545, -0.00012059255721883444, 0.00010739189880555028, 0.0001779252757356852, 0.0015820859100543917, 0.0005305060167549036, -0.00019640997224218816, 0.0009414457653678298, -0.0001137826885847078, -4.826295838964212e-05, -1.4490479233619345e-05, 6.657503068515209e-07, 3.946224730903643e-05, 0.0007175926624464765, 0.0008757967759353381, 0.00010572169927507167, 2.2158085146508164e-05, -0.0009277023792309447, 0.0018022526246641397, 0.0005935352607533891, 0.0004726103950171169, 3.309197853021467e-05, 2.9742801097053115e-05, -0.00027214491580385646, -7.750971573350752e-05, 3.10112144206987e-05, 3.471422396374979e-05, -2.244925593741134e-07, -2.2157250956115963e-05, 6.0863971869115326e-05, -6.525980076866175e-05, -1.5465866345542653e-05, 0.002015592904571719, 9.176870937739704e-05, 9.681178105524711e-05, 7.896691534120838e-07, 4.9360971034011406e-05, 0.0020521416109154957, -0.005830304681356439, -0.0012989735757950734, 1.1078831985025638e-06, -2.387950764887449e-07, -0.023030261589684676, 0.07746958587048015, 0.0014439925772918615, -0.00017681516894460647, 0.00015885707947222585, 3.7642536054862806e-06, -0.0005933255897160796, 0.00010425757251505597, 0.0008665232429644089, 2.9173606092432363e-05, -3.742803680065873e-05, -0.00011159802103832914, 0.000648258489644036, -0.18336423697679954, -2.9804512623570186e-06, -0.00045127636425886815, -0.0032602888343698216, 0.0007550241157708989, -2.133893774496534e-05, -0.0005899202700717374, 4.042161488048076e-05, -2.559505956357201e-05, 8.899265832695079e-06, -5.464627059455909e-06, -1.0343434160807093e-06], "scale": [2.8240662861582497, 1881.141068108714, 0.7608165262998224, 720.368414096746, 0.4235973599444964, 688.1632898444103, 24.36621967061161, 2.826731617025389, 0.4238674140321679, 1.7374066601320535, 0.5538487286351177, 5.3131816655420545, 1.8320217614689693, 1.1976369516195147, 7.597408949214924, 238.27417713172204, 0.5511591954241813, 0.17451250826225634, 4.1406037639947915, 1.2111110898248543, 2.0745342454857685, 1.3489986976977582, 8.28284233511746, 22.71963640955836, 11.755027968701482, 1.7404184751578247, 0.6006366548505075, 294.62281748766827, 7.473447370602289, 200.82250330110892, 200.8005382687225, 24.586307597671478, 21036873.461330827, 1.3328099433111336, 2.9640706279447318, 290993301.3966436, 0.5066134782096677, 1.2176681725039065, 5011.190796000346, 4.979657197203491, 11.73617963181699, 1.2068847869736086, 0.6434928479912737, 3.26053824141153, 1.828008201640765, 0.543664319034312, 0.5211129002610803, 200.80334788715354, 1.2004084842626195, 233.22198261665196, 3.7724945378172055, 6101106.625306113, 7.674625597300401, 591.2025205456359, 13.973363326582698, 759.0206829420099, 21036899.35737111, 182.10585878306313, 0.7871009719888403, 4959.802184146053, 730.3230570802035, 21036873.33102735, 4.144865164748456, 0.21719403031199278, 1.2603161809186687, 40.00419058692647, 2.0300590195458823, 304020918.855084, 13.70100738048018, 40.20285830429307, 2.118218078284036, 530.412602629557, 0.7703065474657396, 143.33932827752028, 592.1601781106464, 1878.2770520954314, 688.1331106483699, 638366286.2120825, 21036899.499552067, 2134.953064058175, 4.923794892770277, 688.2556848410459, 7.595329527219522, 0.42992406377658965, 2.8263429953457044, 649.8851714283896, 841.4849764931672, 3.737708991950296, 4.9746442137544005, 2476.5963756571095, 4.977471157767449, 1.3475951441098866, 200.82964186738758, 1929.7669813595455, 3.977608728955865, 0.1696726764555906, 0.42992406377658954, 9.00016079759795, 1881.2682671787154, 1.6100771955661388, 0.6030619551577623, 0.5487734901001236, 592.2056188835788, 887.0601153654164, 0.5532506452051402, 7.346704168032263, 2.5825886301091328, 4.337194179849161, 1.6097439548761938, 0.5893559489137365, 0.22391579856011207, 1.7106710466758084, 25.37585494580248, 1.7329180221000564, 1.1324002276843517, 0.5457937966516953, 2.165258198484743, 229.96953846920044, 0.7710363002491839, 8.678771301320403, 7.554401770805783, 1.333418967849009, 591.2199307556597, 143.3601004509824, 1.5608084364073767, 0.2206275929590759, 24.939169433900044, 688.2178717350724, 6101106.645181805, 7.681419479357841, 10.622483783103313, 24.362502108964613, 6101112.27388476, 1878.2357793468932, 1884.7541411094687, 1.588895840759247, 0.6473992353638894, 2.1173337724974375, 220.5670572264869, 2.7973640163755675, 6101112.302332298, 593823596.2896891, 0.40725419025556187, 623.2785034999596, 0.3979341355844085, 1.2204880747996123, 24.61753608134031, 0.7644269497396028, 9.623400619381812, 0.6287701388537806, 4.0131209642953936, 0.66646472279015], "bias": null, "scaled_weights": [-7.481773761467232e-05, 7.4305097197743e-07, -0.0005772725917209749, -1.5342509671796252e-06, -0.0011617826544674814, -3.797793367339339e-06, 3.049649715587053e-05, -3.465336743917904e-05, 0.00011120518267815924, -1.27597795960799e-07, 0.00019550543894243438, -6.931909589301816e-06, -2.5575103108940794e-05, 2.0204874992636318e-05, -7.473975733290554e-05, 2.2765204826837453e-09, -6.857272530812559e-05, 0.000372763238215457, 5.756582056686068e-05, -3.509047802567333e-07, -0.00026253157883456685, -7.792808622769048e-05, 4.541684074800853e-08, 4.7519143202201765e-06, -6.243226630282939e-07, -2.634562575783935e-06, -2.7926733123109014e-05, -6.687070029923285e-08, -6.584412401267913e-05, 6.608239924227532e-05, -3.6425042887773246e-05, 1.8829831098553587e-06, 7.376541682233939e-13, 0.0003438598621466198, 8.082698858867598e-05, 9.145820604577778e-11, -0.0013832355489607855, 2.3628569127788572e-05, 3.7235222531737685e-08, -1.1085059722678452e-05, -9.08109135502709e-06, -2.0001830158867014e-05, 8.535732519422935e-05, 2.8088932309486112e-05, -1.5672995217643467e-06, 0.00011924999764528366, 0.00020765558900529975, -5.6120060896597164e-05, -7.995699834885383e-05, -9.01034894339697e-06, 2.2635256250377676e-06, 8.134513254000997e-13, -6.005018387511701e-05, -1.7995865538776281e-06, 4.204521469494994e-05, 1.144872308250393e-06, 2.4221610731532942e-08, -1.4964997061003128e-06, 7.022863362244294e-06, -3.917359883817077e-08, 1.6205287025562513e-06, 2.033130837300183e-12, -0.00022429109141001587, -0.00021588217995279394, 5.66124822491289e-05, 1.7410868895756103e-06, 0.0006578224008434927, 4.236934151375058e-15, -4.1182731650025145e-05, -8.388550629564593e-07, -0.00045494256305342215, -3.8043823555967982e-06, 0.00023511034784233758, 8.523173679919873e-05, 9.740722818264394e-08, -8.968166764527781e-07, 1.781709147519662e-05, 8.073950292259492e-11, 3.646087326753854e-15, 1.350533461845213e-06, -0.00013432476349557615, 1.431987659394513e-05, 2.504646321932056e-05, 2.8535013549168617e-05, -0.00012382545268169886, 6.010659020827159e-07, -1.4330922189650482e-07, 2.8732011784982314e-05, 3.5766432349823006e-05, 6.388145947417938e-07, 0.00010658143461605754, -0.00014574850102470565, 4.687782921952767e-06, -5.896187969002684e-08, -1.2133661623955483e-05, -8.540254999402937e-05, 1.548529991560274e-06, 4.384615808149617e-06, 3.814409007826565e-07, 0.0005439470718218505, 0.0001753081891020876, 4.037747002404476e-05, -1.5665207313970468e-06, 2.0317141910069057e-06, 0.001072814403195701, 6.432958020462945e-05, 1.2813491914434819e-05, 6.857613439407389e-06, -0.0001690609956816314, -0.0001315159639541579, 0.00013849498168559766, 2.0292752385800172e-05, -8.846699346823291e-09, -1.2786092979323076e-05, 5.374775665099982e-05, -0.00011956860112557868, -7.1427353820277565e-06, 8.764608208498296e-06, 0.00011901995969286942, 1.115501004623984e-05, 1.0453099760510282e-07, 3.7018350739106063e-05, 3.471029145266769e-06, -4.066894947070669e-05, -0.0008322440765280671, 5.021507888671316e-06, -9.575101413126796e-09, -3.346362036722887e-05, 1.2697628541153236e-08, 0.000187985121912985, -1.6645369628698147e-05, 6.5205568279364695e-06, 6.169782551943546e-13, -3.1589515876563316e-07, 5.5316271889809614e-08, 0.0005453618926652515, 4.5062775021713605e-05, -1.7676965855275433e-05, -5.059596044922335e-07, 0.00023173905356942376, -3.005423075177687e-08, -5.019085265353862e-15, -0.001108095079330384, -5.230870014065924e-06, 0.0018973595081559563, -1.7483937930707685e-05, -2.39634164898772e-05, 5.287832263664975e-05, -2.659668923272591e-06, 1.4153448586025467e-05, -1.3616900930907685e-06, -1.5519852449960707e-06], "columns": ["rc_sum_2_penalty_removed", "rth_cap_sum_2v", "rc_cap_mean_2", "c_penalty_ell_sum_2", "rc_mean_1_penalty_removed", "rc_cap_sum_1v", "rth_sum_1v_penalty_removed_tango", "rc_cap_sum_2_tango", "rc_mean_1_penalty_removed_tango", "rth_cap_wmean_2v", "rth_mean_1_penalty_removed_tango", "distances_mean", "rth_wmean_2v_penalty_removed_tango", "rth_mean_1", "rth_mean_1v_penalty_removed_tango", "tango_variance", "rc_cap_wmean_1v_tango", "rc_cap_norm_2_tango", "rth_cap_norm_2v", "rc_cap_wmean_2v_tango", "rth_cap_sum_1_tango", "rth_mean_2_penalty_removed_tango", "rth_mean_2", "distances_sum", "c_penalty_ell_sum_1", "rth_cap_wmean_2v_tango", "rth_norm_2_tango", "rc_wmean_2v", "rth_norm_2v", "rc_mean_1v_penalty_removed_tango", "rc_mean_1v_penalty_removed", "rth_cap_sum_1v", "rc_cap_sum_2v", "rth_cap_mean_2", "rc_mean_1_tango", "rc_mean_2v_tango", "rth_cap_mean_1", "rc_wmean_2v_penalty_removed", "rth_sum_2v", "rth_cap_sum_2_tango", "rc_sum_1", "rc_cap_wmean_2v", "rth_wmean_1v_penalty_removed", "rc_wmean_1v_tango", "rth_wmean_2v_penalty_removed", "rc_cap_wmean_1v", "rth_cap_mean_1_tango", "rc_cap_mean_1v", "rth_wmean_1v_tango", "rc_mean_2", "c_penalty_ell_mean_1", "rc_mean_2v_penalty_removed", "rth_cap_mean_1v", "rth_mean_2v_penalty_removed", "rth_mean_1v", "rc_mean_1v_tango", "rc_sum_2v_penalty_removed_tango", "rc_mean_2_tango", "tango_sigma", "rth_sum_2v_tango", "rc_sum_2", "rc_sum_2v_penalty_removed", "rth_cap_norm_2v_tango", "rth_cap_norm_2", "rth_wmean_1v", "rth_sum_1v_tango", "rth_cap_sum_1", "rc_mean_2v", "rth_mean_1v_tango", "rth_sum_1v", "rth_sum_1_penalty_removed", "rc_norm_2v_tango", "rc_mean_2_penalty_removed", "rc_cap_norm_2v", "rth_cap_mean_2v", "rth_sum_2v_penalty_removed_tango", "rc_sum_1v_penalty_removed", "rc_sum_2v", "rc_cap_sum_2v_tango", "rc_sum_1v_tango", "rth_cap_sum_2", "rc_cap_sum_1v_tango", "rth_mean_1v_penalty_removed", "first_is_not_largest", "rc_sum_2_penalty_removed_tango", "rc_sum_2_tango", "tango_v_variance", "rc_mean_1", "rth_sum_2_penalty_removed", "rc_sum_1v", "rth_sum_2_penalty_removed_tango", "rth_mean_2_penalty_removed", "rc_cap_mean_1v_tango", "rth_mean_2v", "rth_sum_1", "rc_cap_norm_2", "first_is_not_closest", "rth_wmean_2v_tango", "rth_cap_sum_2v_tango", "rc_sum_1_penalty_removed", "rth_cap_wmean_1v_tango", "rc_wmean_1v_penalty_removed_tango", "rth_cap_mean_2v_tango", "rc_mean_1v", "rth_mean_1_penalty_removed", "rth_norm_2v_tango", "rc_norm_2", "rc_wmean_1v", "rc_sum_1_penalty_removed_tango", "rth_cap_wmean_1v", "rth_cap_norm_2_tango", "tango_v_sigma", "rth_sum_2", "ge_distances_mean", "rth_mean_1_tango", "rc_wmean_1v_penalty_removed", "rc_norm_2_tango", "c_penalty_ell_mean_2", "rc_mean_2_penalty_removed_tango", "ge_distances_sum", "rth_mean_2_tango", "rth_cap_mean_2_tango", "rth_mean_2v_penalty_removed_tango", "rc_cap_norm_2v_tango", "rc_cap_sum_1", "c_penalty_mean_1", "rth_sum_2_tango", "rc_sum_1v_penalty_removed_tango", "rc_cap_mean_2v", "rth_cap_mean_1v_tango", "rc_sum_1_tango", "rth_sum_1v_penalty_removed", "rc_mean_2v_penalty_removed_tango", "rth_sum_2v_penalty_removed", "rth_mean_2v_tango", "rc_cap_sum_1_tango", "rth_wmean_1v_penalty_removed_tango", "rth_sum_1_penalty_removed_tango", "rc_wmean_2v_tango", "rc_cap_sum_2", "rc_cap_mean_2v_tango", "rc_sum_2v_tango", "rc_cap_mean_1_tango", "rc_norm_2v", "rc_cap_mean_1", "rc_wmean_2v_penalty_removed_tango", "rth_cap_sum_1v_tango", "rc_cap_mean_2_tango", "rth_wmean_2v", "rth_norm_2", "rth_sum_1_tango", "c_penalty_sum_1"]}