{"model": "linear", "weights": [-1.4803366523192572, 1.6732464453093445, -3.4524124299210355, 2.030235417797556, 1.1338529657679426, 5.225674094793697, -0.4895799349006638, -0.5666956420114693, 0.6047416636540417, 1.0684001667918266, 1.0594739618263511, -1.6188843739891008, 2.1680456848097833, 1.292522624750698, 0.3624531561512922, 2.8056322643405602, 1.0605724800975547, -0.8950142771057993, -1.3207308737238046, -0.41867169552947286, 3.305779343288509, 5.1367453373171585, 0.8470315855285965, -1.2264978481536182, 3.636658030109456, 0.4029702564326089, -0.6774865696869962, 1.3699397459964808, 2.115258489546678, -2.017675922063031, 1.782858635181914, 4.588652610584092, -1.314397853467871, 2.0666363638410443, 2.0858581624038455, 0.8659898432974976, -1.2871561141337962, -0.511127527066726, 1.4819894302603833, -8.438601840010246], "scale": [2.8240662861582497, 13.973363326582698, 2.8263429953457044, 1.1976369516195147, 7.681419479357841, 1.3489986976977582, 1.2176681725039065, 0.6006366548505075, 3.7724945378172055, 0.17451250826225634, 887.0601153654164, 233.22198261665196, 0.5532506452051402, 591.2025205456359, 0.6473992353638894, 4.979657197203491, 0.7644269497396028, 0.6287701388537806, 0.21719403031199278, 0.3979341355844085, 7.597408949214924, 2.9640706279447318, 0.66646472279015, 2.0300590195458823, 24.362502108964613, 0.5893559489137365, 1.2004084842626195, 2.5825886301091328, 3.26053824141153, 1884.7541411094687, 0.6434928479912737, 24.36621967061161, 0.5211129002610803, 4.337194179849161, 40.20285830429307, 24.939169433900044, 0.5487734901001236, 1.5608084364073767, 13.70100738048018, 4.1406037639947915], "bias": null, "scaled_weights": [-0.5241862273470392, 0.1197454332362623, -1.2215121928252566, 1.6952010499109542, 0.147609822483322, 3.8737428758915704, -0.4020635062620832, -0.9434916058403298, 0.16030285997549779, 6.122198216223225, 0.0011943654589744578, -0.006941388439571189, 3.918740454438859, 0.0021862603419853417, 0.5598603401926555, 0.5634187561979499, 1.387408542384373, -1.4234363590124837, -6.080880178090594, -1.05211304608138, 0.43511931046309027, 1.733003690562848, 1.2709323638054006, -0.6041685666991011, 0.14927276409639728, 0.6837468208734265, -0.5643800244407294, 0.5304521711375269, 0.6487451865097448, -0.0010705247321410936, 2.7705958826850723, 0.18832025125828286, -2.5222899928390774, 0.4764915468721112, 0.05188332995171904, 0.034724085162208713, -2.3455143831728367, -0.32747614322435653, 0.10816645733450032, -2.0380124061590505], "columns": ["rc_sum_2_penalty_removed", "rth_mean_1v", "rc_sum_2_penalty_removed_tango", "rth_mean_1", "rth_cap_mean_1v_tango", "rth_mean_2_penalty_removed_tango", "rc_wmean_2v_penalty_removed", "rth_norm_2_tango", "c_penalty_ell_mean_1", "rc_cap_norm_2_tango", "rc_mean_1v", "rc_mean_2", "rth_mean_1_penalty_removed", "rth_mean_2v_penalty_removed", "rth_wmean_1v_penalty_removed_tango", "rth_cap_sum_2_tango", "rc_cap_mean_2_tango", "rth_norm_2", "rth_cap_norm_2", "rc_cap_mean_1", "rth_mean_1v_penalty_removed_tango", "rc_mean_1_tango", "c_penalty_sum_1", "rth_cap_sum_1", "rth_sum_1v_penalty_removed", "rth_cap_wmean_1v", "rth_wmean_1v_tango", "rc_norm_2", "rc_wmean_1v_tango", "rth_mean_2v_tango", "rth_wmean_1v_penalty_removed", "rth_sum_1v_penalty_removed_tango", "rth_cap_mean_1_tango", "rc_wmean_1v", "rth_sum_1v", "rth_sum_2_tango", "rc_wmean_1v_penalty_removed_tango", "rc_cap_sum_1", "rth_mean_1v_tango", "rth_cap_norm_2v"]}