{"model": "linear", "weights": [-3.420493688264391e-07, 0.00012565557589791956, 2.2559362947944355e-15, -0.0004332042478967126, 4.866643931308663e-06, 5.557079652979743e-06, -0.0004285338979669847, 3.3621866396936334e-05, 1.1854841955849894e-05, -0.0004583913958636545, 3.197557376443725e-05, 8.996868066685908e-07, 8.561217018567991e-05, 4.8853135428051655e-05, 2.0265244799135285e-05, 0.003775117949208319, 7.574404983284877e-05, 0.004024072305411318, -0.00017828112938322166, 2.119662954334031e-05, -1.8931305993013953e-05, -2.128525379182993e-06, -1.9315715400798738e-05, -7.364247483854626e-07, -4.4968788345437094e-05, -0.00042885241845549787, -0.004250206471193268, 6.6653265766787514e-06, -3.0016506152955908e-05, -0.00020887652826696726, 9.090499486293972e-07, 1.7153831261241042e-16, 1.4911840300650546e-05, -0.0009496307885030569, 0.000156785932502144, -0.0030805310923242143, -0.4795133113849094, -0.00020887633781940907, 0.00023458038707703627, -6.3295365170323324e-06, 0.0001340601402837665, 1.610708264056569e-05, -2.7828466934237022e-05, 0.0002501544218086721, -1.0044319139188132e-05, 0.00010191439506605188, 0.00014982272052341158, -8.654370597931867e-05, -4.4744726130892635e-05, 1.827087248343422e-16, 0.4795004667696842, 6.0386846750302525e-06, -0.0003281455779895101, -2.952685042829433e-05, -3.5167819607544698e-06, 9.46099648594017e-06, -1.893130585594709e-05, -0.0011144976827356992, -3.640979204510296e-05, 4.550638627721096e-05, 9.307731246095604e-05, -2.952685047993246e-05, -2.07693013712131e-06, -0.00040635179102322126, -2.3475074872339246e-05, -0.0006745443176426379, -0.0002350988362053125, 0.001839028841196838, 0.00042873683168309835, 3.989219469178702e-05, -5.0346989668051166e-05, -2.9830652329249765e-17, 0.000244380681453302, -1.0250020468455374e-06, 0.0023492984979835638, 0.0002637182647698186, -4.968185281634136e-06, -2.061113645859768e-05, -1.931571337523804e-05, 9.68571756939465e-06, -3.3287220103661524e-06, 2.5263234494858993e-06, -4.3789036674872563e-07, -8.03873684290948e-05, 0.00023734934616294402, -4.3789035699473186e-07, -4.272183435866577e-06, -6.419342983737009e-07, 0.00032379540749877023, 0.0020614260469675556, 1.4351253122899412e-06, -0.0006402671313484401, -2.6386791801999446e-05, -0.0006002435533996601, -3.5137769216169235e-05, 0.000132967178819699, 3.796991930412942e-05, 0.0019562040600896824, 7.848634794002974e-05, -0.005914281613043429, 1.294383493279611e-05, -1.5283975960341405e-05, -2.768903586644881e-05, -8.957874796622873e-09], "scale": [0.4885169611233239, 155383.850037125, 0.992565385308932, 0.35912053623971346, 4123.577734449815, 199.57784037656205, 0.6349777491789669, 0.19622567410861258, 0.7074632003475282, 33.00520700474345, 1.8466765957072728, 8.708497176862368, 1.7329180221000564, 0.09108687608333699, 0.6084299906471051, 2.644232767414133, 0.3998970272255298, 4110.816211922031, 10167.71999916096, 0.0765136846367669, 1.261123429568616, 1.4662094072160536, 1.601432716260378, 0.2261573231269946, 4123.263963202542, 0.04801670574719098, 10140.214462295236, 8.678771301320403, 2.703992927097108, 0.36723169067093364, 9.042306375338375, 0.047970882542836234, 871.8361771041352, 35.96140016475422, 5.3131816655420545, 2.164621584344692, 899.5732515964763, 0.36723169067093364, 1.127203775778837, 0.09859629005797582, 0.48044382949640846, 238.27417713172204, 10.077907951487141, 0.42363632227642195, 1.1681864888448454, 871.8586365301849, 0.088015715360907, 53502.88413678559, 0.41524305767843556, 0.39248741072373394, 899.6286752819528, 4.327960860341336, 0.7192865363769918, 868.5048888508767, 0.4054090912781989, 199.5796602185848, 1.2611234295686164, 0.7869990139718835, 0.8662048025870851, 0.08199323041843305, 0.4658563832822701, 868.5048888508767, 0.42992406377658954, 0.7475731653346568, 868.4800892234279, 0.07636650353370997, 1.5283808388405522, 64.04918323177633, 214.3195371648319, 5.720865135808337, 0.12232437491732263, 0.37644606025452726, 0.14191435089513352, 10169.046489361092, 10140.49932626295, 23379.244046614956, 0.7871009719888403, 0.08060055641253036, 1.601432716260378, 2.2140630440843605, 0.22351434936122025, 0.21375083461180985, 0.6364397517941597, 3.477627568708073, 0.14601883105541327, 0.6364397517941597, 1.948750417011882, 0.42992406377658965, 2.656477160739345, 10140.539943522452, 0.8483633223693582, 47827.30742610575, 1.7106710466758084, 0.9386358757472293, 2.5177842244844952, 85.07289438663827, 2279.705619879433, 4110.831970396861, 841.4849764931672, 4110.848512554627, 7.303358237366297, 2.43107446391819, 22.71963640955836, 2279.4260227014133], "bias": null, "columns": ["cross_compt_ge_dist_min_nonfinal", "rsg_sum_2v", "-log_p_abs_max", "p_compt_min", "cross_total_ge_dist_sum", "cross_abs_mean", "p_abs_sum", "rsg_norm_2", "cross_compt_ge_dist_mean_nonfinal", "rsg_mean_1v_first", "cross_abs_ge_dist_min", "cross_abs_dist_min", "ge_distances_mean", "cross_compt_mean_nonfinal", "-log_p_compt_mean", "-log_p_compt_sum", "rsg_mean_2_first", "cross_total_ge_dist_max", "cross_abs_dist_sum", "-log_p_compt_min_nonfinal", "rsg_sum_2_first", "cross_compt_ge_dist_max", "-log_p_abs_min", "-log_p_compt_mean_nonfinal", "cross_abs_ge_dist_sum", "p_compt_max", "cross_abs_dist_final", "ge_distances_sum", "cross_compt_ge_dist_sum_nonfinal", "p_abs_max", "cross_total_dist_min", "p_abs_min", "cross_abs_sum", "rsg_norm_2v", "distances_mean", "-log_p_compt_max", "cross_abs_ge_dist_mean", "p_abs_final", "-log_p_abs_mean", "p_compt_mean_nonfinal", "cross_compt_sum", "tango_variance", "cross_compt_dist_sum", "rsg_mean_1", "cross_compt_dist_min", "cross_total_sum", "cross_compt_mean", "rsg_sum_2v_first", "cross_compt_sum_nonfinal", "cross_total_min", "cross_total_ge_dist_mean", "cross_compt_dist_max", "cross_compt_ge_dist_mean", "cross_abs_final", "cross_compt_ge_dist_min", "cross_total_mean", "rsg_wmean_2v_first", "-log_p_compt_sum_nonfinal", "rsg_wmean_2v", "cross_compt_min_nonfinal", "rsg_wmean_1v", "cross_abs_max", "first_is_not_closest", "rsg_mean_2", "cross_total_max", "-log_p_compt_min", "rsg_sum_1", "rsg_mean_1v", "rsg_sum_1v", "-log_p_abs_sum", "cross_compt_max", "cross_abs_min", "p_compt_mean", "cross_total_dist_sum", "cross_abs_dist_max", "rsg_mean_2v_first", "tango_sigma", "cross_compt_min", "-log_p_abs_final", "cross_compt_dist_min_nonfinal", "p_compt_min_nonfinal", "rsg_mean_1_first", "rsg_sum_1_first", "cross_compt_ge_dist_sum", "p_abs_mean", "rsg_wmean_1v_first", "cross_total_ge_dist_min", "first_is_not_largest", "rsg_sum_2", "cross_total_dist_max", "p_compt_sum_nonfinal", "rsg_mean_2v", "tango_v_sigma", "p_compt_sum", "cross_compt_dist_mean_nonfinal", "rsg_sum_1v_first", "cross_total_dist_mean", "cross_abs_ge_dist_final", "tango_v_variance", "cross_abs_ge_dist_max", "cross_compt_dist_sum_nonfinal", "cross_compt_dist_mean", "distances_sum", "cross_abs_dist_mean"]}