{"model": "linear", "weights": [-0.0004208020465412514, 0.0013032299877477073, -0.0002541860523164443, -0.0014500905078772596, -0.00035780947880827634, 0.002039904884546635, -2.3569335747845183e-05, -1.1459328015650003e-05, 7.972279659880376e-05, -3.6934694746663264e-06, -0.0004216739557593751, 3.46443382756856e-06, 8.262139052694689e-05, -3.271415540633018e-05, -4.0130672990348186e-05, 5.412691887156301e-06, 0.0019161183388286666, -0.0001833060983888864, -0.15729425381365347, 0.0003481810686117377, -0.00041712122199284886, -1.2652894794309105e-06, -1.937477933678556e-06, -7.991521253178011e-05, -1.3026240052100156e-05, 5.93323294058424e-05, -8.329583799804597e-06, 5.684005220523309e-05, -0.005656497672103799, -0.0024407469056281703, 1.9439085406169707e-05, -1.1525430097335472e-05, 0.0003485492263472752, 0.000253758611780851, 4.243092931099264e-05, 1.147840038971348e-05, 0.0015026598848776676, 0.6141844743612344, -5.988961613207815e-07, -2.5386825507760653e-05, 0.0005225435639405848, -0.038621791680466214, -1.878144456048144e-05, -0.0007955587664823908, 0.0002411680360245838, 0.0052088320423837415, -4.036515027571444e-05, -0.004442737484606312, 0.04047015020260192, -0.0004840434834137454, -1.8701262605238037e-05, 1.3431830507171312e-05, -3.62038225067981e-05, 2.862393496880712e-05, 0.0006573164518703516, 0.0033624991329979374, -0.0003755352571574711, -1.4988775927363556e-05, -3.1609117904749354e-05, 3.715553216923717e-05, 1.8033640139778055e-06, 0.00043757640799789086, 0.0031735994797566884, 0.0006050456578582723, 0.00010552974248254772, 4.8443224827779986e-05, 5.95062660568229e-06, 7.65348638642325e-06, -1.7873029747399727e-06, 4.3128991943980275e-05, -4.4301633985957985e-05, 0.0023738104778771247, 1.0816447210629381e-05, -0.00024507792553640225, 6.706303459556301e-06, -0.0968235146866129, 0.0004762614318620286, -0.0015933893500035214, 0.00031131854261953713, -0.005713443973495775, 0.00020147575296765375, 1.8021837904332753e-05, -1.7867623448531516e-05, -4.994407457338256e-06], "scale": [2.8240662861582497, 1881.141068108714, 0.7608165262998224, 720.368414096746, 0.4235973599444964, 688.1632898444103, 1.7374066601320535, 5.3131816655420545, 1.1976369516195147, 238.27417713172204, 4.1406037639947915, 8.28284233511746, 22.71963640955836, 11.755027968701482, 294.62281748766827, 7.473447370602289, 200.8005382687225, 24.586307597671478, 21036873.461330827, 1.3328099433111336, 0.5066134782096677, 1.2176681725039065, 5011.190796000346, 11.73617963181699, 1.2068847869736086, 0.6434928479912737, 1.828008201640765, 0.543664319034312, 200.80334788715354, 233.22198261665196, 3.7724945378172055, 6101106.625306113, 7.674625597300401, 591.2025205456359, 13.973363326582698, 0.7871009719888403, 730.3230570802035, 21036873.33102735, 0.21719403031199278, 1.2603161809186687, 2.0300590195458823, 304020918.855084, 40.20285830429307, 2.118218078284036, 0.7703065474657396, 143.33932827752028, 592.1601781106464, 688.1331106483699, 638366286.2120825, 4.923794892770277, 7.595329527219522, 0.42992406377658965, 841.4849764931672, 3.737708991950296, 4.9746442137544005, 2476.5963756571095, 1.3475951441098866, 1929.7669813595455, 3.977608728955865, 0.1696726764555906, 0.42992406377658954, 1.6100771955661388, 887.0601153654164, 0.5532506452051402, 2.5825886301091328, 4.337194179849161, 0.5893559489137365, 1.7106710466758084, 25.37585494580248, 1.7329180221000564, 0.5457937966516953, 229.96953846920044, 8.678771301320403, 1.5608084364073767, 0.2206275929590759, 6101106.645181805, 24.362502108964613, 1878.2357793468932, 2.7973640163755675, 623.2785034999596, 0.3979341355844085, 9.623400619381812, 0.6287701388537806, 0.66646472279015], "bias": null, "scaled_weights": [-0.00014900572575217213, 6.92786952473461e-07, -0.00033409638661854554, -2.0129845777531706e-06, -0.0008446924193653138, 2.96427448928269e-06, -1.3565814088714136e-05, -2.1567732362640597e-06, 6.656674753647e-05, -1.5500922169272724e-08, -0.000101838760672079, 4.182663012768105e-07, 3.636563061026246e-06, -2.7829925622834517e-06, -1.3621033609193524e-07, 7.242563730960067e-07, 9.542396426569385e-06, -7.455617223557674e-06, -7.477073724989872e-09, 0.0002612383486176151, -0.000823352002925233, -1.039108607749088e-06, -3.866302466920523e-10, -6.809303797219374e-06, -1.0793275541043842e-05, 9.220355687099571e-05, -4.556644654180552e-06, 0.00010454990370932504, -2.8169339463815162e-05, -1.046533812226456e-05, 5.15284653464795e-06, -1.889072065964296e-12, 4.541579545846245e-05, 4.2922450930461303e-07, 3.0365580797768803e-06, 1.4583135834161087e-05, 2.057527652057474e-06, 2.9195615940481598e-08, -2.7574245961571084e-06, -2.014321952865487e-05, 0.00025740313897744513, -1.2703662572270513e-10, -4.6716689689886695e-07, -0.00037557925439238597, 0.0003130805999481785, 3.6339168775082335e-05, -6.816593173236335e-08, -6.45621815875172e-06, 6.339644037711077e-11, -9.830699571269261e-05, -2.4622055617492274e-06, 3.12423323997774e-05, -4.302373009400017e-08, 7.65814969288753e-06, 0.0001321333594175311, 1.3577097851101286e-06, -0.0002786706814720081, -7.767142910074962e-09, -7.946764012921614e-06, 0.00021898359208686203, 4.194610550841195e-06, 0.0002717735579405118, 3.577659985816579e-06, 0.001093619434702922, 4.086200227640913e-05, 1.1169254319497576e-05, 1.0096829626730852e-05, 4.473967336558115e-06, -7.043321214427171e-08, 2.4888073985008196e-05, -8.116917828259891e-05, 1.0322282219108103e-05, 1.2463108929928536e-06, -0.00015701986215586807, 3.03964856326935e-05, -1.586982826518478e-08, 1.9548953951112426e-05, -8.483436251851087e-07, 0.0001112899646942982, -9.166759227877246e-06, 0.0005063042723685046, 1.8727099304206708e-06, -2.8416781180326694e-05, -7.4938812011372535e-06], "columns": ["rc_sum_2_penalty_removed", "rth_cap_sum_2v", "rc_cap_mean_2", "c_penalty_ell_sum_2", "rc_mean_1_penalty_removed", "rc_cap_sum_1v", "rth_cap_wmean_2v", "distances_mean", "rth_mean_1", "tango_variance", "rth_cap_norm_2v", "rth_mean_2", "distances_sum", "c_penalty_ell_sum_1", "rc_wmean_2v", "rth_norm_2v", "rc_mean_1v_penalty_removed", "rth_cap_sum_1v", "rc_cap_sum_2v", "rth_cap_mean_2", "rth_cap_mean_1", "rc_wmean_2v_penalty_removed", "rth_sum_2v", "rc_sum_1", "rc_cap_wmean_2v", "rth_wmean_1v_penalty_removed", "rth_wmean_2v_penalty_removed", "rc_cap_wmean_1v", "rc_cap_mean_1v", "rc_mean_2", "c_penalty_ell_mean_1", "rc_mean_2v_penalty_removed", "rth_cap_mean_1v", "rth_mean_2v_penalty_removed", "rth_mean_1v", "tango_sigma", "rc_sum_2", "rc_sum_2v_penalty_removed", "rth_cap_norm_2", "rth_wmean_1v", "rth_cap_sum_1", "rc_mean_2v", "rth_sum_1v", "rth_sum_1_penalty_removed", "rc_mean_2_penalty_removed", "rc_cap_norm_2v", "rth_cap_mean_2v", "rc_sum_1v_penalty_removed", "rc_sum_2v", "rth_cap_sum_2", "rth_mean_1v_penalty_removed", "first_is_not_largest", "tango_v_variance", "rc_mean_1", "rth_sum_2_penalty_removed", "rc_sum_1v", "rth_mean_2_penalty_removed", "rth_mean_2v", "rth_sum_1", "rc_cap_norm_2", "first_is_not_closest", "rc_sum_1_penalty_removed", "rc_mean_1v", "rth_mean_1_penalty_removed", "rc_norm_2", "rc_wmean_1v", "rth_cap_wmean_1v", "tango_v_sigma", "rth_sum_2", "ge_distances_mean", "rc_wmean_1v_penalty_removed", "c_penalty_ell_mean_2", "ge_distances_sum", "rc_cap_sum_1", "c_penalty_mean_1", "rc_cap_mean_2v", "rth_sum_1v_penalty_removed", "rth_sum_2v_penalty_removed", "rc_cap_sum_2", "rc_norm_2v", "rc_cap_mean_1", "rth_wmean_2v", "rth_norm_2", "c_penalty_sum_1"]}