{"model": "linear", "weights": [5.062327284898681, 0.38783346470946634, 29.61928981146291, 5.124147801588076, 6.447240049895597, 1.7437973530199722, 5.410202223951947, 0.4966686509060824, 11.48786400015587, 2.175570120154108, 9.980196676078162, 7.179062039827101, 0.5042232070928525, 1.3620206226817537, 1.9964958598549063, 0.1987611928665882, 8.095379828298741, -3.3148769142633365, -0.569348095549734, 1.8468551376336806, 2.5262416707266455, -0.2032026076487065, -1.33486706945266, -2.1127707925550974, -0.3208354814672813, 1.7155050165719192, 1.6320579287670853, -0.9888207728487353, 21.827255046153912, -0.29709345960551653, -1.5150843141951695, -0.9991629439628991, -1.315555709857318, 4.012779812917089, 0.6464623588617149, -0.6065173006032974, -0.26370600309768516], "scale": [1.7329180221000564, 0.36723169067093364, 64.04918323177633, 0.46834287931577423, 0.5249672634021163, 9.042306375338375, 0.6084299906471051, 0.09199963182429603, 0.4261549263658497, 1.127203775778837, 0.7189532086956002, 5.3131816655420545, 0.36723169067093364, 1.0853101433917658, 0.21409776147376652, 0.42992406377658965, 35.96140016475422, 0.13723654301068527, 0.42992406377658954, 1.601432716260378, 0.1332182274311604, 2.1141216087222126, 1.6056431289339848, 2.703992927097108, 0.7074632003475282, 1.601432716260378, 2.4218667523384307, 1.6056431289339848, 0.4658563832822701, 2.450009951910144, 0.7871009719888403, 0.0407740817417473, 1.4662094072160536, 0.08972618057006633, 1.9936171909616018, 1.7106710466758084, 0.4885169611233239], "bias": null, "scaled_weights": [2.921273378393193, 1.0561002074763568, 0.4624460190894062, 10.941017848022376, 12.281223038772833, 0.19284873578005887, 8.892070258071668, 5.39859389714338, 26.957013258351157, 1.9300592908774694, 13.88156635977086, 1.3511794799688424, 1.3730383839467528, 1.2549598204483963, 9.325159899439386, 0.462316975515645, 0.2251130320624453, -24.154476945730405, -1.3242992042557458, 1.1532517844061574, 18.963183337896186, -0.09611680180097272, -0.8313597494973259, -0.7813521889730971, -0.45350130057602545, 1.071231403700756, 0.6738842783944466, -0.6158409393905799, 46.85404306873781, -0.12126214400634919, -1.924891936503225, -24.50485458609084, -0.8972495356957316, 44.722507827952704, 0.32426604354765826, -0.3545493458732977, -0.5398093087521556], "columns": ["ge_distances_mean", "p_abs_max", "rsg_mean_1v", "rsg_wmean_1v_tango", "-log_p_compt_mean_tango", "cross_total_dist_min", "-log_p_compt_mean", "p_compt_mean_nonfinal_tango", "rsg_mean_1_tango", "-log_p_abs_mean", "cross_compt_ge_dist_mean_tango", "distances_mean", "p_abs_final", "cross_abs_ge_dist_min_tango", "rsg_mean_1_first_tango", "first_is_not_largest", "rsg_norm_2v", "p_abs_mean_tango", "first_is_not_closest", "-log_p_abs_final", "p_compt_mean_tango", "cross_compt_dist_min_nonfinal_tango", "-log_p_abs_min_tango", "cross_compt_ge_dist_sum_nonfinal", "cross_compt_ge_dist_mean_nonfinal", "-log_p_abs_min", "-log_p_compt_sum_tango", "-log_p_abs_final_tango", "rsg_wmean_1v", "cross_compt_dist_mean_nonfinal_tango", "tango_sigma", "p_abs_min_tango", "cross_compt_ge_dist_max", "cross_compt_mean_nonfinal_tango", "-log_p_compt_max_tango", "tango_v_sigma", "cross_compt_ge_dist_min_nonfinal"]}