{"model": "linear", "weights": [-0.9306993683337594, 7.225082170787852, -0.5768255903958707, 1.5605170814211977, 0.6041308465679162, 0.7814662613128466, 1.646750452608568, 0.9518083025609405, 0.5505546889778483, 1.4916629047598875, -0.4250617346388541, 1.1934100870270676, 4.848723567351697, 1.3804190373809964, -1.6175266233534678, -0.3280481293149225, 0.8173756251904467, -0.6106520102532207, -0.16090063545087477, 0.40865441287191573, 3.815971287232611, 1.40066207253552, 1.7446989158880284, 1.6051226091446322, 0.21398581540965286, -0.09677917169014257, -0.14896385976767526, -0.6430668465593709, -0.253202113484396, 0.008009569892826812, -0.4618593278291873, -0.16506789729597954, 0.2765630403257557, 2.1155546506696195, -2.300560957868064, -0.24820497497841554, -0.9620047673066688, 0.08939298827735459, -0.0383198321669958, -0.37139573817806204, 0.8508437155854954, 0.1731346360152866, 7.0318062598019555, -2.1877745592199553, 1.6105711001006886, 0.11234391601810353, 0.05322797905713196, 0.6923019661774863, 0.13865758319654745, -0.39132115925153677, 21.53439681513446, 1.3751549451349232, 0.37576656281451487, -0.3818607420484892, -0.4100990786071519, 1.4503710681665916, 0.17965378603071994, 0.028812146914077314, -1.1669801410487957], "scale": [2.8240662861582497, 1.7329180221000564, 0.3998970272255298, 2.164621584344692, 1.1681864888448454, 2279.705619879433, 1.1976369516195147, 1.8466765957072728, 9.042306375338375, 0.6084299906471051, 1.2176681725039065, 0.42363632227642195, 1.127203775778837, 0.09108687608333699, 0.5402900929110258, 8.708497176862368, 0.1696726764555906, 11.755027968701482, 0.4054090912781989, 0.543664319034312, 5.3131816655420545, 0.4235973599444964, 0.48044382949640846, 4.923794892770277, 0.5532506452051402, 0.7017887753092958, 0.22351434936122025, 0.6287701388537806, 4.327960860341336, 0.42992406377658965, 3.737708991950296, 0.42992406377658954, 1.601432716260378, 0.21375083461180985, 2.3133524204175604, 2.703992927097108, 1.7374066601320535, 0.14191435089513352, 0.5066134782096677, 0.7074632003475282, 1.601432716260378, 623.2785034999596, 0.4658563832822701, 0.7608165262998224, 0.7871009719888403, 2.2140630440843605, 0.5457937966516953, 0.6434928479912737, 10140.214462295236, 1.4662094072160536, 33.6385215388613, 4.337194179849161, 40.20285830429307, 2.5177842244844952, 1.7106710466758084, 1.9652088674525527, 0.09859629005797582, 0.4885169611233239, 4.1406037639947915], "bias": null, "scaled_weights": [-0.3295600294141278, 4.169315615998992, -1.4424353049030259, 0.7209191170906769, 0.5171527425944701, 0.0003427926195813721, 1.3749997028579786, 0.5154168871655624, 0.06088653338261233, 2.4516590695560656, -0.34907846344114773, 2.817062712220341, 4.301550146956783, 15.154971788888957, -2.9938113701815365, -0.037669889838916705, 4.817367429247709, -0.05194815460066288, -0.39688462570875577, 0.7516667887967916, 0.7182083217633219, 3.3065882958266024, 3.6314316237899997, 0.3259929879494922, 0.3867791520248637, -0.13790356171982027, -0.6664621765600186, -1.0227375742296738, -0.05850379004222939, 0.018630196743276484, -0.12356749249978237, -0.38394663431018655, 0.17269725884680195, 9.897293053903864, -0.9944705949527622, -0.0917920207893731, -0.5537015538052276, 0.6299080234909493, -0.07563918808953736, -0.5249682782024857, 0.5313015694923247, 0.0002777805347738867, 15.094364941955229, -2.875561299726286, 2.046206468315127, 0.05074106463150152, 0.09752397221014958, 1.075850288528575, 1.3674028662029139e-05, -0.2668930899812959, 0.6401707277847094, 0.31706095879312196, 0.009346762361281872, -0.15166539623810432, -0.2397299465634028, 0.7380238773533871, 1.8221150707098748, 0.05897880566485351, -0.28183815877202195], "columns": ["rc_sum_2_penalty_removed", "ge_distances_mean", "rsg_mean_2_first", "-log_p_compt_max", "cross_compt_dist_min", "cross_total_dist_mean", "rth_mean_1", "cross_abs_ge_dist_min", "cross_total_dist_min", "-log_p_compt_mean", "rc_wmean_2v_penalty_removed", "rsg_mean_1", "-log_p_abs_mean", "cross_compt_mean_nonfinal", "rsl_wmean_1v", "cross_abs_dist_min", "rc_cap_norm_2", "c_penalty_ell_sum_1", "cross_compt_ge_dist_min", "rc_cap_wmean_1v", "distances_mean", "rc_mean_1_penalty_removed", "cross_compt_sum", "rth_cap_sum_2", "rth_mean_1_penalty_removed", "rsl_mean_1", "p_compt_min_nonfinal", "rth_norm_2", "cross_compt_dist_max", "first_is_not_largest", "rc_mean_1", "first_is_not_closest", "-log_p_abs_final", "rsg_mean_1_first", "rsl_sum_1", "cross_compt_ge_dist_sum_nonfinal", "rth_cap_wmean_2v", "p_compt_mean", "rth_cap_mean_1", "cross_compt_ge_dist_mean_nonfinal", "-log_p_abs_min", "rc_norm_2v", "rsg_wmean_1v", "rc_cap_mean_2", "tango_sigma", "cross_compt_dist_min_nonfinal", "rc_wmean_1v_penalty_removed", "rth_wmean_1v_penalty_removed", "cross_abs_dist_final", "cross_compt_ge_dist_max", "rsl_norm_2v", "rc_wmean_1v", "rth_sum_1v", "cross_compt_dist_mean_nonfinal", "tango_v_sigma", "rsl_wmean_2v", "p_compt_mean_nonfinal", "cross_compt_ge_dist_min_nonfinal", "rth_cap_norm_2v"]}