{"model": "linear", "weights": [0.00043757640817203525, 0.0023738104781216777, -0.0024407469058846777, -3.2714151347481794e-05, 4.31289919430286e-05, -0.038621791646315184, 0.00047626143196352274, -1.8781444562336676e-05, 0.0019161183391314535, -4.0130672989452446e-05, -2.5386825514360785e-05, -0.0003755352579248261, -4.4301633985376975e-05, -0.0014500905082398578, -1.8701262626700937e-05, -0.00018330609846939586, -0.005713443974407988, -0.0007955587655578922, 1.08164472141887e-05, -0.00048404348355083894, 4.2430929295248885e-05, 0.003173599479722249, 0.04047015015372414, -0.0004208020466208708, 0.00034854922630367835, 0.0020399048860664545, 5.933232940572865e-05, -5.988961592423648e-07, 1.9439084709220214e-05, -1.1459328004782086e-05, 3.464438188959853e-06, -0.004442737486402658, 0.00031131854270538247, 0.0006573164514831039, 7.972278981168835e-05, -3.693469471085937e-06, 0.6141844745559771, 5.950626612034113e-06, 0.005208832041922603, 5.6840052204741796e-05, -0.0015933893499932388, 0.0002537586118102214, -1.265289473873575e-06, 5.412691908926814e-06, -0.005656497671904871, -0.000245077925163424, 0.0006050456611460642, 0.0033624991342034436, 1.8033640141155684e-06, -8.329583807001593e-06, 2.862393567759242e-05, -0.0004171212221266819, 0.0013032299876282558, 3.7155532171422766e-05, -0.00025418605236521096, 0.0005225435641919198, 1.1478400386485537e-05, -0.00042167395572426287, -3.160912014803215e-05, 0.00010552974248108323, -2.3569335747576965e-05, 0.00020147575298805752, -1.1525429017694538e-05, 4.844322483148889e-05, -1.9374779398739044e-06, -4.036515020138975e-05, -0.09682351468986906, -1.7867623454873702e-05, -0.15729425402061542, -1.7873002928759803e-06, -0.00035780947891132493, -1.4988775920523778e-05, 1.343183050751459e-05, -7.991521660685097e-05, -4.994407901502773e-06, -1.302624005642224e-05, 0.0003481810686796435, 7.653486386466328e-06, 0.0002411680360580843, -3.6203822507036085e-05, 0.0015026598852500893, 6.7063067570706225e-06, 1.802183790914204e-05, 8.262139051211895e-05], "scale": [1.6100771955661388, 229.96953846920044, 233.22198261665196, 11.755027968701482, 1.7329180221000564, 304020918.855084, 24.362502108964613, 40.20285830429307, 200.8005382687225, 294.62281748766827, 1.2603161809186687, 1.3475951441098866, 0.5457937966516953, 720.368414096746, 7.595329527219522, 24.586307597671478, 623.2785034999596, 2.118218078284036, 8.678771301320403, 4.923794892770277, 13.973363326582698, 887.0601153654164, 638366286.2120825, 2.8240662861582497, 7.674625597300401, 688.1632898444103, 0.6434928479912737, 0.21719403031199278, 3.7724945378172055, 5.3131816655420545, 8.28284233511746, 688.1331106483699, 2.7973640163755675, 4.9746442137544005, 1.1976369516195147, 238.27417713172204, 21036873.33102735, 0.5893559489137365, 143.33932827752028, 0.543664319034312, 1878.2357793468932, 591.2025205456359, 1.2176681725039065, 7.473447370602289, 200.80334788715354, 1.5608084364073767, 0.5532506452051402, 2476.5963756571095, 0.42992406377658954, 1.828008201640765, 3.737708991950296, 0.5066134782096677, 1881.141068108714, 0.1696726764555906, 0.7608165262998224, 2.0300590195458823, 0.7871009719888403, 4.1406037639947915, 3.977608728955865, 2.5825886301091328, 1.7374066601320535, 0.3979341355844085, 6101106.625306113, 4.337194179849161, 5011.190796000346, 592.1601781106464, 6101106.645181805, 0.6287701388537806, 21036873.461330827, 25.37585494580248, 0.4235973599444964, 1929.7669813595455, 0.42992406377658965, 11.73617963181699, 0.66646472279015, 1.2068847869736086, 1.3328099433111336, 1.7106710466758084, 0.7703065474657396, 841.4849764931672, 730.3230570802035, 0.2206275929590759, 9.623400619381812, 22.71963640955836], "bias": null, "columns": ["rc_sum_1_penalty_removed", "c_penalty_ell_mean_2", "rc_mean_2", "c_penalty_ell_sum_1", "ge_distances_mean", "rc_mean_2v", "rth_sum_1v_penalty_removed", "rth_sum_1v", "rc_mean_1v_penalty_removed", "rc_wmean_2v", "rth_wmean_1v", "rth_mean_2_penalty_removed", "rc_wmean_1v_penalty_removed", "c_penalty_ell_sum_2", "rth_mean_1v_penalty_removed", "rth_cap_sum_1v", "rc_norm_2v", "rth_sum_1_penalty_removed", "ge_distances_sum", "rth_cap_sum_2", "rth_mean_1v", "rc_mean_1v", "rc_sum_2v", "rc_sum_2_penalty_removed", "rth_cap_mean_1v", "rc_cap_sum_1v", "rth_wmean_1v_penalty_removed", "rth_cap_norm_2", "c_penalty_ell_mean_1", "distances_mean", "rth_mean_2", "rc_sum_1v_penalty_removed", "rc_cap_sum_2", "rth_sum_2_penalty_removed", "rth_mean_1", "tango_variance", "rc_sum_2v_penalty_removed", "rth_cap_wmean_1v", "rc_cap_norm_2v", "rc_cap_wmean_1v", "rth_sum_2v_penalty_removed", "rth_mean_2v_penalty_removed", "rc_wmean_2v_penalty_removed", "rth_norm_2v", "rc_cap_mean_1v", "rc_cap_sum_1", "rth_mean_1_penalty_removed", "rc_sum_1v", "first_is_not_closest", "rth_wmean_2v_penalty_removed", "rc_mean_1", "rth_cap_mean_1", "rth_cap_sum_2v", "rc_cap_norm_2", "rc_cap_mean_2", "rth_cap_sum_1", "tango_sigma", "rth_cap_norm_2v", "rth_sum_1", "rc_norm_2", "rth_cap_wmean_2v", "rc_cap_mean_1", "rc_mean_2v_penalty_removed", "rc_wmean_1v", "rth_sum_2v", "rth_cap_mean_2v", "rc_cap_mean_2v", "rth_norm_2", "rc_cap_sum_2v", "rth_sum_2", "rc_mean_1_penalty_removed", "rth_mean_2v", "first_is_not_largest", "rc_sum_1", "c_penalty_sum_1", "rc_cap_wmean_2v", "rth_cap_mean_2", "tango_v_sigma", "rc_mean_2_penalty_removed", "tango_v_variance", "rc_sum_2", "c_penalty_mean_1", "rth_wmean_2v", "distances_sum"]}