{"model": "linear", "weights": [1.3016879084895034, -0.2857573890310358, 3.115127426248096, 1.6369469844797355, 1.3795951415937129, 0.28103965191987523, -0.012238421593449246, -1.4103302271943272, 0.7500011421639657, 33.787723470769, 2.867238658829309, 14.40527968153371, -1.4731130191581328, 0.507590844733025, 0.27562944269290407, 1.5221564796625078, 1.4759086573249698, -0.8190428726001525, 0.13125745309705783, 0.9343671739116551, 0.9443153572574002, -0.8194117852753782, -1.3368106378924454, 0.24296609730917643, 2.10816553400092, -0.8409806824726674, -1.6016471601331446, 0.3898390018866868, 0.5372686197772416, 0.07676091346575635, -0.8209274291357164, 1.795637540579822, -1.6054672001214847, -0.8775461574107769, -2.127411971767935, 2.1678056151551712, 1.5763840299121614, -2.1128326818728804, -1.8807952534069845], "scale": [0.7871009719888403, 1.7106710466758084, 22.71963640955836, 8.678771301320403, 1.7329180221000564, 0.42992406377658965, 0.42992406377658954, 2.3133524204175604, 0.7017887753092958, 99.69769740657071, 0.5402900929110258, 33.6385215388613, 1.9652088674525527, 0.66646472279015, 0.2206275929590759, 4.337194179849161, 2.5825886301091328, 233.22198261665196, 623.2785034999596, 0.543664319034312, 0.1696726764555906, 0.7608165262998224, 1.2176681725039065, 143.33932827752028, 1.1976369516195147, 1.2603161809186687, 0.6287701388537806, 8.28284233511746, 9.623400619381812, 13.973363326582698, 0.5066134782096677, 4.923794892770277, 1.3328099433111336, 1.7374066601320535, 2.118218078284036, 0.5532506452051402, 0.6434928479912737, 4.1406037639947915, 7.595329527219522], "bias": null, "scaled_weights": [1.6537749981433882, -0.16704403198167303, 0.13711167600100913, 0.18861506170011505, 0.7961110242952144, 0.653696025877532, -0.028466472627614894, -0.6096478058192977, 1.0686992561735138, 0.33890174346736895, 5.306850331792927, 0.4282375985190622, -0.7495961592457546, 0.7616169729254376, 1.2492972388273773, 0.35095419216749146, 0.5714842232781774, -0.003511859660100811, 0.00021059197832107865, 1.718647226235726, 5.565512237938684, -1.0770162804697865, -1.097844772556997, 0.0016950414113757256, 1.760270949514488, -0.6672775413068651, -2.547269759109226, 0.047065848426675196, 0.05582939347813982, 0.005493374191432326, -1.6204216122255757, 0.3646856905466144, -1.204573246304707, -0.5050896704540536, -1.0043403904339006, 3.918306528772992, 2.4497304590610436, -0.5102716420840162, -0.24762523425306882], "columns": ["tango_sigma", "tango_v_sigma", "distances_sum", "ge_distances_sum", "ge_distances_mean", "first_is_not_largest", "first_is_not_closest", "rsl_sum_1", "rsl_mean_1", "rsl_mean_1v", "rsl_wmean_1v", "rsl_norm_2v", "rsl_wmean_2v", "c_penalty_sum_1", "c_penalty_mean_1", "rc_wmean_1v", "rc_norm_2", "rc_mean_2", "rc_norm_2v", "rc_cap_wmean_1v", "rc_cap_norm_2", "rc_cap_mean_2", "rc_wmean_2v_penalty_removed", "rc_cap_norm_2v", "rth_mean_1", "rth_wmean_1v", "rth_norm_2", "rth_mean_2", "rth_wmean_2v", "rth_mean_1v", "rth_cap_mean_1", "rth_cap_sum_2", "rth_cap_mean_2", "rth_cap_wmean_2v", "rth_sum_1_penalty_removed", "rth_mean_1_penalty_removed", "rth_wmean_1v_penalty_removed", "rth_cap_norm_2v", "rth_mean_1v_penalty_removed"]}