{"model": "linear", "weights": [6.021385681968035, 0.44307418103357843, -0.07254045511364277, -0.23622750845302637, 1.9719785236401959, 27.67686609972162, -2.220328971803473, 1.613078166016841, 0.28473103503381325, 1.1182806832346546, 1.1980747119154598, 0.19733456639835853, 0.42320327560577786, -0.4076568826550949, 6.2063344516366525, 7.2834602463883815, 0.8419736734051761, 1.8965417129090922, -0.08926087361257425, 0.5553259590990568, -0.054194299658426474, 2.9255245143511255, 3.200618263116187, 0.10140479546434318, -0.20317969577179962, 1.4690910575721823, 0.132008233494131, -0.037306567382335884, -0.10608792066100216, -3.336061061266133, -3.4253746068259803, 0.285534438526156, 0.2874930225886208, 0.8347959653885975, 2.8221400939552206, -1.2277034225946233, 0.19730707251965945, 3.972232747555094, -0.18001945819322948, -6.711968758867452, -0.17831735381686967, -3.0030822850937464, -0.41557226447129286, -1.066977036611719, 0.2478625070667416, -0.11618755610543835], "scale": [1.7329180221000564, 0.36723169067093364, 2.164621584344692, 1.1681864888448454, 841.4849764931672, 64.04918323177633, 1.5283808388405522, 1.8466765957072728, 9.042306375338375, 0.6084299906471051, 0.8483633223693582, 199.5796602185848, 0.2261573231269946, 1.948750417011882, 0.42363632227642195, 1.127203775778837, 10140.539943522452, 0.09108687608333699, 8.708497176862368, 199.57784037656205, 0.4054090912781989, 5.3131816655420545, 0.48044382949640846, 0.36723169067093364, 0.22351434936122025, 1.261123429568616, 0.19622567410861258, 0.42992406377658965, 0.42992406377658954, 0.7475731653346568, 0.8662048025870851, 1.601432716260378, 0.21375083461180985, 0.7192865363769918, 0.088015715360907, 2.703992927097108, 0.7074632003475282, 0.4658563832822701, 0.7871009719888403, 33.00520700474345, 1.4662094072160536, 3.477627568708073, 2.5177842244844952, 1.7106710466758084, 0.09859629005797582, 7.303358237366297], "bias": null, "scaled_weights": [3.474708904389459, 1.2065249059090741, -0.033511841348289675, -0.20221729210942904, 0.0023434506601155087, 0.4321189545784944, -1.4527327975976465, 0.8735033355415629, 0.03148876218244245, 1.8379775823431876, 1.4122188929259782, 0.000988750888653847, 1.871278231252037, -0.20918886230704492, 14.650147131593288, 6.461529319626262, 8.303045775614837e-05, 20.82124005629431, -0.010249859625577158, 0.0027825030977951847, -0.13367805711401126, 0.5506163158930236, 6.661794920898475, 0.27613301912772353, -0.9090230508800224, 1.1649066404822122, 0.6727368072185259, -0.08677478309686398, -0.24675967129890838, -4.462521149716122, -3.9544627282086737, 0.17829936632800172, 1.3449913452302218, 1.1605888935352808, 32.064047680383915, -0.45403351846509216, 0.27889376072527305, 8.526732465417894, -0.22871202628343576, -0.20336090477792854, -0.1216179305215668, -0.8635433857597872, -0.16505475744506237, -0.623718416632513, 2.5139131190534187, -0.01590878501769035], "columns": ["ge_distances_mean", "p_abs_max", "-log_p_compt_max", "cross_compt_dist_min", "tango_v_variance", "rsg_mean_1v", "rsg_sum_1", "cross_abs_ge_dist_min", "cross_total_dist_min", "-log_p_compt_mean", "p_compt_sum_nonfinal", "cross_total_mean", "-log_p_compt_mean_nonfinal", "cross_total_ge_dist_min", "rsg_mean_1", "-log_p_abs_mean", "cross_total_dist_max", "cross_compt_mean_nonfinal", "cross_abs_dist_min", "cross_abs_mean", "cross_compt_ge_dist_min", "distances_mean", "cross_compt_sum", "p_abs_final", "p_compt_min_nonfinal", "rsg_sum_2_first", "rsg_norm_2", "first_is_not_largest", "first_is_not_closest", "rsg_mean_2", "rsg_wmean_2v", "-log_p_abs_final", "rsg_mean_1_first", "cross_compt_ge_dist_mean", "cross_compt_mean", "cross_compt_ge_dist_sum_nonfinal", "cross_compt_ge_dist_mean_nonfinal", "rsg_wmean_1v", "tango_sigma", "rsg_mean_1v_first", "cross_compt_ge_dist_max", "cross_compt_ge_dist_sum", "cross_compt_dist_mean_nonfinal", "tango_v_sigma", "p_compt_mean_nonfinal", "cross_compt_dist_sum_nonfinal"]}