{"model": "linear", "weights": [-3.354529292754455e-06, -0.00013595985212854002, -8.289122204566688e-05, 0.0001766561502274732, -0.00019044069333590472, 0.00022642965438959982, 0.00010114920750191401, -1.351662917658641e-05, 8.894744614807896e-05, 2.0169213586680134e-05, 2.0357410008217547e-07, 0.0002833072965508275, -6.13621462554547e-05, 0.0005083808084020167, -0.0001610128323693819, -4.855692937505877e-08, 0.0006866489115031335, 0.00011541783777436789, 0.004049804845605764, -0.0001387879935548328, -5.108424205961307e-05, 0.12763901053196147, -2.6098659044127455e-07, -0.0004011139286058873, 9.393052989776634e-08, -1.0910320581582249e-07, -0.00012162179240953314, -2.345037096696739e-05, 4.986106964137103e-07, 0.10709308142833597, 1.6530064848973364e-06, -9.038497068865032e-05, 0.0020368104931476378, -0.00021112906167148482, 0.0013014063364334722, 0.00035053092878490944, -0.0010557169722095986, 0.0013201577295012046, 8.548864846561017e-05, -1.1062673431949755e-05, 0.0004187290321799396, -0.0008434895561046767, 0.00046818782732237387, -0.004021283556789857, -5.4945754651028506e-05, 0.00033058421689853595, 0.00045486336439003563, -0.0008341328508192746, 1.8752047852919737e-06, 1.9257175274100835e-05, 0.003347722164505148, -1.6002767182196579e-06, 1.458366344226478e-05, -0.00042394165252228523, 3.4513436013047274e-05, -0.000937797659928592, 3.0536377043199864e-05, 7.327731687341294e-05, -0.0003613792035090934, 6.483827794368991e-06, -4.925953474347062e-07, 1.4528411746948122e-05, 0.0011215747151663061, -0.0022740224497090128, -0.0003236502319781826, -1.7622779276368608e-05, -0.0007918848105951895, 0.0020946250857510544, 6.986433708599697e-07, 0.0003333717931720321, -0.001228724737807453, 4.472084401508238e-05, -0.003908986126435135, 2.3842135621472914e-05, 5.671925817739669e-05, 0.00022061741400132573, -7.077823575793465e-05, 0.011185276123278147, -0.0012317305852498923, 0.00018976954621564325, -9.68603959774732e-07, 5.9731211095582615e-06, -6.64794032026039e-05, 0.00012780081996741953, -0.0003403128415879457, 0.00032727457697951723, 7.634795120850804e-05, 0.00016135907302841548, -0.00014899942091529773, 7.913050484048182e-07, -0.12064087103135387, 0.000838009190241612, -5.822904802076363e-06, -0.007990019520746842, 5.372432371420729e-05, -0.00018073516805512503, -0.0005107184836664909, 0.0008480801653592654, 0.0006174813608786758, -0.003348124956826941, -7.115531381168663e-05, -7.616531997904764e-05, 9.020171776558555e-08, -0.00027065489032139983, 0.0007619662404350716, -0.00013843757917877654, -4.7525950574528084e-05, -1.8288018530040067e-07, 2.2559106916256717e-05, -0.0001130157696667242, -0.005477449174124195, 4.0901625918018154e-05, 8.299313640976225e-05, 0.00010609034875256334, -0.00016221216894424538, -0.00525178512354578, -0.00016458076910464198, -1.5423777898049244e-05, -0.00010336101935079018, -0.0003857082900010308, -0.0012928019690737196, -0.00022521256983663076, 0.5431245671057144, 0.007502303309322127, 0.00022310712016810713, -0.00034281259790349414, 4.1139166544748e-05, 5.585915042223213e-05, 5.045880895334779e-05, -2.4980735507217063e-05, -9.058578118491457e-06, 5.0272062741455093e-05, 0.00013241253727442473, -0.0015966537051255278, 0.0009650002798458453, 2.4360501409946678e-05, -0.0001512228768550348, -0.0009270920179662637, -0.0005484888071848438, 0.003907632111124671, 0.0003461250371291015, 0.0021793593838461095], "scale": [1.8320217614689693, 1929.7669813595455, 1.3475951441098866, 4.9746442137544005, 2.8240662861582497, 649.8851714283896, 5011.190796000346, 9.623400619381812, 0.7703065474657396, 0.6030619551577623, 1.1324002276843517, 24.61753608134031, 8.28284233511746, 200.8005382687225, 182.10585878306313, 4.0131209642953936, 13.973363326582698, 2.8263429953457044, 1878.2357793468932, 200.82250330110892, 1.2204880747996123, 304020918.855084, 1.1976369516195147, 0.5538487286351177, 3.977608728955865, 6101106.625306113, 11.73617963181699, 1.2068847869736086, 21036899.499552067, 21036899.35737111, 638366286.2120825, 4959.802184146053, 1881.141068108714, 0.7710363002491839, 7.681419479357841, 1.3489986976977582, 4.144865164748456, 730.3230570802035, 1.2176681725039065, 0.6006366548505075, 0.4238674140321679, 1.6097439548761938, 592.1601781106464, 143.3601004509824, 40.00419058692647, 2.7973640163755675, 7.346704168032263, 2.118218078284036, 3.7724945378172055, 0.1696726764555906, 2134.953064058175, 11.755027968701482, 9.00016079759795, 0.40725419025556187, 25.37585494580248, 7.674625597300401, 2.165258198484743, 0.543664319034312, 0.4235973599444964, 290993301.3966436, 6101106.645181805, 0.17451250826225634, 887.0601153654164, 233.22198261665196, 4.923794892770277, 1.2111110898248543, 2.0745342454857685, 2476.5963756571095, 21036873.461330827, 0.5532506452051402, 720.368414096746, 7.595329527219522, 591.2025205456359, 0.6473992353638894, 7.554401770805783, 4.979657197203491, 1.828008201640765, 143.33932827752028, 688.2178717350724, 0.7644269497396028, 0.2206275929590759, 0.6287701388537806, 0.21719403031199278, 3.737708991950296, 530.412602629557, 0.3979341355844085, 7.597408949214924, 2.9640706279447318, 592.2056188835788, 0.66646472279015, 6101112.302332298, 2.0300590195458823, 1.7374066601320535, 688.1632898444103, 0.22391579856011207, 0.5066134782096677, 7.473447370602289, 1.6100771955661388, 24.362502108964613, 623.2785034999596, 220.5670572264869, 0.5893559489137365, 593823596.2896891, 2.826731617025389, 2.1173337724974375, 0.7608165262998224, 1.2004084842626195, 6101112.27388476, 2.5825886301091328, 0.5457937966516953, 200.80334788715354, 3.26053824141153, 1884.7541411094687, 0.6434928479912737, 4.977471157767449, 1878.2770520954314, 1.333418967849009, 0.5511591954241813, 24.586307597671478, 200.82964186738758, 1881.2682671787154, 24.36621967061161, 21036873.33102735, 688.2556848410459, 0.5211129002610803, 759.0206829420099, 4.337194179849161, 40.20285830429307, 1.2603161809186687, 294.62281748766827, 24.939169433900044, 1.7404184751578247, 1.3328099433111336, 688.1331106483699, 1.588895840759247, 0.5487734901001236, 10.622483783103313, 1.5608084364073767, 13.70100738048018, 591.2199307556597, 4.1406037639947915, 229.96953846920044], "bias": null, "scaled_weights": [-1.8310531912375833e-06, -7.045402550765718e-08, -6.151047843113013e-05, 3.551131350037785e-05, -6.74349232768799e-05, 3.484148651859953e-07, 2.0184665006697745e-08, -1.4045585039204874e-06, 0.0001154701935751559, 3.3444679131522774e-05, 1.7977221754755799e-07, 1.1508353054291644e-05, -7.408344113383938e-06, 2.5317701475564425e-06, -8.841716210854662e-07, -1.209954292608376e-08, 4.91398452509185e-05, 4.083645826583427e-05, 2.156174901009487e-06, -6.910978165964652e-07, -4.185558475694276e-05, 4.198362764399198e-10, -2.1791795091855944e-07, -0.0007242301153139345, 2.3614823955402822e-08, -1.7882527304683588e-14, -1.0362979796237467e-05, -1.9430496779872154e-05, 2.3701719753156927e-14, 5.0907255679203345e-09, 2.5894326197987264e-15, -1.822350314243676e-08, 1.082752658839899e-06, -0.0002738250606401437, 0.00016942263600246298, 0.00025984526848182735, -0.00025470478055313723, 1.8076352878397839e-06, 7.02068514198074e-05, -1.8418245610906222e-05, 0.000987877384101439, -0.0005239898889196636, 7.906438910096585e-07, -2.805022836995578e-05, -1.3734999720000584e-06, 0.00011817704630620818, 6.19139350090186e-05, -0.0003937898837569189, 4.970728960622913e-07, 0.00011349603057119881, 1.568054221361527e-06, -1.361355092034232e-07, 1.6203780988176355e-06, -0.001040975544674572, 1.3600895846370796e-06, -0.00012219458109571734, 1.4102880231359638e-05, 0.0001347841201047962, -0.0008531195840230086, 2.2281708077984567e-14, -8.073868825481374e-14, 8.325140639841651e-05, 1.2643728375773986e-06, -9.750463589218491e-06, -6.573186719321021e-05, -1.4550918924305399e-05, -0.00038171691420295806, 8.457676456040571e-07, 3.3210418465661694e-14, 0.0006025691900430066, -1.7056893580601027e-06, 5.887939931350637e-06, -6.611923986432655e-06, 3.68275622198901e-05, 7.5081071801859936e-06, 4.430373523005188e-05, -3.8718773632638106e-05, 7.803354639434514e-05, -1.789739319242851e-06, 0.00024825072726738254, -4.390221308149782e-06, 9.49968953749456e-06, -0.000306083012995837, 3.419228737246728e-05, -6.416002182090346e-07, 0.0008224340354689094, 1.0049209107849517e-05, 5.443833608657998e-05, -2.516008226943037e-07, 1.1873172297732805e-06, -1.9773586364774172e-08, 0.00041280040736405384, -3.3514921611004914e-06, -1.1610644797041323e-05, 0.00023993092072859944, -0.0003567515982674384, -6.833773737077001e-05, 0.0005267326111410836, 2.5345564183715868e-05, -5.3717959756768e-06, -3.22601728047818e-07, -0.00012923483697658558, 1.5189985431562714e-16, -9.57483507423368e-05, 0.00035987063085302665, -0.00018195921670111185, -3.959148173108929e-05, -2.997489262461243e-14, 8.735075595567627e-06, -0.00020706679035204672, -2.727767854349911e-05, 1.2544439871470823e-05, 4.403393238383229e-08, 0.0001648663991895711, -3.258927350912116e-05, -2.7960652118316715e-06, -0.00012342764957823702, -2.7984252147292664e-05, -4.204007411042856e-06, -1.9205745049115948e-06, -6.871970317197228e-07, -9.242819480457297e-06, 2.5817741950495004e-08, 1.090045963231644e-05, 0.0004281358608783803, -4.516511942398353e-07, 9.485202838250312e-06, 1.3894323134797408e-06, 4.003662709191545e-05, -8.478886910469063e-08, -3.6322693674706136e-07, 2.8885043142797205e-05, 9.934840142733998e-05, -2.3202686811874745e-06, 0.0006073401761721046, 4.4390813057500483e-05, -1.4236112753175293e-05, -0.0005939819367585026, -4.003273569257948e-05, 6.6094390730877166e-06, 8.359289051970657e-05, 9.476730693782684e-06], "columns": ["rth_wmean_2v_penalty_removed_tango", "rth_mean_2v", "rth_mean_2_penalty_removed", "rth_sum_2_penalty_removed", "rc_sum_2_penalty_removed", "rc_sum_2_tango", "rth_sum_2v", "rth_wmean_2v", "rc_mean_2_penalty_removed", "rth_cap_wmean_1v_tango", "rth_mean_1_tango", "rth_cap_sum_1v_tango", "rth_mean_2", "rc_mean_1v_penalty_removed", "rc_mean_2_tango", "rth_sum_1_tango", "rth_mean_1v", "rc_sum_2_penalty_removed_tango", "rth_sum_2v_penalty_removed", "rc_mean_1v_penalty_removed_tango", "rc_wmean_2v_penalty_removed_tango", "rc_mean_2v", "rth_mean_1", "rth_mean_1_penalty_removed_tango", "rth_sum_1", "rc_mean_2v_penalty_removed", "rc_sum_1", "rc_cap_wmean_2v", "rc_cap_sum_2v_tango", "rc_sum_2v_penalty_removed_tango", "rc_sum_2v", "rth_sum_2v_tango", "rth_cap_sum_2v", "rc_mean_2_penalty_removed_tango", "rth_cap_mean_1v_tango", "rth_mean_2_penalty_removed_tango", "rth_cap_norm_2v_tango", "rc_sum_2", "rc_wmean_2v_penalty_removed", "rth_norm_2_tango", "rc_mean_1_penalty_removed_tango", "rc_sum_1_penalty_removed_tango", "rth_cap_mean_2v", "rc_cap_norm_2v_tango", "rth_sum_1v_tango", "rc_cap_sum_2", "rth_norm_2v_tango", "rth_sum_1_penalty_removed", "c_penalty_ell_mean_1", "rc_cap_norm_2", "rc_sum_1v_tango", "c_penalty_ell_sum_1", "rth_wmean_2v_tango", "rc_cap_mean_1_tango", "rth_sum_2", "rth_cap_mean_1v", "rc_norm_2_tango", "rc_cap_wmean_1v", "rc_mean_1_penalty_removed", "rc_mean_2v_tango", "rc_cap_mean_2v", "rc_cap_norm_2_tango", "rc_mean_1v", "rc_mean_2", "rth_cap_sum_2", "rc_cap_wmean_2v_tango", "rth_cap_sum_1_tango", "rc_sum_1v", "rc_cap_sum_2v", "rth_mean_1_penalty_removed", "c_penalty_ell_sum_2", "rth_mean_1v_penalty_removed", "rth_mean_2v_penalty_removed", "rth_wmean_1v_penalty_removed_tango", "rth_mean_2_tango", "rth_cap_sum_2_tango", "rth_wmean_2v_penalty_removed", "rc_cap_norm_2v", "rc_sum_1v_penalty_removed_tango", "rc_cap_mean_2_tango", "c_penalty_mean_1", "rth_norm_2", "rth_cap_norm_2", "rc_mean_1", "rc_norm_2v_tango", "rc_cap_mean_1", "rth_mean_1v_penalty_removed_tango", "rc_mean_1_tango", "rth_cap_mean_2v_tango", "c_penalty_sum_1", "rc_cap_mean_2v_tango", "rth_cap_sum_1", "rth_cap_wmean_2v", "rc_cap_sum_1v", "rth_cap_norm_2_tango", "rth_cap_mean_1", "rth_norm_2v", "rc_sum_1_penalty_removed", "rth_sum_1v_penalty_removed", "rc_norm_2v", "rc_wmean_2v_tango", "rth_cap_wmean_1v", "rc_sum_2v_tango", "rc_cap_sum_2_tango", "rth_sum_1_penalty_removed_tango", "rc_cap_mean_2", "rth_wmean_1v_tango", "rc_mean_2v_penalty_removed_tango", "rc_norm_2", "rc_wmean_1v_penalty_removed", "rc_cap_mean_1v", "rc_wmean_1v_tango", "rth_mean_2v_tango", "rth_wmean_1v_penalty_removed", "rth_sum_2_penalty_removed_tango", "rth_sum_2v_penalty_removed_tango", "rth_cap_mean_2_tango", "rc_cap_wmean_1v_tango", "rth_cap_sum_1v", "rc_cap_mean_1v_tango", "rth_cap_sum_2v_tango", "rth_sum_1v_penalty_removed_tango", "rc_sum_2v_penalty_removed", "rc_cap_sum_1v_tango", "rth_cap_mean_1_tango", "rc_mean_1v_tango", "rc_wmean_1v", "rth_sum_1v", "rth_wmean_1v", "rc_wmean_2v", "rth_sum_2_tango", "rth_cap_wmean_2v_tango", "rth_cap_mean_2", "rc_sum_1v_penalty_removed", "rc_cap_sum_1_tango", "rc_wmean_1v_penalty_removed_tango", "rc_sum_1_tango", "rc_cap_sum_1", "rth_mean_1v_tango", "rth_mean_2v_penalty_removed_tango", "rth_cap_norm_2v", "c_penalty_ell_mean_2"]}