{"model": "linear", "weights": [0.055007796818526994, -1.0271589110103279e-10, -6.473383089723042e-24, -3.3032169436530696e-10, 2.1729498032582452e-10, 5.285203587298586e-07, -0.4526105009502945, 0.26282493026967285, 0.026786381401156883, -10.396909421603956, 1.7489076139122, -0.15838825993161304, 5.48806330376071, 2.0161719082719207, 1.9128116860613003, -0.08438349282191386, -1.5734350530847223, 2.9788582127522696e-10, 5.513635336949779e-09, -1.0770543447543223e-10, 1.449076902374369, -0.06359799216791216, -0.020720148710615865, 0.29860252795853864, 2.1799501660075816e-10, 7.990192968825231e-10, 1.30510312485825e-08, -4.929906669584852e-10, -0.8192049347814012, 0.5064514775197827, 0.2239742256297099, 6.775229188425701e-24, 2.816419374153994e-09, 1.0066936262302954e-09, 3.8090330176755405, -0.43329473970560456, -0.5163143712631896, 0.5981208157116906, 10.901500371108261, 1.2815972252198246e-10, 2.3687039665257514, 2.832181390753869e-10, -0.6785130654034845, 8.45601161714305, -0.29386940410530715, 2.836602064228901e-09, 6.993332788296685, -2.7472202019211323e-10, -1.046320269902094e-09, 2.576575529590004e-24, -2.8627373384113344e-07, -1.0947909911632731e-10, 1.6836630430183457, 8.756741877933949e-08, -0.031725280258340025, 1.4395281696077056, 1.4788176079342918, -8.406859343550727e-07, -2.724628856558789, 2.4193132991929685e-11, 3.721524085279105, 8.756741856300037e-08, -0.06120271176490012, -3.1055691844523596, 0.05513201594968352, -3.6985483908886394e-10, -5.480170083485048, 32.484673182340906, 8.275566391959147e-08, 2.472537296875728e-10, -0.1632616097876258, 4.565666691799632e-25, 2.1464363534975187e-10, 5.396469241490954e-09, 1.2780782871502578, -1.3770753728794469e-08, -0.1613077773567898, 2.9907573066618337e-10, -0.020720115807512176, 0.19908043606456216, -0.10990889427486972, 0.3269536105199103, 9.05211062132368e-12, -3.960169708913224, -0.8665055532677097, 9.052110629936919e-12, -0.5137404236361713, -0.012920571973621914, 2.3941673971785393e-09, 1.4030048319509025e-07, 1.3259723193259749e-09, -4.753113498639638e-10, -1.0998280003022516, 1.5633475021389692e-10, -0.5275302740939571, -4.030259369903358e-10, 1.0212169645645485e-09, 2.655081997197785e-10, 2.612953777981832, 2.8123583492674934e-10, -6.963507587642924e-12, -2.811577452287957e-10, 1.474681132149284e-10, 1.0234930389388462e-09], "scale": [0.4885169611233239, 155383.850037125, 0.992565385308932, 0.35912053623971346, 4123.577734449815, 199.57784037656205, 0.6349777491789669, 0.19622567410861258, 0.7074632003475282, 33.00520700474345, 1.8466765957072728, 8.708497176862368, 1.7329180221000564, 0.09108687608333699, 0.6084299906471051, 2.644232767414133, 0.3998970272255298, 4110.816211922031, 10167.71999916096, 0.0765136846367669, 1.261123429568616, 1.4662094072160536, 1.601432716260378, 0.2261573231269946, 4123.263963202542, 0.04801670574719098, 10140.214462295236, 8.678771301320403, 2.703992927097108, 0.36723169067093364, 9.042306375338375, 0.047970882542836234, 871.8361771041352, 35.96140016475422, 5.3131816655420545, 2.164621584344692, 899.5732515964763, 0.36723169067093364, 1.127203775778837, 0.09859629005797582, 0.48044382949640846, 238.27417713172204, 10.077907951487141, 0.42363632227642195, 1.1681864888448454, 871.8586365301849, 0.088015715360907, 53502.88413678559, 0.41524305767843556, 0.39248741072373394, 899.6286752819528, 4.327960860341336, 0.7192865363769918, 868.5048888508767, 0.4054090912781989, 199.5796602185848, 1.2611234295686164, 0.7869990139718835, 0.8662048025870851, 0.08199323041843305, 0.4658563832822701, 868.5048888508767, 0.42992406377658954, 0.7475731653346568, 868.4800892234279, 0.07636650353370997, 1.5283808388405522, 64.04918323177633, 214.3195371648319, 5.720865135808337, 0.12232437491732263, 0.37644606025452726, 0.14191435089513352, 10169.046489361092, 10140.49932626295, 23379.244046614956, 0.7871009719888403, 0.08060055641253036, 1.601432716260378, 2.2140630440843605, 0.22351434936122025, 0.21375083461180985, 0.6364397517941597, 3.477627568708073, 0.14601883105541327, 0.6364397517941597, 1.948750417011882, 0.42992406377658965, 2.656477160739345, 10140.539943522452, 0.8483633223693582, 47827.30742610575, 1.7106710466758084, 0.9386358757472293, 2.5177842244844952, 85.07289438663827, 2279.705619879433, 4110.831970396861, 841.4849764931672, 4110.848512554627, 7.303358237366297, 2.43107446391819, 22.71963640955836, 2279.4260227014133], "bias": null, "columns": ["cross_compt_ge_dist_min_nonfinal", "rsg_sum_2v", "-log_p_abs_max", "p_compt_min", "cross_total_ge_dist_sum", "cross_abs_mean", "p_abs_sum", "rsg_norm_2", "cross_compt_ge_dist_mean_nonfinal", "rsg_mean_1v_first", "cross_abs_ge_dist_min", "cross_abs_dist_min", "ge_distances_mean", "cross_compt_mean_nonfinal", "-log_p_compt_mean", "-log_p_compt_sum", "rsg_mean_2_first", "cross_total_ge_dist_max", "cross_abs_dist_sum", "-log_p_compt_min_nonfinal", "rsg_sum_2_first", "cross_compt_ge_dist_max", "-log_p_abs_min", "-log_p_compt_mean_nonfinal", "cross_abs_ge_dist_sum", "p_compt_max", "cross_abs_dist_final", "ge_distances_sum", "cross_compt_ge_dist_sum_nonfinal", "p_abs_max", "cross_total_dist_min", "p_abs_min", "cross_abs_sum", "rsg_norm_2v", "distances_mean", "-log_p_compt_max", "cross_abs_ge_dist_mean", "p_abs_final", "-log_p_abs_mean", "p_compt_mean_nonfinal", "cross_compt_sum", "tango_variance", "cross_compt_dist_sum", "rsg_mean_1", "cross_compt_dist_min", "cross_total_sum", "cross_compt_mean", "rsg_sum_2v_first", "cross_compt_sum_nonfinal", "cross_total_min", "cross_total_ge_dist_mean", "cross_compt_dist_max", "cross_compt_ge_dist_mean", "cross_abs_final", "cross_compt_ge_dist_min", "cross_total_mean", "rsg_wmean_2v_first", "-log_p_compt_sum_nonfinal", "rsg_wmean_2v", "cross_compt_min_nonfinal", "rsg_wmean_1v", "cross_abs_max", "first_is_not_closest", "rsg_mean_2", "cross_total_max", "-log_p_compt_min", "rsg_sum_1", "rsg_mean_1v", "rsg_sum_1v", "-log_p_abs_sum", "cross_compt_max", "cross_abs_min", "p_compt_mean", "cross_total_dist_sum", "cross_abs_dist_max", "rsg_mean_2v_first", "tango_sigma", "cross_compt_min", "-log_p_abs_final", "cross_compt_dist_min_nonfinal", "p_compt_min_nonfinal", "rsg_mean_1_first", "rsg_sum_1_first", "cross_compt_ge_dist_sum", "p_abs_mean", "rsg_wmean_1v_first", "cross_total_ge_dist_min", "first_is_not_largest", "rsg_sum_2", "cross_total_dist_max", "p_compt_sum_nonfinal", "rsg_mean_2v", "tango_v_sigma", "p_compt_sum", "cross_compt_dist_mean_nonfinal", "rsg_sum_1v_first", "cross_total_dist_mean", "cross_abs_ge_dist_final", "tango_v_variance", "cross_abs_ge_dist_max", "cross_compt_dist_sum_nonfinal", "cross_compt_dist_mean", "distances_sum", "cross_abs_dist_mean"]}