{"model": "linear", "weights": [-9.058578089480911e-06, -0.00016221216875079064, -0.004021283562231315, 0.0008480801654837396, -0.12064087104722412, 0.0021793593839961505, -0.0022740224498526175, 5.027206271477117e-05, -0.0007918848106617502, 0.00045486336424316857, 1.4528411756608836e-05, 0.003347722168692654, -1.6002768073091581e-06, 0.00016135907308985353, -0.00021112906156979172, 0.12763901052262983, 1.4583663450496097e-05, -9.038497068184195e-05, 9.020172079871414e-08, 0.00022310712015123396, 0.007502303311438517, -3.3545292856980683e-06, 0.001301406336002306, 0.0006174813608472081, -0.0001387879930230208, 5.5859150365536904e-05, -1.1062673428248163e-05, 0.0005083808071917521, -2.498073550670039e-05, 5.0458808960428555e-05, 0.00011541783762672713, -8.289122199807426e-05, -0.00011301576968700849, -0.0012287247380009857, 4.472084399556371e-05, -0.00010336101928996664, -0.0033481249582848495, 4.090162592749451e-05, -0.0008341328509489732, -7.115531383412369e-05, -0.0004011139285479951, -1.5423777908242225e-05, -0.00034281259840948886, -0.0003236502319083602, 0.0006866489113650196, 5.671925815628782e-05, 0.0011215747158971013, 1.653006847236274e-06, -0.00019044069326797065, 0.000761966240435808, -0.0009377976595641539, -0.007990019525280041, 0.00035053092867235103, 0.0001060903487681382, 0.00022061741386893884, -6.647940320713173e-05, 1.8752049101121888e-06, 2.0357410851262046e-07, -6.136214616048442e-05, -0.00038570828626023396, 7.634795126608255e-05, -0.0012317305867471599, -0.00016101283242368284, -0.0012928019695469344, -0.0015966537024169152, 0.00033058421686658543, 0.0001766561501346555, -5.108424207114177e-05, -2.6098661694695045e-07, -0.00027065489022711127, 0.5431245669873537, 4.986107122404408e-07, -5.494575461780046e-05, -7.616531998394632e-05, 0.01118527612852596, 7.327731688230891e-05, 0.004049804845196594, -0.003908986125882371, 8.299313640242524e-05, 2.0169213591791612e-05, 8.548864847228294e-05, -4.752595058093672e-05, -0.0005107184835180838, -0.00016458076903714243, -0.005477449176453078, 0.10709308151876719, -0.00034031284388977767, -0.000927092018151847, -4.855693523673506e-08, 0.00033337179319034273, 0.0020946250867331967, 0.003907632110746998, -7.077823575921546e-05, -0.0010557169718504126, 0.0002264296545008037, 0.00012780081984177283, 5.3724323718241824e-05, -0.0008434895561128779, -0.00018073516809688416, 0.0020368104938957386, -0.00022521256983866188, 1.9257175270360314e-05, -1.828801907228305e-07, -0.00013843757915717755, 0.0008380091904194127, 0.0003461250367878171, 2.384213560449513e-05, 9.393053917812284e-08, 2.255910692480774e-05, -5.822904781406105e-06, 0.00018976954615365602, 6.483827997839216e-06, 0.0003272745770366591, -1.0910320923882946e-07, 4.1139166544594414e-05, 0.00010114920746618474, 0.0004681878267709733, -4.92595361425304e-07, 3.0536376987191044e-05, -0.000148999420526597, 5.973121107446344e-06, 6.986433939436974e-07, 3.4513435928796614e-05, 0.0004187290321104981, -0.00036137920351129614, -0.0004239416525109547, -0.00013595985209879994, -0.005251785123410014, -0.00012162179232631336, 2.4360501430044236e-05, 7.91305095958147e-07, -2.345037098645005e-05, 0.0001324125372403561, 8.894744609795084e-05, -0.0005484888070321088, 0.0013201577296814099, -9.686040157021263e-07, -0.0001512228768881454, 0.0009650002799193433, -1.3516629184999407e-05, 0.0002833072965349756, -1.76227792513185e-05], "scale": [24.939169433900044, 4.977471157767449, 143.3601004509824, 1.6100771955661388, 6101112.302332298, 229.96953846920044, 233.22198261665196, 1.7404184751578247, 2.0745342454857685, 7.346704168032263, 0.17451250826225634, 2134.953064058175, 11.755027968701482, 2.9640706279447318, 0.7710363002491839, 304020918.855084, 9.00016079759795, 4959.802184146053, 593823596.2896891, 0.5211129002610803, 688.2556848410459, 1.8320217614689693, 7.681419479357841, 24.362502108964613, 200.82250330110892, 40.20285830429307, 0.6006366548505075, 200.8005382687225, 294.62281748766827, 1.2603161809186687, 2.8263429953457044, 1.3475951441098866, 0.5457937966516953, 720.368414096746, 7.595329527219522, 24.586307597671478, 623.2785034999596, 3.26053824141153, 2.118218078284036, 220.5670572264869, 0.5538487286351177, 0.5511591954241813, 759.0206829420099, 4.923794892770277, 13.973363326582698, 7.554401770805783, 887.0601153654164, 638366286.2120825, 2.8240662861582497, 2.1173337724974375, 7.674625597300401, 688.1632898444103, 1.3489986976977582, 0.6434928479912737, 4.979657197203491, 0.21719403031199278, 3.7724945378172055, 1.1324002276843517, 8.28284233511746, 200.82964186738758, 7.597408949214924, 688.2178717350724, 182.10585878306313, 1881.2682671787154, 688.1331106483699, 2.7973640163755675, 4.9746442137544005, 1.2204880747996123, 1.1976369516195147, 2.826731617025389, 21036873.33102735, 21036899.499552067, 40.00419058692647, 0.5893559489137365, 143.33932827752028, 0.543664319034312, 1878.2357793468932, 591.2025205456359, 1884.7541411094687, 0.6030619551577623, 1.2176681725039065, 1.2004084842626195, 7.473447370602289, 1.333418967849009, 200.80334788715354, 21036899.35737111, 530.412602629557, 1.5608084364073767, 4.0131209642953936, 0.5532506452051402, 2476.5963756571095, 591.2199307556597, 1.828008201640765, 4.144865164748456, 649.8851714283896, 3.737708991950296, 0.22391579856011207, 1.6097439548761938, 0.5066134782096677, 1881.141068108714, 24.36621967061161, 0.1696726764555906, 6101112.27388476, 0.7608165262998224, 2.0300590195458823, 4.1406037639947915, 0.6473992353638894, 3.977608728955865, 2.5825886301091328, 1.7374066601320535, 0.7644269497396028, 290993301.3966436, 0.3979341355844085, 6101106.625306113, 4.337194179849161, 5011.190796000346, 592.1601781106464, 6101106.645181805, 2.165258198484743, 592.2056188835788, 0.6287701388537806, 21036873.461330827, 25.37585494580248, 0.4238674140321679, 0.4235973599444964, 0.40725419025556187, 1929.7669813595455, 1878.2770520954314, 11.73617963181699, 0.5487734901001236, 0.66646472279015, 1.2068847869736086, 1.3328099433111336, 0.7703065474657396, 13.70100738048018, 730.3230570802035, 0.2206275929590759, 10.622483783103313, 1.588895840759247, 9.623400619381812, 24.61753608134031, 1.2111110898248543], "bias": null, "columns": ["rth_sum_2_tango", "rth_sum_2_penalty_removed_tango", "rc_cap_norm_2v_tango", "rc_sum_1_penalty_removed", "rc_cap_mean_2v_tango", "c_penalty_ell_mean_2", "rc_mean_2", "rth_cap_wmean_2v_tango", "rth_cap_sum_1_tango", "rth_norm_2v_tango", "rc_cap_norm_2_tango", "rc_sum_1v_tango", "c_penalty_ell_sum_1", "rc_mean_1_tango", "rc_mean_2_penalty_removed_tango", "rc_mean_2v", "rth_wmean_2v_tango", "rth_sum_2v_tango", "rc_sum_2v_tango", "rth_cap_mean_1_tango", "rc_cap_sum_1v_tango", "rth_wmean_2v_penalty_removed_tango", "rth_cap_mean_1v_tango", "rth_sum_1v_penalty_removed", "rc_mean_1v_penalty_removed_tango", "rth_sum_1v", "rth_norm_2_tango", "rc_mean_1v_penalty_removed", "rc_wmean_2v", "rth_wmean_1v", "rc_sum_2_penalty_removed_tango", "rth_mean_2_penalty_removed", "rc_wmean_1v_penalty_removed", "c_penalty_ell_sum_2", "rth_mean_1v_penalty_removed", "rth_cap_sum_1v", "rc_norm_2v", "rc_wmean_1v_tango", "rth_sum_1_penalty_removed", "rc_wmean_2v_tango", "rth_mean_1_penalty_removed_tango", "rc_cap_wmean_1v_tango", "rc_mean_1v_tango", "rth_cap_sum_2", "rth_mean_1v", "rth_mean_2_tango", "rc_mean_1v", "rc_sum_2v", "rc_sum_2_penalty_removed", "rth_sum_1_penalty_removed_tango", "rth_cap_mean_1v", "rc_cap_sum_1v", "rth_mean_2_penalty_removed_tango", "rth_wmean_1v_penalty_removed", "rth_cap_sum_2_tango", "rth_cap_norm_2", "c_penalty_ell_mean_1", "rth_mean_1_tango", "rth_mean_2", "rc_cap_mean_1v_tango", "rth_mean_1v_penalty_removed_tango", "rc_sum_1v_penalty_removed_tango", "rc_mean_2_tango", "rth_cap_sum_2v_tango", "rc_sum_1v_penalty_removed", "rc_cap_sum_2", "rth_sum_2_penalty_removed", "rc_wmean_2v_penalty_removed_tango", "rth_mean_1", "rc_cap_sum_2_tango", "rc_sum_2v_penalty_removed", "rc_cap_sum_2v_tango", "rth_sum_1v_tango", "rth_cap_wmean_1v", "rc_cap_norm_2v", "rc_cap_wmean_1v", "rth_sum_2v_penalty_removed", "rth_mean_2v_penalty_removed", "rth_mean_2v_tango", "rth_cap_wmean_1v_tango", "rc_wmean_2v_penalty_removed", "rth_wmean_1v_tango", "rth_norm_2v", "rth_cap_mean_2_tango", "rc_cap_mean_1v", "rc_sum_2v_penalty_removed_tango", "rc_norm_2v_tango", "rc_cap_sum_1", "rth_sum_1_tango", "rth_mean_1_penalty_removed", "rc_sum_1v", "rth_mean_2v_penalty_removed_tango", "rth_wmean_2v_penalty_removed", "rth_cap_norm_2v_tango", "rc_sum_2_tango", "rc_mean_1", "rth_cap_norm_2_tango", "rc_sum_1_penalty_removed_tango", "rth_cap_mean_1", "rth_cap_sum_2v", "rth_sum_1v_penalty_removed_tango", "rc_cap_norm_2", "rc_mean_2v_penalty_removed_tango", "rc_cap_mean_2", "rth_cap_sum_1", "rth_cap_norm_2v", "rth_wmean_1v_penalty_removed_tango", "rth_sum_1", "rc_norm_2", "rth_cap_wmean_2v", "rc_cap_mean_2_tango", "rc_mean_2v_tango", "rc_cap_mean_1", "rc_mean_2v_penalty_removed", "rc_wmean_1v", "rth_sum_2v", "rth_cap_mean_2v", "rc_cap_mean_2v", "rc_norm_2_tango", "rth_cap_mean_2v_tango", "rth_norm_2", "rc_cap_sum_2v", "rth_sum_2", "rc_mean_1_penalty_removed_tango", "rc_mean_1_penalty_removed", "rc_cap_mean_1_tango", "rth_mean_2v", "rth_sum_2v_penalty_removed_tango", "rc_sum_1", "rc_wmean_1v_penalty_removed_tango", "c_penalty_sum_1", "rc_cap_wmean_2v", "rth_cap_mean_2", "rc_mean_2_penalty_removed", "rth_mean_1v_tango", "rc_sum_2", "c_penalty_mean_1", "rc_sum_1_tango", "rc_cap_sum_1_tango", "rth_wmean_2v", "rth_cap_sum_1v_tango", "rc_cap_wmean_2v_tango"]}