{"model": "linear", "weights": [-3.693469471463283e-06, -1.498877592059204e-05, -0.00037553525712077923, 0.0006573164507044156, -0.0004208020466225318, 4.3128991943237095e-05, -1.937477939597971e-06, 1.8021837908642047e-05, 0.00024116803606235603, -3.6203822506991687e-05, 3.464433234316766e-06, 0.0019161183390647746, 4.243092929614306e-05, -0.0015933893500087528, -0.03862179165094317, 7.972279637916202e-05, -3.160912139778297e-05, -1.1525428747909489e-05, -7.991521610788399e-05, -1.3026240055274351e-05, 0.04047015016056668, 0.0013032299876542558, 0.0015026598851900317, -1.265289475180911e-06, 1.0816447213660866e-05, -4.036515022452753e-05, 0.0003113185427058981, -0.00079555876488551, 1.9439085839125336e-05, 3.715553217103144e-05, -3.271415184376386e-05, -1.787296337258742e-06, 0.0003485492263127873, 5.6840052204897473e-05, -0.00035780947891219056, -1.145932800588633e-05, -0.09682351469041829, 0.003173599479690156, -0.0024407469058345555, -0.0004840434835470461, 0.00336249913399438, -0.15729425399289831, 0.0006050456581105284, -0.0014500905081815845, -1.870126262985528e-05, 0.00025375861182260173, -8.32958380646912e-06, 0.005208832041918543, 6.706304364911443e-06, -1.786762345453301e-05, -5.988961590971763e-07, 2.8623934554485994e-05, 1.3431830507499886e-05, 0.00020147575310806073, 1.8033640141405578e-06, -4.994410686966981e-06, 0.0005225435641853593, -2.3569335747209898e-05, 0.002039904885876207, -0.00041712122212529435, 5.412691905417573e-06, 0.0004375764081702854, 0.00047626143195608013, -0.005713443974213025, 5.950626610249296e-06, -0.0002541860523670215, 0.0001055297424819885, -4.4301633985592636e-05, -0.005656497671865003, 5.9332329407007775e-05, -0.00018330609846506512, 0.6141844745317177, 8.262139051364877e-05, 4.844322483068247e-05, -1.8781444560041935e-05, -2.5386825513441527e-05, -4.0130672989019124e-05, 0.0003481810686793545, -0.004442737486151753, -0.00024507792522741916, 7.653486386462223e-06, -0.00042167395572624295, 1.1478400386789296e-05, 0.0023738104780735], "scale": [238.27417713172204, 1929.7669813595455, 1.3475951441098866, 4.9746442137544005, 2.8240662861582497, 1.7329180221000564, 5011.190796000346, 9.623400619381812, 0.7703065474657396, 841.4849764931672, 8.28284233511746, 200.8005382687225, 13.973363326582698, 1878.2357793468932, 304020918.855084, 1.1976369516195147, 3.977608728955865, 6101106.625306113, 11.73617963181699, 1.2068847869736086, 638366286.2120825, 1881.141068108714, 730.3230570802035, 1.2176681725039065, 8.678771301320403, 592.1601781106464, 2.7973640163755675, 2.118218078284036, 3.7724945378172055, 0.1696726764555906, 11.755027968701482, 25.37585494580248, 7.674625597300401, 0.543664319034312, 0.4235973599444964, 5.3131816655420545, 6101106.645181805, 887.0601153654164, 233.22198261665196, 4.923794892770277, 2476.5963756571095, 21036873.461330827, 0.5532506452051402, 720.368414096746, 7.595329527219522, 591.2025205456359, 1.828008201640765, 143.33932827752028, 0.2206275929590759, 0.6287701388537806, 0.21719403031199278, 3.737708991950296, 0.42992406377658965, 0.3979341355844085, 0.42992406377658954, 0.66646472279015, 2.0300590195458823, 1.7374066601320535, 688.1632898444103, 0.5066134782096677, 7.473447370602289, 1.6100771955661388, 24.362502108964613, 623.2785034999596, 0.5893559489137365, 0.7608165262998224, 2.5825886301091328, 0.5457937966516953, 200.80334788715354, 0.6434928479912737, 24.586307597671478, 21036873.33102735, 22.71963640955836, 4.337194179849161, 40.20285830429307, 1.2603161809186687, 294.62281748766827, 1.3328099433111336, 688.1331106483699, 1.5608084364073767, 1.7106710466758084, 4.1406037639947915, 0.7871009719888403, 229.96953846920044], "bias": null, "scaled_weights": [-1.5500922155830047e-08, -7.767142906565981e-09, -0.00027867068144478045, 0.00013213335918315535, -0.00014900572578095347, 2.4888073984579337e-05, -3.8663024787329157e-10, 1.872709930868464e-06, 0.00031308059999721384, -4.302373009423022e-08, 4.182662296526301e-07, 9.542396427745219e-06, 3.036558078714174e-06, -8.483436251878941e-07, -1.2703662562559653e-10, 6.656674735307407e-05, -7.946764891095879e-06, -1.8890718447870464e-12, -6.809304101927038e-06, -1.0793275543673915e-05, 6.339644031126262e-11, 6.927869524237829e-07, 2.0575276524851806e-06, -1.0391086042588107e-06, 1.2463108933421525e-06, -6.816593164592236e-08, 0.00011128996472517047, -0.00037557925363850664, 5.1528466494143534e-06, 0.0002189835920974369, -2.7829922592160047e-06, -7.043295057746954e-08, 4.541579545396869e-05, 0.00010454990370870773, -0.0008446924196106276, -2.1567732344264277e-06, -1.58698282658085e-08, 3.5776599857415757e-06, -1.046533812314949e-05, -9.830699573976536e-05, 1.357709785512472e-06, -7.47707373351038e-09, 0.0010936194351588747, -2.0129845781756283e-06, -2.4622055649903304e-06, 4.292245093752331e-07, -4.556644657826336e-06, 3.6339168771836905e-05, 3.0396489736237984e-05, -2.8416781189871505e-05, -2.7574245859192342e-06, 7.658149582038577e-06, 3.124233240054166e-05, 0.0005063042727213443, 4.194610551219756e-06, -7.493886047048245e-06, 0.0002574031390980202, -1.3565814088348484e-05, 2.9642744912147487e-06, -0.0008233520031866661, 7.242563755394937e-07, 0.00027177355804758406, 1.954895395497293e-05, -9.166759229028015e-06, 1.009682963448e-05, -0.0003340963866850231, 4.08620022761926e-05, -8.116917828192951e-05, -2.8169339462625958e-05, 9.220355687280672e-05, -7.4556172266560955e-06, 2.9195615948585622e-08, 3.6365630604409318e-06, 1.1169254320166784e-05, -4.671668968879348e-07, -2.014321953316237e-05, -1.3621033608742415e-07, 0.0002612383486683476, -6.456218160997566e-06, -0.00015701986195790457, 4.473967336580898e-06, -0.00010183876066407724, 1.4583135830445957e-05, 1.0322282219962022e-05], "columns": ["tango_variance", "rth_mean_2v", "rth_mean_2_penalty_removed", "rth_sum_2_penalty_removed", "rc_sum_2_penalty_removed", "ge_distances_mean", "rth_sum_2v", "rth_wmean_2v", "rc_mean_2_penalty_removed", "tango_v_variance", "rth_mean_2", "rc_mean_1v_penalty_removed", "rth_mean_1v", "rth_sum_2v_penalty_removed", "rc_mean_2v", "rth_mean_1", "rth_sum_1", "rc_mean_2v_penalty_removed", "rc_sum_1", "rc_cap_wmean_2v", "rc_sum_2v", "rth_cap_sum_2v", "rc_sum_2", "rc_wmean_2v_penalty_removed", "ge_distances_sum", "rth_cap_mean_2v", "rc_cap_sum_2", "rth_sum_1_penalty_removed", "c_penalty_ell_mean_1", "rc_cap_norm_2", "c_penalty_ell_sum_1", "rth_sum_2", "rth_cap_mean_1v", "rc_cap_wmean_1v", "rc_mean_1_penalty_removed", "distances_mean", "rc_cap_mean_2v", "rc_mean_1v", "rc_mean_2", "rth_cap_sum_2", "rc_sum_1v", "rc_cap_sum_2v", "rth_mean_1_penalty_removed", "c_penalty_ell_sum_2", "rth_mean_1v_penalty_removed", "rth_mean_2v_penalty_removed", "rth_wmean_2v_penalty_removed", "rc_cap_norm_2v", "c_penalty_mean_1", "rth_norm_2", "rth_cap_norm_2", "rc_mean_1", "first_is_not_largest", "rc_cap_mean_1", "first_is_not_closest", "c_penalty_sum_1", "rth_cap_sum_1", "rth_cap_wmean_2v", "rc_cap_sum_1v", "rth_cap_mean_1", "rth_norm_2v", "rc_sum_1_penalty_removed", "rth_sum_1v_penalty_removed", "rc_norm_2v", "rth_cap_wmean_1v", "rc_cap_mean_2", "rc_norm_2", "rc_wmean_1v_penalty_removed", "rc_cap_mean_1v", "rth_wmean_1v_penalty_removed", "rth_cap_sum_1v", "rc_sum_2v_penalty_removed", "distances_sum", "rc_wmean_1v", "rth_sum_1v", "rth_wmean_1v", "rc_wmean_2v", "rth_cap_mean_2", "rc_sum_1v_penalty_removed", "rc_cap_sum_1", "tango_v_sigma", "rth_cap_norm_2v", "tango_sigma", "c_penalty_ell_mean_2"]}