{"model": "linear", "weights": [-2.636182004220838e-11, -0.5907762000800044, 3.7748644432913845, 4.200037509054867e-11, -0.2097597002486192, 1.866958816876857, 3.15810061459393e-10, 0.5691207548390473, -2.8221575451243157, -0.9737816268166856, 4.0188797381284984e-10, 8.74051901839311e-11, 2.7146968868814167, -3.663264904345042e-10, -3.4314038031624107e-12, 2.6514423027520677, 2.225077963326127e-10, 9.398647206010591e-11, -1.2742848820782209e-09, -0.2063239137606319, -3.7430266596754635e-12, 3.5198458077151304e-11, -7.820715560454569e-11, -0.23238761367351823, 0.3805093090824741, 2.036291825415923, -1.7242894648149368e-10, -4.623956685189397, 7.631818783539872e-10, 1.2219202513202883, -1.2714541032040008, 0.22017995972063079, 1.0385232697011747e-09, 2.0926658389294786, -1.4909983511969704e-10, 4.117516027608393e-10, 9.395834254095742e-11, 4.36454413564623, -16.772172987957664, 0.35506340220936294, 4.2690458729964063e-10, 1.0695241969508112e-10, 4.5826360123185585, 0.7110878922922861, 4.265461876014643, 4.324533048806446e-11, -2.1370915188776944e-09, 8.152913839647101e-11, 2.051531033313544e-10, -0.9574372185385243, 2.4132316171846903e-10, 4.804097539510541e-10, 0.6132516894888342, -0.9497389911988723, 0.1055382544044865, 2.8061742704809433e-09, 7.847813463841707e-09, -1.083381912060433, 1.0208363079438242e-10, -2.7609107948994884, -0.9740302520752854, -0.1024110739609176, 2.0201599648458604e-10, 1.1207372379988972e-09, 1.49626694673929e-10, -0.5346744695775086, 2.6419574807076347, -1.9721391699347803, 7.00648370133792e-11, 2.829448030366505, 4.562956433808474, 1.0696583240036434e-10, 2.180349133721171, 2.6513327473116868, 1.1517177018931155e-09, -1.0139961449938237, -1.1752657301161251, 5.167991781693646e-11, 1.0490713873202003e-10, 1.9185334786291417, 0.3795154517053488, -5.756905406805364, 0.489774392775297, 15.066972943841414], "scale": [238.27417713172204, 1929.7669813595455, 1.3475951441098866, 4.9746442137544005, 2.8240662861582497, 1.7329180221000564, 5011.190796000346, 9.623400619381812, 0.7703065474657396, 841.4849764931672, 8.28284233511746, 200.8005382687225, 13.973363326582698, 1878.2357793468932, 304020918.855084, 1.1976369516195147, 3.977608728955865, 6101106.625306113, 11.73617963181699, 1.2068847869736086, 638366286.2120825, 1881.141068108714, 730.3230570802035, 1.2176681725039065, 8.678771301320403, 592.1601781106464, 2.7973640163755675, 2.118218078284036, 3.7724945378172055, 0.1696726764555906, 11.755027968701482, 25.37585494580248, 7.674625597300401, 0.543664319034312, 0.4235973599444964, 5.3131816655420545, 6101106.645181805, 887.0601153654164, 233.22198261665196, 4.923794892770277, 2476.5963756571095, 21036873.461330827, 0.5532506452051402, 720.368414096746, 7.595329527219522, 591.2025205456359, 1.828008201640765, 143.33932827752028, 0.2206275929590759, 0.6287701388537806, 0.21719403031199278, 3.737708991950296, 0.42992406377658965, 0.3979341355844085, 0.42992406377658954, 0.66646472279015, 2.0300590195458823, 1.7374066601320535, 688.1632898444103, 0.5066134782096677, 7.473447370602289, 1.6100771955661388, 24.362502108964613, 623.2785034999596, 0.5893559489137365, 0.7608165262998224, 2.5825886301091328, 0.5457937966516953, 200.80334788715354, 0.6434928479912737, 24.586307597671478, 21036873.33102735, 22.71963640955836, 4.337194179849161, 40.20285830429307, 1.2603161809186687, 294.62281748766827, 1.3328099433111336, 688.1331106483699, 1.5608084364073767, 1.7106710466758084, 4.1406037639947915, 0.7871009719888403, 229.96953846920044], "bias": null, "scaled_weights": [-1.106364959877088e-13, -0.00030613861973314264, 2.8011858456085172, 8.442890242164811e-12, -0.07427577081909369, 1.0773497609623575, 6.302096134744162e-14, 0.05913925620978736, -3.663681107747348, -0.0011572180775880942, 4.852053891077122e-11, 4.3528364484242864e-13, 0.19427655485898815, -1.9503754239091566e-13, -1.1286735847272533e-20, 2.213894869531733, 5.594009152102341e-11, 1.5404823720055917e-17, -1.085774862054439e-10, -0.1709557664389912, -5.863446645789701e-21, 1.871122728320401e-14, -1.0708569974117227e-13, -0.19084642180936423, 0.04384368430408839, 0.00343875171058098, -6.16397957048518e-11, -2.1829464740170925, 2.023016523161277e-10, 7.201632442216519, -0.10816257575816315, 0.008676750406671584, 1.3531907928726607e-10, 3.849187385787231, -3.519848073161586e-10, 7.749624023420854e-11, 1.5400213109724716e-17, 0.004920234897325189, -0.07191506049207275, 0.07211173697156045, 1.7237551968328754e-13, 5.0840453973199465e-18, 8.283110109377928, 0.0009871169784476232, 0.5615901009598635, 7.314808206188335e-14, -1.169082018865947e-09, 5.687841527945622e-13, 9.298614945656781e-10, -1.5227141993159674, 1.1110948186366609e-09, 1.285305396930812e-10, 1.4264186193762602, -2.386673839388219, 0.24548115189786063, 4.210536843920131e-09, 3.865805569336224e-09, -0.623562656297225, 1.4834216282804468e-13, -5.449738140912339, -0.13033212168011665, -0.06360631294135409, 8.292087388275717e-12, 1.7981323464639108e-12, 2.5388170756520134e-10, -0.7027640056372858, 1.0229881173897963, -3.6133411226608794, 3.4892265368381155e-13, 4.397015505609589, 0.18558933323687138, 5.084683009551619e-18, 0.09596760680570919, 0.6113013707410018, 2.8647657168448867e-11, -0.8045569519346347, -0.003989051968676245, 3.8775159261302276e-11, 1.524518107160617e-13, 1.2291921506044432, 0.22185180046323147, -1.3903540968747972, 0.6222510328474619, 0.06551725521621342], "columns": ["tango_variance", "rth_mean_2v", "rth_mean_2_penalty_removed", "rth_sum_2_penalty_removed", "rc_sum_2_penalty_removed", "ge_distances_mean", "rth_sum_2v", "rth_wmean_2v", "rc_mean_2_penalty_removed", "tango_v_variance", "rth_mean_2", "rc_mean_1v_penalty_removed", "rth_mean_1v", "rth_sum_2v_penalty_removed", "rc_mean_2v", "rth_mean_1", "rth_sum_1", "rc_mean_2v_penalty_removed", "rc_sum_1", "rc_cap_wmean_2v", "rc_sum_2v", "rth_cap_sum_2v", "rc_sum_2", "rc_wmean_2v_penalty_removed", "ge_distances_sum", "rth_cap_mean_2v", "rc_cap_sum_2", "rth_sum_1_penalty_removed", "c_penalty_ell_mean_1", "rc_cap_norm_2", "c_penalty_ell_sum_1", "rth_sum_2", "rth_cap_mean_1v", "rc_cap_wmean_1v", "rc_mean_1_penalty_removed", "distances_mean", "rc_cap_mean_2v", "rc_mean_1v", "rc_mean_2", "rth_cap_sum_2", "rc_sum_1v", "rc_cap_sum_2v", "rth_mean_1_penalty_removed", "c_penalty_ell_sum_2", "rth_mean_1v_penalty_removed", "rth_mean_2v_penalty_removed", "rth_wmean_2v_penalty_removed", "rc_cap_norm_2v", "c_penalty_mean_1", "rth_norm_2", "rth_cap_norm_2", "rc_mean_1", "first_is_not_largest", "rc_cap_mean_1", "first_is_not_closest", "c_penalty_sum_1", "rth_cap_sum_1", "rth_cap_wmean_2v", "rc_cap_sum_1v", "rth_cap_mean_1", "rth_norm_2v", "rc_sum_1_penalty_removed", "rth_sum_1v_penalty_removed", "rc_norm_2v", "rth_cap_wmean_1v", "rc_cap_mean_2", "rc_norm_2", "rc_wmean_1v_penalty_removed", "rc_cap_mean_1v", "rth_wmean_1v_penalty_removed", "rth_cap_sum_1v", "rc_sum_2v_penalty_removed", "distances_sum", "rc_wmean_1v", "rth_sum_1v", "rth_wmean_1v", "rc_wmean_2v", "rth_cap_mean_2", "rc_sum_1v_penalty_removed", "rc_cap_sum_1", "tango_v_sigma", "rth_cap_norm_2v", "tango_sigma", "c_penalty_ell_mean_2"]}