{"learner": {"attributes": {}, "feature_names": ["distances_mean", "rc_sum_2v_penalty_removed", "rc_cap_mean_2v", "rth_mean_1v_tango", "rc_mean_1", "rth_mean_1v", "tango_sigma", "rth_sum_1v", "c_penalty_ell_mean_1", "rc_cap_sum_1v_tango", "rth_cap_sum_1", "rc_mean_2v_penalty_removed", "rth_sum_1v_penalty_removed", "rth_cap_norm_2_tango", "rc_mean_2v_penalty_removed_tango", "rc_norm_2v", "rc_mean_1_tango", "distances_sum", "rc_cap_wmean_2v", "rth_cap_norm_2v", "rth_cap_sum_2_tango", "rc_cap_mean_1", "rth_mean_1_penalty_removed", "rc_sum_1v_penalty_removed", "rc_wmean_2v_penalty_removed", "rc_mean_2v", "rc_cap_sum_1v", "rc_wmean_1v_tango", "rc_sum_1v_tango", "c_penalty_mean_1", "rc_wmean_2v_penalty_removed_tango", "rth_sum_2_penalty_removed_tango", "rth_wmean_2v_penalty_removed_tango", "rc_sum_2_penalty_removed_tango", "rc_cap_norm_2", "rth_cap_mean_2v", "rth_cap_sum_1v_tango", "rc_cap_sum_2v", "rc_sum_1", "rth_cap_sum_2v_tango", "c_penalty_ell_sum_1", "rth_mean_2v_tango", "rc_cap_norm_2_tango", "rc_cap_wmean_2v_tango", "rth_wmean_1v_tango", "first_is_not_closest", "rc_cap_sum_1", "first_is_not_largest", "tango_variance", "rc_cap_mean_2", "rc_mean_2_tango", "rth_cap_mean_1_tango", "rth_cap_mean_2v_tango", "rc_mean_2", "rc_cap_mean_1v", "rth_sum_2v_tango", "rth_cap_sum_2", "rc_wmean_1v_penalty_removed_tango", "rth_cap_wmean_2v_tango", "rth_cap_mean_2_tango", "ge_distances_mean", "rth_sum_2_tango", "rth_mean_1", "rth_cap_mean_1v_tango", "rth_mean_1_penalty_removed_tango", "rth_sum_1v_tango", "rth_norm_2v_tango", "rth_sum_2v", "rth_norm_2_tango", "rth_mean_2_penalty_removed_tango", "rth_cap_sum_2v", "rth_cap_wmean_1v_tango", "rth_norm_2v", "rc_mean_1_penalty_removed", "rth_sum_2_penalty_removed", "rth_mean_1v_penalty_removed", "c_penalty_ell_mean_2", "rc_wmean_2v_tango", "rc_cap_wmean_1v_tango", "rc_cap_sum_2_tango", "rc_wmean_1v_penalty_removed", "rc_cap_sum_2", "rc_norm_2_tango", "rc_sum_1_penalty_removed_tango", "rc_cap_sum_2v_tango", "rth_norm_2", "rth_cap_mean_1v", "rc_cap_norm_2v_tango", "rth_sum_1v_penalty_removed_tango", "rc_norm_2v_tango", "rc_mean_2_penalty_removed", "rc_mean_1v_penalty_removed_tango", "rth_cap_sum_1_tango", "rc_norm_2", "rth_sum_1_tango", "rth_wmean_2v_tango", "rc_sum_1_penalty_removed", "rth_mean_2", "rth_sum_2v_penalty_removed_tango", "rc_cap_wmean_1v", "rth_sum_1", "rth_sum_1_penalty_removed", "rc_sum_2v_tango", "rth_mean_2v_penalty_removed", "rc_sum_2_tango", "tango_v_variance", "rth_mean_2_tango", "rc_sum_1_tango", "rc_wmean_1v", "rc_cap_sum_1_tango", "rth_cap_mean_2", "rc_sum_2v_penalty_removed_tango", "rc_cap_mean_2_tango", "rc_cap_mean_2v_tango", "rc_sum_2_penalty_removed", "rth_cap_sum_1v", "rth_mean_2v", "rc_sum_1v", "rth_cap_norm_2", "rth_cap_norm_2v_tango", "rth_sum_2", "ge_distances_sum", "c_penalty_ell_sum_2", "rth_cap_mean_1", "rth_wmean_1v_penalty_removed", "rc_mean_1_penalty_removed_tango", "rc_mean_1v_tango", "rth_cap_wmean_1v", "rth_mean_1v_penalty_removed_tango", "rth_cap_wmean_2v", "rc_mean_1v_penalty_removed", "rth_sum_2v_penalty_removed", "rc_cap_mean_1_tango", "rth_mean_2_penalty_removed", "rth_mean_1_tango", "c_penalty_sum_1", "rc_mean_2_penalty_removed_tango", "rc_sum_2v", "rth_wmean_1v_penalty_removed_tango", "rc_cap_norm_2v", "rc_sum_2", "rth_wmean_2v", "rc_cap_mean_1v_tango", "rc_sum_1v_penalty_removed_tango", "rth_sum_1_penalty_removed_tango", "rth_mean_2v_penalty_removed_tango", "rc_mean_1v", "tango_v_sigma", "rc_wmean_2v", "rth_wmean_2v_penalty_removed", "rc_mean_2v_tango", "rth_wmean_1v"], "feature_types": ["float", "float", "float", "float", "float", "float", "float", "float", "float", "float", "float", "float", "float", "float", "float", "float", "float", "float", "float", "float", "float", "float", "float", "float", "float", "float", "float", "float", "float", "float", "float", "float", "float", "float", "float", "float", "float", "float", "float", "float", "float", "float", "float", "float", "float", "float", "float", "float", "float", "float", "float", "float", "float", "float", "float", "float", "float", "float", "float", "float", "float", "float", "float", "float", "float", "float", "float", "float", "float", "float", "float", "float", "float", "float", "float", "float", "float", "float", "float", "float", "float", "float", "float", "float", "float", "float", "float", "float", "float", "float", "float", "float", "float", "float", "float", "float", "float", "float", "float", "float", "float", "float", "float", "float", "float", "float", "float", "float", "float", "float", "float", "float", "float", "float", "float", "float", "float", "float", "float", "float", "float", "float", "float", "float", "float", "float", "float", "float", "float", "float", "float", "float", "float", "float", "float", "float", "float", "float", "float", "float", "float", "float", "float", "float", "float", "float", "float", "float", "float", "float", "float", "float"], "gradient_booster": {"model": {"gbtree_model_param": {"num_parallel_tree": "1", "num_trees": "100"}, "iteration_indptr": [0, 1, 2, 3, 4, 5, 6, 7, 8, 9, 10, 11, 12, 13, 14, 15, 16, 17, 18, 19, 20, 21, 22, 23, 24, 25, 26, 27, 28, 29, 30, 31, 32, 33, 34, 35, 36, 37, 38, 39, 40, 41, 42, 43, 44, 45, 46, 47, 48, 49, 50, 51, 52, 53, 54, 55, 56, 57, 58, 59, 60, 61, 62, 63, 64, 65, 66, 67, 68, 69, 70, 71, 72, 73, 74, 75, 76, 77, 78, 79, 80, 81, 82, 83, 84, 85, 86, 87, 88, 89, 90, 91, 92, 93, 94, 95, 96, 97, 98, 99, 100], "tree_info": [0, 0, 0, 0, 0, 0, 0, 0, 0, 0, 0, 0, 0, 0, 0, 0, 0, 0, 0, 0, 0, 0, 0, 0, 0, 0, 0, 0, 0, 0, 0, 0, 0, 0, 0, 0, 0, 0, 0, 0, 0, 0, 0, 0, 0, 0, 0, 0, 0, 0, 0, 0, 0, 0, 0, 0, 0, 0, 0, 0, 0, 0, 0, 0, 0, 0, 0, 0, 0, 0, 0, 0, 0, 0, 0, 0, 0, 0, 0, 0, 0, 0, 0, 0, 0, 0, 0, 0, 0, 0, 0, 0, 0, 0, 0, 0, 0, 0, 0, 0], "trees": [{"base_weights": [-0.0, -0.59845805, 0.77538663, -0.7361587, 0.310159, -0.46315238, 0.87859064, -0.835721, -0.34409672, -0.7138831, 0.7193466, 0.22471298, -0.667502, 0.27895153, 0.91526985, -0.8703142, -0.4328886, -0.5807669, -0.054250777, -0.8194074, -0.33671576, 0.32586473, 0.82123274, -0.69889736, 0.644164, -0.8441681, -0.16470969, 0.12720746, 0.880353, 0.4184357, 0.9424256, -0.27299187, -0.21064955, -0.2092513, -0.07557635, -0.21322134, -0.027008293, -0.1311056, 0.047255576, -0.09072628, -0.25791082, 0.05492218, -0.14311229, -0.027151937, 0.14138496, 0.10808562, 0.26398265, -0.2229991, -0.0, 0.24486507, -0.0, -0.27294523, -0.13570698, -0.09772756, 0.08754117, -0.026563657, 0.19981046, -0.0, 0.2728527, -0.06223982, 0.15542297, 0.1397499, 0.28719616], "categories": [], "categories_nodes": [], "categories_segments": [], "categories_sizes": [], "default_left": [0, 0, 0, 0, 0, 0, 0, 0, 0, 0, 0, 0, 0, 0, 0, 0, 0, 0, 0, 0, 0, 0, 0, 0, 0, 0, 0, 0, 0, 0, 0, 0, 0, 0, 0, 0, 0, 0, 0, 0, 0, 0, 0, 0, 0, 0, 0, 0, 0, 0, 0, 0, 0, 0, 0, 0, 0, 0, 0, 0, 0, 0, 0], "id": 0, "left_children": [1, 3, 5, 7, 9, 11, 13, 15, 17, 19, 21, 23, 25, 27, 29, 31, 33, 35, 37, 39, 41, 43, 45, 47, 49, 51, 53, 55, 57, 59, 61, -1, -1, -1, -1, -1, -1, -1, -1, -1, -1, -1, -1, -1, -1, -1, -1, -1, -1, -1, -1, -1, -1, -1, -1, -1, -1, -1, -1, -1, -1, -1, -1], "loss_changes": [38230.953, 5822.3125, 4591.949, 1564.498, 2561.085, 391.65088, 716.6094, 435.15234, 556.22894, 57.340515, 163.59814, 240.188, 179.36847, 165.68826, 407.07812, 180.75586, 113.42108, 278.68164, 303.32513, 15.965515, 32.37757, 59.638382, 80.72974, 9.336899, 47.26306, 26.20935, 42.410744, 186.41815, 12.012878, 105.38913, 195.25195, 0.0, 0.0, 0.0, 0.0, 0.0, 0.0, 0.0, 0.0, 0.0, 0.0, 0.0, 0.0, 0.0, 0.0, 0.0, 0.0, 0.0, 0.0, 0.0, 0.0, 0.0, 0.0, 0.0, 0.0, 0.0, 0.0, 0.0, 0.0, 0.0, 0.0, 0.0, 0.0], "parents": [2147483647, 0, 0, 1, 1, 2, 2, 3, 3, 4, 4, 5, 5, 6, 6, 7, 7, 8, 8, 9, 9, 10, 10, 11, 11, 12, 12, 13, 13, 14, 14, 15, 15, 16, 16, 17, 17, 18, 18, 19, 19, 20, 20, 21, 21, 22, 22, 23, 23, 24, 24, 25, 25, 26, 26, 27, 27, 28, 28, 29, 29, 30, 30], "right_children": [2, 4, 6, 8, 10, 12, 14, 16, 18, 20, 22, 24, 26, 28, 30, 32, 34, 36, 38, 40, 42, 44, 46, 48, 50, 52, 54, 56, 58, 60, 62, -1, -1, -1, -1, -1, -1, -1, -1, -1, -1, -1, -1, -1, -1, -1, -1, -1, -1, -1, -1, -1, -1, -1, -1, -1, -1, -1, -1, -1, -1, -1, -1], "split_conditions": [0.6413704, 1.5771002, 0.56429255, 0.3615266, 1.896209, 0.34629223, 0.4276749, 3.1907814, 0.6661581, 1.4178438, 2.8734856, 0.7786622, 1.0314442, 1.8369497, 0.82104206, 0.33376485, 0.7575331, 1.0, 0.51952505, 27.22694, 1.9406312, 4.150071, 5.8169622, 0.32089138, 0.37291992, 1.0, 2.648879, 1.0, 1.0557116, 0.60121614, 1.2590914, -0.27299187, -0.21064955, -0.2092513, -0.07557635, -0.21322134, -0.027008293, -0.1311056, 0.047255576, -0.09072628, -0.25791082, 0.05492218, -0.14311229, -0.027151937, 0.14138496, 0.10808562, 0.26398265, -0.2229991, -0.0, 0.24486507, -0.0, -0.27294523, -0.13570698, -0.09772756, 0.08754117, -0.026563657, 0.19981046, -0.0, 0.2728527, -0.06223982, 0.15542297, 0.1397499, 0.28719616], "split_indices": [124, 76, 13, 124, 59, 148, 103, 62, 13, 59, 59, 44, 44, 40, 97, 75, 13, 47, 86, 17, 60, 38, 122, 42, 6, 47, 101, 47, 44, 123, 44, 0, 0, 0, 0, 0, 0, 0, 0, 0, 0, 0, 0, 0, 0, 0, 0, 0, 0, 0, 0, 0, 0, 0, 0, 0, 0, 0, 0, 0, 0, 0, 0], "split_type": [0, 0, 0, 0, 0, 0, 0, 0, 0, 0, 0, 0, 0, 0, 0, 0, 0, 0, 0, 0, 0, 0, 0, 0, 0, 0, 0, 0, 0, 0, 0, 0, 0, 0, 0, 0, 0, 0, 0, 0, 0, 0, 0, 0, 0, 0, 0, 0, 0, 0, 0, 0, 0, 0, 0, 0, 0, 0, 0, 0, 0, 0, 0], "sum_hessian": [82385.836, 46498.016, 35887.82, 40388.367, 6109.651, 2752.6936, 33135.13, 32187.793, 8200.571, 1737.1176, 4372.533, 619.23584, 2133.4578, 1926.2144, 31208.914, 29618.336, 2569.458, 4494.8506, 3705.721, 1335.7218, 401.39572, 920.3835, 3452.1497, 185.73958, 433.49625, 1563.5167, 569.9409, 1552.3649, 373.84943, 1637.337, 29571.576, 23914.191, 5704.1445, 1019.9482, 1549.5099, 3537.2065, 957.6443, 1336.3887, 2369.332, 115.14115, 1220.5807, 70.11382, 331.28192, 220.53741, 699.84607, 410.06442, 3042.0852, 180.98009, 4.759505, 340.56808, 92.92816, 1316.1477, 247.36905, 437.7153, 132.22562, 1095.8501, 456.51474, 9.125552, 364.72388, 210.92883, 1426.4082, 917.51135, 28654.064], "tree_param": {"num_deleted": "0", "num_feature": "152", "num_nodes": "63", "size_leaf_vector": "1"}}, {"base_weights": [-0.0, -0.50748366, 0.3176335, -0.6681689, -0.28863302, -0.30783966, 0.47290498, -0.7223923, -0.5104794, -0.37623557, 0.008723945, -0.55191845, -0.1057219, 0.16122657, 0.68645793, -0.74706197, -0.48978406, -0.38901165, -0.66491044, -0.5769588, -0.31307128, -0.34843132, 0.1177459, 0.19833687, -0.62207747, -0.20357728, 0.3664325, -0.034365337, 0.4262254, 0.45759398, 0.75783414, -0.23092002, -0.20030636, -0.16652092, -0.08376013, -0.13394578, -0.065605484, -0.21283412, -0.11604907, -0.13508137, -0.23679958, -0.07561701, -0.19646254, -0.01651471, -0.12941532, -0.15272234, 0.060331136, -0.1598748, 0.1984067, -0.08318879, -0.20187227, -0.03992025, -0.2095215, -0.032418594, 0.1587146, -0.08134791, 0.042349543, 0.04554924, 0.17979594, 0.10159742, 0.18103656, 0.16601649, 0.23233077], "categories": [], "categories_nodes": [], "categories_segments": [], "categories_sizes": [], "default_left": [0, 0, 0, 0, 0, 0, 0, 0, 0, 0, 0, 0, 0, 0, 0, 0, 0, 0, 0, 0, 0, 0, 0, 0, 0, 0, 0, 0, 0, 0, 0, 0, 0, 0, 0, 0, 0, 0, 0, 0, 0, 0, 0, 0, 0, 0, 0, 0, 0, 0, 0, 0, 0, 0, 0, 0, 0, 0, 0, 0, 0, 0, 0], "id": 1, "left_children": [1, 3, 5, 7, 9, 11, 13, 15, 17, 19, 21, 23, 25, 27, 29, 31, 33, 35, 37, 39, 41, 43, 45, 47, 49, 51, 53, 55, 57, 59, 61, -1, -1, -1, -1, -1, -1, -1, -1, -1, -1, -1, -1, -1, -1, -1, -1, -1, -1, -1, -1, -1, -1, -1, -1, -1, -1, -1, -1, -1, -1, -1, -1], "loss_changes": [21475.385, 1793.7842, 7959.713, 239.93555, 570.02625, 796.6897, 4361.584, 113.143555, 131.9674, 204.1709, 189.4072, 391.43262, 411.09473, 1388.6685, 623.64453, 20.729492, 20.994629, 35.33203, 29.794067, 94.51721, 258.41797, 22.612854, 195.23676, 210.68614, 108.381836, 250.34387, 121.24753, 639.36194, 532.28, 151.60315, 86.92969, 0.0, 0.0, 0.0, 0.0, 0.0, 0.0, 0.0, 0.0, 0.0, 0.0, 0.0, 0.0, 0.0, 0.0, 0.0, 0.0, 0.0, 0.0, 0.0, 0.0, 0.0, 0.0, 0.0, 0.0, 0.0, 0.0, 0.0, 0.0, 0.0, 0.0, 0.0, 0.0], "parents": [2147483647, 0, 0, 1, 1, 2, 2, 3, 3, 4, 4, 5, 5, 6, 6, 7, 7, 8, 8, 9, 9, 10, 10, 11, 11, 12, 12, 13, 13, 14, 14, 15, 15, 16, 16, 17, 17, 18, 18, 19, 19, 20, 20, 21, 21, 22, 22, 23, 23, 24, 24, 25, 25, 26, 26, 27, 27, 28, 28, 29, 29, 30, 30], "right_children": [2, 4, 6, 8, 10, 12, 14, 16, 18, 20, 22, 24, 26, 28, 30, 32, 34, 36, 38, 40, 42, 44, 46, 48, 50, 52, 54, 56, 58, 60, 62, -1, -1, -1, -1, -1, -1, -1, -1, -1, -1, -1, -1, -1, -1, -1, -1, -1, -1, -1, -1, -1, -1, -1, -1, -1, -1, -1, -1, -1, -1, -1, -1], "split_conditions": [0.27758792, 0.19542246, 0.59677696, 0.11494938, 1.0, 0.45149654, 0.7037098, 0.23046379, 36.916176, 8.064375, 0.22570258, 0.2367504, 1.0, 0.7979991, 1.9020512, 0.08273864, 2.1402202, 0.014360425, 0.13763785, 32.271824, 48.28444, 0.050529644, 0.39286256, 0.20785226, 4.309419, 4.108353, 0.07466106, 0.12261986, 6.3218474, 0.83489376, 2.2287908, -0.23092002, -0.20030636, -0.16652092, -0.08376013, -0.13394578, -0.065605484, -0.21283412, -0.11604907, -0.13508137, -0.23679958, -0.07561701, -0.19646254, -0.01651471, -0.12941532, -0.15272234, 0.060331136, -0.1598748, 0.1984067, -0.08318879, -0.20187227, -0.03992025, -0.2095215, -0.032418594, 0.1587146, -0.08134791, 0.042349543, 0.04554924, 0.17979594, 0.10159742, 0.18103656, 0.16601649, 0.23233077], "split_indices": [85, 151, 13, 72, 47, 13, 75, 105, 17, 0, 5, 53, 47, 122, 74, 72, 105, 105, 34, 17, 17, 114, 44, 16, 121, 92, 103, 131, 20, 4, 32, 0, 0, 0, 0, 0, 0, 0, 0, 0, 0, 0, 0, 0, 0, 0, 0, 0, 0, 0, 0, 0, 0, 0, 0, 0, 0, 0, 0, 0, 0, 0, 0], "split_type": [0, 0, 0, 0, 0, 0, 0, 0, 0, 0, 0, 0, 0, 0, 0, 0, 0, 0, 0, 0, 0, 0, 0, 0, 0, 0, 0, 0, 0, 0, 0, 0, 0, 0, 0, 0, 0, 0, 0, 0, 0, 0, 0, 0, 0, 0, 0, 0, 0, 0, 0, 0, 0, 0, 0, 0, 0, 0, 0, 0, 0, 0, 0], "sum_hessian": [133225.11, 51285.53, 81939.58, 29545.09, 21740.44, 16282.823, 65656.76, 21935.355, 7609.733, 16818.893, 4921.549, 7352.5845, 8930.238, 26715.025, 38941.73, 19791.17, 2144.1865, 4297.672, 3312.061, 3985.9395, 12832.952, 1129.0072, 3792.5415, 616.4226, 6736.162, 7415.171, 1515.0675, 15349.16, 11365.865, 9292.702, 29649.03, 15289.406, 4501.763, 1599.2574, 544.929, 3168.2578, 1129.414, 2822.5044, 489.55673, 2528.0696, 1457.8699, 10915.454, 1917.4985, 275.79825, 853.209, 430.4729, 3362.0686, 230.55504, 385.86758, 891.60016, 5844.562, 6509.1387, 906.0325, 371.09576, 1143.9717, 6558.2993, 8790.861, 4419.5327, 6946.3325, 5158.4, 4134.3027, 2274.603, 27374.426], "tree_param": {"num_deleted": "0", "num_feature": "152", "num_nodes": "63", "size_leaf_vector": "1"}}, {"base_weights": [-0.0, -0.26791698, 0.53323156, -0.5313933, -0.0874183, -0.28964788, 0.597802, -0.24552414, -0.5826006, -0.28365603, 0.038041446, 0.33097687, -0.43812868, 0.40343106, 0.6622063, -0.35483244, 0.0364396, -0.6482237, -0.47740036, 0.1042083, -0.33959144, -0.06315254, 0.5197314, -0.14477041, 0.6968376, -0.48648122, -0.0, 0.4326838, -0.112894505, 0.3542458, 0.67936057, -0.12735261, -0.007145736, 0.06807618, -0.08312423, -0.19468431, -0.0, -0.079470925, -0.16048358, -0.12500165, 0.09523394, -0.13883749, -0.05635004, -0.09804895, 0.014382141, 0.099271655, 0.19008623, -0.09207353, 0.09934584, 0.21539505, -0.0, -0.043019444, -0.1716176, -0.07382436, 0.13282016, 0.07509133, 0.15243292, -0.19258684, 0.08083035, 0.18517253, -0.022757243, 0.12341314, 0.20750932], "categories": [], "categories_nodes": [], "categories_segments": [], "categories_sizes": [], "default_left": [0, 0, 0, 0, 0, 0, 0, 0, 0, 0, 0, 0, 0, 0, 0, 0, 0, 0, 0, 0, 0, 0, 0, 0, 0, 0, 0, 0, 0, 0, 0, 0, 0, 0, 0, 0, 0, 0, 0, 0, 0, 0, 0, 0, 0, 0, 0, 0, 0, 0, 0, 0, 0, 0, 0, 0, 0, 0, 0, 0, 0, 0, 0], "id": 2, "left_children": [1, 3, 5, 7, 9, 11, 13, 15, 17, 19, 21, 23, 25, 27, 29, 31, 33, 35, 37, 39, 41, 43, 45, 47, 49, 51, 53, 55, 57, 59, 61, -1, -1, -1, -1, -1, -1, -1, -1, -1, -1, -1, -1, -1, -1, -1, -1, -1, -1, -1, -1, -1, -1, -1, -1, -1, -1, -1, -1, -1, -1, -1, -1], "loss_changes": [15766.061, 3486.982, 1964.1943, 428.38672, 1076.2489, 247.68803, 417.6045, 143.88, 162.93066, 372.08862, 1299.9661, 93.33358, 44.376953, 132.55042, 125.04492, 71.96301, 74.24222, 6.4833984, 111.35791, 235.27515, 272.27612, 645.63135, 89.73364, 15.91077, 6.8796997, 49.98587, 23.826233, 103.99475, 93.19931, 162.39778, 68.97754, 0.0, 0.0, 0.0, 0.0, 0.0, 0.0, 0.0, 0.0, 0.0, 0.0, 0.0, 0.0, 0.0, 0.0, 0.0, 0.0, 0.0, 0.0, 0.0, 0.0, 0.0, 0.0, 0.0, 0.0, 0.0, 0.0, 0.0, 0.0, 0.0, 0.0, 0.0, 0.0], "parents": [2147483647, 0, 0, 1, 1, 2, 2, 3, 3, 4, 4, 5, 5, 6, 6, 7, 7, 8, 8, 9, 9, 10, 10, 11, 11, 12, 12, 13, 13, 14, 14, 15, 15, 16, 16, 17, 17, 18, 18, 19, 19, 20, 20, 21, 21, 22, 22, 23, 23, 24, 24, 25, 25, 26, 26, 27, 27, 28, 28, 29, 29, 30, 30], "right_children": [2, 4, 6, 8, 10, 12, 14, 16, 18, 20, 22, 24, 26, 28, 30, 32, 34, 36, 38, 40, 42, 44, 46, 48, 50, 52, 54, 56, 58, 60, 62, -1, -1, -1, -1, -1, -1, -1, -1, -1, -1, -1, -1, -1, -1, -1, -1, -1, -1, -1, -1, -1, -1, -1, -1, -1, -1, -1, -1, -1, -1, -1, -1], "split_conditions": [0.73730665, 0.17137186, 1.2032554, 1.3714576, 0.6440856, 0.3495965, 2.3532882, 0.098033994, 0.098033994, 0.4786973, 3.4864204, 0.33408645, 0.6478643, 28.554886, 2.1935484, 2.1402202, 0.13965008, 0.7086543, 2.5150318, 0.21492773, 0.5170722, 0.287754, 3.3919864, 1.1368312, 1.243655, 1.5658923, 3.1263018, 0.92008066, 7.7296405, 0.8360801, 0.81320167, -0.12735261, -0.007145736, 0.06807618, -0.08312423, -0.19468431, -0.0, -0.079470925, -0.16048358, -0.12500165, 0.09523394, -0.13883749, -0.05635004, -0.09804895, 0.014382141, 0.099271655, 0.19008623, -0.09207353, 0.09934584, 0.21539505, -0.0, -0.043019444, -0.1716176, -0.07382436, 0.13282016, 0.07509133, 0.15243292, -0.19258684, 0.08083035, 0.18517253, -0.022757243, 0.12341314, 0.20750932], "split_indices": [124, 72, 32, 36, 13, 24, 74, 72, 72, 137, 38, 27, 13, 141, 32, 105, 1, 22, 36, 22, 13, 4, 59, 6, 149, 115, 38, 97, 100, 24, 5, 0, 0, 0, 0, 0, 0, 0, 0, 0, 0, 0, 0, 0, 0, 0, 0, 0, 0, 0, 0, 0, 0, 0, 0, 0, 0, 0, 0, 0, 0, 0, 0], "split_type": [0, 0, 0, 0, 0, 0, 0, 0, 0, 0, 0, 0, 0, 0, 0, 0, 0, 0, 0, 0, 0, 0, 0, 0, 0, 0, 0, 0, 0, 0, 0, 0, 0, 0, 0, 0, 0, 0, 0, 0, 0, 0, 0, 0, 0, 0, 0, 0, 0, 0, 0, 0, 0, 0, 0, 0, 0, 0, 0, 0, 0, 0, 0], "sum_hessian": [110356.83, 73452.06, 36904.77, 29838.729, 43613.332, 2673.6516, 34231.117, 4563.527, 25275.201, 17039.486, 26573.846, 502.92636, 2170.725, 8559.934, 25671.186, 3314.002, 1249.5251, 15503.822, 9771.378, 2124.9727, 14914.513, 21943.945, 4629.901, 207.01096, 295.9154, 1947.9838, 222.74138, 8119.4507, 440.48248, 1386.4072, 24284.777, 2712.537, 601.46484, 797.29584, 452.22934, 15484.644, 19.178879, 2120.4663, 7650.9116, 603.3382, 1521.6345, 8194.284, 6720.2285, 6530.942, 15413.003, 1776.3927, 2853.508, 170.34378, 36.667168, 292.02924, 3.8861513, 412.75635, 1535.2274, 148.31685, 74.42453, 2415.5547, 5703.896, 195.4701, 245.0124, 874.4941, 511.91315, 1105.9835, 23178.795], "tree_param": {"num_deleted": "0", "num_feature": "152", "num_nodes": "63", "size_leaf_vector": "1"}}, {"base_weights": [-0.0, -0.27777758, 0.42167917, -0.46541294, -0.08233306, 0.019376375, 0.52917767, -0.25288132, -0.5252169, -0.34860402, 0.014124381, -0.37416694, 0.13704088, 0.25176197, 0.6031137, -0.3550213, 0.13455357, -0.57945037, -0.39103162, -0.0639416, -0.41738474, -0.08492748, 0.40783465, 0.01136375, -0.5265523, -0.0037727114, 0.4504069, -0.0, 0.34486666, 0.33296022, 0.6253149, -0.03763657, -0.12914853, 0.088586465, -0.03452157, -0.17812948, -0.13848549, -0.12793146, -0.036223948, -0.07604864, 0.07801779, -0.039116394, -0.13580208, -0.06449704, 0.0095332125, 0.07215083, 0.15958382, 0.16454989, -0.050027072, -0.0, -0.17094484, 0.1329506, -0.028906561, -0.0, 0.14866434, -0.049636904, 0.12035299, 0.029886058, 0.1412006, 0.12622957, 0.0025030659, 0.098471284, 0.18992175], "categories": [], "categories_nodes": [], "categories_segments": [], "categories_sizes": [], "default_left": [0, 0, 0, 0, 0, 0, 0, 0, 0, 0, 0, 0, 0, 0, 0, 0, 0, 0, 0, 0, 0, 0, 0, 0, 0, 0, 0, 0, 0, 0, 0, 0, 0, 0, 0, 0, 0, 0, 0, 0, 0, 0, 0, 0, 0, 0, 0, 0, 0, 0, 0, 0, 0, 0, 0, 0, 0, 0, 0, 0, 0, 0, 0], "id": 3, "left_children": [1, 3, 5, 7, 9, 11, 13, 15, 17, 19, 21, 23, 25, 27, 29, 31, 33, 35, 37, 39, 41, 43, 45, 47, 49, 51, 53, 55, 57, 59, 61, -1, -1, -1, -1, -1, -1, -1, -1, -1, -1, -1, -1, -1, -1, -1, -1, -1, -1, -1, -1, -1, -1, -1, -1, -1, -1, -1, -1, -1, -1, -1, -1], "loss_changes": [11249.135, 2117.725, 1643.9258, 367.19824, 732.41113, 371.04156, 608.22363, 260.2466, 157.40527, 143.49414, 814.8435, 113.053314, 279.25784, 151.83606, 132.47168, 84.13727, 55.620277, 16.699707, 58.352234, 92.35664, 55.619263, 253.93388, 79.45026, 52.00085, 27.086487, 173.49472, 35.746918, 110.65972, 138.20453, 48.0813, 40.6084, 0.0, 0.0, 0.0, 0.0, 0.0, 0.0, 0.0, 0.0, 0.0, 0.0, 0.0, 0.0, 0.0, 0.0, 0.0, 0.0, 0.0, 0.0, 0.0, 0.0, 0.0, 0.0, 0.0, 0.0, 0.0, 0.0, 0.0, 0.0, 0.0, 0.0, 0.0, 0.0], "parents": [2147483647, 0, 0, 1, 1, 2, 2, 3, 3, 4, 4, 5, 5, 6, 6, 7, 7, 8, 8, 9, 9, 10, 10, 11, 11, 12, 12, 13, 13, 14, 14, 15, 15, 16, 16, 17, 17, 18, 18, 19, 19, 20, 20, 21, 21, 22, 22, 23, 23, 24, 24, 25, 25, 26, 26, 27, 27, 28, 28, 29, 29, 30, 30], "right_children": [2, 4, 6, 8, 10, 12, 14, 16, 18, 20, 22, 24, 26, 28, 30, 32, 34, 36, 38, 40, 42, 44, 46, 48, 50, 52, 54, 56, 58, 60, 62, -1, -1, -1, -1, -1, -1, -1, -1, -1, -1, -1, -1, -1, -1, -1, -1, -1, -1, -1, -1, -1, -1, -1, -1, -1, -1, -1, -1, -1, -1, -1, -1], "split_conditions": [0.55723846, 0.41178876, 1.0320443, 1.249627, 0.56429255, 0.42505535, 0.84497017, 0.2361835, 0.2361835, 1.1362215, 2.3892477, 2.1328325, 1.0, 0.7794849, 0.6681916, 0.8034371, 0.5525277, 0.26367384, 1.0, 0.53769267, 5.3398156, 0.21274492, 3.3196344, 0.3774998, 3.791773, 0.4611787, 0.43834466, 1.0, 1.0575156, 0.6352393, 0.6510007, -0.03763657, -0.12914853, 0.088586465, -0.03452157, -0.17812948, -0.13848549, -0.12793146, -0.036223948, -0.07604864, 0.07801779, -0.039116394, -0.13580208, -0.06449704, 0.0095332125, 0.07215083, 0.15958382, 0.16454989, -0.050027072, -0.0, -0.17094484, 0.1329506, -0.028906561, -0.0, 0.14866434, -0.049636904, 0.12035299, 0.029886058, 0.1412006, 0.12622957, 0.0025030659, 0.098471284, 0.18992175], "split_indices": [124, 146, 50, 9, 13, 13, 53, 75, 75, 137, 40, 117, 47, 66, 103, 36, 117, 127, 47, 75, 121, 124, 59, 21, 121, 80, 86, 47, 74, 6, 30, 0, 0, 0, 0, 0, 0, 0, 0, 0, 0, 0, 0, 0, 0, 0, 0, 0, 0, 0, 0, 0, 0, 0, 0, 0, 0, 0, 0, 0, 0, 0, 0], "split_type": [0, 0, 0, 0, 0, 0, 0, 0, 0, 0, 0, 0, 0, 0, 0, 0, 0, 0, 0, 0, 0, 0, 0, 0, 0, 0, 0, 0, 0, 0, 0, 0, 0, 0, 0, 0, 0, 0, 0, 0, 0, 0, 0, 0, 0, 0, 0, 0, 0, 0, 0, 0, 0, 0, 0, 0, 0, 0, 0, 0, 0, 0, 0], "sum_hessian": [96035.266, 57896.664, 38138.598, 29511.643, 28385.023, 8061.9043, 30076.693, 6518.5195, 22993.123, 7575.074, 20809.95, 1835.5421, 6226.3623, 6358.522, 23718.172, 5179.0537, 1339.466, 16319.461, 6673.6616, 1502.7927, 6072.2817, 16607.201, 4202.7485, 501.65973, 1333.8824, 4274.6084, 1951.7539, 1693.6309, 4664.891, 1836.5597, 21881.611, 1314.8569, 3864.1965, 839.06586, 500.40012, 14472.409, 1847.0522, 5867.466, 806.19604, 967.719, 535.0737, 696.43024, 5375.8516, 7894.243, 8712.957, 1825.308, 2377.4407, 138.39172, 363.268, 111.58655, 1222.2959, 714.33966, 3560.2688, 193.99191, 1757.762, 1213.6699, 479.96097, 1609.1644, 3055.7268, 1421.074, 415.48572, 590.76025, 21290.852], "tree_param": {"num_deleted": "0", "num_feature": "152", "num_nodes": "63", "size_leaf_vector": "1"}}, {"base_weights": [-0.0, -0.21694969, 0.440547, -0.41559076, -0.039333727, -0.10248586, 0.50187063, -0.48835537, -0.2966274, -0.19296287, 0.09342455, 0.3292649, -0.28703928, 0.303074, 0.5675841, -0.17476825, -0.52323717, -0.2450278, -0.51784456, -0.14938425, -0.571466, -0.14466962, 0.2562014, -0.24289365, 0.51489544, -0.36677498, -0.069468714, 0.22917545, 0.5999022, 0.29742607, 0.5924808, -0.12143722, -0.0016576627, -0.16730979, -0.1367779, 0.057006847, -0.07922364, -0.15988295, -0.0, -0.08517377, -0.00696731, -0.1733252, -0.0, -0.067790136, 0.061073508, 0.049755063, 0.14745644, 0.009951, -0.12028669, -0.0, 0.16616131, -0.13712204, -0.02703849, -0.09052068, 0.036483053, 0.02184172, 0.12613761, -0.0, 0.18975246, -0.0, 0.12041996, -0.0, 0.17851833], "categories": [], "categories_nodes": [], "categories_segments": [], "categories_sizes": [], "default_left": [0, 0, 0, 0, 0, 0, 0, 0, 0, 0, 0, 0, 0, 0, 0, 0, 0, 0, 0, 0, 0, 0, 0, 0, 0, 0, 0, 0, 0, 0, 0, 0, 0, 0, 0, 0, 0, 0, 0, 0, 0, 0, 0, 0, 0, 0, 0, 0, 0, 0, 0, 0, 0, 0, 0, 0, 0, 0, 0, 0, 0, 0, 0], "id": 4, "left_children": [1, 3, 5, 7, 9, 11, 13, 15, 17, 19, 21, 23, 25, 27, 29, 31, 33, 35, 37, 39, 41, 43, 45, 47, 49, 51, 53, 55, 57, 59, 61, -1, -1, -1, -1, -1, -1, -1, -1, -1, -1, -1, -1, -1, -1, -1, -1, -1, -1, -1, -1, -1, -1, -1, -1, -1, -1, -1, -1, -1, -1, -1, -1], "loss_changes": [8085.8965, 1995.4192, 933.6455, 223.41064, 611.9509, 224.12038, 319.01172, 173.77686, 108.677, 222.32794, 622.58795, 90.76, 30.136353, 129.22668, 117.54199, 61.49816, 24.054688, 69.66153, 16.65622, 209.22134, 6.0128174, 183.91698, 196.36731, 11.992764, 15.1813965, 30.021667, 27.073048, 146.18246, 28.232971, 50.99919, 26.544922, 0.0, 0.0, 0.0, 0.0, 0.0, 0.0, 0.0, 0.0, 0.0, 0.0, 0.0, 0.0, 0.0, 0.0, 0.0, 0.0, 0.0, 0.0, 0.0, 0.0, 0.0, 0.0, 0.0, 0.0, 0.0, 0.0, 0.0, 0.0, 0.0, 0.0, 0.0, 0.0], "parents": [2147483647, 0, 0, 1, 1, 2, 2, 3, 3, 4, 4, 5, 5, 6, 6, 7, 7, 8, 8, 9, 9, 10, 10, 11, 11, 12, 12, 13, 13, 14, 14, 15, 15, 16, 16, 17, 17, 18, 18, 19, 19, 20, 20, 21, 21, 22, 22, 23, 23, 24, 24, 25, 25, 26, 26, 27, 27, 28, 28, 29, 29, 30, 30], "right_children": [2, 4, 6, 8, 10, 12, 14, 16, 18, 20, 22, 24, 26, 28, 30, 32, 34, 36, 38, 40, 42, 44, 46, 48, 50, 52, 54, 56, 58, 60, 62, -1, -1, -1, -1, -1, -1, -1, -1, -1, -1, -1, -1, -1, -1, -1, -1, -1, -1, -1, -1, -1, -1, -1, -1, -1, -1, -1, -1, -1, -1, -1, -1], "split_conditions": [0.7062529, 0.3968762, 1.4529651, 0.12476706, 0.68843967, 0.41448545, 2.3035696, 0.62961406, 43.380928, 4.5244064, 2.2152822, 0.8723268, 1.522976, 1.7029774, 0.7549693, 12.125907, 0.08273864, 7.6119846e-05, 3.825361, 0.5170722, 4.843378, 1.0, 4.657282, 0.2544384, 0.16783182, 1.0, 3.3598077, 1.0, 0.5717559, 1.2032125, 1.495992, -0.12143722, -0.0016576627, -0.16730979, -0.1367779, 0.057006847, -0.07922364, -0.15988295, -0.0, -0.08517377, -0.00696731, -0.1733252, -0.0, -0.067790136, 0.061073508, 0.049755063, 0.14745644, 0.009951, -0.12028669, -0.0, 0.16616131, -0.13712204, -0.02703849, -0.09052068, 0.036483053, 0.02184172, 0.12613761, -0.0, 0.18975246, -0.0, 0.12041996, -0.0, 0.17851833], "split_indices": [124, 62, 32, 19, 13, 18, 74, 9, 17, 92, 117, 51, 33, 40, 75, 0, 72, 105, 30, 13, 60, 47, 38, 93, 19, 47, 140, 47, 13, 149, 59, 0, 0, 0, 0, 0, 0, 0, 0, 0, 0, 0, 0, 0, 0, 0, 0, 0, 0, 0, 0, 0, 0, 0, 0, 0, 0, 0, 0, 0, 0, 0, 0], "split_type": [0, 0, 0, 0, 0, 0, 0, 0, 0, 0, 0, 0, 0, 0, 0, 0, 0, 0, 0, 0, 0, 0, 0, 0, 0, 0, 0, 0, 0, 0, 0, 0, 0, 0, 0, 0, 0, 0, 0, 0, 0, 0, 0, 0, 0, 0, 0, 0, 0, 0, 0, 0, 0, 0, 0, 0, 0, 0, 0, 0, 0, 0, 0], "sum_hessian": [84599.28, 56684.973, 27914.305, 26731.506, 29953.467, 2815.831, 25098.475, 16532.281, 10199.225, 13919.991, 16033.475, 826.74524, 1989.0857, 6274.5327, 18823.941, 1684.1833, 14848.099, 8308.543, 1890.6819, 12507.739, 1412.2527, 6485.6187, 9547.856, 189.25043, 637.4948, 1421.4882, 567.59766, 5052.1963, 1222.3364, 1623.3439, 17200.598, 688.2649, 995.9184, 9717.2, 5130.898, 326.1716, 7982.371, 1843.6582, 47.023685, 6014.1465, 6493.5923, 1399.6876, 12.565058, 5281.69, 1203.929, 6930.9253, 2616.9307, 46.157574, 143.09285, 37.21195, 600.28284, 1043.9421, 377.5459, 279.54755, 288.05008, 2809.3088, 2242.8872, 52.304947, 1170.0315, 415.9891, 1207.3547, 73.88948, 17126.709], "tree_param": {"num_deleted": "0", "num_feature": "152", "num_nodes": "63", "size_leaf_vector": "1"}}, {"base_weights": [-0.0, -0.23136032, 0.34464827, -0.3619733, -0.01694451, 0.10989223, 0.49178463, -0.4514931, -0.19872203, -0.26184732, 0.07267618, -0.0, 0.32151744, 0.22139192, 0.5444015, -0.16959025, -0.47511655, -0.27219948, 0.054093383, -0.39747915, -0.16583066, -0.036805324, 0.34325117, -0.45575356, 0.062234644, -0.2492758, 0.39402935, 0.28684625, -0.16287388, -0.0, 0.5608856, -0.09395269, -0.0, -0.15153995, -0.10222427, -0.09826878, -0.02820614, -0.056509, 0.046587195, -0.033566494, -0.14782014, -0.028247898, -0.11040264, 0.007644039, -0.07329717, 0.12828049, 0.03636389, 0.06893983, -0.15989709, 0.0878486, -0.032211494, 0.01574361, -0.12325196, -0.015160402, 0.13020049, -0.057064906, 0.097763374, -0.08780638, 0.12999181, -0.10604003, 0.038276836, 0.13426386, 0.17382017], "categories": [], "categories_nodes": [], "categories_segments": [], "categories_sizes": [], "default_left": [0, 0, 0, 0, 0, 0, 0, 0, 0, 0, 0, 0, 0, 0, 0, 0, 0, 0, 0, 0, 0, 0, 0, 0, 0, 0, 0, 0, 0, 0, 0, 0, 0, 0, 0, 0, 0, 0, 0, 0, 0, 0, 0, 0, 0, 0, 0, 0, 0, 0, 0, 0, 0, 0, 0, 0, 0, 0, 0, 0, 0, 0, 0], "id": 5, "left_children": [1, 3, 5, 7, 9, 11, 13, 15, 17, 19, 21, 23, 25, 27, 29, 31, 33, 35, 37, 39, 41, 43, 45, 47, 49, 51, 53, 55, 57, 59, 61, -1, -1, -1, -1, -1, -1, -1, -1, -1, -1, -1, -1, -1, -1, -1, -1, -1, -1, -1, -1, -1, -1, -1, -1, -1, -1, -1, -1, -1, -1, -1, -1], "loss_changes": [5997.631, 1256.595, 1037.4758, 401.7163, 376.50394, 268.44696, 256.0669, 113.37036, 186.77078, 54.238495, 372.344, 215.1332, 165.44263, 78.08954, 137.45508, 32.462082, 58.235596, 72.00037, 53.86606, 44.601257, 35.04216, 116.5746, 62.208862, 51.281647, 267.86218, 24.637909, 66.57617, 50.423035, 31.444765, 20.215775, 21.015625, 0.0, 0.0, 0.0, 0.0, 0.0, 0.0, 0.0, 0.0, 0.0, 0.0, 0.0, 0.0, 0.0, 0.0, 0.0, 0.0, 0.0, 0.0, 0.0, 0.0, 0.0, 0.0, 0.0, 0.0, 0.0, 0.0, 0.0, 0.0, 0.0, 0.0, 0.0, 0.0], "parents": [2147483647, 0, 0, 1, 1, 2, 2, 3, 3, 4, 4, 5, 5, 6, 6, 7, 7, 8, 8, 9, 9, 10, 10, 11, 11, 12, 12, 13, 13, 14, 14, 15, 15, 16, 16, 17, 17, 18, 18, 19, 19, 20, 20, 21, 21, 22, 22, 23, 23, 24, 24, 25, 25, 26, 26, 27, 27, 28, 28, 29, 29, 30, 30], "right_children": [2, 4, 6, 8, 10, 12, 14, 16, 18, 20, 22, 24, 26, 28, 30, 32, 34, 36, 38, 40, 42, 44, 46, 48, 50, 52, 54, 56, 58, 60, 62, -1, -1, -1, -1, -1, -1, -1, -1, -1, -1, -1, -1, -1, -1, -1, -1, -1, -1, -1, -1, -1, -1, -1, -1, -1, -1, -1, -1, -1, -1, -1, -1], "split_conditions": [0.5180617, 0.6368054, 4.463751, 0.21274492, 0.59677696, 1.0, 0.37852496, 1.1511091, 1.0, 0.42505535, 1.8704027, 1.7497766, 0.6453711, 61.07904, 2.3678718, 0.07808328, 0.24935351, 0.4031165, 9.041965, 30.03734, 65.02555, 48.28444, 0.004099628, 0.34596395, 0.2546759, 4.0644197, 0.0006968781, 0.73933524, 79.51273, 0.70656717, 3.9378276, -0.09395269, -0.0, -0.15153995, -0.10222427, -0.09826878, -0.02820614, -0.056509, 0.046587195, -0.033566494, -0.14782014, -0.028247898, -0.11040264, 0.007644039, -0.07329717, 0.12828049, 0.03636389, 0.06893983, -0.15989709, 0.0878486, -0.032211494, 0.01574361, -0.12325196, -0.015160402, 0.13020049, -0.057064906, 0.097763374, -0.08780638, 0.12999181, -0.10604003, 0.038276836, 0.13426386, 0.17382017], "split_indices": [124, 146, 9, 124, 13, 47, 93, 92, 47, 13, 40, 92, 44, 17, 59, 124, 75, 75, 0, 17, 67, 17, 105, 108, 6, 121, 105, 66, 117, 50, 33, 0, 0, 0, 0, 0, 0, 0, 0, 0, 0, 0, 0, 0, 0, 0, 0, 0, 0, 0, 0, 0, 0, 0, 0, 0, 0, 0, 0, 0, 0, 0, 0], "split_type": [0, 0, 0, 0, 0, 0, 0, 0, 0, 0, 0, 0, 0, 0, 0, 0, 0, 0, 0, 0, 0, 0, 0, 0, 0, 0, 0, 0, 0, 0, 0, 0, 0, 0, 0, 0, 0, 0, 0, 0, 0, 0, 0, 0, 0, 0, 0, 0, 0, 0, 0, 0, 0, 0, 0, 0, 0, 0, 0, 0, 0, 0, 0], "sum_hessian": [75214.79, 45004.12, 30210.668, 27938.096, 17066.025, 11666.493, 18544.174, 18003.014, 9935.082, 4601.461, 12464.564, 7707.6074, 3958.8855, 3052.574, 15491.601, 1425.3646, 16577.648, 7728.4023, 2206.6794, 1862.8029, 2738.658, 8848.245, 3616.319, 907.9207, 6799.687, 430.41705, 3528.4683, 2630.741, 421.83307, 460.32645, 15031.273, 748.24884, 677.1158, 13487.505, 3090.1438, 5852.862, 1875.5406, 620.45776, 1586.2218, 492.71375, 1370.0891, 2059.503, 679.1551, 6769.1997, 2079.046, 2587.418, 1028.9012, 78.6223, 829.2984, 2906.4106, 3893.2761, 128.74297, 301.67407, 270.42435, 3258.044, 179.29086, 2451.45, 360.59787, 61.235172, 115.78233, 344.54413, 2190.059, 12841.215], "tree_param": {"num_deleted": "0", "num_feature": "152", "num_nodes": "63", "size_leaf_vector": "1"}}, {"base_weights": [-0.0, -0.16266294, 0.41710535, -0.36525205, -0.026064623, -0.11107227, 0.46656197, -0.12705651, -0.4014598, -0.07140871, 0.2526675, 0.25736815, -0.26090735, 0.2595235, 0.51853067, -0.28256568, 0.0022545569, -0.49239543, -0.32425562, -0.19532277, 0.0828445, -0.2575506, 0.34002277, -0.12800033, 0.52712065, -0.32819185, -0.0069643394, 0.16218027, 0.4272288, 0.25859377, 0.544049, -0.0055276332, -0.099649765, 0.019060321, -0.07343626, -0.15163976, -0.091561005, -0.11235547, -0.06787363, -0.02667906, -0.08855227, -0.072777025, 0.034454428, 0.032228105, -0.10268188, 0.13839549, 0.062212776, -0.06972215, 0.019272503, 0.16287924, -0.0, -0.0, -0.11537521, -0.05292118, 0.07486224, 0.02687253, 0.14128178, 0.07515034, 0.16539033, 0.09573321, -0.02913556, 0.07474113, 0.16633017], "categories": [], "categories_nodes": [], "categories_segments": [], "categories_sizes": [], "default_left": [0, 0, 0, 0, 0, 0, 0, 0, 0, 0, 0, 0, 0, 0, 0, 0, 0, 0, 0, 0, 0, 0, 0, 0, 0, 0, 0, 0, 0, 0, 0, 0, 0, 0, 0, 0, 0, 0, 0, 0, 0, 0, 0, 0, 0, 0, 0, 0, 0, 0, 0, 0, 0, 0, 0, 0, 0, 0, 0, 0, 0, 0, 0], "id": 6, "left_children": [1, 3, 5, 7, 9, 11, 13, 15, 17, 19, 21, 23, 25, 27, 29, 31, 33, 35, 37, 39, 41, 43, 45, 47, 49, 51, 53, 55, 57, 59, 61, -1, -1, -1, -1, -1, -1, -1, -1, -1, -1, -1, -1, -1, -1, -1, -1, -1, -1, -1, -1, -1, -1, -1, -1, -1, -1, -1, -1, -1, -1, -1, -1], "loss_changes": [4538.155, 1327.7506, 493.81836, 161.54785, 361.85394, 87.89301, 176.9021, 54.909225, 109.3374, 474.75394, 178.97588, 49.89788, 16.300644, 50.96373, 82.64673, 12.360611, 19.103857, 10.417114, 38.86786, 142.48755, 113.34308, 19.944302, 48.376343, 5.05068, 3.143509, 18.662865, 11.181914, 44.69698, 19.085068, 29.392563, 29.897705, 0.0, 0.0, 0.0, 0.0, 0.0, 0.0, 0.0, 0.0, 0.0, 0.0, 0.0, 0.0, 0.0, 0.0, 0.0, 0.0, 0.0, 0.0, 0.0, 0.0, 0.0, 0.0, 0.0, 0.0, 0.0, 0.0, 0.0, 0.0, 0.0, 0.0, 0.0, 0.0], "parents": [2147483647, 0, 0, 1, 1, 2, 2, 3, 3, 4, 4, 5, 5, 6, 6, 7, 7, 8, 8, 9, 9, 10, 10, 11, 11, 12, 12, 13, 13, 14, 14, 15, 15, 16, 16, 17, 17, 18, 18, 19, 19, 20, 20, 21, 21, 22, 22, 23, 23, 24, 24, 25, 25, 26, 26, 27, 27, 28, 28, 29, 29, 30, 30], "right_children": [2, 4, 6, 8, 10, 12, 14, 16, 18, 20, 22, 24, 26, 28, 30, 32, 34, 36, 38, 40, 42, 44, 46, 48, 50, 52, 54, 56, 58, 60, 62, -1, -1, -1, -1, -1, -1, -1, -1, -1, -1, -1, -1, -1, -1, -1, -1, -1, -1, -1, -1, -1, -1, -1, -1, -1, -1, -1, -1, -1, -1, -1, -1], "split_conditions": [0.79567534, 0.35902384, 1.4041276, 1.4812163, 1.5351036, 0.52297294, 2.2261257, 0.11534354, 0.089677, 0.4031165, 0.5170722, 0.87239116, 2.0829368, 1.0, 1.2351745, 0.30742761, 0.524144, 0.12750028, 0.18711253, 0.2774684, 0.39283904, 4.0049324, 0.0014585495, 0.87347186, 2.3973572, 0.2364308, 0.39549285, 1.7029774, 0.0029360577, 4.3981204, 2.27381, -0.0055276332, -0.099649765, 0.019060321, -0.07343626, -0.15163976, -0.091561005, -0.11235547, -0.06787363, -0.02667906, -0.08855227, -0.072777025, 0.034454428, 0.032228105, -0.10268188, 0.13839549, 0.062212776, -0.06972215, 0.019272503, 0.16287924, -0.0, -0.0, -0.11537521, -0.05292118, 0.07486224, 0.02687253, 0.14128178, 0.07515034, 0.16539033, 0.09573321, -0.02913556, 0.07474113, 0.16633017], "split_indices": [124, 62, 32, 92, 8, 24, 12, 124, 19, 75, 13, 44, 33, 47, 97, 9, 1, 105, 80, 6, 13, 7, 105, 14, 18, 39, 40, 40, 105, 19, 59, 0, 0, 0, 0, 0, 0, 0, 0, 0, 0, 0, 0, 0, 0, 0, 0, 0, 0, 0, 0, 0, 0, 0, 0, 0, 0, 0, 0, 0, 0, 0, 0], "split_type": [0, 0, 0, 0, 0, 0, 0, 0, 0, 0, 0, 0, 0, 0, 0, 0, 0, 0, 0, 0, 0, 0, 0, 0, 0, 0, 0, 0, 0, 0, 0, 0, 0, 0, 0, 0, 0, 0, 0, 0, 0, 0, 0, 0, 0, 0, 0, 0, 0, 0, 0, 0, 0, 0, 0, 0, 0, 0, 0, 0, 0, 0, 0], "sum_hessian": [66885.5, 48120.176, 18765.318, 19348.908, 28771.27, 1589.2545, 17176.064, 2590.1445, 16758.764, 24777.146, 3994.1213, 439.95624, 1149.2983, 3486.1172, 13689.947, 1210.5219, 1379.6227, 7633.1206, 9125.644, 13775.573, 11001.574, 566.855, 3427.2664, 166.10832, 273.84793, 877.2039, 272.0944, 2244.7593, 1241.3579, 1259.842, 12430.105, 223.46547, 987.0564, 1138.4476, 241.17506, 7083.411, 549.7096, 5962.859, 3162.7844, 6718.739, 7056.8345, 956.4709, 10045.103, 84.506516, 482.34848, 1749.5604, 1677.7059, 141.22028, 24.88804, 268.73798, 5.109947, 112.48136, 764.72253, 187.52132, 84.57309, 1844.662, 400.0974, 546.5182, 694.8397, 1100.7827, 159.05931, 456.42294, 11973.683], "tree_param": {"num_deleted": "0", "num_feature": "152", "num_nodes": "63", "size_leaf_vector": "1"}}, {"base_weights": [-0.0, -0.14514156, 0.39521506, -0.33870918, -0.02204163, -0.075711206, 0.44124737, -0.11794031, -0.3744056, -0.07857711, 0.18085222, 0.28614694, -0.18972367, 0.25133216, 0.5059004, -0.22037303, 0.028847134, -0.4452969, -0.2639457, -0.22835885, 0.024624724, -0.120292224, 0.318209, -0.02701437, 0.5442434, -0.2536753, -0.0, 0.18473665, 0.57582116, 0.27756453, 0.53342307, -0.0017585984, -0.083163805, 0.09591504, -0.013024462, -0.10529179, -0.1431459, -0.06839208, -0.14247467, -0.029753631, -0.09432102, -0.107531615, 0.016588941, -0.102999, 0.0014322588, 0.12132147, 0.050921284, -0.05360135, 0.022756865, -0.0, 0.17028098, -0.0, -0.09029855, -0.07238747, 0.08193405, 0.06670061, -0.08261643, -0.0, 0.18185355, 0.040996347, 0.14589094, -0.0062935664, 0.16082615], "categories": [], "categories_nodes": [], "categories_segments": [], "categories_sizes": [], "default_left": [0, 0, 0, 0, 0, 0, 0, 0, 0, 0, 0, 0, 0, 0, 0, 0, 0, 0, 0, 0, 0, 0, 0, 0, 0, 0, 0, 0, 0, 0, 0, 0, 0, 0, 0, 0, 0, 0, 0, 0, 0, 0, 0, 0, 0, 0, 0, 0, 0, 0, 0, 0, 0, 0, 0, 0, 0, 0, 0, 0, 0, 0, 0], "id": 7, "left_children": [1, 3, 5, 7, 9, 11, 13, 15, 17, 19, 21, 23, 25, 27, 29, 31, 33, 35, 37, 39, 41, 43, 45, 47, 49, 51, 53, 55, 57, 59, 61, -1, -1, -1, -1, -1, -1, -1, -1, -1, -1, -1, -1, -1, -1, -1, -1, -1, -1, -1, -1, -1, -1, -1, -1, -1, -1, -1, -1, -1, -1, -1, -1], "loss_changes": [3453.1052, 1045.5121, 354.20776, 129.66504, 308.0802, 57.728188, 173.39941, 38.28277, 107.63916, 328.4032, 243.33144, 31.044193, 15.049801, 74.12613, 60.638428, 15.0249405, 22.843805, 18.224243, 36.809998, 92.0072, 143.4024, 53.746162, 45.758575, 3.0384035, 2.810154, 12.8247795, 16.941902, 54.35965, 11.69278, 29.601807, 19.553223, 0.0, 0.0, 0.0, 0.0, 0.0, 0.0, 0.0, 0.0, 0.0, 0.0, 0.0, 0.0, 0.0, 0.0, 0.0, 0.0, 0.0, 0.0, 0.0, 0.0, 0.0, 0.0, 0.0, 0.0, 0.0, 0.0, 0.0, 0.0, 0.0, 0.0, 0.0, 0.0], "parents": [2147483647, 0, 0, 1, 1, 2, 2, 3, 3, 4, 4, 5, 5, 6, 6, 7, 7, 8, 8, 9, 9, 10, 10, 11, 11, 12, 12, 13, 13, 14, 14, 15, 15, 16, 16, 17, 17, 18, 18, 19, 19, 20, 20, 21, 21, 22, 22, 23, 23, 24, 24, 25, 25, 26, 26, 27, 27, 28, 28, 29, 29, 30, 30], "right_children": [2, 4, 6, 8, 10, 12, 14, 16, 18, 20, 22, 24, 26, 28, 30, 32, 34, 36, 38, 40, 42, 44, 46, 48, 50, 52, 54, 56, 58, 60, 62, -1, -1, -1, -1, -1, -1, -1, -1, -1, -1, -1, -1, -1, -1, -1, -1, -1, -1, -1, -1, -1, -1, -1, -1, -1, -1, -1, -1, -1, -1, -1, -1], "split_conditions": [0.79567534, 0.18850431, 1.4041276, 1.4812163, 1.3607879, 0.44487926, 2.4926744, 0.08919466, 0.2361835, 0.12123419, 1.5457038, 0.3649936, 0.5455827, 2.3892477, 0.81829715, 0.011868365, 0.13987675, 2.4060864, 55.00148, 0.16154039, 7.4680405, 0.8294266, 0.0020816915, 0.94792557, 0.54749453, 0.2364308, 0.30775905, 4.03842, 0.5717559, 0.0027667836, 0.92355555, -0.0017585984, -0.083163805, 0.09591504, -0.013024462, -0.10529179, -0.1431459, -0.06839208, -0.14247467, -0.029753631, -0.09432102, -0.107531615, 0.016588941, -0.102999, 0.0014322588, 0.12132147, 0.050921284, -0.05360135, 0.022756865, -0.0, 0.17028098, -0.0, -0.09029855, -0.07238747, 0.08193405, 0.06670061, -0.08261643, -0.0, 0.18185355, 0.040996347, 0.14589094, -0.0062935664, 0.16082615], "split_indices": [124, 85, 32, 92, 40, 24, 74, 85, 75, 103, 32, 27, 40, 40, 75, 50, 96, 36, 17, 6, 0, 44, 105, 6, 141, 39, 42, 151, 13, 105, 3, 0, 0, 0, 0, 0, 0, 0, 0, 0, 0, 0, 0, 0, 0, 0, 0, 0, 0, 0, 0, 0, 0, 0, 0, 0, 0, 0, 0, 0, 0, 0, 0], "split_type": [0, 0, 0, 0, 0, 0, 0, 0, 0, 0, 0, 0, 0, 0, 0, 0, 0, 0, 0, 0, 0, 0, 0, 0, 0, 0, 0, 0, 0, 0, 0, 0, 0, 0, 0, 0, 0, 0, 0, 0, 0, 0, 0, 0, 0, 0, 0, 0, 0, 0, 0, 0, 0, 0, 0, 0, 0, 0, 0, 0, 0, 0, 0], "sum_hessian": [60196.344, 44027.87, 16168.473, 17082.938, 26944.934, 1420.312, 14748.16, 2417.2983, 14665.64, 21112.053, 5832.881, 318.91263, 1101.3994, 3786.133, 10962.027, 1463.5872, 953.7112, 8875.762, 5789.878, 8651.461, 12460.592, 1804.3341, 4028.5466, 126.98524, 191.9274, 849.5013, 251.89812, 3168.2864, 617.8467, 1219.4601, 9742.567, 343.66034, 1119.9268, 216.64217, 737.06903, 2323.1016, 6552.66, 4988.7373, 801.1407, 3506.0864, 5145.374, 898.7882, 11561.804, 676.3588, 1127.9753, 2505.1128, 1523.4337, 90.313446, 36.67179, 6.8306813, 185.09673, 104.83958, 744.6617, 120.97216, 130.92596, 2949.519, 218.76736, 28.610256, 589.23645, 757.5999, 461.86014, 28.608494, 9713.959], "tree_param": {"num_deleted": "0", "num_feature": "152", "num_nodes": "63", "size_leaf_vector": "1"}}, {"base_weights": [-0.0, -0.13333166, 0.36169237, -0.29840934, 0.0033799326, 0.15690917, 0.48422444, -0.38027686, -0.13667619, -0.070421934, 0.18798329, -0.24579108, 0.2252367, 0.3170335, 0.5288102, -0.10245879, -0.4089519, 0.086213805, -0.19373778, -0.12095373, 0.13198233, -0.026457585, 0.32405555, 0.45231816, -0.31121328, -0.10618852, 0.27910903, 0.35700473, -0.0, -0.0, 0.5338456, -0.055741616, 0.019180123, -0.13381183, -0.09865725, 0.09528684, -0.00961214, -0.0705924, 6.375148e-05, -0.049022727, 0.008665471, -0.08132134, 0.054362174, -0.090346985, 0.019439828, 0.050320532, 0.12851104, 0.17334408, -0.0, 0.005695374, -0.106768675, -0.08897647, 0.059941527, 0.022517568, 0.10675677, -0.008001984, 0.116537124, -0.04635995, 0.06564025, -0.0, -0.034150053, 0.16105762, -0.0], "categories": [], "categories_nodes": [], "categories_segments": [], "categories_sizes": [], "default_left": [0, 0, 0, 0, 0, 0, 0, 0, 0, 0, 0, 0, 0, 0, 0, 0, 0, 0, 0, 0, 0, 0, 0, 0, 0, 0, 0, 0, 0, 0, 0, 0, 0, 0, 0, 0, 0, 0, 0, 0, 0, 0, 0, 0, 0, 0, 0, 0, 0, 0, 0, 0, 0, 0, 0, 0, 0, 0, 0, 0, 0, 0, 0], "id": 8, "left_children": [1, 3, 5, 7, 9, 11, 13, 15, 17, 19, 21, 23, 25, 27, 29, 31, 33, 35, 37, 39, 41, 43, 45, 47, 49, 51, 53, 55, 57, 59, 61, -1, -1, -1, -1, -1, -1, -1, -1, -1, -1, -1, -1, -1, -1, -1, -1, -1, -1, -1, -1, -1, -1, -1, -1, -1, -1, -1, -1, -1, -1, -1, -1], "loss_changes": [2630.9312, 902.5393, 362.22546, 234.30786, 297.80902, 152.08907, 59.672363, 90.19507, 78.958115, 158.59764, 185.56337, 34.43808, 86.60419, 27.889465, 22.952393, 17.2314, 24.234253, 36.056007, 41.94168, 80.58815, 59.875137, 62.583298, 56.85547, 5.0962763, 14.124802, 38.26735, 60.08734, 25.09909, 6.3045263, 0.5322597, 6.925049, 0.0, 0.0, 0.0, 0.0, 0.0, 0.0, 0.0, 0.0, 0.0, 0.0, 0.0, 0.0, 0.0, 0.0, 0.0, 0.0, 0.0, 0.0, 0.0, 0.0, 0.0, 0.0, 0.0, 0.0, 0.0, 0.0, 0.0, 0.0, 0.0, 0.0, 0.0, 0.0], "parents": [2147483647, 0, 0, 1, 1, 2, 2, 3, 3, 4, 4, 5, 5, 6, 6, 7, 7, 8, 8, 9, 9, 10, 10, 11, 11, 12, 12, 13, 13, 14, 14, 15, 15, 16, 16, 17, 17, 18, 18, 19, 19, 20, 20, 21, 21, 22, 22, 23, 23, 24, 24, 25, 25, 26, 26, 27, 27, 28, 28, 29, 29, 30, 30], "right_children": [2, 4, 6, 8, 10, 12, 14, 16, 18, 20, 22, 24, 26, 28, 30, 32, 34, 36, 38, 40, 42, 44, 46, 48, 50, 52, 54, 56, 58, 60, 62, -1, -1, -1, -1, -1, -1, -1, -1, -1, -1, -1, -1, -1, -1, -1, -1, -1, -1, -1, -1, -1, -1, -1, -1, -1, -1, -1, -1, -1, -1, -1, -1], "split_conditions": [0.70849144, 0.24299964, 5.13395, 0.26337066, 1.1970642, 0.4904717, 1.7419587, 0.62961406, 2.1677883, 1.0, 1.3528895, 0.39868373, 0.0005947724, 10.179685, 2.0621576, 0.1316941, 0.169173, 0.24291478, 0.4691254, 7.8924003, 0.26516533, 0.45149654, 6.7927384, 0.5641231, 26.309126, 1.8589544, 0.55031705, 0.28896472, 4.9806676, 1.981597, 5.7905664, -0.055741616, 0.019180123, -0.13381183, -0.09865725, 0.09528684, -0.00961214, -0.0705924, 6.375148e-05, -0.049022727, 0.008665471, -0.08132134, 0.054362174, -0.090346985, 0.019439828, 0.050320532, 0.12851104, 0.17334408, -0.0, 0.005695374, -0.106768675, -0.08897647, 0.059941527, 0.022517568, 0.10675677, -0.008001984, 0.116537124, -0.04635995, 0.06564025, -0.0, -0.034150053, 0.16105762, -0.0], "split_indices": [133, 108, 9, 75, 40, 13, 97, 9, 9, 47, 44, 90, 105, 66, 59, 75, 75, 137, 62, 9, 27, 13, 20, 73, 17, 133, 75, 19, 92, 139, 151, 0, 0, 0, 0, 0, 0, 0, 0, 0, 0, 0, 0, 0, 0, 0, 0, 0, 0, 0, 0, 0, 0, 0, 0, 0, 0, 0, 0, 0, 0, 0, 0], "split_type": [0, 0, 0, 0, 0, 0, 0, 0, 0, 0, 0, 0, 0, 0, 0, 0, 0, 0, 0, 0, 0, 0, 0, 0, 0, 0, 0, 0, 0, 0, 0, 0, 0, 0, 0, 0, 0, 0, 0, 0, 0, 0, 0, 0, 0, 0, 0, 0, 0, 0, 0, 0, 0, 0, 0, 0, 0, 0, 0, 0, 0, 0, 0], "sum_hessian": [54553.293, 39860.164, 14693.131, 18089.393, 21770.771, 5531.851, 9161.279, 11968.094, 6121.2983, 15514.669, 6256.1016, 780.8461, 4751.005, 1977.6692, 7183.6104, 1152.7723, 10815.321, 1211.8589, 4909.4395, 12454.992, 3059.677, 2400.4565, 3855.6453, 53.302044, 727.5441, 638.19604, 4112.809, 1778.2216, 199.44766, 54.358402, 7129.252, 808.01636, 344.75598, 7303.8667, 3511.4548, 437.87305, 773.98584, 4085.1892, 824.25006, 9757.067, 2697.9248, 310.40726, 2749.2698, 625.3445, 1775.112, 1582.5657, 2273.0796, 47.54015, 5.7618947, 60.109936, 667.4342, 413.56985, 224.62619, 1160.2566, 2952.5522, 110.64962, 1667.5719, 138.18628, 61.26138, 14.282854, 40.075546, 7073.467, 55.785072], "tree_param": {"num_deleted": "0", "num_feature": "152", "num_nodes": "63", "size_leaf_vector": "1"}}, {"base_weights": [-0.0, -0.108700305, 0.3775939, -0.27697808, 0.0015311466, 0.091714986, 0.44391418, -0.35745355, -0.17190978, -0.034498032, 0.25577533, 0.37594306, -0.08560361, 0.11770445, 0.48432702, -0.20131248, -0.39790598, -0.22095157, -0.015466372, -0.15647064, 0.053563427, 0.41442707, 0.05033353, -0.047826067, 0.49188605, -0.32161865, -0.0, 0.008927288, 0.51945525, 0.08691098, 0.5001024, -0.07676135, -0.0, -0.1369729, -0.09646861, -0.07698205, -0.024845017, 0.038156487, -0.029899703, -0.07151251, -0.004188269, -0.01430828, 0.037308324, -0.039595813, 0.13850276, -0.017240485, 0.11295102, -0.047507357, 0.0005295511, -0.0, 0.15349913, -0.0, -0.10765876, 0.084639296, -0.031807676, -0.06609551, 0.030022824, -0.0, 0.15889697, -0.023289908, 0.10849695, 0.118011415, 0.1588692], "categories": [], "categories_nodes": [], "categories_segments": [], "categories_sizes": [], "default_left": [0, 0, 0, 0, 0, 0, 0, 0, 0, 0, 0, 0, 0, 0, 0, 0, 0, 0, 0, 0, 0, 0, 0, 0, 0, 0, 0, 0, 0, 0, 0, 0, 0, 0, 0, 0, 0, 0, 0, 0, 0, 0, 0, 0, 0, 0, 0, 0, 0, 0, 0, 0, 0, 0, 0, 0, 0, 0, 0, 0, 0, 0, 0], "id": 9, "left_children": [1, 3, 5, 7, 9, 11, 13, 15, 17, 19, 21, 23, 25, 27, 29, 31, 33, 35, 37, 39, 41, 43, 45, 47, 49, 51, 53, 55, 57, 59, 61, -1, -1, -1, -1, -1, -1, -1, -1, -1, -1, -1, -1, -1, -1, -1, -1, -1, -1, -1, -1, -1, -1, -1, -1, -1, -1, -1, -1, -1, -1, -1, -1], "loss_changes": [2036.6353, 717.4415, 204.89258, 123.887695, 215.14539, 109.691315, 112.23059, 48.25244, 48.924835, 219.35774, 90.49542, 45.521416, 26.306427, 39.19204, 43.974854, 20.71231, 22.43628, 21.413193, 19.49995, 97.50241, 85.05513, 45.178192, 48.952003, 2.4536304, 7.024414, 6.755867, 28.332508, 15.986669, 1.510231, 17.751703, 14.552124, 0.0, 0.0, 0.0, 0.0, 0.0, 0.0, 0.0, 0.0, 0.0, 0.0, 0.0, 0.0, 0.0, 0.0, 0.0, 0.0, 0.0, 0.0, 0.0, 0.0, 0.0, 0.0, 0.0, 0.0, 0.0, 0.0, 0.0, 0.0, 0.0, 0.0, 0.0, 0.0], "parents": [2147483647, 0, 0, 1, 1, 2, 2, 3, 3, 4, 4, 5, 5, 6, 6, 7, 7, 8, 8, 9, 9, 10, 10, 11, 11, 12, 12, 13, 13, 14, 14, 15, 15, 16, 16, 17, 17, 18, 18, 19, 19, 20, 20, 21, 21, 22, 22, 23, 23, 24, 24, 25, 25, 26, 26, 27, 27, 28, 28, 29, 29, 30, 30], "right_children": [2, 4, 6, 8, 10, 12, 14, 16, 18, 20, 22, 24, 26, 28, 30, 32, 34, 36, 38, 40, 42, 44, 46, 48, 50, 52, 54, 56, 58, 60, 62, -1, -1, -1, -1, -1, -1, -1, -1, -1, -1, -1, -1, -1, -1, -1, -1, -1, -1, -1, -1, -1, -1, -1, -1, -1, -1, -1, -1, -1, -1, -1, -1], "split_conditions": [0.87583125, 0.3968762, 2.3382752, 0.18342441, 3.2237964, 0.73160195, 1.8015683, 0.025328785, 1.0, 0.12123419, 0.24667239, 0.9754784, 1.3671646, 1.7029774, 0.34639648, 0.548373, 0.08273864, 29.49036, 0.050529644, 3.2078202, 0.43388662, 0.33408645, 4.434908, 1.1368312, 0.18692407, 0.053810976, 0.98062253, 0.9513399, 7.1607013, 0.0027667836, 3.4702494, -0.07676135, -0.0, -0.1369729, -0.09646861, -0.07698205, -0.024845017, 0.038156487, -0.029899703, -0.07151251, -0.004188269, -0.01430828, 0.037308324, -0.039595813, 0.13850276, -0.017240485, 0.11295102, -0.047507357, 0.0005295511, -0.0, 0.15349913, -0.0, -0.10765876, 0.084639296, -0.031807676, -0.06609551, 0.030022824, -0.0, 0.15889697, -0.023289908, 0.10849695, 0.118011415, 0.1588692], "split_indices": [124, 62, 32, 124, 40, 24, 74, 6, 47, 103, 6, 44, 97, 40, 72, 105, 72, 39, 114, 62, 42, 27, 33, 6, 19, 14, 99, 131, 100, 105, 74, 0, 0, 0, 0, 0, 0, 0, 0, 0, 0, 0, 0, 0, 0, 0, 0, 0, 0, 0, 0, 0, 0, 0, 0, 0, 0, 0, 0, 0, 0, 0, 0], "split_type": [0, 0, 0, 0, 0, 0, 0, 0, 0, 0, 0, 0, 0, 0, 0, 0, 0, 0, 0, 0, 0, 0, 0, 0, 0, 0, 0, 0, 0, 0, 0, 0, 0, 0, 0, 0, 0, 0, 0, 0, 0, 0, 0, 0, 0, 0, 0, 0, 0, 0, 0, 0, 0, 0, 0, 0, 0, 0, 0, 0, 0, 0, 0], "sum_hessian": [49618.086, 38527.613, 11090.472, 15284.19, 23243.422, 2117.2146, 8973.257, 8599.757, 6684.4336, 20324.719, 2918.7024, 834.63477, 1282.5798, 1016.82996, 7956.4272, 1821.641, 6778.116, 5040.1245, 1644.3088, 8568.877, 11755.843, 1618.8547, 1299.8478, 160.89717, 673.73755, 344.253, 938.3269, 820.568, 196.26192, 328.2223, 7628.2046, 1443.599, 378.04208, 3755.8105, 3022.3057, 3947.857, 1092.2676, 566.0323, 1078.2765, 5396.507, 3172.3696, 4779.329, 6976.5137, 111.855194, 1506.9995, 954.53204, 345.31577, 111.603714, 49.293457, 24.322878, 649.4147, 15.484559, 328.76843, 258.84216, 679.48474, 201.82816, 618.73987, 2.1420672, 194.11986, 182.96524, 145.25705, 1726.6863, 5901.5186], "tree_param": {"num_deleted": "0", "num_feature": "152", "num_nodes": "63", "size_leaf_vector": "1"}}, {"base_weights": [-0.0, -0.09506663, 0.3675934, -0.25930008, 0.0034473685, 0.20970365, 0.49293387, -0.33733, -0.09997202, -0.042039055, 0.16609858, -0.096788354, 0.25974026, 0.12438675, 0.5186813, -0.19179556, -0.39788562, -0.15115917, 0.13815258, -0.085252844, 0.13094427, -0.04144959, 0.27503097, 0.08643765, -0.1681367, 0.2925586, -0.32055634, 0.36278135, -0.025171163, -0.0, 0.52295405, -0.06372732, 0.06038051, -0.0, -0.121997535, -0.11192267, -0.037305143, -0.038479954, 0.06707189, -0.09702791, -0.019826446, 0.014130461, 0.11437323, -0.10214289, 0.008558369, 0.11567771, -0.0, -0.00022645463, 0.08849101, -0.077464856, -0.0, 0.023421148, 0.1055936, -0.0, -0.12188224, -0.0, 0.13203925, -0.08241594, 0.02179474, -0.0, 0.15774709], "categories": [], "categories_nodes": [], "categories_segments": [], "categories_sizes": [], "default_left": [0, 0, 0, 0, 0, 0, 0, 0, 0, 0, 0, 0, 0, 0, 0, 0, 0, 0, 0, 0, 0, 0, 0, 0, 0, 0, 0, 0, 0, 0, 0, 0, 0, 0, 0, 0, 0, 0, 0, 0, 0, 0, 0, 0, 0, 0, 0, 0, 0, 0, 0, 0, 0, 0, 0, 0, 0, 0, 0, 0, 0], "id": 10, "left_children": [1, 3, 5, 7, 9, 11, 13, 15, 17, 19, 21, 23, 25, 27, 29, 31, 33, 35, 37, 39, 41, 43, 45, 47, 49, 51, 53, 55, 57, -1, 59, -1, -1, -1, -1, -1, -1, -1, -1, -1, -1, -1, -1, -1, -1, -1, -1, -1, -1, -1, -1, -1, -1, -1, -1, -1, -1, -1, -1, -1, -1], "loss_changes": [1592.502, 588.3595, 178.17883, 164.8396, 168.41054, 65.77182, 42.695312, 74.184814, 55.230972, 131.18898, 115.075, 8.14502, 68.8009, 16.405447, 9.805054, 22.233582, 19.516052, 17.315315, 18.40196, 60.609634, 68.60181, 38.397686, 98.0733, 5.091013, 7.845627, 39.582855, 8.115971, 4.0001183, 6.912169, 0.0, 7.2229004, 0.0, 0.0, 0.0, 0.0, 0.0, 0.0, 0.0, 0.0, 0.0, 0.0, 0.0, 0.0, 0.0, 0.0, 0.0, 0.0, 0.0, 0.0, 0.0, 0.0, 0.0, 0.0, 0.0, 0.0, 0.0, 0.0, 0.0, 0.0, 0.0, 0.0], "parents": [2147483647, 0, 0, 1, 1, 2, 2, 3, 3, 4, 4, 5, 5, 6, 6, 7, 7, 8, 8, 9, 9, 10, 10, 11, 11, 12, 12, 13, 13, 14, 14, 15, 15, 16, 16, 17, 17, 18, 18, 19, 19, 20, 20, 21, 21, 22, 22, 23, 23, 24, 24, 25, 25, 26, 26, 27, 27, 28, 28, 30, 30], "right_children": [2, 4, 6, 8, 10, 12, 14, 16, 18, 20, 22, 24, 26, 28, 30, 32, 34, 36, 38, 40, 42, 44, 46, 48, 50, 52, 54, 56, 58, -1, 60, -1, -1, -1, -1, -1, -1, -1, -1, -1, -1, -1, -1, -1, -1, -1, -1, -1, -1, -1, -1, -1, -1, -1, -1, -1, -1, -1, -1, -1, -1], "split_conditions": [0.9009644, 0.21078116, 4.48633, 0.26337066, 6.7596073, 1.0939902, 1.375229, 2.2995863, 0.3163801, 1.0, 0.73213273, 1.6424087, 23.304226, 0.24667239, 0.78909683, 0.33114654, 2.6352796e-05, 0.09003426, 8.355122, 7.3133516, 0.16368963, 0.8723268, 82.592384, 1.2222682, 1.495992, 0.5258129, 0.14520344, 1.3758923, 1.8477811, -0.0, 0.62105715, -0.06372732, 0.06038051, -0.0, -0.121997535, -0.11192267, -0.037305143, -0.038479954, 0.06707189, -0.09702791, -0.019826446, 0.014130461, 0.11437323, -0.10214289, 0.008558369, 0.11567771, -0.0, -0.00022645463, 0.08849101, -0.077464856, -0.0, 0.023421148, 0.1055936, -0.0, -0.12188224, -0.0, 0.13203925, -0.08241594, 0.02179474, -0.0, 0.15774709], "split_indices": [124, 108, 92, 75, 117, 32, 3, 36, 124, 47, 13, 60, 141, 6, 62, 124, 105, 151, 0, 0, 6, 51, 70, 62, 59, 85, 6, 7, 141, 0, 30, 0, 0, 0, 0, 0, 0, 0, 0, 0, 0, 0, 0, 0, 0, 0, 0, 0, 0, 0, 0, 0, 0, 0, 0, 0, 0, 0, 0, 0, 0], "split_type": [0, 0, 0, 0, 0, 0, 0, 0, 0, 0, 0, 0, 0, 0, 0, 0, 0, 0, 0, 0, 0, 0, 0, 0, 0, 0, 0, 0, 0, 0, 0, 0, 0, 0, 0, 0, 0, 0, 0, 0, 0, 0, 0, 0, 0, 0, 0, 0, 0, 0, 0, 0, 0, 0, 0, 0, 0, 0, 0, 0, 0], "sum_hessian": [45568.535, 36205.773, 9362.759, 13612.367, 22593.408, 4179.8774, 5182.8813, 9094.508, 4517.86, 17608.375, 4985.0317, 558.4407, 3621.4368, 364.18448, 4818.6973, 2721.993, 6372.5146, 3753.3923, 764.46747, 14135.448, 3472.9275, 1684.4601, 3300.5715, 117.17099, 441.26968, 3444.3706, 177.06615, 165.62193, 198.56255, 42.583412, 4776.114, 2610.8696, 111.12339, 154.01169, 6218.503, 362.9602, 3390.4321, 157.05533, 607.4122, 1012.6647, 13122.783, 2632.3213, 840.60626, 345.8058, 1338.6543, 2338.3025, 962.26904, 49.511295, 67.6597, 304.18762, 137.08206, 784.21234, 2660.1584, 18.04182, 159.02434, 32.769306, 132.85263, 84.19449, 114.36805, 25.873856, 4750.2397], "tree_param": {"num_deleted": "0", "num_feature": "152", "num_nodes": "61", "size_leaf_vector": "1"}}, {"base_weights": [-0.0, -0.17587763, 0.16608419, -0.29905042, -0.08077839, 0.048247106, 0.37977582, -0.3117274, 0.09190248, -0.13039063, 0.06705865, -0.23255225, 0.108777545, 0.23272903, 0.49591312, -0.119861074, -0.34396476, -0.2381596, 0.31053987, -0.16090325, 0.11546057, 0.017540067, 0.32076088, -0.37123725, -0.08492113, 0.0026961216, 0.21427505, 0.06729623, 0.30329305, 0.13460101, 0.5086251, -0.0, -0.047961283, -0.10808852, -0.0, -0.09951658, -0.0, -0.0, 0.11861276, -0.05258179, 0.03790029, 0.09924986, -0.0046061687, 0.061360925, -0.009983238, -0.0027762768, 0.11863064, -0.13286209, -0.056883633, 0.017094538, -0.067851685, -0.013591595, 0.090697326, -0.0041198703, 0.07353169, -0.020258823, 0.08167061, 0.021367617, 0.11571503, -0.020138718, 0.0868715, -0.0, 0.15348211], "categories": [], "categories_nodes": [], "categories_segments": [], "categories_sizes": [], "default_left": [0, 0, 0, 0, 0, 0, 0, 0, 0, 0, 0, 0, 0, 0, 0, 0, 0, 0, 0, 0, 0, 0, 0, 0, 0, 0, 0, 0, 0, 0, 0, 0, 0, 0, 0, 0, 0, 0, 0, 0, 0, 0, 0, 0, 0, 0, 0, 0, 0, 0, 0, 0, 0, 0, 0, 0, 0, 0, 0, 0, 0, 0, 0], "id": 11, "left_children": [1, 3, 5, 7, 9, 11, 13, 15, 17, 19, 21, 23, 25, 27, 29, 31, 33, 35, 37, 39, 41, 43, 45, 47, 49, 51, 53, 55, 57, 59, 61, -1, -1, -1, -1, -1, -1, -1, -1, -1, -1, -1, -1, -1, -1, -1, -1, -1, -1, -1, -1, -1, -1, -1, -1, -1, -1, -1, -1, -1, -1, -1, -1], "loss_changes": [1231.7986, 236.08478, 541.8405, 46.223267, 85.757774, 236.93266, 123.730835, 48.65851, 19.185688, 66.03589, 32.615627, 45.685562, 127.16089, 36.294205, 13.025635, 7.308777, 38.403015, 2.7991781, 6.8313007, 32.753082, 29.343132, 24.829115, 14.585239, 9.60762, 26.272884, 86.154175, 42.7153, 31.595613, 40.555557, 7.639308, 4.462036, 0.0, 0.0, 0.0, 0.0, 0.0, 0.0, 0.0, 0.0, 0.0, 0.0, 0.0, 0.0, 0.0, 0.0, 0.0, 0.0, 0.0, 0.0, 0.0, 0.0, 0.0, 0.0, 0.0, 0.0, 0.0, 0.0, 0.0, 0.0, 0.0, 0.0, 0.0, 0.0], "parents": [2147483647, 0, 0, 1, 1, 2, 2, 3, 3, 4, 4, 5, 5, 6, 6, 7, 7, 8, 8, 9, 9, 10, 10, 11, 11, 12, 12, 13, 13, 14, 14, 15, 15, 16, 16, 17, 17, 18, 18, 19, 19, 20, 20, 21, 21, 22, 22, 23, 23, 24, 24, 25, 25, 26, 26, 27, 27, 28, 28, 29, 29, 30, 30], "right_children": [2, 4, 6, 8, 10, 12, 14, 16, 18, 20, 22, 24, 26, 28, 30, 32, 34, 36, 38, 40, 42, 44, 46, 48, 50, 52, 54, 56, 58, 60, 62, -1, -1, -1, -1, -1, -1, -1, -1, -1, -1, -1, -1, -1, -1, -1, -1, -1, -1, -1, -1, -1, -1, -1, -1, -1, -1, -1, -1, -1, -1, -1, -1], "split_conditions": [0.4860479, 0.18342441, 7.651546, 0.10451648, 1.0, 0.5170722, 5.456389, 1.6187019, 2.118002, 0.5383594, 0.5849937, 0.8587653, 0.3020724, 2.650723, 0.3016674, 0.011868365, 4.81647, 0.047877047, 0.1429236, 5.155772, 1.6434804, 0.94779545, 0.042968288, 1.1329083, 2.648761, 17.38197, 0.00034001423, 1.7188443, 6.445819, 11.193845, 0.6913696, -0.0, -0.047961283, -0.10808852, -0.0, -0.09951658, -0.0, -0.0, 0.11861276, -0.05258179, 0.03790029, 0.09924986, -0.0046061687, 0.061360925, -0.009983238, -0.0027762768, 0.11863064, -0.13286209, -0.056883633, 0.017094538, -0.067851685, -0.013591595, 0.090697326, -0.0041198703, 0.07353169, -0.020258823, 0.08167061, 0.021367617, 0.11571503, -0.020138718, 0.0868715, -0.0, 0.15348211], "split_indices": [4, 124, 9, 76, 47, 13, 33, 92, 32, 22, 62, 127, 103, 60, 93, 50, 60, 103, 122, 60, 33, 92, 30, 59, 115, 148, 105, 53, 20, 9, 62, 0, 0, 0, 0, 0, 0, 0, 0, 0, 0, 0, 0, 0, 0, 0, 0, 0, 0, 0, 0, 0, 0, 0, 0, 0, 0, 0, 0, 0, 0, 0, 0], "split_type": [0, 0, 0, 0, 0, 0, 0, 0, 0, 0, 0, 0, 0, 0, 0, 0, 0, 0, 0, 0, 0, 0, 0, 0, 0, 0, 0, 0, 0, 0, 0, 0, 0, 0, 0, 0, 0, 0, 0, 0, 0, 0, 0, 0, 0, 0, 0, 0, 0, 0, 0, 0, 0, 0, 0, 0, 0, 0, 0, 0, 0, 0, 0], "sum_hessian": [42167.727, 20480.014, 21687.713, 8876.216, 11603.798, 14010.083, 7677.6304, 8622.408, 253.80777, 8738.8955, 2864.9026, 2454.7068, 11555.376, 3427.2898, 4250.3403, 1285.6351, 7336.7734, 82.872955, 170.93481, 7810.548, 928.3475, 2430.9128, 433.9896, 1229.9954, 1224.7114, 5809.5176, 5745.859, 1067.7314, 2359.5583, 171.58662, 4078.7537, 277.45105, 1008.1841, 6982.5156, 354.25784, 67.67041, 15.202548, 22.168142, 148.76666, 7471.959, 338.58878, 379.10538, 549.2421, 560.8557, 1870.0573, 55.532448, 378.45715, 841.5682, 388.42715, 575.9273, 648.7841, 4979.293, 830.2249, 645.82825, 5100.0303, 615.006, 452.72546, 650.69244, 1708.866, 46.75833, 124.8283, 30.37104, 4048.3826], "tree_param": {"num_deleted": "0", "num_feature": "152", "num_nodes": "63", "size_leaf_vector": "1"}}, {"base_weights": [-0.0, -0.06831815, 0.36927003, -0.24467544, 0.004312232, -0.00974931, 0.41245455, -0.3539686, -0.19020271, -0.023493418, 0.25108626, 0.30462626, -0.07981555, 0.23900358, 0.49094033, -0.11634161, -0.3998307, -0.04869841, -0.23080774, -0.13855124, 0.02564448, 0.40270498, 0.10698475, -0.0, 0.47216606, -0.1723645, 0.08668306, 0.15883128, 0.53176796, 0.25139788, 0.515392, -0.05723945, -0.0, -0.09577716, -0.14276034, -0.033392135, 0.028764877, -0.081774876, -0.036741413, -0.081687324, -0.003889834, -0.002915744, 0.048321307, -0.0, 0.13330588, 0.12067821, 0.0048103575, 0.16177335, -0.0, -0.0, -0.07156818, 0.06583973, -0.012656341, 0.06467901, -0.02722077, -0.0, 0.16487972, -0.0021065327, 0.14767696, -0.0, 0.15498115], "categories": [], "categories_nodes": [], "categories_segments": [], "categories_sizes": [], "default_left": [0, 0, 0, 0, 0, 0, 0, 0, 0, 0, 0, 0, 0, 0, 0, 0, 0, 0, 0, 0, 0, 0, 0, 0, 0, 0, 0, 0, 0, 0, 0, 0, 0, 0, 0, 0, 0, 0, 0, 0, 0, 0, 0, 0, 0, 0, 0, 0, 0, 0, 0, 0, 0, 0, 0, 0, 0, 0, 0, 0, 0], "id": 12, "left_children": [1, 3, 5, 7, 9, 11, 13, 15, 17, 19, 21, 23, 25, 27, 29, 31, 33, 35, 37, 39, 41, 43, 45, -1, 47, 49, 51, 53, 55, 57, 59, -1, -1, -1, -1, -1, -1, -1, -1, -1, -1, -1, -1, -1, -1, -1, -1, -1, -1, -1, -1, -1, -1, -1, -1, -1, -1, -1, -1, -1, -1], "loss_changes": [985.5786, 424.68552, 103.8634, 51.983643, 162.24072, 11.017863, 67.44586, 29.119965, 34.587463, 119.38315, 47.235306, 6.528848, 8.859831, 34.197403, 14.140015, 3.6744494, 7.8544617, 13.808889, 18.652893, 103.2988, 71.41906, 20.93254, 29.762497, 0.0, 2.422535, 5.8107195, 4.3020473, 21.183796, 4.004814, 28.927284, 3.293579, 0.0, 0.0, 0.0, 0.0, 0.0, 0.0, 0.0, 0.0, 0.0, 0.0, 0.0, 0.0, 0.0, 0.0, 0.0, 0.0, 0.0, 0.0, 0.0, 0.0, 0.0, 0.0, 0.0, 0.0, 0.0, 0.0, 0.0, 0.0, 0.0, 0.0], "parents": [2147483647, 0, 0, 1, 1, 2, 2, 3, 3, 4, 4, 5, 5, 6, 6, 7, 7, 8, 8, 9, 9, 10, 10, 11, 11, 12, 12, 13, 13, 14, 14, 15, 15, 16, 16, 17, 17, 18, 18, 19, 19, 20, 20, 21, 21, 22, 22, 24, 24, 25, 25, 26, 26, 27, 27, 28, 28, 29, 29, 30, 30], "right_children": [2, 4, 6, 8, 10, 12, 14, 16, 18, 20, 22, 24, 26, 28, 30, 32, 34, 36, 38, 40, 42, 44, 46, -1, 48, 50, 52, 54, 56, 58, 60, -1, -1, -1, -1, -1, -1, -1, -1, -1, -1, -1, -1, -1, -1, -1, -1, -1, -1, -1, -1, -1, -1, -1, -1, -1, -1, -1, -1, -1, -1], "split_conditions": [1.0342215, 0.16813663, 1.2442447, 0.096636616, 4.8643126, 0.80094403, 3.4702494, 1.0251545, 0.025328785, 0.064918034, 0.19333644, 0.48612878, 0.43812087, 1.7029774, 1.3092965, 13.228307, 3.029718, 0.12750028, 0.34992623, 2.6959875, 1.0, 0.14475437, 0.00023937102, -0.0, 86.48946, 1.413457, 21.24286, 49.261658, 0.56429255, 0.0011013167, 0.43189657, -0.05723945, -0.0, -0.09577716, -0.14276034, -0.033392135, 0.028764877, -0.081774876, -0.036741413, -0.081687324, -0.003889834, -0.002915744, 0.048321307, -0.0, 0.13330588, 0.12067821, 0.0048103575, 0.16177335, -0.0, -0.0, -0.07156818, 0.06583973, -0.012656341, 0.06467901, -0.02722077, -0.0, 0.16487972, -0.0021065327, 0.14767696, -0.0, 0.15498115], "split_indices": [124, 85, 44, 127, 38, 80, 74, 9, 6, 103, 6, 16, 40, 40, 3, 0, 92, 105, 86, 151, 47, 30, 105, 0, 1, 115, 141, 17, 13, 105, 85, 0, 0, 0, 0, 0, 0, 0, 0, 0, 0, 0, 0, 0, 0, 0, 0, 0, 0, 0, 0, 0, 0, 0, 0, 0, 0, 0, 0, 0, 0], "split_type": [0, 0, 0, 0, 0, 0, 0, 0, 0, 0, 0, 0, 0, 0, 0, 0, 0, 0, 0, 0, 0, 0, 0, 0, 0, 0, 0, 0, 0, 0, 0, 0, 0, 0, 0, 0, 0, 0, 0, 0, 0, 0, 0, 0, 0, 0, 0, 0, 0, 0, 0, 0, 0, 0, 0, 0, 0, 0, 0, 0, 0], "sum_hessian": [39065.098, 32966.773, 6098.323, 9655.969, 23310.805, 600.15265, 5498.171, 3148.9312, 6507.0376, 20914.6, 2396.2036, 82.75864, 517.394, 1753.7958, 3744.375, 545.27246, 2603.6587, 1506.2803, 5000.7573, 6319.349, 14595.251, 1132.9558, 1263.2478, 19.609715, 63.14892, 371.1269, 146.26712, 1404.7976, 348.9982, 385.7364, 3358.6384, 303.0454, 242.22707, 1330.497, 1273.1617, 1099.5378, 406.74243, 3541.3635, 1459.3938, 3021.1885, 3298.1606, 11515.358, 3079.8923, 96.58875, 1036.3671, 270.7775, 992.4703, 56.51317, 6.63575, 75.76265, 295.36423, 109.91242, 36.354702, 1177.2347, 227.5629, 9.08377, 339.91443, 166.52391, 219.21248, 3.4016206, 3355.2368], "tree_param": {"num_deleted": "0", "num_feature": "152", "num_nodes": "61", "size_leaf_vector": "1"}}, {"base_weights": [-0.0, -0.061320066, 0.35335, -0.18834084, 0.028559914, 0.17549211, 0.45927414, -0.31565076, -0.12795104, -0.00035922648, 0.22061379, 0.10689435, 0.44998777, 0.049617693, 0.4899444, -0.3720762, -0.09984434, -0.0066475035, -0.1628325, -0.08273742, 0.07907721, 0.118988715, 0.3902454, 0.33714482, 0.034093358, -0.0, 0.53138834, 0.40580517, -0.068298794, 0.23995054, 0.5109542, -0.07984632, -0.1261725, -0.0, -0.061997313, -0.044762213, 0.036079846, -0.052497048, 0.03501883, -0.05218454, -0.00039388597, -0.0027117145, 0.054324564, 0.15254429, 0.016554901, 0.1220917, -0.0, -0.0, 0.11298379, -0.048402805, 0.034314673, -0.0, 0.16434246, -0.0, 0.14777152, 0.0022476374, -0.054261196, -0.0, 0.14825943, -0.0, 0.15468979], "categories": [], "categories_nodes": [], "categories_segments": [], "categories_sizes": [], "default_left": [0, 0, 0, 0, 0, 0, 0, 0, 0, 0, 0, 0, 0, 0, 0, 0, 0, 0, 0, 0, 0, 0, 0, 0, 0, 0, 0, 0, 0, 0, 0, 0, 0, 0, 0, 0, 0, 0, 0, 0, 0, 0, 0, 0, 0, 0, 0, 0, 0, 0, 0, 0, 0, 0, 0, 0, 0, 0, 0, 0, 0], "id": 13, "left_children": [1, 3, 5, 7, 9, 11, 13, 15, 17, 19, 21, 23, 25, 27, 29, 31, 33, 35, 37, 39, 41, 43, 45, 47, 49, -1, 51, 53, 55, 57, 59, -1, -1, -1, -1, -1, -1, -1, -1, -1, -1, -1, -1, -1, -1, -1, -1, -1, -1, -1, -1, -1, -1, -1, -1, -1, -1, -1, -1, -1, -1], "loss_changes": [793.4369, 357.84494, 95.588806, 95.29016, 103.44279, 33.13631, 36.770813, 45.42575, 35.778046, 103.42524, 36.765656, 24.387596, 15.53167, 14.227069, 8.657227, 9.612488, 10.456851, 37.27138, 23.764084, 56.30912, 73.46215, 33.065056, 7.7500763, 7.8279114, 20.077635, 0.0, 4.047783, 4.738514, 3.2144394, 21.509558, 3.9347534, 0.0, 0.0, 0.0, 0.0, 0.0, 0.0, 0.0, 0.0, 0.0, 0.0, 0.0, 0.0, 0.0, 0.0, 0.0, 0.0, 0.0, 0.0, 0.0, 0.0, 0.0, 0.0, 0.0, 0.0, 0.0, 0.0, 0.0, 0.0, 0.0, 0.0], "parents": [2147483647, 0, 0, 1, 1, 2, 2, 3, 3, 4, 4, 5, 5, 6, 6, 7, 7, 8, 8, 9, 9, 10, 10, 11, 11, 12, 12, 13, 13, 14, 14, 15, 15, 16, 16, 17, 17, 18, 18, 19, 19, 20, 20, 21, 21, 22, 22, 23, 23, 24, 24, 26, 26, 27, 27, 28, 28, 29, 29, 30, 30], "right_children": [2, 4, 6, 8, 10, 12, 14, 16, 18, 20, 22, 24, 26, 28, 30, 32, 34, 36, 38, 40, 42, 44, 46, 48, 50, -1, 52, 54, 56, 58, 60, -1, -1, -1, -1, -1, -1, -1, -1, -1, -1, -1, -1, -1, -1, -1, -1, -1, -1, -1, -1, -1, -1, -1, -1, -1, -1, -1, -1, -1, -1], "split_conditions": [1.0342215, 0.4691254, 3.51732, 0.169173, 4.3136015, 1.7656665, 0.8628026, 0.12750028, 30.03734, 0.21187189, 1.5198693, 0.88621306, 0.56429255, 0.8998449, 0.62610054, 0.11427089, 0.8034371, 0.012614403, 3.568284, 0.046904903, 3.0389607, 4.5451407, 0.022880586, 0.028025359, 2.118002, -0.0, 0.6246056, 0.8723268, 0.1218408, 0.000819227, 1.3671646, -0.07984632, -0.1261725, -0.0, -0.061997313, -0.044762213, 0.036079846, -0.052497048, 0.03501883, -0.05218454, -0.00039388597, -0.0027117145, 0.054324564, 0.15254429, 0.016554901, 0.1220917, -0.0, -0.0, 0.11298379, -0.048402805, 0.034314673, -0.0, 0.16434246, -0.0, 0.14777152, 0.0022476374, -0.054261196, -0.0, 0.14825943, -0.0, 0.15468979], "split_indices": [124, 62, 74, 75, 38, 40, 30, 105, 17, 103, 30, 80, 13, 24, 66, 6, 36, 105, 30, 76, 33, 121, 105, 30, 32, 0, 15, 51, 30, 105, 97, 0, 0, 0, 0, 0, 0, 0, 0, 0, 0, 0, 0, 0, 0, 0, 0, 0, 0, 0, 0, 0, 0, 0, 0, 0, 0, 0, 0, 0, 0], "split_type": [0, 0, 0, 0, 0, 0, 0, 0, 0, 0, 0, 0, 0, 0, 0, 0, 0, 0, 0, 0, 0, 0, 0, 0, 0, 0, 0, 0, 0, 0, 0, 0, 0, 0, 0, 0, 0, 0, 0, 0, 0, 0, 0, 0, 0, 0, 0, 0, 0, 0, 0, 0, 0, 0, 0, 0, 0, 0, 0, 0, 0], "sum_hessian": [36616.848, 31202.773, 5414.0767, 12975.548, 18227.225, 2057.0815, 3356.995, 4120.067, 8855.48, 15797.408, 2429.817, 1676.049, 381.0326, 256.71887, 3100.2764, 3228.7942, 891.27277, 2042.0247, 6813.456, 7816.8853, 7980.5225, 1557.4266, 872.39026, 368.7614, 1307.2875, 53.07456, 327.958, 84.33488, 172.384, 278.21454, 2822.0618, 1080.8615, 2147.9326, 439.14713, 452.12564, 998.7568, 1043.2678, 6564.138, 249.31807, 3628.4146, 4188.471, 4229.6426, 3750.88, 196.1801, 1361.2465, 848.86414, 23.526157, 18.249334, 350.5121, 344.10962, 963.1779, 5.936198, 322.02182, 7.88561, 76.449265, 50.49123, 121.89278, 125.321, 152.89352, 36.196358, 2785.8655], "tree_param": {"num_deleted": "0", "num_feature": "152", "num_nodes": "61", "size_leaf_vector": "1"}}, {"base_weights": [-0.0, -0.06315441, 0.28860727, -0.1862644, 0.017923087, -0.21896632, 0.3276105, -0.2694681, -0.0738658, -0.044952027, 0.1359521, -0.0, -0.3117742, 0.1865972, 0.44141132, -0.0, -0.29350033, -0.10938421, 0.09085648, 0.006678368, -0.1220758, 0.041521072, 0.26901957, -0.13811566, 0.13323848, -0.0, -0.34265456, 0.11044891, 0.30704457, 0.18627532, 0.48104507, -0.014750321, 0.040082682, -0.09233403, -0.0, -0.036282007, 0.028552247, 0.05140433, -0.059676584, -0.0047814576, 0.082118265, -0.04430276, 0.089802094, -0.038060468, 0.036737356, 0.12105374, 0.048086748, -0.0, -0.0772154, -0.0, 0.0734615, -0.0, -0.11507326, 0.012766888, 0.08185963, 0.121275395, 0.03507773, -0.0, 0.11181826, 0.021060228, 0.14898764], "categories": [], "categories_nodes": [], "categories_segments": [], "categories_sizes": [], "default_left": [0, 0, 0, 0, 0, 0, 0, 0, 0, 0, 0, 0, 0, 0, 0, 0, 0, 0, 0, 0, 0, 0, 0, 0, 0, 0, 0, 0, 0, 0, 0, 0, 0, 0, 0, 0, 0, 0, 0, 0, 0, 0, 0, 0, 0, 0, 0, 0, 0, 0, 0, 0, 0, 0, 0, 0, 0, 0, 0, 0, 0], "id": 14, "left_children": [1, 3, 5, 7, 9, 11, 13, 15, 17, 19, 21, 23, 25, 27, 29, 31, 33, 35, 37, 39, 41, 43, 45, 47, 49, -1, 51, 53, 55, 57, 59, -1, -1, -1, -1, -1, -1, -1, -1, -1, -1, -1, -1, -1, -1, -1, -1, -1, -1, -1, -1, -1, -1, -1, -1, -1, -1, -1, -1, -1, -1], "loss_changes": [628.73145, 284.17905, 123.763306, 102.10196, 127.19181, 9.461393, 86.22925, 42.600037, 28.592316, 45.144184, 71.89489, 2.1885717, 4.111372, 19.801476, 25.12091, 3.6712358, 22.70514, 9.82642, 18.687202, 42.08565, 47.15751, 48.17433, 29.886795, 1.9885082, 1.898952, 0.0, 3.8906326, 15.097746, 12.52961, 17.841068, 11.545044, 0.0, 0.0, 0.0, 0.0, 0.0, 0.0, 0.0, 0.0, 0.0, 0.0, 0.0, 0.0, 0.0, 0.0, 0.0, 0.0, 0.0, 0.0, 0.0, 0.0, 0.0, 0.0, 0.0, 0.0, 0.0, 0.0, 0.0, 0.0, 0.0, 0.0], "parents": [2147483647, 0, 0, 1, 1, 2, 2, 3, 3, 4, 4, 5, 5, 6, 6, 7, 7, 8, 8, 9, 9, 10, 10, 11, 11, 12, 12, 13, 13, 14, 14, 15, 15, 16, 16, 17, 17, 18, 18, 19, 19, 20, 20, 21, 21, 22, 22, 23, 23, 24, 24, 26, 26, 27, 27, 28, 28, 29, 29, 30, 30], "right_children": [2, 4, 6, 8, 10, 12, 14, 16, 18, 20, 22, 24, 26, 28, 30, 32, 34, 36, 38, 40, 42, 44, 46, 48, 50, -1, 52, 54, 56, 58, 60, -1, -1, -1, -1, -1, -1, -1, -1, -1, -1, -1, -1, -1, -1, -1, -1, -1, -1, -1, -1, -1, -1, -1, -1, -1, -1, -1, -1, -1, -1], "split_conditions": [0.8883489, 0.24299964, 1.2389182, 0.2361835, 0.6593672, 1.6424087, 2.045329, 0.8034371, 0.33114654, 0.31350148, 6.6822166, 1.0, 0.49025327, 3.3410594, 1.9617057, 0.10318168, 2.7983603, 5.5833282, 1.0, 14.858724, 1.0, 1.0559288, 0.24920145, 0.82730883, 1.2233791, -0.0, 0.37326512, 1.0, 0.8757296, 0.00096849597, 1.1830491, -0.014750321, 0.040082682, -0.09233403, -0.0, -0.036282007, 0.028552247, 0.05140433, -0.059676584, -0.0047814576, 0.082118265, -0.04430276, 0.089802094, -0.038060468, 0.036737356, 0.12105374, 0.048086748, -0.0, -0.0772154, -0.0, 0.0734615, -0.0, -0.11507326, 0.012766888, 0.08185963, 0.121275395, 0.03507773, -0.0, 0.11181826, 0.021060228, 0.14898764], "split_indices": [133, 108, 59, 75, 40, 60, 97, 36, 124, 6, 20, 47, 49, 60, 12, 118, 151, 60, 45, 121, 47, 108, 6, 23, 10, 0, 3, 47, 21, 105, 50, 0, 0, 0, 0, 0, 0, 0, 0, 0, 0, 0, 0, 0, 0, 0, 0, 0, 0, 0, 0, 0, 0, 0, 0, 0, 0, 0, 0, 0, 0], "split_type": [0, 0, 0, 0, 0, 0, 0, 0, 0, 0, 0, 0, 0, 0, 0, 0, 0, 0, 0, 0, 0, 0, 0, 0, 0, 0, 0, 0, 0, 0, 0, 0, 0, 0, 0, 0, 0, 0, 0, 0, 0, 0, 0, 0, 0, 0, 0, 0, 0, 0, 0, 0, 0, 0, 0, 0, 0, 0, 0, 0, 0], "sum_hessian": [34492.848, 28300.73, 6192.118, 11285.937, 17014.793, 423.2389, 5768.8794, 6433.29, 4852.6465, 11046.251, 5968.542, 117.64325, 305.59564, 2616.8237, 3152.0557, 516.02765, 5917.2627, 4042.1074, 810.53925, 6539.5864, 4506.6646, 3535.8184, 2432.7239, 47.816315, 69.826935, 17.754765, 287.84085, 1655.2777, 961.5459, 458.50592, 2693.5496, 360.2996, 155.72803, 5620.52, 296.74268, 3872.631, 169.47627, 661.66693, 148.87234, 5995.332, 544.25433, 4271.556, 235.10818, 1107.5127, 2428.3057, 1045.1971, 1387.5266, 4.742902, 43.073414, 18.1886, 51.638336, 31.900621, 255.94025, 1211.6299, 443.64786, 600.6909, 360.85498, 216.3169, 242.18904, 122.06698, 2571.4827], "tree_param": {"num_deleted": "0", "num_feature": "152", "num_nodes": "61", "size_leaf_vector": "1"}}, {"base_weights": [-0.0, -0.08084592, 0.19795132, -0.19156249, 0.016195176, 0.11508056, 0.45878413, -0.07308434, -0.23396564, -0.027878711, 0.13426647, -0.11852593, 0.15613897, 0.048677795, 0.48667192, -0.11274539, 0.02400235, -0.41454902, -0.19113818, 0.043204628, -0.08812059, -0.17045394, 0.17444405, 0.27914712, -0.17432743, 0.2022246, -0.04137769, -0.26011628, 0.34707692, -0.0, 0.49059927, 0.018399427, -0.0454908, 0.046463184, -0.0016129462, -0.13519365, -0.0, -0.077004, -0.026970016, -0.07707071, 0.03231237, -0.011194241, -0.082791924, -0.0, -0.082020774, 0.032415427, 0.12074437, 0.10738419, -0.0, -0.0993441, -0.017513398, 0.03594711, 0.09535199, -0.056543276, 0.07612801, -0.0, -0.10678859, -0.0, 0.123951666, -0.0, 0.148811], "categories": [], "categories_nodes": [], "categories_segments": [], "categories_sizes": [], "default_left": [0, 0, 0, 0, 0, 0, 0, 0, 0, 0, 0, 0, 0, 0, 0, 0, 0, 0, 0, 0, 0, 0, 0, 0, 0, 0, 0, 0, 0, 0, 0, 0, 0, 0, 0, 0, 0, 0, 0, 0, 0, 0, 0, 0, 0, 0, 0, 0, 0, 0, 0, 0, 0, 0, 0, 0, 0, 0, 0, 0, 0], "id": 15, "left_children": [1, 3, 5, 7, 9, 11, 13, 15, 17, 19, 21, 23, 25, 27, 29, 31, 33, 35, 37, 39, 41, 43, 45, 47, 49, 51, 53, 55, 57, -1, 59, -1, -1, -1, -1, -1, -1, -1, -1, -1, -1, -1, -1, -1, -1, -1, -1, -1, -1, -1, -1, -1, -1, -1, -1, -1, -1, -1, -1, -1, -1], "loss_changes": [521.4952, 250.34012, 198.46085, 51.44696, 64.98498, 69.46754, 20.343567, 12.151785, 55.2052, 38.492496, 41.70161, 22.093815, 57.705597, 16.360348, 3.8450012, 15.465954, 4.4793077, 19.622025, 39.35965, 75.956535, 43.477398, 8.480992, 40.783684, 3.4523067, 13.091808, 43.57463, 48.257847, 2.7490716, 4.134094, 0.0, 3.2494812, 0.0, 0.0, 0.0, 0.0, 0.0, 0.0, 0.0, 0.0, 0.0, 0.0, 0.0, 0.0, 0.0, 0.0, 0.0, 0.0, 0.0, 0.0, 0.0, 0.0, 0.0, 0.0, 0.0, 0.0, 0.0, 0.0, 0.0, 0.0, 0.0, 0.0], "parents": [2147483647, 0, 0, 1, 1, 2, 2, 3, 3, 4, 4, 5, 5, 6, 6, 7, 7, 8, 8, 9, 9, 10, 10, 11, 11, 12, 12, 13, 13, 14, 14, 15, 15, 16, 16, 17, 17, 18, 18, 19, 19, 20, 20, 21, 21, 22, 22, 23, 23, 24, 24, 25, 25, 26, 26, 27, 27, 28, 28, 30, 30], "right_children": [2, 4, 6, 8, 10, 12, 14, 16, 18, 20, 22, 24, 26, 28, 30, 32, 34, 36, 38, 40, 42, 44, 46, 48, 50, 52, 54, 56, 58, -1, 60, -1, -1, -1, -1, -1, -1, -1, -1, -1, -1, -1, -1, -1, -1, -1, -1, -1, -1, -1, -1, -1, -1, -1, -1, -1, -1, -1, -1, -1, -1], "split_conditions": [3.9771903, 0.2561152, 12.466573, 0.04403928, 1.0, 0.4204393, 1.8078666, 1.1514509, 0.0029786523, 0.26312193, 0.18306988, 1.5802683, 840.6861, 1.0711296, 0.019987043, 0.36722606, 4.366683, 6.4784803, 0.34919345, 0.007910921, 1.0, 0.524144, 0.17670283, 0.95488006, 0.22255725, 1.8822742, 2.0267527, 5.3668118, 0.36072552, -0.0, 1.6056385, 0.018399427, -0.0454908, 0.046463184, -0.0016129462, -0.13519365, -0.0, -0.077004, -0.026970016, -0.07707071, 0.03231237, -0.011194241, -0.082791924, -0.0, -0.082020774, 0.032415427, 0.12074437, 0.10738419, -0.0, -0.0993441, -0.017513398, 0.03594711, 0.09535199, -0.056543276, 0.07612801, -0.0, -0.10678859, -0.0, 0.123951666, -0.0, 0.148811], "split_indices": [117, 124, 20, 6, 47, 27, 51, 146, 149, 6, 27, 60, 39, 124, 110, 59, 5, 100, 146, 6, 45, 1, 6, 3, 42, 30, 53, 92, 93, 0, 30, 0, 0, 0, 0, 0, 0, 0, 0, 0, 0, 0, 0, 0, 0, 0, 0, 0, 0, 0, 0, 0, 0, 0, 0, 0, 0, 0, 0, 0, 0], "split_type": [0, 0, 0, 0, 0, 0, 0, 0, 0, 0, 0, 0, 0, 0, 0, 0, 0, 0, 0, 0, 0, 0, 0, 0, 0, 0, 0, 0, 0, 0, 0, 0, 0, 0, 0, 0, 0, 0, 0, 0, 0, 0, 0, 0, 0, 0, 0, 0, 0, 0, 0, 0, 0, 0, 0, 0, 0, 0, 0, 0, 0], "sum_hessian": [32584.203, 23135.82, 9448.382, 10854.141, 12281.68, 7200.4604, 2247.9214, 2923.6785, 7930.4624, 8882.188, 3399.4917, 1039.6743, 6160.786, 166.13492, 2081.7866, 2148.7346, 774.9438, 1473.8306, 6456.632, 3998.4456, 4883.7427, 366.63904, 3032.8525, 105.390785, 934.2835, 5036.2964, 1124.49, 65.2392, 100.89572, 17.237902, 2064.5486, 345.32593, 1803.4087, 203.68602, 571.25775, 1343.6484, 130.18213, 3858.3894, 2598.2424, 679.4116, 3319.034, 3886.9207, 996.8219, 111.27993, 255.35912, 2384.063, 648.78955, 90.64873, 14.742058, 359.69797, 574.5856, 2992.2224, 2044.074, 773.30853, 351.18155, 9.172592, 56.066605, 5.7761393, 95.11958, 31.82881, 2032.7198], "tree_param": {"num_deleted": "0", "num_feature": "152", "num_nodes": "61", "size_leaf_vector": "1"}}, {"base_weights": [-0.0, -0.09977903, 0.14107943, -0.16967204, 0.020793974, 0.07875319, 0.38691145, -0.2862607, -0.119379655, -0.010399417, 0.27502975, 0.037858643, 0.2503764, 0.20261922, 0.48827404, -0.0, -0.3101331, -0.18415065, -0.05060981, -0.09559381, 0.092543855, 0.37285423, 0.0022170725, 0.23257591, 0.00040694536, -0.0262461, 0.29201367, -0.16426517, 0.23643342, -0.0, 0.4945476, -0.04913292, 0.014356644, -0.10559737, -0.0516626, -0.060779445, -0.0, -0.0, -0.05687031, -0.05643973, 0.0019351975, 0.009622311, 0.1088898, 0.11797704, -0.0, -0.04472266, 0.07031138, 0.08858281, -0.0, -0.071627304, 0.0066682794, -0.0, -0.09069379, -0.0, 0.09515974, -0.0618154, -0.0, 0.08174492, -0.016089939, -0.0, 0.15018006], "categories": [], "categories_nodes": [], "categories_segments": [], "categories_sizes": [], "default_left": [0, 0, 0, 0, 0, 0, 0, 0, 0, 0, 0, 0, 0, 0, 0, 0, 0, 0, 0, 0, 0, 0, 0, 0, 0, 0, 0, 0, 0, 0, 0, 0, 0, 0, 0, 0, 0, 0, 0, 0, 0, 0, 0, 0, 0, 0, 0, 0, 0, 0, 0, 0, 0, 0, 0, 0, 0, 0, 0, 0, 0], "id": 16, "left_children": [1, 3, 5, 7, 9, 11, 13, 15, 17, 19, 21, 23, 25, 27, 29, 31, 33, 35, 37, 39, 41, 43, 45, 47, 49, 51, 53, 55, 57, -1, 59, -1, -1, -1, -1, -1, -1, -1, -1, -1, -1, -1, -1, -1, -1, -1, -1, -1, -1, -1, -1, -1, -1, -1, -1, -1, -1, -1, -1, -1, -1], "loss_changes": [434.9105, 153.99673, 191.41565, 63.390167, 54.9039, 69.00532, 40.737793, 23.159668, 33.731316, 51.212852, 16.402191, 58.350933, 24.825745, 12.467609, 5.2129517, 2.1294963, 12.848694, 15.860672, 27.022717, 32.47346, 38.383682, 4.3230743, 8.8714905, 21.425209, 34.49008, 2.9541326, 15.153381, 0.7075931, 11.503407, 0.0, 3.9093018, 0.0, 0.0, 0.0, 0.0, 0.0, 0.0, 0.0, 0.0, 0.0, 0.0, 0.0, 0.0, 0.0, 0.0, 0.0, 0.0, 0.0, 0.0, 0.0, 0.0, 0.0, 0.0, 0.0, 0.0, 0.0, 0.0, 0.0, 0.0, 0.0, 0.0], "parents": [2147483647, 0, 0, 1, 1, 2, 2, 3, 3, 4, 4, 5, 5, 6, 6, 7, 7, 8, 8, 9, 9, 10, 10, 11, 11, 12, 12, 13, 13, 14, 14, 15, 15, 16, 16, 17, 17, 18, 18, 19, 19, 20, 20, 21, 21, 22, 22, 23, 23, 24, 24, 25, 25, 26, 26, 27, 27, 28, 28, 30, 30], "right_children": [2, 4, 6, 8, 10, 12, 14, 16, 18, 20, 22, 24, 26, 28, 30, 32, 34, 36, 38, 40, 42, 44, 46, 48, 50, 52, 54, 56, 58, -1, 60, -1, -1, -1, -1, -1, -1, -1, -1, -1, -1, -1, -1, -1, -1, -1, -1, -1, -1, -1, -1, -1, -1, -1, -1, -1, -1, -1, -1, -1, -1], "split_conditions": [0.42046008, 0.7665032, 5.1477337, 0.10289931, 25.440092, 1.3736098, 1.4913751, 0.36722606, 9.336632, 6.1925707, 0.20320785, 0.31180686, 1.745731, 0.7273742, 0.19054982, 7.170524e-05, 2.74078, 0.060990177, 1.0, 2.9117231, 4.529865, 7.1847167, 0.94000536, 1.0, 0.33408645, 3.2379885, 0.44300693, 26.595816, 79.67574, -0.0, 0.4989889, -0.04913292, 0.014356644, -0.10559737, -0.0516626, -0.060779445, -0.0, -0.0, -0.05687031, -0.05643973, 0.0019351975, 0.009622311, 0.1088898, 0.11797704, -0.0, -0.04472266, 0.07031138, 0.08858281, -0.0, -0.071627304, 0.0066682794, -0.0, -0.09069379, -0.0, 0.09515974, -0.0618154, -0.0, 0.08174492, -0.016089939, -0.0, 0.15018006], "split_indices": [124, 146, 140, 124, 148, 133, 30, 59, 0, 20, 6, 99, 59, 59, 22, 18, 32, 76, 45, 151, 60, 54, 66, 45, 27, 86, 75, 11, 120, 0, 15, 0, 0, 0, 0, 0, 0, 0, 0, 0, 0, 0, 0, 0, 0, 0, 0, 0, 0, 0, 0, 0, 0, 0, 0, 0, 0, 0, 0, 0, 0], "split_type": [0, 0, 0, 0, 0, 0, 0, 0, 0, 0, 0, 0, 0, 0, 0, 0, 0, 0, 0, 0, 0, 0, 0, 0, 0, 0, 0, 0, 0, 0, 0, 0, 0, 0, 0, 0, 0, 0, 0, 0, 0, 0, 0, 0, 0, 0, 0, 0, 0, 0, 0, 0, 0, 0, 0, 0, 0, 0, 0, 0, 0], "sum_hessian": [30893.62, 18095.67, 12797.948, 11507.566, 6588.105, 10243.016, 2554.932, 3406.6606, 8100.9053, 5833.937, 754.1678, 8320.005, 1923.0111, 942.67084, 1612.2611, 263.62817, 3143.0325, 4095.9954, 4004.9102, 3245.3464, 2588.5906, 527.8653, 226.3025, 1298.2062, 7021.799, 220.21112, 1702.7999, 54.268238, 888.4026, 19.356274, 1592.9048, 61.006115, 202.62204, 2354.4385, 788.594, 3770.2747, 325.7208, 2968.4167, 1036.4932, 1752.8942, 1492.4523, 2146.6687, 441.92188, 502.36652, 25.498802, 111.15011, 115.1524, 1050.766, 247.44025, 547.9362, 6473.8623, 187.22034, 32.990772, 109.213264, 1593.5867, 50.791, 3.4772348, 820.91437, 67.48821, 22.709618, 1570.1952], "tree_param": {"num_deleted": "0", "num_feature": "152", "num_nodes": "61", "size_leaf_vector": "1"}}, {"base_weights": [-0.0, -0.04659594, 0.25803748, -0.1088998, 0.095796496, 0.15246579, 0.46523663, -0.217729, -0.06621476, 0.059618052, 0.3204776, 0.24810909, 0.06624822, -0.0, 0.4753649, -0.11276695, -0.30104065, -0.07579528, 0.30031365, 0.014350022, 0.1502507, -0.06535065, 0.34953618, -0.09579805, 0.28553295, -0.15370719, 0.13261451, -0.0, 0.48050264, -0.041793317, 0.013722536, -0.11223107, -0.0645518, -0.007257375, -0.0352722, -0.0, 0.14063193, -0.06486785, 0.013347843, 0.025188327, 0.10898547, -0.0, 0.11940027, -0.105384916, -0.0, 0.0942513, -0.0, -0.06814828, -0.0, 0.0016003669, 0.07458682, -0.0, 0.14534171], "categories": [], "categories_nodes": [], "categories_segments": [], "categories_sizes": [], "default_left": [0, 0, 0, 0, 0, 0, 0, 0, 0, 0, 0, 0, 0, 0, 0, 0, 0, 0, 0, 0, 0, 0, 0, 0, 0, 0, 0, 0, 0, 0, 0, 0, 0, 0, 0, 0, 0, 0, 0, 0, 0, 0, 0, 0, 0, 0, 0, 0, 0, 0, 0, 0, 0], "id": 17, "left_children": [1, 3, 5, 7, 9, 11, 13, 15, 17, 19, 21, 23, 25, -1, 27, 29, 31, 33, 35, 37, 39, -1, 41, 43, 45, 47, 49, -1, 51, -1, -1, -1, -1, -1, -1, -1, -1, -1, -1, -1, -1, -1, -1, -1, -1, -1, -1, -1, -1, -1, -1, -1, -1], "loss_changes": [354.7124, 221.83481, 92.45987, 78.12642, 57.61331, 21.766533, 6.9627686, 38.192627, 41.98339, 25.221087, 17.186005, 19.656448, 23.838528, 0.0, 5.150757, 10.192183, 10.634506, 25.087944, 16.669182, 29.167078, 25.26302, 0.0, 14.060539, 5.359677, 11.232773, 5.880831, 16.654432, 0.0, 3.269867, 0.0, 0.0, 0.0, 0.0, 0.0, 0.0, 0.0, 0.0, 0.0, 0.0, 0.0, 0.0, 0.0, 0.0, 0.0, 0.0, 0.0, 0.0, 0.0, 0.0, 0.0, 0.0, 0.0, 0.0], "parents": [2147483647, 0, 0, 1, 1, 2, 2, 3, 3, 4, 4, 5, 5, 6, 6, 7, 7, 8, 8, 9, 9, 10, 10, 11, 11, 12, 12, 14, 14, 15, 15, 16, 16, 17, 17, 18, 18, 19, 19, 20, 20, 22, 22, 23, 23, 24, 24, 25, 25, 26, 26, 28, 28], "right_children": [2, 4, 6, 8, 10, 12, 14, 16, 18, 20, 22, 24, 26, -1, 28, 30, 32, 34, 36, 38, 40, -1, 42, 44, 46, 48, 50, -1, 52, -1, -1, -1, -1, -1, -1, -1, -1, -1, -1, -1, -1, -1, -1, -1, -1, -1, -1, -1, -1, -1, -1, -1, -1], "split_conditions": [3.058591, 0.5219782, 11.537586, 0.113761656, 14.569558, 0.24667239, 0.36895344, 2.4060864, 13.805696, 1.0, 9.492243, 0.30119747, 6.7878404, -0.0, 0.8576557, 3.1264493, 0.029169658, 0.19088316, 0.9525803, 1.980112, 2.0637527, -0.06535065, 2.6020844, 3.5834248, 2.135891, 0.80489475, 0.37596208, -0.0, 0.40238023, -0.041793317, 0.013722536, -0.11223107, -0.0645518, -0.007257375, -0.0352722, -0.0, 0.14063193, -0.06486785, 0.013347843, 0.025188327, 0.10898547, -0.0, 0.11940027, -0.105384916, -0.0, 0.0942513, -0.0, -0.06814828, -0.0, 0.0016003669, 0.07458682, -0.0, 0.14534171], "split_indices": [38, 22, 9, 19, 121, 6, 86, 36, 20, 47, 0, 27, 100, 0, 4, 60, 35, 6, 13, 92, 100, 0, 92, 4, 66, 75, 75, 0, 42, 0, 0, 0, 0, 0, 0, 0, 0, 0, 0, 0, 0, 0, 0, 0, 0, 0, 0, 0, 0, 0, 0, 0, 0], "split_type": [0, 0, 0, 0, 0, 0, 0, 0, 0, 0, 0, 0, 0, 0, 0, 0, 0, 0, 0, 0, 0, 0, 0, 0, 0, 0, 0, 0, 0, 0, 0, 0, 0, 0, 0, 0, 0, 0, 0, 0, 0, 0, 0, 0, 0, 0, 0, 0, 0, 0, 0, 0, 0], "sum_hessian": [29499.596, 24988.11, 4511.488, 17431.44, 7556.669, 3021.8164, 1489.6711, 4843.681, 12587.759, 6548.064, 1008.60504, 1376.7217, 1645.0947, 32.0317, 1457.6395, 2197.4988, 2646.1824, 12294.476, 293.28336, 4441.283, 2106.781, 33.69901, 974.90607, 108.73456, 1267.987, 346.08444, 1299.0103, 8.717316, 1448.9221, 1936.4305, 261.06818, 1364.9592, 1281.2233, 5608.246, 6686.229, 97.64876, 195.6346, 474.40573, 3966.8774, 1643.66, 463.12097, 134.43875, 840.4673, 50.594414, 58.14014, 1160.9873, 106.99975, 271.87686, 74.20759, 661.0154, 637.99493, 9.732145, 1439.1901], "tree_param": {"num_deleted": "0", "num_feature": "152", "num_nodes": "53", "size_leaf_vector": "1"}}, {"base_weights": [-0.0, -0.03175943, 0.32364038, -0.17839989, 0.010718097, 0.19710757, 0.4576398, -0.049639683, -0.23141262, -0.009163382, 0.20014141, 0.23296897, -0.23752362, -0.0, 0.4721823, -0.093255684, 0.10084859, -0.31700096, -0.16737428, -0.038938463, 0.115744784, 0.34789008, 0.117465705, 0.08752412, 0.31435928, -0.32989496, -0.0, -0.0, 0.47985554, -0.04421807, -0.0, -0.0, 0.043829877, -0.05045495, -0.113376, -0.05907916, -0.0, -0.04349088, -0.00097352057, -0.13375632, 0.044555064, -0.0, 0.11264602, 0.07775572, -0.002155284, -0.057668217, 0.049903497, 0.03596641, 0.12049643, -0.0, -0.11073706, -0.0, 0.1455274], "categories": [], "categories_nodes": [], "categories_segments": [], "categories_sizes": [], "default_left": [0, 0, 0, 0, 0, 0, 0, 0, 0, 0, 0, 0, 0, 0, 0, 0, 0, 0, 0, 0, 0, 0, 0, 0, 0, 0, 0, 0, 0, 0, 0, 0, 0, 0, 0, 0, 0, 0, 0, 0, 0, 0, 0, 0, 0, 0, 0, 0, 0, 0, 0, 0, 0], "id": 18, "left_children": [1, 3, 5, 7, 9, 11, 13, 15, 17, 19, 21, 23, 25, -1, 27, 29, 31, 33, 35, 37, 39, 41, 43, 45, 47, 49, -1, -1, 51, -1, -1, -1, -1, -1, -1, -1, -1, -1, -1, -1, -1, -1, -1, -1, -1, -1, -1, -1, -1, -1, -1, -1, -1], "loss_changes": [290.8087, 162.1623, 36.230347, 37.0401, 76.95115, 20.90372, 8.737564, 11.481791, 17.472977, 66.12887, 19.009247, 10.8704605, 2.3912616, 0.0, 6.5397644, 6.6828384, 2.805503, 9.695389, 10.06369, 53.731876, 59.627293, 7.859703, 25.295446, 10.74546, 7.697853, 1.0272722, 0.0, 0.0, 3.3390808, 0.0, 0.0, 0.0, 0.0, 0.0, 0.0, 0.0, 0.0, 0.0, 0.0, 0.0, 0.0, 0.0, 0.0, 0.0, 0.0, 0.0, 0.0, 0.0, 0.0, 0.0, 0.0, 0.0, 0.0], "parents": [2147483647, 0, 0, 1, 1, 2, 2, 3, 3, 4, 4, 5, 5, 6, 6, 7, 7, 8, 8, 9, 9, 10, 10, 11, 11, 12, 12, 14, 14, 15, 15, 16, 16, 17, 17, 18, 18, 19, 19, 20, 20, 21, 21, 22, 22, 23, 23, 24, 24, 25, 25, 28, 28], "right_children": [2, 4, 6, 8, 10, 12, 14, 16, 18, 20, 22, 24, 26, -1, 28, 30, 32, 34, 36, 38, 40, 42, 44, 46, 48, 50, -1, -1, 52, -1, -1, -1, -1, -1, -1, -1, -1, -1, -1, -1, -1, -1, -1, -1, -1, -1, -1, -1, -1, -1, -1, -1, -1], "split_conditions": [1.6149818, 0.2801028, 3.266196, 0.04403928, 4.4266624, 22.711206, 1.0782295, 0.548373, 0.08273864, 12.485953, 0.0014585495, 3.4962702, 2.2812662, -0.0, 2.1233656, 0.27109778, 0.027136674, 2.2995863, 0.019268306, 0.18342441, 8.979492, 0.6370635, 32.169197, 2.0325977e-05, 2.01013, 1.8265306, -0.0, -0.0, 0.25842214, -0.04421807, -0.0, -0.0, 0.043829877, -0.05045495, -0.113376, -0.05907916, -0.0, -0.04349088, -0.00097352057, -0.13375632, 0.044555064, -0.0, 0.11264602, 0.07775572, -0.002155284, -0.057668217, 0.049903497, 0.03596641, 0.12049643, -0.0, -0.11073706, -0.0, 0.1455274], "split_indices": [149, 62, 83, 6, 38, 141, 124, 105, 72, 121, 105, 120, 101, 0, 100, 130, 62, 36, 105, 124, 0, 66, 17, 105, 41, 72, 0, 0, 131, 0, 0, 0, 0, 0, 0, 0, 0, 0, 0, 0, 0, 0, 0, 0, 0, 0, 0, 0, 0, 0, 0, 0, 0], "split_type": [0, 0, 0, 0, 0, 0, 0, 0, 0, 0, 0, 0, 0, 0, 0, 0, 0, 0, 0, 0, 0, 0, 0, 0, 0, 0, 0, 0, 0, 0, 0, 0, 0, 0, 0, 0, 0, 0, 0, 0, 0, 0, 0, 0, 0, 0, 0, 0, 0, 0, 0, 0, 0], "sum_hessian": [28290.541, 25763.248, 2527.2935, 5838.8057, 19924.443, 1339.5155, 1187.778, 1758.4226, 4080.3828, 17984.94, 1939.5024, 1259.0992, 80.41626, 32.907795, 1154.8701, 1415.1117, 343.31094, 1677.8287, 2402.5542, 14588.211, 3396.729, 651.3396, 1288.1628, 496.60458, 762.4946, 63.178234, 17.238028, 8.269413, 1146.6007, 873.4923, 541.6194, 48.81926, 294.4917, 536.1041, 1141.7246, 1994.7186, 407.8355, 3602.7178, 10985.493, 169.76735, 3226.9617, 36.61821, 614.7214, 639.84283, 648.31995, 80.95825, 415.64633, 272.45773, 490.03693, 5.3767295, 57.801502, 10.449188, 1136.1516], "tree_param": {"num_deleted": "0", "num_feature": "152", "num_nodes": "53", "size_leaf_vector": "1"}}, {"base_weights": [-0.0, -0.11487709, 0.0812221, -0.20124182, -0.06463675, 0.040719826, 0.2945121, -0.09960775, -0.27866852, -0.048453346, -0.24481685, -0.025390182, 0.11253152, 0.13418525, 0.47442517, -0.14750819, 0.010046268, -0.3395803, -0.18132819, 0.28371972, -0.058546223, -0.31591183, 0.086588584, -0.15050204, 0.06325081, 0.080634624, 0.35278922, 0.21678624, -0.0, -0.0, 0.4946759, -0.06584638, -0.0, 0.049109694, -0.018506834, -0.10473146, -0.0, -0.061860528, 0.009648601, -0.0, 0.1280131, -0.026159223, 0.0027475285, -0.0, -0.104752354, -0.0, 0.075694546, -0.08467957, -0.013145133, -0.021219522, 0.039633445, -0.058922734, 0.028960934, -0.0, 0.11809052, -0.0821923, 0.078832716, -0.03390773, 0.0322737, -0.0, 0.14975157], "categories": [], "categories_nodes": [], "categories_segments": [], "categories_sizes": [], "default_left": [0, 0, 0, 0, 0, 0, 0, 0, 0, 0, 0, 0, 0, 0, 0, 0, 0, 0, 0, 0, 0, 0, 0, 0, 0, 0, 0, 0, 0, 0, 0, 0, 0, 0, 0, 0, 0, 0, 0, 0, 0, 0, 0, 0, 0, 0, 0, 0, 0, 0, 0, 0, 0, 0, 0, 0, 0, 0, 0, 0, 0], "id": 19, "left_children": [1, 3, 5, 7, 9, 11, 13, 15, 17, 19, 21, 23, 25, 27, 29, 31, 33, 35, 37, 39, 41, 43, 45, 47, 49, 51, 53, 55, 57, -1, 59, -1, -1, -1, -1, -1, -1, -1, -1, -1, -1, -1, -1, -1, -1, -1, -1, -1, -1, -1, -1, -1, -1, -1, -1, -1, -1, -1, -1, -1, -1], "loss_changes": [253.87808, 46.227768, 134.33286, 28.225784, 18.049206, 64.66283, 66.08357, 10.923882, 8.095688, 20.08802, 15.095352, 77.67168, 45.550453, 16.79938, 13.117279, 13.631289, 6.432403, 2.828949, 6.701704, 9.476592, 13.374865, 6.797924, 2.6472018, 37.75216, 37.58975, 24.518452, 11.747147, 19.744465, 5.8857126, 0.0, 3.129181, 0.0, 0.0, 0.0, 0.0, 0.0, 0.0, 0.0, 0.0, 0.0, 0.0, 0.0, 0.0, 0.0, 0.0, 0.0, 0.0, 0.0, 0.0, 0.0, 0.0, 0.0, 0.0, 0.0, 0.0, 0.0, 0.0, 0.0, 0.0, 0.0, 0.0], "parents": [2147483647, 0, 0, 1, 1, 2, 2, 3, 3, 4, 4, 5, 5, 6, 6, 7, 7, 8, 8, 9, 9, 10, 10, 11, 11, 12, 12, 13, 13, 14, 14, 15, 15, 16, 16, 17, 17, 18, 18, 19, 19, 20, 20, 21, 21, 22, 22, 23, 23, 24, 24, 25, 25, 26, 26, 27, 27, 28, 28, 30, 30], "right_children": [2, 4, 6, 8, 10, 12, 14, 16, 18, 20, 22, 24, 26, 28, 30, 32, 34, 36, 38, 40, 42, 44, 46, 48, 50, 52, 54, 56, 58, -1, 60, -1, -1, -1, -1, -1, -1, -1, -1, -1, -1, -1, -1, -1, -1, -1, -1, -1, -1, -1, -1, -1, -1, -1, -1, -1, -1, -1, -1, -1, -1], "split_conditions": [0.55995923, 0.11494938, 14.185119, 0.14138116, 51.751926, 0.89144844, 3.7043211, 0.032905415, 0.019268306, 2.6352796e-05, 118.4914, 2.4947093, 6.5532937, 2.4786723, 0.49763948, 0.12750028, 0.09788589, 4.398659, 4.019908, 0.0067340285, 0.014360425, 2.9216216, 0.33754706, 0.15523818, 0.25860187, 0.7273742, 0.27194878, 9.402944, 1.2574017, -0.0, 1.0653607, -0.06584638, -0.0, 0.049109694, -0.018506834, -0.10473146, -0.0, -0.061860528, 0.009648601, -0.0, 0.1280131, -0.026159223, 0.0027475285, -0.0, -0.104752354, -0.0, 0.075694546, -0.08467957, -0.013145133, -0.021219522, 0.039633445, -0.058922734, 0.028960934, -0.0, 0.11809052, -0.0821923, 0.078832716, -0.03390773, 0.0322737, -0.0, 0.14975157], "split_indices": [62, 72, 121, 6, 17, 101, 32, 116, 105, 105, 9, 151, 140, 72, 42, 105, 139, 60, 41, 81, 105, 36, 10, 124, 122, 59, 42, 0, 30, 0, 100, 0, 0, 0, 0, 0, 0, 0, 0, 0, 0, 0, 0, 0, 0, 0, 0, 0, 0, 0, 0, 0, 0, 0, 0, 0, 0, 0, 0, 0, 0], "split_type": [0, 0, 0, 0, 0, 0, 0, 0, 0, 0, 0, 0, 0, 0, 0, 0, 0, 0, 0, 0, 0, 0, 0, 0, 0, 0, 0, 0, 0, 0, 0, 0, 0, 0, 0, 0, 0, 0, 0, 0, 0, 0, 0, 0, 0, 0, 0, 0, 0, 0, 0, 0, 0, 0, 0, 0, 0, 0, 0, 0, 0], "sum_hessian": [27207.312, 11268.794, 15938.518, 4070.1052, 7198.689, 13435.32, 2503.1978, 1816.7682, 2253.3372, 6657.495, 541.1936, 6923.1997, 6512.12, 1353.9625, 1149.2351, 1327.6558, 489.11246, 1321.2991, 932.0381, 166.3024, 6491.193, 470.48398, 70.70961, 2917.4697, 4005.7302, 5786.8135, 725.3067, 875.58875, 478.3738, 38.643074, 1110.592, 882.0535, 445.60217, 199.63257, 289.4799, 1273.3435, 47.95557, 876.762, 55.276035, 41.293526, 125.00887, 4664.6313, 1826.5615, 29.793447, 440.69052, 21.682837, 49.02677, 1262.6415, 1654.8281, 1310.5461, 2695.184, 279.3706, 5507.443, 67.09774, 658.209, 55.966263, 819.6225, 270.50146, 207.87233, 7.3755174, 1103.2166], "tree_param": {"num_deleted": "0", "num_feature": "152", "num_nodes": "61", "size_leaf_vector": "1"}}, {"base_weights": [-0.0, -0.0614285, 0.124728136, -0.17028213, -0.00079654163, 0.015679466, 0.25086337, -0.06369651, -0.21755043, 0.03143315, -0.10775779, -0.03503409, 0.16432515, 0.012587435, 0.30582625, -0.092846185, 0.04323746, -0.29214337, -0.15371051, -0.053087723, 0.08786141, -0.03267101, -0.23737232, -0.076352574, 0.12146094, 0.3700717, 0.082421266, -0.16003062, 0.23618905, 0.20873114, 0.41178086, -0.0, -0.04318658, 0.123881735, -0.0, -0.09589423, -0.0, -0.05739227, 0.00056538795, 0.023591869, -0.026851086, -0.013039266, 0.038103092, -0.037593037, 0.025400959, -0.0868032, 0.033540312, -0.042015158, -0.0, -0.012844385, 0.06536769, -0.0, 0.11990855, -0.014077734, 0.042016525, -0.07242698, 0.029986545, -0.0, 0.10154136, -0.08091524, 0.067970924, -0.0, 0.12671159], "categories": [], "categories_nodes": [], "categories_segments": [], "categories_sizes": [], "default_left": [0, 0, 0, 0, 0, 0, 0, 0, 0, 0, 0, 0, 0, 0, 0, 0, 0, 0, 0, 0, 0, 0, 0, 0, 0, 0, 0, 0, 0, 0, 0, 0, 0, 0, 0, 0, 0, 0, 0, 0, 0, 0, 0, 0, 0, 0, 0, 0, 0, 0, 0, 0, 0, 0, 0, 0, 0, 0, 0, 0, 0, 0, 0], "id": 20, "left_children": [1, 3, 5, 7, 9, 11, 13, 15, 17, 19, 21, 23, 25, 27, 29, 31, 33, 35, 37, 39, 41, 43, 45, 47, 49, 51, 53, 55, 57, 59, 61, -1, -1, -1, -1, -1, -1, -1, -1, -1, -1, -1, -1, -1, -1, -1, -1, -1, -1, -1, -1, -1, -1, -1, -1, -1, -1, -1, -1, -1, -1, -1, -1], "loss_changes": [201.20447, 114.416214, 116.52385, 28.588593, 39.930176, 36.662056, 48.87503, 6.678541, 15.755707, 41.65007, 23.594501, 21.85635, 16.402359, 30.915895, 26.5896, 7.85997, 8.56655, 17.351334, 15.739853, 16.407322, 27.903011, 19.562654, 18.908466, 14.529675, 12.375875, 3.8495636, 7.838086, 10.235238, 7.6651535, 14.30159, 8.870941, 0.0, 0.0, 0.0, 0.0, 0.0, 0.0, 0.0, 0.0, 0.0, 0.0, 0.0, 0.0, 0.0, 0.0, 0.0, 0.0, 0.0, 0.0, 0.0, 0.0, 0.0, 0.0, 0.0, 0.0, 0.0, 0.0, 0.0, 0.0, 0.0, 0.0, 0.0, 0.0], "parents": [2147483647, 0, 0, 1, 1, 2, 2, 3, 3, 4, 4, 5, 5, 6, 6, 7, 7, 8, 8, 9, 9, 10, 10, 11, 11, 12, 12, 13, 13, 14, 14, 15, 15, 16, 16, 17, 17, 18, 18, 19, 19, 20, 20, 21, 21, 22, 22, 23, 23, 24, 24, 25, 25, 26, 26, 27, 27, 28, 28, 29, 29, 30, 30], "right_children": [2, 4, 6, 8, 10, 12, 14, 16, 18, 20, 22, 24, 26, 28, 30, 32, 34, 36, 38, 40, 42, 44, 46, 48, 50, 52, 54, 56, 58, 60, 62, -1, -1, -1, -1, -1, -1, -1, -1, -1, -1, -1, -1, -1, -1, -1, -1, -1, -1, -1, -1, -1, -1, -1, -1, -1, -1, -1, -1, -1, -1, -1, -1], "split_conditions": [2.9846387, 0.18342441, 7.3399487, 0.04403928, 1.0, 4.8643126, 2.0629978, 0.48619184, 0.09069427, 0.4338076, 0.28943807, 0.8789475, 5.8429036, 2.1084065, 1.6344985, 1.5308061, 0.0066062594, 18.020702, 3.444801, 0.33894673, 8.026036, 0.8471776, 0.4103096, 2.399675, 3.3690357, 0.53663605, 2.8591313, 13.597823, 0.24935351, 0.67591655, 1.6719066, -0.0, -0.04318658, 0.123881735, -0.0, -0.09589423, -0.0, -0.05739227, 0.00056538795, 0.023591869, -0.026851086, -0.013039266, 0.038103092, -0.037593037, 0.025400959, -0.0868032, 0.033540312, -0.042015158, -0.0, -0.012844385, 0.06536769, -0.0, 0.11990855, -0.014077734, 0.042016525, -0.07242698, 0.029986545, -0.0, 0.10154136, -0.08091524, 0.067970924, -0.0, 0.12671159], "split_indices": [117, 124, 20, 6, 45, 38, 60, 21, 124, 62, 6, 22, 121, 38, 27, 36, 105, 141, 60, 96, 0, 46, 40, 151, 9, 123, 20, 20, 75, 13, 7, 0, 0, 0, 0, 0, 0, 0, 0, 0, 0, 0, 0, 0, 0, 0, 0, 0, 0, 0, 0, 0, 0, 0, 0, 0, 0, 0, 0, 0, 0, 0, 0], "split_type": [0, 0, 0, 0, 0, 0, 0, 0, 0, 0, 0, 0, 0, 0, 0, 0, 0, 0, 0, 0, 0, 0, 0, 0, 0, 0, 0, 0, 0, 0, 0, 0, 0, 0, 0, 0, 0, 0, 0, 0, 0, 0, 0, 0, 0, 0, 0, 0, 0, 0, 0, 0, 0, 0, 0, 0, 0, 0, 0, 0, 0, 0, 0], "sum_hessian": [26258.518, 17593.996, 8664.5205, 6234.4463, 11359.551, 4690.1304, 3974.3901, 1981.1174, 4253.329, 8657.943, 2701.6074, 3447.4512, 1242.6793, 779.2675, 3195.1228, 1630.3417, 350.77576, 1887.5856, 2365.7437, 3395.239, 5262.704, 1760.2714, 941.336, 2778.3193, 669.13184, 318.0669, 924.61237, 414.6918, 364.5757, 1718.0651, 1477.0576, 573.4502, 1056.8915, 53.094875, 297.68088, 1746.3822, 141.20337, 1956.9243, 408.81924, 675.6054, 2719.6338, 1149.877, 4112.827, 1031.2592, 729.01215, 844.4559, 96.88012, 1565.8444, 1212.475, 209.34969, 459.78214, 21.446196, 296.6207, 231.57259, 693.0398, 345.1669, 69.5249, 120.654144, 243.92157, 41.097126, 1676.968, 23.470554, 1453.587], "tree_param": {"num_deleted": "0", "num_feature": "152", "num_nodes": "63", "size_leaf_vector": "1"}}, {"base_weights": [-0.0, -0.06080448, 0.11254886, -0.16462696, -0.020343684, 0.07481778, 0.35545248, -0.073009126, -0.2376897, -0.034405503, 0.23106411, 0.040665876, 0.2110288, -0.05751751, 0.39674655, -0.09625348, 0.061625425, -0.25135157, -0.0, -0.044199567, 0.24788398, 0.08713029, 0.4393192, -0.030335868, 0.12233293, 0.38270393, 0.12631877, -0.0, -0.17739429, 0.053571377, 0.46126112, -0.04267949, -0.0, 0.0462763, -0.04347776, -0.0768667, -0.0, -0.04697524, 0.03451505, -0.04869717, -0.004729192, 0.04373842, 0.16682386, -0.010024994, 0.04504499, 0.13841851, -0.0, 0.0031272045, -0.03800731, 0.10071401, 0.017266385, -0.0, 0.11887633, 0.048816252, -0.06579261, -0.0, -0.07679855, 0.07690911, -0.010868969, -0.0, 0.1406482], "categories": [], "categories_nodes": [], "categories_segments": [], "categories_sizes": [], "default_left": [0, 0, 0, 0, 0, 0, 0, 0, 0, 0, 0, 0, 0, 0, 0, 0, 0, 0, 0, 0, 0, 0, 0, 0, 0, 0, 0, 0, 0, 0, 0, 0, 0, 0, 0, 0, 0, 0, 0, 0, 0, 0, 0, 0, 0, 0, 0, 0, 0, 0, 0, 0, 0, 0, 0, 0, 0, 0, 0, 0, 0], "id": 21, "left_children": [1, 3, 5, 7, 9, 11, 13, 15, 17, 19, 21, 23, 25, 27, 29, 31, 33, 35, 37, 39, 41, 43, 45, 47, 49, 51, 53, -1, 55, 57, 59, -1, -1, -1, -1, -1, -1, -1, -1, -1, -1, -1, -1, -1, -1, -1, -1, -1, -1, -1, -1, -1, -1, -1, -1, -1, -1, -1, -1, -1, -1], "loss_changes": [173.03653, 67.10673, 76.95333, 27.22593, 40.05092, 33.355663, 23.137161, 6.8420343, 8.610596, 29.1942, 12.439419, 37.03084, 16.49083, 1.7267852, 18.594284, 6.9671345, 4.7569785, 3.02919, 2.1677046, 34.992157, 3.7412205, 4.0564246, 3.033989, 13.992124, 36.98565, 3.4735794, 12.50931, 0.0, 1.8161194, 5.7715497, 3.5774078, 0.0, 0.0, 0.0, 0.0, 0.0, 0.0, 0.0, 0.0, 0.0, 0.0, 0.0, 0.0, 0.0, 0.0, 0.0, 0.0, 0.0, 0.0, 0.0, 0.0, 0.0, 0.0, 0.0, 0.0, 0.0, 0.0, 0.0, 0.0, 0.0, 0.0], "parents": [2147483647, 0, 0, 1, 1, 2, 2, 3, 3, 4, 4, 5, 5, 6, 6, 7, 7, 8, 8, 9, 9, 10, 10, 11, 11, 12, 12, 13, 13, 14, 14, 15, 15, 16, 16, 17, 17, 18, 18, 19, 19, 20, 20, 21, 21, 22, 22, 23, 23, 24, 24, 25, 25, 26, 26, 28, 28, 29, 29, 30, 30], "right_children": [2, 4, 6, 8, 10, 12, 14, 16, 18, 20, 22, 24, 26, 28, 30, 32, 34, 36, 38, 40, 42, 44, 46, 48, 50, 52, 54, -1, 56, 58, 60, -1, -1, -1, -1, -1, -1, -1, -1, -1, -1, -1, -1, -1, -1, -1, -1, -1, -1, -1, -1, -1, -1, -1, -1, -1, -1, -1, -1, -1, -1], "split_conditions": [0.7274775, 0.13303345, 4.558416, 1.5734698, 17.434656, 4.4266624, 1.1872789, 3.1264493, 4.25514, 483.5796, 0.81244874, 1.2870997, 0.0016939085, 0.7786622, 0.81877315, 0.169173, 0.7530417, 1.1224495, 0.83255315, 0.1283489, 3.9715292, 0.12345721, 1.0457093, 0.27150378, 0.6400495, 1.124447, 2.3385394, -0.0, 3.067499, 5.0668993, 0.5381072, -0.04267949, -0.0, 0.0462763, -0.04347776, -0.0768667, -0.0, -0.04697524, 0.03451505, -0.04869717, -0.004729192, 0.04373842, 0.16682386, -0.010024994, 0.04504499, 0.13841851, -0.0, 0.0031272045, -0.03800731, 0.10071401, 0.017266385, -0.0, 0.11887633, 0.048816252, -0.06579261, -0.0, -0.07679855, 0.07690911, -0.010868969, -0.0, 0.1406482], "split_indices": [123, 72, 74, 9, 121, 38, 51, 60, 60, 25, 13, 101, 105, 44, 86, 75, 14, 140, 30, 124, 30, 93, 127, 6, 21, 33, 91, 0, 114, 33, 85, 0, 0, 0, 0, 0, 0, 0, 0, 0, 0, 0, 0, 0, 0, 0, 0, 0, 0, 0, 0, 0, 0, 0, 0, 0, 0, 0, 0, 0, 0], "split_type": [0, 0, 0, 0, 0, 0, 0, 0, 0, 0, 0, 0, 0, 0, 0, 0, 0, 0, 0, 0, 0, 0, 0, 0, 0, 0, 0, 0, 0, 0, 0, 0, 0, 0, 0, 0, 0, 0, 0, 0, 0, 0, 0, 0, 0, 0, 0, 0, 0, 0, 0, 0, 0, 0, 0, 0, 0, 0, 0, 0, 0], "sum_hessian": [25282.893, 16415.1, 8867.792, 4533.0537, 11882.047, 7712.2915, 1155.5009, 2072.7607, 2460.2932, 11291.1455, 590.90076, 6225.979, 1486.3125, 82.98942, 1072.5115, 1831.173, 241.5877, 2336.2964, 123.996895, 10947.586, 343.5597, 378.6419, 212.25887, 3265.2952, 2960.6836, 450.91367, 1035.3989, 20.286674, 62.702744, 194.53687, 877.9746, 1181.9314, 649.24164, 200.38943, 41.19828, 2294.419, 41.877464, 43.313007, 80.68388, 2054.9087, 8892.678, 283.55316, 60.006508, 75.67547, 302.96643, 206.5917, 5.66716, 2222.3235, 1042.9717, 652.5669, 2308.1167, 8.25695, 442.6567, 963.39465, 72.00421, 5.4003105, 57.302433, 93.31406, 101.2228, 11.866046, 866.1085], "tree_param": {"num_deleted": "0", "num_feature": "152", "num_nodes": "61", "size_leaf_vector": "1"}}, {"base_weights": [-0.0, -0.030696737, 0.1924685, -0.10125461, 0.038443625, 0.11492601, 0.41167805, -0.15113294, -0.014893305, -0.003849623, 0.1461082, 0.076508716, 0.30261856, 0.17654623, 0.4780928, -0.24001916, -0.09845035, -0.10225942, 0.08622854, -0.07764828, 0.0678667, 0.079545215, 0.34662625, 0.04070047, 0.36013785, 0.40344512, 0.0072015882, -0.0, 0.29344067, -0.0, 0.48651686, -0.020505216, -0.0942343, -0.041853555, 0.0042407024, -0.050158706, 0.011004347, 0.040082328, -0.03912434, -0.010324378, -0.07292725, 0.014531453, 0.13220146, 0.033706076, -0.07331897, -0.0, 0.116296865, -0.018311208, 0.032377254, -0.0, 0.1260278, 0.12688541, -0.0, 0.025882151, -0.0, 0.00013171487, -0.0, -0.0, 0.09950862, -0.0, 0.1479252], "categories": [], "categories_nodes": [], 