{"learner": {"attributes": {}, "feature_names": ["distances_mean", "rc_sum_2v_penalty_removed", "rc_cap_mean_2v", "rc_mean_1", "rth_mean_1v", "tango_sigma", "rth_sum_1v", "c_penalty_ell_mean_1", "rth_cap_sum_1", "rc_mean_2v_penalty_removed", "rth_sum_1v_penalty_removed", "rc_norm_2v", "distances_sum", "rc_cap_wmean_2v", "rth_cap_norm_2v", "rc_cap_mean_1", "rth_mean_1_penalty_removed", "rc_sum_1v_penalty_removed", "rc_wmean_2v_penalty_removed", "rc_mean_2v", "rc_cap_sum_1v", "c_penalty_mean_1", "rc_cap_norm_2", "rth_cap_mean_2v", "rc_cap_sum_2v", "rc_sum_1", "c_penalty_ell_sum_1", "first_is_not_closest", "rc_cap_sum_1", "first_is_not_largest", "tango_variance", "rc_cap_mean_2", "rc_mean_2", "rc_cap_mean_1v", "rth_cap_sum_2", "ge_distances_mean", "rth_mean_1", "rth_sum_2v", "rth_cap_sum_2v", "rth_norm_2v", "rc_mean_1_penalty_removed", "rth_sum_2_penalty_removed", "rth_mean_1v_penalty_removed", "c_penalty_ell_mean_2", "rc_wmean_1v_penalty_removed", "rc_cap_sum_2", "rth_norm_2", "rth_cap_mean_1v", "rc_mean_2_penalty_removed", "rc_norm_2", "rc_sum_1_penalty_removed", "rth_mean_2", "rc_cap_wmean_1v", "rth_sum_1", "rth_sum_1_penalty_removed", "rth_mean_2v_penalty_removed", "tango_v_variance", "rc_wmean_1v", "rth_cap_mean_2", "rc_sum_2_penalty_removed", "rth_cap_sum_1v", "rth_mean_2v", "rc_sum_1v", "rth_cap_norm_2", "rth_sum_2", "ge_distances_sum", "c_penalty_ell_sum_2", "rth_cap_mean_1", "rth_wmean_1v_penalty_removed", "rth_cap_wmean_1v", "rth_cap_wmean_2v", "rc_mean_1v_penalty_removed", "rth_sum_2v_penalty_removed", "rth_mean_2_penalty_removed", "c_penalty_sum_1", "rc_sum_2v", "rc_cap_norm_2v", "rc_sum_2", "rth_wmean_2v", "tango_v_sigma", "rc_mean_1v", "rc_wmean_2v", "rth_wmean_2v_penalty_removed", "rth_wmean_1v"], "feature_types": ["float", "float", "float", "float", "float", "float", "float", "float", "float", "float", "float", "float", "float", "float", "float", "float", "float", "float", "float", "float", "float", "float", "float", "float", "float", "float", "float", "float", "float", "float", "float", "float", "float", "float", "float", "float", "float", "float", "float", "float", "float", "float", "float", "float", "float", "float", "float", "float", "float", "float", "float", "float", "float", "float", "float", "float", "float", "float", "float", "float", "float", "float", "float", "float", "float", "float", "float", "float", "float", "float", "float", "float", "float", "float", "float", "float", "float", "float", "float", "float", "float", "float", "float", "float"], "gradient_booster": {"model": {"gbtree_model_param": {"num_parallel_tree": "1", "num_trees": "100"}, "iteration_indptr": [0, 1, 2, 3, 4, 5, 6, 7, 8, 9, 10, 11, 12, 13, 14, 15, 16, 17, 18, 19, 20, 21, 22, 23, 24, 25, 26, 27, 28, 29, 30, 31, 32, 33, 34, 35, 36, 37, 38, 39, 40, 41, 42, 43, 44, 45, 46, 47, 48, 49, 50, 51, 52, 53, 54, 55, 56, 57, 58, 59, 60, 61, 62, 63, 64, 65, 66, 67, 68, 69, 70, 71, 72, 73, 74, 75, 76, 77, 78, 79, 80, 81, 82, 83, 84, 85, 86, 87, 88, 89, 90, 91, 92, 93, 94, 95, 96, 97, 98, 99, 100], "tree_info": [0, 0, 0, 0, 0, 0, 0, 0, 0, 0, 0, 0, 0, 0, 0, 0, 0, 0, 0, 0, 0, 0, 0, 0, 0, 0, 0, 0, 0, 0, 0, 0, 0, 0, 0, 0, 0, 0, 0, 0, 0, 0, 0, 0, 0, 0, 0, 0, 0, 0, 0, 0, 0, 0, 0, 0, 0, 0, 0, 0, 0, 0, 0, 0, 0, 0, 0, 0, 0, 0, 0, 0, 0, 0, 0, 0, 0, 0, 0, 0, 0, 0, 0, 0, 0, 0, 0, 0, 0, 0, 0, 0, 0, 0, 0, 0, 0, 0, 0, 0], "trees": [{"base_weights": [-0.0, -0.59845805, 0.77538663, -0.7361587, 0.310159, 0.84932154, -0.27015215, -0.835721, -0.34409672, 0.7577774, -0.38837957, 0.16013937, 0.8888494, 0.4953473, -0.79478425, -0.8703142, -0.4328886, -0.46706626, 0.1305113, 0.80963105, 0.25034058, 0.23165503, -0.65182185, -0.021503832, 0.66221154, 0.30957162, 0.9202774, 0.09704827, 0.7828825, -0.25591144, -0.85053456, -0.27299187, -0.21064955, -0.0733403, -0.20115773, -0.05474295, -0.19112404, 0.06388034, -0.10706505, 0.26583892, 0.14970973, -0.07793201, 0.14044766, -0.022312362, 0.18544912, -0.08013502, -0.23582445, -0.06472565, 0.16681904, 0.2508254, 0.028905133, -0.07738893, 0.12981671, 0.2821068, 0.18555947, -0.10459548, 0.09548857, 0.2541304, -0.0, -0.15746641, 0.069339015, -0.27196765, -0.16754991], "categories": [], "categories_nodes": [], "categories_segments": [], "categories_sizes": [], "default_left": [0, 0, 0, 0, 0, 0, 0, 0, 0, 0, 0, 0, 0, 0, 0, 0, 0, 0, 0, 0, 0, 0, 0, 0, 0, 0, 0, 0, 0, 0, 0, 0, 0, 0, 0, 0, 0, 0, 0, 0, 0, 0, 0, 0, 0, 0, 0, 0, 0, 0, 0, 0, 0, 0, 0, 0, 0, 0, 0, 0, 0, 0, 0], "id": 0, "left_children": [1, 3, 5, 7, 9, 11, 13, 15, 17, 19, 21, 23, 25, 27, 29, 31, 33, 35, 37, 39, 41, 43, 45, 47, 49, 51, 53, 55, 57, 59, 61, -1, -1, -1, -1, -1, -1, -1, -1, -1, -1, -1, -1, -1, -1, -1, -1, -1, -1, -1, -1, -1, -1, -1, -1, -1, -1, -1, -1, -1, -1, -1, -1], "loss_changes": [38230.953, 5822.3125, 2780.293, 1564.498, 1914.6586, 902.72656, 952.0128, 435.15234, 482.0893, 87.428955, 392.8453, 173.64267, 564.44336, 100.313446, 31.067749, 180.75586, 105.78052, 307.67578, 65.79576, 65.75073, 42.81153, 88.11922, 76.0697, 146.24724, 39.96556, 117.10945, 165.875, 40.77347, 29.534546, 22.763712, 5.462158, 0.0, 0.0, 0.0, 0.0, 0.0, 0.0, 0.0, 0.0, 0.0, 0.0, 0.0, 0.0, 0.0, 0.0, 0.0, 0.0, 0.0, 0.0, 0.0, 0.0, 0.0, 0.0, 0.0, 0.0, 0.0, 0.0, 0.0, 0.0, 0.0, 0.0, 0.0, 0.0], "parents": [2147483647, 0, 0, 1, 1, 2, 2, 3, 3, 4, 4, 5, 5, 6, 6, 7, 7, 8, 8, 9, 9, 10, 10, 11, 11, 12, 12, 13, 13, 14, 14, 15, 15, 16, 16, 17, 17, 18, 18, 19, 19, 20, 20, 21, 21, 22, 22, 23, 23, 24, 24, 25, 25, 26, 26, 27, 27, 28, 28, 29, 29, 30, 30], "right_children": [2, 4, 6, 8, 10, 12, 14, 16, 18, 20, 22, 24, 26, 28, 30, 32, 34, 36, 38, 40, 42, 44, 46, 48, 50, 52, 54, 56, 58, 60, 62, -1, -1, -1, -1, -1, -1, -1, -1, -1, -1, -1, -1, -1, -1, -1, -1, -1, -1, -1, -1, -1, -1, -1, -1, -1, -1, -1, -1, -1, -1, -1, -1], "split_conditions": [0.6413704, 1.5771002, 0.022880586, 0.3615266, 0.0044099265, 0.4276749, 1.5208553, 3.1907814, 1.0, 5.5655575, 1.0783534, 1.1734151, 0.7897821, 1.0, 2.3713067, 0.33376485, 0.005565141, 0.0016113019, 0.548373, 0.0014585495, 6.204908, 17.38197, 0.016578292, 1.0, 1.4520692, 0.6079608, 0.0044099265, 1.3935426, 0.548373, 2.522368, 1.0, -0.27299187, -0.21064955, -0.0733403, -0.20115773, -0.05474295, -0.19112404, 0.06388034, -0.10706505, 0.26583892, 0.14970973, -0.07793201, 0.14044766, -0.022312362, 0.18544912, -0.08013502, -0.23582445, -0.06472565, 0.16681904, 0.2508254, 0.028905133, -0.07738893, 0.12981671, 0.2821068, 0.18555947, -0.10459548, 0.09548857, 0.2541304, -0.0, -0.15746641, 0.069339015, -0.27196765, -0.16754991], "split_indices": [68, 43, 56, 68, 56, 55, 24, 36, 29, 47, 20, 26, 51, 29, 24, 42, 56, 56, 56, 56, 66, 81, 56, 29, 70, 16, 56, 8, 56, 38, 29, 0, 0, 0, 0, 0, 0, 0, 0, 0, 0, 0, 0, 0, 0, 0, 0, 0, 0, 0, 0, 0, 0, 0, 0, 0, 0, 0, 0, 0, 0, 0, 0], "split_type": [0, 0, 0, 0, 0, 0, 0, 0, 0, 0, 0, 0, 0, 0, 0, 0, 0, 0, 0, 0, 0, 0, 0, 0, 0, 0, 0, 0, 0, 0, 0, 0, 0, 0, 0, 0, 0, 0, 0, 0, 0, 0, 0, 0, 0, 0, 0, 0, 0, 0, 0, 0, 0, 0, 0, 0, 0, 0, 0, 0, 0, 0, 0], "sum_hessian": [82385.836, 46498.016, 35887.82, 40388.367, 6109.651, 33526.742, 2361.0806, 32187.793, 8200.571, 3732.2703, 2377.3804, 1832.6075, 31694.133, 952.40515, 1408.6754, 29618.336, 2569.458, 6529.8047, 1670.7671, 3367.819, 364.45117, 697.62366, 1679.7568, 1331.8142, 500.79337, 1647.9684, 30046.164, 414.4363, 537.9688, 149.41528, 1259.2601, 23914.191, 5704.1445, 1457.7373, 1111.7207, 2464.8057, 4064.999, 1447.1248, 223.64238, 2674.9458, 692.8733, 95.25911, 269.19208, 375.35794, 322.26572, 454.6068, 1225.15, 1010.05225, 321.76193, 369.1992, 131.59418, 279.1629, 1368.8055, 28138.537, 1907.6273, 122.296646, 292.13968, 500.5064, 37.462406, 109.43336, 39.98193, 1026.0712, 233.18898], "tree_param": {"num_deleted": "0", "num_feature": "84", "num_nodes": "63", "size_leaf_vector": "1"}}, {"base_weights": [-0.0, -0.4738561, 0.34493402, -0.6717911, -0.2561035, 0.56929266, -0.06027605, -0.7250808, -0.5140507, -0.33099213, 0.010907933, 0.2605112, 0.7002072, 0.070796266, -0.5601553, -0.7497437, -0.4960423, -0.38948005, -0.67320347, -0.62404674, -0.2783067, -0.38912177, 0.107483506, -0.015785873, 0.5214445, 0.5095625, 0.7681249, -0.058042645, 0.52841425, -0.59180474, 0.23692021, -0.23182197, -0.20067614, -0.16871777, -0.083303705, -0.13374184, -0.06765272, -0.21433388, -0.11932832, -0.12551579, -0.23710899, -0.067731164, -0.17946291, -0.022292607, -0.14639246, 0.04719068, -0.09642088, -0.03697046, 0.072987266, 0.1830397, 0.05407242, 0.12910706, 0.21781161, 0.19443987, 0.23873791, 0.01515313, -0.13038887, 0.18370253, -0.08910294, -0.13175766, -0.21062365, -0.054246213, 0.18410355], "categories": [], "categories_nodes": [], "categories_segments": [], "categories_sizes": [], "default_left": [0, 0, 0, 0, 0, 0, 0, 0, 0, 0, 0, 0, 0, 0, 0, 0, 0, 0, 0, 0, 0, 0, 0, 0, 0, 0, 0, 0, 0, 0, 0, 0, 0, 0, 0, 0, 0, 0, 0, 0, 0, 0, 0, 0, 0, 0, 0, 0, 0, 0, 0, 0, 0, 0, 0, 0, 0, 0, 0, 0, 0, 0, 0], "id": 1, "left_children": [1, 3, 5, 7, 9, 11, 13, 15, 17, 19, 21, 23, 25, 27, 29, 31, 33, 35, 37, 39, 41, 43, 45, 47, 49, 51, 53, 55, 57, 59, 61, -1, -1, -1, -1, -1, -1, -1, -1, -1, -1, -1, -1, -1, -1, -1, -1, -1, -1, -1, -1, -1, -1, -1, -1, -1, -1, -1, -1, -1, -1, -1, -1], "loss_changes": [22017.049, 2436.38, 7092.3066, 236.90332, 544.02576, 2019.1309, 1824.1819, 112.2959, 138.8164, 317.375, 225.00055, 1084.1946, 442.91602, 1300.8383, 149.60303, 22.15918, 23.256042, 32.654175, 25.84021, 96.81238, 293.45312, 29.402695, 100.332405, 200.71826, 225.49902, 147.48071, 71.13379, 704.4386, 339.08936, 82.11023, 37.418945, 0.0, 0.0, 0.0, 0.0, 0.0, 0.0, 0.0, 0.0, 0.0, 0.0, 0.0, 0.0, 0.0, 0.0, 0.0, 0.0, 0.0, 0.0, 0.0, 0.0, 0.0, 0.0, 0.0, 0.0, 0.0, 0.0, 0.0, 0.0, 0.0, 0.0, 0.0, 0.0], "parents": [2147483647, 0, 0, 1, 1, 2, 2, 3, 3, 4, 4, 5, 5, 6, 6, 7, 7, 8, 8, 9, 9, 10, 10, 11, 11, 12, 12, 13, 13, 14, 14, 15, 15, 16, 16, 17, 17, 18, 18, 19, 19, 20, 20, 21, 21, 22, 22, 23, 23, 24, 24, 25, 25, 26, 26, 27, 27, 28, 28, 29, 29, 30, 30], "right_children": [2, 4, 6, 8, 10, 12, 14, 16, 18, 20, 22, 24, 26, 28, 30, 32, 34, 36, 38, 40, 42, 44, 46, 48, 50, 52, 54, 56, 58, 60, 62, -1, -1, -1, -1, -1, -1, -1, -1, -1, -1, -1, -1, -1, -1, -1, -1, -1, -1, -1, -1, -1, -1, -1, -1, -1, -1, -1, -1, -1, -1, -1, -1], "split_conditions": [0.23072615, 0.19542246, 0.0029360577, 0.11494938, 1.0, 0.9482252, 6.6714535, 0.23046379, 36.916176, 7.610299, 0.22570258, 0.7979991, 2.447245, 0.85851747, 1.0, 0.08273864, 2.1402202, 0.014360425, 0.13763785, 6.946377, 50.38932, 0.050529644, 2.1402202, 0.56301117, 14.222942, 1.4406738, 1.8424331, 0.05885572, 0.12750028, 4.833861, 1.0114942, -0.23182197, -0.20067614, -0.16871777, -0.083303705, -0.13374184, -0.06765272, -0.21433388, -0.11932832, -0.12551579, -0.23710899, -0.067731164, -0.17946291, -0.022292607, -0.14639246, 0.04719068, -0.09642088, -0.03697046, 0.072987266, 0.1830397, 0.05407242, 0.12910706, 0.21781161, 0.19443987, 0.23873791, 0.01515313, -0.13038887, 0.18370253, -0.08910294, -0.13175766, -0.21062365, -0.054246213, 0.18410355], "split_indices": [49, 83, 56, 39, 29, 55, 24, 56, 12, 0, 4, 66, 41, 68, 27, 39, 56, 56, 22, 65, 12, 59, 56, 42, 38, 26, 51, 56, 56, 20, 82, 0, 0, 0, 0, 0, 0, 0, 0, 0, 0, 0, 0, 0, 0, 0, 0, 0, 0, 0, 0, 0, 0, 0, 0, 0, 0, 0, 0, 0, 0, 0, 0], "split_type": [0, 0, 0, 0, 0, 0, 0, 0, 0, 0, 0, 0, 0, 0, 0, 0, 0, 0, 0, 0, 0, 0, 0, 0, 0, 0, 0, 0, 0, 0, 0, 0, 0, 0, 0, 0, 0, 0, 0, 0, 0, 0, 0, 0, 0, 0, 0, 0, 0, 0, 0, 0, 0, 0, 0, 0, 0, 0, 0, 0, 0, 0, 0], "sum_hessian": [134700.81, 56745.633, 77955.18, 29700.32, 27045.31, 50190.008, 27765.176, 22150.264, 7550.058, 21150.457, 5894.854, 14967.139, 35222.867, 21982.137, 5783.038, 19955.52, 2194.7441, 4272.334, 3277.724, 3192.427, 17958.03, 1125.6553, 4769.1987, 7251.396, 7715.742, 9293.054, 25929.814, 17136.504, 4845.6333, 5574.495, 208.54294, 15432.346, 4523.1733, 1646.945, 547.7992, 3133.3013, 1139.0326, 2817.894, 459.8302, 1455.8363, 1736.5907, 15453.19, 2504.839, 293.58862, 832.06665, 4294.326, 474.8726, 5153.264, 2098.1318, 6100.0747, 1615.6677, 6839.689, 2453.3652, 4930.949, 20998.865, 13282.165, 3854.339, 4409.6426, 435.99078, 2378.4854, 3196.0098, 86.5529, 121.990036], "tree_param": {"num_deleted": "0", "num_feature": "84", "num_nodes": "63", "size_leaf_vector": "1"}}, {"base_weights": [-0.0, -0.30108953, 0.45754594, -0.5134601, -0.07912076, 0.5872961, 0.1530338, -0.5653749, -0.25543034, -0.16773994, 0.3031261, 0.25377417, 0.64502233, 0.27057496, -0.3958756, -0.5955004, -0.244753, -0.36124378, 0.028979413, -0.10992229, -0.40617287, 0.4722606, -0.22017622, -0.47445914, 0.3077176, 0.32037714, 0.67984605, 0.11752575, 0.51503426, 0.010805875, -0.49930674, -0.18955928, -0.13473609, -0.14601104, -0.0, -0.13860409, -0.04427936, 0.14225684, -0.0343255, -0.1136512, -0.013299135, -0.0, -0.1521368, 0.15698668, -0.026176054, 0.08014319, -0.13219011, 0.0017645758, -0.2232484, -0.036499407, 0.10462458, 0.12075736, -0.10096731, 0.14210132, 0.20807797, 0.08136608, -0.028773807, 0.17320897, -0.0007101993, 0.10071241, -0.09604064, -0.0, -0.15710652], "categories": [], "categories_nodes": [], "categories_segments": [], "categories_sizes": [], "default_left": [0, 0, 0, 0, 0, 0, 0, 0, 0, 0, 0, 0, 0, 0, 0, 0, 0, 0, 0, 0, 0, 0, 0, 0, 0, 0, 0, 0, 0, 0, 0, 0, 0, 0, 0, 0, 0, 0, 0, 0, 0, 0, 0, 0, 0, 0, 0, 0, 0, 0, 0, 0, 0, 0, 0, 0, 0, 0, 0, 0, 0, 0, 0], "id": 2, "left_children": [1, 3, 5, 7, 9, 11, 13, 15, 17, 19, 21, 23, 25, 27, 29, 31, 33, 35, 37, 39, 41, 43, 45, 47, 49, 51, 53, 55, 57, 59, 61, -1, -1, -1, -1, -1, -1, -1, -1, -1, -1, -1, -1, -1, -1, -1, -1, -1, -1, -1, -1, -1, -1, -1, -1, -1, -1, -1, -1, -1, -1, -1, -1], "loss_changes": [15410.945, 3174.4692, 1746.6865, 453.2119, 1116.9906, 589.79004, 856.2976, 268.19824, 178.04428, 364.5476, 550.6966, 179.85623, 289.29297, 403.727, 102.86853, 128.16406, 148.02959, 85.48346, 102.57603, 377.13632, 218.17596, 138.44006, 162.87076, 47.03363, 78.28415, 140.90192, 55.73242, 223.78162, 141.03357, 49.042873, 25.393585, 0.0, 0.0, 0.0, 0.0, 0.0, 0.0, 0.0, 0.0, 0.0, 0.0, 0.0, 0.0, 0.0, 0.0, 0.0, 0.0, 0.0, 0.0, 0.0, 0.0, 0.0, 0.0, 0.0, 0.0, 0.0, 0.0, 0.0, 0.0, 0.0, 0.0, 0.0, 0.0], "parents": [2147483647, 0, 0, 1, 1, 2, 2, 3, 3, 4, 4, 5, 5, 6, 6, 7, 7, 8, 8, 9, 9, 10, 10, 11, 11, 12, 12, 13, 13, 14, 14, 15, 15, 16, 16, 17, 17, 18, 18, 19, 19, 20, 20, 21, 21, 22, 22, 23, 23, 24, 24, 25, 25, 26, 26, 27, 27, 28, 28, 29, 29, 30, 30], "right_children": [2, 4, 6, 8, 10, 12, 14, 16, 18, 20, 22, 24, 26, 28, 30, 32, 34, 36, 38, 40, 42, 44, 46, 48, 50, 52, 54, 56, 58, 60, 62, -1, -1, -1, -1, -1, -1, -1, -1, -1, -1, -1, -1, -1, -1, -1, -1, -1, -1, -1, -1, -1, -1, -1, -1, -1, -1, -1, -1, -1, -1, -1, -1], "split_conditions": [0.55723846, 0.41178876, 0.0018702598, 0.2862882, 1.5351036, 0.5176984, 9.941955, 0.23046379, 0.043940976, 0.022880586, 0.022880586, 7.540637, 3.3152168, 1.0, 0.0038195413, 0.2361835, 12.046671, 0.17137186, 0.098555274, 0.16813663, 0.7780441, 3.4641004, 1.3096094, 30.192915, 1.6424087, 1.8039758, 1.5944192, 0.35911524, 0.23046379, 18.04705, 3.791773, -0.18955928, -0.13473609, -0.14601104, -0.0, -0.13860409, -0.04427936, 0.14225684, -0.0343255, -0.1136512, -0.013299135, -0.0, -0.1521368, 0.15698668, -0.026176054, 0.08014319, -0.13219011, 0.0017645758, -0.2232484, -0.036499407, 0.10462458, 0.12075736, -0.10096731, 0.14210132, 0.20807797, 0.08136608, -0.028773807, 0.17320897, -0.0007101993, 0.10071241, -0.09604064, -0.0, -0.15710652], "split_indices": [68, 80, 56, 68, 7, 46, 24, 56, 56, 56, 56, 0, 72, 29, 56, 42, 0, 39, 59, 46, 75, 8, 60, 12, 35, 47, 41, 5, 56, 24, 65, 0, 0, 0, 0, 0, 0, 0, 0, 0, 0, 0, 0, 0, 0, 0, 0, 0, 0, 0, 0, 0, 0, 0, 0, 0, 0, 0, 0, 0, 0, 0, 0], "split_type": [0, 0, 0, 0, 0, 0, 0, 0, 0, 0, 0, 0, 0, 0, 0, 0, 0, 0, 0, 0, 0, 0, 0, 0, 0, 0, 0, 0, 0, 0, 0, 0, 0, 0, 0, 0, 0, 0, 0, 0, 0, 0, 0, 0, 0, 0, 0, 0, 0, 0, 0, 0, 0, 0, 0, 0, 0, 0, 0, 0, 0, 0, 0], "sum_hessian": [111864.2, 67467.41, 44396.797, 34455.47, 33011.94, 31108.11, 13288.6875, 28651.023, 5804.4434, 26820.635, 6191.3076, 4616.1587, 26491.951, 10960.398, 2328.2893, 26160.908, 2490.1155, 4255.9326, 1548.5109, 21621.125, 5199.5093, 4693.535, 1497.7721, 305.03442, 4311.124, 2595.2302, 23896.72, 6766.48, 4193.919, 452.66513, 1875.624, 20897.828, 5263.0806, 1253.885, 1236.2303, 2859.3167, 1396.6158, 393.6784, 1154.8325, 4208.751, 17412.373, 1016.02765, 4183.4814, 4317.694, 375.84134, 452.329, 1045.4431, 96.70412, 208.3303, 354.6011, 3956.523, 2320.6506, 274.57962, 1541.4502, 22355.27, 3960.8792, 2805.6006, 3760.1616, 433.75735, 243.65697, 209.00816, 78.081436, 1797.5426], "tree_param": {"num_deleted": "0", "num_feature": "84", "num_nodes": "63", "size_leaf_vector": "1"}}, {"base_weights": [-0.0, -0.23385262, 0.4829615, -0.48944002, -0.06608501, 0.5386096, -0.016934054, -0.5262114, -0.24935706, -0.13103276, 0.27102527, 0.16066468, 0.57383436, 0.34867668, -0.39682528, -0.6034169, -0.4425626, -0.34582886, 0.03073013, -0.27497327, -0.0061156736, 0.47607476, -0.07821781, -0.27531508, 0.222602, 0.2671337, 0.6024033, 0.4234312, -0.15275589, -0.4763962, -0.124347925, -0.18143803, -0.0, -0.1499315, -0.089249134, -0.13704357, -0.051750552, 0.10991763, -0.09822556, -0.10514611, -0.04354201, -0.1400644, 0.0062122038, -0.18366843, 0.14886567, 0.09679307, -0.0849693, -0.0, -0.12750407, 0.07473245, -0.18882406, 0.04476408, 0.1744341, 0.14620663, 0.18899769, 0.07402513, 0.18239026, 0.05978248, -0.130696, -0.1483852, 0.010018329, 0.0026074932, -0.17122926], "categories": [], "categories_nodes": [], "categories_segments": [], "categories_sizes": [], "default_left": [0, 0, 0, 0, 0, 0, 0, 0, 0, 0, 0, 0, 0, 0, 0, 0, 0, 0, 0, 0, 0, 0, 0, 0, 0, 0, 0, 0, 0, 0, 0, 0, 0, 0, 0, 0, 0, 0, 0, 0, 0, 0, 0, 0, 0, 0, 0, 0, 0, 0, 0, 0, 0, 0, 0, 0, 0, 0, 0, 0, 0, 0, 0], "id": 3, "left_children": [1, 3, 5, 7, 9, 11, 13, 15, 17, 19, 21, 23, 25, 27, 29, 31, 33, 35, 37, 39, 41, 43, 45, 47, 49, 51, 53, 55, 57, 59, 61, -1, -1, -1, -1, -1, -1, -1, -1, -1, -1, -1, -1, -1, -1, -1, -1, -1, -1, -1, -1, -1, -1, -1, -1, -1, -1, -1, -1, -1, -1, -1, -1], "loss_changes": [11013.994, 2811.7808, 890.2505, 221.76709, 867.67224, 373.9248, 440.87967, 134.7207, 97.54756, 596.04474, 461.4178, 66.17278, 220.52637, 62.835403, 27.938614, 11.273926, 82.136475, 44.120483, 105.011284, 146.34338, 225.32106, 87.768616, 192.46638, 10.3636, 45.618813, 76.45923, 64.43457, 37.343002, 21.499056, 15.637695, 28.447073, 0.0, 0.0, 0.0, 0.0, 0.0, 0.0, 0.0, 0.0, 0.0, 0.0, 0.0, 0.0, 0.0, 0.0, 0.0, 0.0, 0.0, 0.0, 0.0, 0.0, 0.0, 0.0, 0.0, 0.0, 0.0, 0.0, 0.0, 0.0, 0.0, 0.0, 0.0, 0.0], "parents": [2147483647, 0, 0, 1, 1, 2, 2, 3, 3, 4, 4, 5, 5, 6, 6, 7, 7, 8, 8, 9, 9, 10, 10, 11, 11, 12, 12, 13, 13, 14, 14, 15, 15, 16, 16, 17, 17, 18, 18, 19, 19, 20, 20, 21, 21, 22, 22, 23, 23, 24, 24, 25, 25, 26, 26, 27, 27, 28, 28, 29, 29, 30, 30], "right_children": [2, 4, 6, 8, 10, 12, 14, 16, 18, 20, 22, 24, 26, 28, 30, 32, 34, 36, 38, 40, 42, 44, 46, 48, 50, 52, 54, 56, 58, 60, 62, -1, -1, -1, -1, -1, -1, -1, -1, -1, -1, -1, -1, -1, -1, -1, -1, -1, -1, -1, -1, -1, -1, -1, -1, -1, -1, -1, -1, -1, -1, -1, -1], "split_conditions": [0.73730665, 0.17137186, 0.012614403, 0.12750028, 2.3892477, 0.4587036, 2.3713067, 0.169173, 0.098033994, 0.27174532, 0.0066062594, 0.27474958, 0.69146264, 0.23046379, 1.0, 0.70849144, 0.014360425, 12.125907, 0.13965008, 0.21452162, 7.3408055, 1.2933578, 29.87113, 0.13193975, 3.393653, 1.7029774, 2.7316556, 1.0, 0.6748356, 45.40425, 6.950016, -0.18143803, -0.0, -0.1499315, -0.089249134, -0.13704357, -0.051750552, 0.10991763, -0.09822556, -0.10514611, -0.04354201, -0.1400644, 0.0062122038, -0.18366843, 0.14886567, 0.09679307, -0.0849693, -0.0, -0.12750407, 0.07473245, -0.18882406, 0.04476408, 0.1744341, 0.14620663, 0.18899769, 0.07402513, 0.18239026, 0.05978248, -0.130696, -0.1483852, 0.010018329, 0.0026074932, -0.17122926], "split_indices": [68, 39, 56, 56, 26, 46, 24, 42, 39, 68, 56, 39, 42, 56, 29, 73, 56, 0, 1, 7, 0, 46, 12, 5, 34, 26, 41, 29, 75, 12, 72, 0, 0, 0, 0, 0, 0, 0, 0, 0, 0, 0, 0, 0, 0, 0, 0, 0, 0, 0, 0, 0, 0, 0, 0, 0, 0, 0, 0, 0, 0, 0, 0], "split_type": [0, 0, 0, 0, 0, 0, 0, 0, 0, 0, 0, 0, 0, 0, 0, 0, 0, 0, 0, 0, 0, 0, 0, 0, 0, 0, 0, 0, 0, 0, 0, 0, 0, 0, 0, 0, 0, 0, 0, 0, 0, 0, 0, 0, 0, 0, 0, 0, 0, 0, 0, 0, 0, 0, 0, 0, 0, 0, 0, 0, 0, 0, 0], "sum_hessian": [97517.19, 65703.63, 31813.549, 26012.732, 39690.902, 28644.756, 3168.7922, 22520.611, 3492.1206, 33304.688, 6386.2153, 2466.7847, 26177.973, 1601.3743, 1567.4181, 11645.951, 10874.66, 2623.8452, 868.27545, 15436.331, 17868.357, 4041.5745, 2344.6406, 286.33813, 2180.4465, 2261.3818, 23916.59, 1411.1028, 190.27145, 1184.1616, 383.2565, 11623.816, 22.134989, 7747.8013, 3126.8586, 1563.4336, 1060.4116, 462.6096, 405.66586, 9710.044, 5726.2876, 1002.57294, 16865.785, 63.892815, 3977.6816, 776.6701, 1567.9706, 109.39307, 176.94508, 2126.7285, 53.71795, 1668.649, 592.73285, 4699.6885, 19216.902, 749.77344, 661.32935, 69.15888, 121.11257, 1162.2651, 21.89642, 278.76096, 104.49555], "tree_param": {"num_deleted": "0", "num_feature": "84", "num_nodes": "63", "size_leaf_vector": "1"}}, {"base_weights": [-0.0, -0.20746511, 0.4513163, -0.4170821, -0.032351803, 0.49318945, -0.07085885, -0.4970837, -0.28269875, 0.2277378, -0.1174633, 0.21628511, 0.5403185, 0.30006418, -0.36902714, -0.5193594, -0.15601641, -0.34692436, -0.014332943, -0.18952051, 0.31986806, -0.19553563, 0.02017234, 0.30241233, -0.02398493, 0.20128004, 0.5630041, 0.37047815, -0.05965754, -0.0021171633, -0.44540444, -0.1574445, -0.011183951, -0.108918555, -0.000526796, -0.088139266, -0.16595198, 0.057886437, -0.049836036, -0.09279891, 0.010709258, 0.13326627, 0.024031276, -0.08184094, 0.029587543, 0.026653549, -0.059160415, -0.036581997, 0.1016246, -0.038182393, 0.15653469, 0.10941342, -0.0017960311, 0.14116968, 0.17932077, -0.019076563, 0.12290957, 0.051830262, -0.13424174, -0.1088831, 0.056597564, -0.0, -0.14383292], "categories": [], "categories_nodes": [], "categories_segments": [], "categories_sizes": [], "default_left": [0, 0, 0, 0, 0, 0, 0, 0, 0, 0, 0, 0, 0, 0, 0, 0, 0, 0, 0, 0, 0, 0, 0, 0, 0, 0, 0, 0, 0, 0, 0, 0, 0, 0, 0, 0, 0, 0, 0, 0, 0, 0, 0, 0, 0, 0, 0, 0, 0, 0, 0, 0, 0, 0, 0, 0, 0, 0, 0, 0, 0, 0, 0], "id": 4, "left_children": [1, 3, 5, 7, 9, 11, 13, 15, 17, 19, 21, 23, 25, 27, 29, 31, 33, 35, 37, 39, 41, 43, 45, 47, 49, 51, 53, 55, 57, 59, 61, -1, -1, -1, -1, -1, -1, -1, -1, -1, -1, -1, -1, -1, -1, -1, -1, -1, -1, -1, -1, -1, -1, -1, -1, -1, -1, -1, -1, -1, -1, -1, -1], "loss_changes": [8110.3604, 2173.7, 600.70166, 282.1577, 715.2299, 322.11133, 222.90245, 121.30615, 170.78125, 306.96133, 264.0548, 79.52588, 158.09912, 25.433502, 27.153442, 35.924316, 30.301414, 80.497986, 62.21972, 41.03073, 189.46765, 356.8316, 130.13835, 44.77208, 49.604412, 50.389503, 53.835938, 16.421646, 13.799213, 16.819971, 9.264221, 0.0, 0.0, 0.0, 0.0, 0.0, 0.0, 0.0, 0.0, 0.0, 0.0, 0.0, 0.0, 0.0, 0.0, 0.0, 0.0, 0.0, 0.0, 0.0, 0.0, 0.0, 0.0, 0.0, 0.0, 0.0, 0.0, 0.0, 0.0, 0.0, 0.0, 0.0, 0.0], "parents": [2147483647, 0, 0, 1, 1, 2, 2, 3, 3, 4, 4, 5, 5, 6, 6, 7, 7, 8, 8, 9, 9, 10, 10, 11, 11, 12, 12, 13, 13, 14, 14, 15, 15, 16, 16, 17, 17, 18, 18, 19, 19, 20, 20, 21, 21, 22, 22, 23, 23, 24, 24, 25, 25, 26, 26, 27, 27, 28, 28, 29, 29, 30, 30], "right_children": [2, 4, 6, 8, 10, 12, 14, 16, 18, 20, 22, 24, 26, 28, 30, 32, 34, 36, 38, 40, 42, 44, 46, 48, 50, 52, 54, 56, 58, 60, 62, -1, -1, -1, -1, -1, -1, -1, -1, -1, -1, -1, -1, -1, -1, -1, -1, -1, -1, -1, -1, -1, -1, -1, -1, -1, -1, -1, -1, -1, -1, -1, -1], "split_conditions": [0.74741185, 0.3968762, 0.019268306, 0.24544287, 0.00039326318, 0.5176984, 1.4342058, 0.548373, 1.0, 1.0464519, 0.4031165, 0.48454842, 1.2936987, 0.23046379, 4.0644197, 0.17049558, 12.125907, 45.12794, 30.03734, 0.45735162, 48.095276, 1.3240895, 5.4209137, 1.0275376, 1.0, 0.34916136, 3.51732, 0.12261986, 0.6748356, 1.0, 2.2688663, -0.1574445, -0.011183951, -0.108918555, -0.000526796, -0.088139266, -0.16595198, 0.057886437, -0.049836036, -0.09279891, 0.010709258, 0.13326627, 0.024031276, -0.08184094, 0.029587543, 0.026653549, -0.059160415, -0.036581997, 0.1016246, -0.038182393, 0.15653469, 0.10941342, -0.0017960311, 0.14116968, 0.17932077, -0.019076563, 0.12290957, 0.051830262, -0.13424174, -0.1088831, 0.056597564, -0.0, -0.14383292], "split_indices": [68, 36, 56, 47, 56, 46, 1, 56, 29, 80, 42, 5, 10, 56, 65, 70, 0, 12, 12, 42, 12, 7, 24, 20, 29, 5, 41, 72, 75, 29, 24, 0, 0, 0, 0, 0, 0, 0, 0, 0, 0, 0, 0, 0, 0, 0, 0, 0, 0, 0, 0, 0, 0, 0, 0, 0, 0, 0, 0, 0, 0, 0, 0], "split_type": [0, 0, 0, 0, 0, 0, 0, 0, 0, 0, 0, 0, 0, 0, 0, 0, 0, 0, 0, 0, 0, 0, 0, 0, 0, 0, 0, 0, 0, 0, 0, 0, 0, 0, 0, 0, 0, 0, 0, 0, 0, 0, 0, 0, 0, 0, 0, 0, 0, 0, 0, 0, 0, 0, 0, 0, 0, 0, 0, 0, 0, 0, 0], "sum_hessian": [86617.17, 59339.844, 27277.328, 26982.422, 32357.424, 25270.127, 2007.202, 16865.105, 10117.314, 7948.5444, 24408.88, 3707.085, 21563.041, 879.52435, 1127.6777, 15803.133, 1061.9736, 8133.291, 1984.0234, 1417.7861, 6530.7583, 15620.535, 8788.345, 2759.3347, 947.7503, 1380.5968, 20182.445, 758.76807, 120.75625, 217.0319, 910.6458, 15605.694, 197.43874, 425.15695, 636.81665, 6507.866, 1625.4249, 810.71704, 1173.3064, 954.20557, 463.58054, 4272.353, 2258.405, 12398.006, 3222.5293, 6713.8857, 2074.4592, 195.74716, 2563.5876, 812.9788, 134.77148, 798.47833, 582.1185, 5594.681, 14587.764, 41.69733, 717.07074, 59.728695, 61.027557, 92.878975, 124.15293, 84.54897, 826.0968], "tree_param": {"num_deleted": "0", "num_feature": "84", "num_nodes": "63", "size_leaf_vector": "1"}}, {"base_weights": [-0.0, -0.18269828, 0.42423615, -0.37589547, -0.01119609, 0.21307859, 0.5310377, -0.46034387, -0.1925592, -0.1048301, 0.2203108, 0.2565203, -0.2762816, 0.55154526, -0.10553524, -0.47971207, -0.13745858, -0.24586394, 0.02415786, -0.15589726, 0.11231326, 0.4582526, 0.0027029167, 0.032258496, 0.34252372, 0.32421327, -0.4427885, -0.08251585, 0.5580581, 0.30828837, -0.31894326, -0.15915075, -0.12775627, -0.07187696, 0.022289464, -0.09195741, -0.0065396917, 0.05614217, -0.060017258, 0.010663784, -0.06738826, 0.014603692, 0.10108064, -0.13742436, 0.14143094, 0.045071512, -0.08311423, 0.03869946, -0.076877624, 0.1081052, -0.0, 0.12188863, -0.0, -0.0, -0.14703274, -0.0, -0.11749884, 0.12396189, 0.17312904, 0.15107295, -0.0, 0.02946511, -0.11879935], "categories": [], "categories_nodes": [], "categories_segments": [], "categories_sizes": [], "default_left": [0, 0, 0, 0, 0, 0, 0, 0, 0, 0, 0, 0, 0, 0, 0, 0, 0, 0, 0, 0, 0, 0, 0, 0, 0, 0, 0, 0, 0, 0, 0, 0, 0, 0, 0, 0, 0, 0, 0, 0, 0, 0, 0, 0, 0, 0, 0, 0, 0, 0, 0, 0, 0, 0, 0, 0, 0, 0, 0, 0, 0, 0, 0], "id": 5, "left_children": [1, 3, 5, 7, 9, 11, 13, 15, 17, 19, 21, 23, 25, 27, 29, 31, 33, 35, 37, 39, 41, 43, 45, 47, 49, 51, 53, 55, 57, 59, 61, -1, -1, -1, -1, -1, -1, -1, -1, -1, -1, -1, -1, -1, -1, -1, -1, -1, -1, -1, -1, -1, -1, -1, -1, -1, -1, -1, -1, -1, -1, -1, -1], "loss_changes": [6005.2734, 1790.557, 518.42285, 387.26074, 621.384, 167.11984, 206.29883, 102.44849, 95.35458, 227.5446, 422.02673, 135.97873, 63.637215, 66.70215, 41.537834, 34.97998, 23.603222, 85.16022, 56.74651, 220.55276, 51.33706, 47.633972, 177.35078, 55.74418, 35.218323, 5.1447515, 9.450211, 7.141718, 30.820312, 13.623436, 13.470631, 0.0, 0.0, 0.0, 0.0, 0.0, 0.0, 0.0, 0.0, 0.0, 0.0, 0.0, 0.0, 0.0, 0.0, 0.0, 0.0, 0.0, 0.0, 0.0, 0.0, 0.0, 0.0, 0.0, 0.0, 0.0, 0.0, 0.0, 0.0, 0.0, 0.0, 0.0, 0.0], "parents": [2147483647, 0, 0, 1, 1, 2, 2, 3, 3, 4, 4, 5, 5, 6, 6, 7, 7, 8, 8, 9, 9, 10, 10, 11, 11, 12, 12, 13, 13, 14, 14, 15, 15, 16, 16, 17, 17, 18, 18, 19, 19, 20, 20, 21, 21, 22, 22, 23, 23, 24, 24, 25, 25, 26, 26, 27, 27, 28, 28, 29, 29, 30, 30], "right_children": [2, 4, 6, 8, 10, 12, 14, 16, 18, 20, 22, 24, 26, 28, 30, 32, 34, 36, 38, 40, 42, 44, 46, 48, 50, 52, 54, 56, 58, 60, 62, -1, -1, -1, -1, -1, -1, -1, -1, -1, -1, -1, -1, -1, -1, -1, -1, -1, -1, -1, -1, -1, -1, -1, -1, -1, -1, -1, -1, -1, -1, -1, -1], "split_conditions": [0.70849144, 0.24299964, 1.8177432, 0.26337066, 1.3607879, 0.05885572, 0.016578292, 0.548373, 0.4338076, 1.0, 0.0020816915, 0.70225966, 0.4786973, 0.7586898, 1.3741982, 0.10289931, 0.1316941, 1.0, 1.2377847, 0.0006705837, 0.16801985, 1.2933578, 2.5887523, 2.2198179, 2.8893387, 1.8666226, 0.6137508, 0.52816415, 2.4948092, 0.12750028, 1.3831336, -0.15915075, -0.12775627, -0.07187696, 0.022289464, -0.09195741, -0.0065396917, 0.05614217, -0.060017258, 0.010663784, -0.06738826, 0.014603692, 0.10108064, -0.13742436, 0.14143094, 0.045071512, -0.08311423, 0.03869946, -0.076877624, 0.1081052, -0.0, 0.12188863, -0.0, -0.0, -0.14703274, -0.0, -0.11749884, 0.12396189, 0.17312904, 0.15107295, -0.0, 0.02946511, -0.11879935], "split_indices": [73, 57, 51, 42, 26, 56, 56, 56, 36, 29, 56, 47, 75, 10, 17, 68, 42, 29, 25, 56, 5, 46, 20, 25, 28, 28, 45, 23, 10, 56, 45, 0, 0, 0, 0, 0, 0, 0, 0, 0, 0, 0, 0, 0, 0, 0, 0, 0, 0, 0, 0, 0, 0, 0, 0, 0, 0, 0, 0, 0, 0, 0, 0], "split_type": [0, 0, 0, 0, 0, 0, 0, 0, 0, 0, 0, 0, 0, 0, 0, 0, 0, 0, 0, 0, 0, 0, 0, 0, 0, 0, 0, 0, 0, 0, 0, 0, 0, 0, 0, 0, 0, 0, 0, 0, 0, 0, 0, 0, 0, 0, 0, 0, 0, 0, 0, 0, 0, 0, 0, 0, 0, 0, 0, 0, 0, 0, 0], "sum_hessian": [77478.18, 54156.24, 23321.94, 25439.332, 28716.906, 7866.227, 15455.713, 17378.426, 8060.907, 20478.162, 8238.743, 7244.064, 622.16284, 14988.687, 467.02652, 16365.299, 1013.1267, 6506.537, 1554.3701, 16616.643, 3861.5203, 3913.0195, 4325.7236, 2040.6174, 5203.447, 121.82073, 500.34213, 136.66333, 14852.023, 142.80583, 324.2207, 8322.388, 8042.9106, 715.2507, 297.87604, 5084.9097, 1421.6274, 926.01385, 628.3563, 4351.3247, 12265.317, 3044.7068, 816.81354, 44.26347, 3868.7559, 2855.8218, 1469.9016, 1554.5802, 486.0372, 4972.4634, 230.98332, 108.37365, 13.44708, 52.794754, 447.54736, 84.99669, 51.666645, 1788.9708, 13063.052, 106.618866, 36.186962, 30.2733, 293.9474], "tree_param": {"num_deleted": "0", "num_feature": "84", "num_nodes": "63", "size_leaf_vector": "1"}}, {"base_weights": [-0.0, -0.16649951, 0.39518875, -0.38370642, -0.038268723, 0.4864052, 0.16731606, -0.45024776, -0.27265558, -0.08264587, 0.26174092, -0.0, 0.5120953, 0.25038722, -0.29649335, -0.48090413, -0.24795312, -0.32932603, -0.069488466, -0.21133153, -0.007991967, 0.37447, -0.13250944, -0.09868974, 0.14945611, 0.29083037, 0.5379936, 0.14548354, 0.43035242, -0.34454152, 0.35471085, -0.1560497, -0.12323614, -0.1102188, -0.025231669, -0.059546437, -0.11577204, 0.046245832, -0.047536157, -0.08862293, -0.011375027, -0.03714099, 0.02094918, 0.15717137, 0.056173753, 0.07582385, -0.0922816, 0.036224626, -0.06573944, -0.0, 0.11853762, 0.044670504, 0.18454446, 0.13010328, 0.16994521, -0.023309167, 0.0721957, 0.057390098, 0.15745054, -0.0, -0.12733048, 0.12005138, -0.0], "categories": [], "categories_nodes": [], "categories_segments": [], "categories_sizes": [], "default_left": [0, 0, 0, 0, 0, 0, 0, 0, 0, 0, 0, 0, 0, 0, 0, 0, 0, 0, 0, 0, 0, 0, 0, 0, 0, 0, 0, 0, 0, 0, 0, 0, 0, 0, 0, 0, 0, 0, 0, 0, 0, 0, 0, 0, 0, 0, 0, 0, 0, 0, 0, 0, 0, 0, 0, 0, 0, 0, 0, 0, 0, 0, 0], "id": 6, "left_children": [1, 3, 5, 7, 9, 11, 13, 15, 17, 19, 21, 23, 25, 27, 29, 31, 33, 35, 37, 39, 41, 43, 45, 47, 49, 51, 53, 55, 57, 59, 61, -1, -1, -1, -1, -1, -1, -1, -1, -1, -1, -1, -1, -1, -1, -1, -1, -1, -1, -1, -1, -1, -1, -1, -1, -1, -1, -1, -1, -1, -1, -1, -1], "loss_changes": [4583.0654, 1360.706, 422.5437, 126.85962, 408.87872, 183.6416, 228.2881, 62.667236, 75.019196, 256.22614, 177.83221, 10.948406, 71.63208, 89.56323, 27.671234, 17.368164, 25.43592, 33.52423, 30.644264, 139.93225, 154.43088, 79.19644, 58.529068, 12.760824, 9.08792, 61.62864, 26.807861, 70.220024, 33.95691, 21.667755, 1.2738743, 0.0, 0.0, 0.0, 0.0, 0.0, 0.0, 0.0, 0.0, 0.0, 0.0, 0.0, 0.0, 0.0, 0.0, 0.0, 0.0, 0.0, 0.0, 0.0, 0.0, 0.0, 0.0, 0.0, 0.0, 0.0, 0.0, 0.0, 0.0, 0.0, 0.0, 0.0, 0.0], "parents": [2147483647, 0, 0, 1, 1, 2, 2, 3, 3, 4, 4, 5, 5, 6, 6, 7, 7, 8, 8, 9, 9, 10, 10, 11, 11, 12, 12, 13, 13, 14, 14, 15, 15, 16, 16, 17, 17, 18, 18, 19, 19, 20, 20, 21, 21, 22, 22, 23, 23, 24, 24, 25, 25, 26, 26, 27, 27, 28, 28, 29, 29, 30, 30], "right_children": [2, 4, 6, 8, 10, 12, 14, 16, 18, 20, 22, 24, 26, 28, 30, 32, 34, 36, 38, 40, 42, 44, 46, 48, 50, 52, 54, 56, 58, 60, 62, -1, -1, -1, -1, -1, -1, -1, -1, -1, -1, -1, -1, -1, -1, -1, -1, -1, -1, -1, -1, -1, -1, -1, -1, -1, -1, -1, -1, -1, -1, -1, -1], "split_conditions": [0.74741185, 0.3343569, 0.0011550158, 0.18342441, 3.2803974, 5.5564814, 16.467892, 0.12750028, 1.0, 0.21274492, 0.022880586, 2.1169999, 1.8531141, 1.0, 1.0, 0.08273864, 12.372095, 0.20080991, 0.25983796, 3.2078202, 0.5315713, 0.24667239, 29.123083, 0.59823596, 0.0006183731, 1.7029774, 2.22696, 2.2392855, 1.2771732, 2.3438365, 0.082617596, -0.1560497, -0.12323614, -0.1102188, -0.025231669, -0.059546437, -0.11577204, 0.046245832, -0.047536157, -0.08862293, -0.011375027, -0.03714099, 0.02094918, 0.15717137, 0.056173753, 0.07582385, -0.0922816, 0.036224626, -0.06573944, -0.0, 0.11853762, 0.044670504, 0.18454446, 0.13010328, 0.16994521, -0.023309167, 0.0721957, 0.057390098, 0.15745054, -0.0, -0.12733048, 0.12005138, -0.0], "split_indices": [68, 4, 56, 68, 26, 75, 24, 56, 29, 68, 56, 17, 41, 29, 27, 39, 0, 5, 50, 36, 36, 5, 12, 52, 56, 26, 51, 64, 6, 35, 56, 0, 0, 0, 0, 0, 0, 0, 0, 0, 0, 0, 0, 0, 0, 0, 0, 0, 0, 0, 0, 0, 0, 0, 0, 0, 0, 0, 0, 0, 0, 0, 0], "split_type": [0, 0, 0, 0, 0, 0, 0, 0, 0, 0, 0, 0, 0, 0, 0, 0, 0, 0, 0, 0, 0, 0, 0, 0, 0, 0, 0, 0, 0, 0, 0, 0, 0, 0, 0, 0, 0, 0, 0, 0, 0, 0, 0, 0, 0, 0, 0, 0, 0, 0, 0, 0, 0, 0, 0, 0, 0, 0, 0, 0, 0, 0, 0], "sum_hessian": [69650.79, 49004.83, 20645.96, 18161.516, 30843.312, 14711.853, 5934.1084, 11298.429, 6863.0884, 26898.559, 3944.7532, 738.884, 13972.969, 5051.393, 882.7154, 9767.431, 1530.9974, 5327.281, 1535.8074, 9825.662, 17072.896, 3087.384, 857.36926, 443.59854, 295.2854, 1505.8586, 12467.109, 3227.4507, 1823.9421, 836.80035, 45.91502, 6165.864, 3601.5671, 849.4697, 681.5277, 1662.9968, 3664.284, 404.8811, 1130.9263, 6578.0156, 3247.6462, 6913.101, 10159.796, 1686.2662, 1401.1178, 249.92203, 607.44727, 127.77284, 315.8257, 195.6854, 99.60001, 1069.9276, 435.93103, 2753.2969, 9713.8125, 933.47107, 2293.9797, 547.5193, 1276.4229, 165.4415, 671.3589, 43.81608, 2.098942], "tree_param": {"num_deleted": "0", "num_feature": "84", "num_nodes": "63", "size_leaf_vector": "1"}}, {"base_weights": [-0.0, -0.14228366, 0.38420248, -0.37107098, -0.03563755, 0.2179377, 0.5040245, -0.40769628, -0.1470822, -0.07707758, 0.22053966, 0.41766977, 0.1403559, 0.51662105, -0.010266976, -0.47568554, -0.32099378, -0.24219707, 0.028642958, -0.14388487, 0.05960699, 0.4603154, 0.045495804, 0.11858066, 0.4783521, 0.026994685, 0.3424649, 0.1218671, 0.5353299, 0.43609783, -0.24681807, -0.1457587, -0.06391234, -0.11266792, -0.05676849, -0.09051253, -0.0, 0.114641584, -0.038608298, -0.061959937, 0.00040404862, -0.071268864, 0.03049947, 0.14348978, -0.0, 0.082650185, -0.041617017, 0.10038044, -0.06170332, -0.0, 0.15146017, -0.01390602, 0.064398795, 0.008539947, 0.12378468, 0.14472073, -0.0, -0.033070404, 0.16130017, 0.14234287, -0.0, -0.0, -0.100635774], "categories": [], "categories_nodes": [], "categories_segments": [], "categories_sizes": [], "default_left": [0, 0, 0, 0, 0, 0, 0, 0, 0, 0, 0, 0, 0, 0, 0, 0, 0, 0, 0, 0, 0, 0, 0, 0, 0, 0, 0, 0, 0, 0, 0, 0, 0, 0, 0, 0, 0, 0, 0, 0, 0, 0, 0, 0, 0, 0, 0, 0, 0, 0, 0, 0, 0, 0, 0, 0, 0, 0, 0, 0, 0, 0, 0], "id": 7, "left_children": [1, 3, 5, 7, 9, 11, 13, 15, 17, 19, 21, 23, 25, 27, 29, 31, 33, 35, 37, 39, 41, 43, 45, 47, 49, 51, 53, 55, 57, 59, 61, -1, -1, -1, -1, -1, -1, -1, -1, -1, -1, -1, -1, -1, -1, -1, -1, -1, -1, -1, -1, -1, -1, -1, -1, -1, -1, -1, -1, -1, -1, -1, -1], "loss_changes": [3456.037, 1121.5956, 333.05396, 114.47925, 332.96915, 105.816345, 69.16455, 65.81421, 37.193787, 248.7442, 177.59988, 29.83139, 115.848175, 64.826416, 21.290058, 11.518433, 34.401855, 18.795708, 41.541065, 168.40836, 109.45074, 13.612915, 109.07368, 26.7402, 15.70813, 48.16076, 36.179474, 20.695772, 18.23706, 1.3317881, 5.3654814, 0.0, 0.0, 0.0, 0.0, 0.0, 0.0, 0.0, 0.0, 0.0, 0.0, 0.0, 0.0, 0.0, 0.0, 0.0, 0.0, 0.0, 0.0, 0.0, 0.0, 0.0, 0.0, 0.0, 0.0, 0.0, 0.0, 0.0, 0.0, 0.0, 0.0, 0.0, 0.0], "parents": [2147483647, 0, 0, 1, 1, 2, 2, 3, 3, 4, 4, 5, 5, 6, 6, 7, 7, 8, 8, 9, 9, 10, 10, 11, 11, 12, 12, 13, 13, 14, 14, 15, 15, 16, 16, 17, 17, 18, 18, 19, 19, 20, 20, 21, 21, 22, 22, 23, 23, 24, 24, 25, 25, 26, 26, 27, 27, 28, 28, 29, 29, 30, 30], "right_children": [2, 4, 6, 8, 10, 12, 14, 16, 18, 20, 22, 24, 26, 28, 30, 32, 34, 36, 38, 40, 42, 44, 46, 48, 50, 52, 54, 56, 58, 60, 62, -1, -1, -1, -1, -1, -1, -1, -1, -1, -1, -1, -1, -1, -1, -1, -1, -1, -1, -1, -1, -1, -1, -1, -1, -1, -1, -1, -1, -1, -1, -1, -1], "split_conditions": [0.79567534, 0.15236354, 3.51732, 0.12750028, 2.4332788, 0.64747393, 0.011156298, 0.089677, 0.07746183, 0.44931817, 0.0014585495, 1.1165521, 1.0, 0.8392665, 1.6076941, 0.1657431, 0.014360425, 2.1402202, 0.064316794, 0.24228354, 7.742332, 0.5758716, 8.031543, 1.0, 0.37938336, 1.0, 0.71355134, 1.5162363, 0.4587036, 1.3459303, 1.5456156, -0.1457587, -0.06391234, -0.11266792, -0.05676849, -0.09051253, -0.0, 0.114641584, -0.038608298, -0.061959937, 0.00040404862, -0.071268864, 0.03049947, 0.14348978, -0.0, 0.082650185, -0.041617017, 0.10038044, -0.06170332, -0.0, 0.15146017, -0.01390602, 0.064398795, 0.008539947, 0.12378468, 0.14472073, -0.0, -0.033070404, 0.16130017, 0.14234287, -0.0, -0.0, -0.100635774], "split_indices": [68, 39, 41, 56, 26, 52, 56, 14, 14, 16, 56, 10, 27, 4, 24, 49, 56, 56, 75, 7, 0, 22, 65, 27, 46, 29, 13, 17, 46, 40, 35, 0, 0, 0, 0, 0, 0, 0, 0, 0, 0, 0, 0, 0, 0, 0, 0, 0, 0, 0, 0, 0, 0, 0, 0, 0, 0, 0, 0, 0, 0, 0, 0], "split_type": [0, 0, 0, 0, 0, 0, 0, 0, 0, 0, 0, 0, 0, 0, 0, 0, 0, 0, 0, 0, 0, 0, 0, 0, 0, 0, 0, 0, 0, 0, 0, 0, 0, 0, 0, 0, 0, 0, 0, 0, 0, 0, 0, 0, 0, 0, 0, 0, 0, 0, 0, 0, 0, 0, 0, 0, 0, 0, 0, 0, 0, 0, 0], "sum_hessian": [63219.26, 46134.62, 17084.64, 14637.223, 31497.4, 7191.712, 9892.928, 12541.109, 2096.1128, 27145.924, 4351.4756, 1974.6788, 5217.033, 9675.388, 217.54001, 6961.9526, 5579.157, 1396.6667, 699.44604, 18282.902, 8863.021, 1811.4231, 2540.0525, 361.36102, 1613.3177, 3374.7668, 1842.2662, 462.3286, 9213.06, 60.417072, 157.12294, 6664.7856, 297.16675, 3890.3618, 1688.7954, 1106.1544, 290.51233, 234.56621, 464.87982, 12820.841, 5462.062, 1068.794, 7794.228, 1737.1974, 74.22562, 1153.567, 1386.4855, 235.36722, 125.99383, 103.48504, 1509.8326, 2388.6536, 986.1132, 362.71054, 1479.5557, 117.50238, 344.82623, 17.635368, 9195.424, 56.799053, 3.6180174, 24.83929, 132.28365], "tree_param": {"num_deleted": "0", "num_feature": "84", "num_nodes": "63", "size_leaf_vector": "1"}}, {"base_weights": [-0.0, -0.11881765, 0.38921162, -0.3684863, -0.030665984, 0.22409259, 0.49373567, -0.24943458, -0.42806438, -0.087000914, 0.14907087, 0.15505207, 0.49141282, 0.50674057, 0.037628572, -0.31442565, -0.05471922, -0.4416803, -0.075975284, -0.23985288, -0.02979159, 0.2658333, -0.026984146, 0.048117068, 0.30433527, 0.6047599, 0.10793751, 0.10339016, 0.5230722, 0.40277806, -0.23911117, -0.11716967, -0.054546937, -0.052712772, 0.02314443, -0.1422222, -0.10356208, 0.06937491, -0.0445938, -0.086769015, 0.018639378, -0.023054559, 0.037715424, 0.13166222, 0.023873087, 0.07741726, -0.061620604, -0.051742885, 0.043602683, 0.106134236, -0.03578182, 0.18456475, -0.0, 0.13433066, -0.015914071, 0.094551824, -0.019154962, 0.15940069, 0.05726936, 0.15238267, -0.0, -0.0, -0.09365618], "categories": [], "categories_nodes": [], "categories_segments": [], "categories_sizes": [], "default_left": [0, 0, 0, 0, 0, 0, 0, 0, 0, 0, 0, 0, 0, 0, 0, 0, 0, 0, 0, 0, 0, 0, 0, 0, 0, 0, 0, 0, 0, 0, 0, 0, 0, 0, 0, 0, 0, 0, 0, 0, 0, 0, 0, 0, 0, 0, 0, 0, 0, 0, 0, 0, 0, 0, 0, 0, 0, 0, 0, 0, 0, 0, 0], "id": 8, "left_children": [1, 3, 5, 7, 9, 11, 13, 15, 17, 19, 21, 23, 25, 27, 29, 31, 33, 35, 37, 39, 41, 43, 45, 47, 49, 51, 53, 55, 57, 59, 61, -1, -1, -1, -1, -1, -1, -1, -1, -1, -1, -1, -1, -1, -1, -1, -1, -1, -1, -1, -1, -1, -1, -1, -1, -1, -1, -1, -1, -1, -1, -1, -1], "loss_changes": [2666.4924, 968.2187, 225.45532, 74.66699, 330.27332, 90.65549, 43.295654, 45.556915, 31.249634, 215.2368, 161.83568, 63.773308, 38.480576, 46.187866, 27.023848, 23.2836, 17.176258, 14.439697, 6.167667, 102.7887, 132.58836, 146.18341, 155.1249, 53.30735, 38.426758, 7.2655334, 18.253668, 14.407438, 13.637695, 3.2939034, 3.429093, 0.0, 0.0, 0.0, 0.0, 0.0, 0.0, 0.0, 0.0, 0.0, 0.0, 0.0, 0.0, 0.0, 0.0, 0.0, 0.0, 0.0, 0.0, 0.0, 0.0, 0.0, 0.0, 0.0, 0.0, 0.0, 0.0, 0.0, 0.0, 0.0, 0.0, 0.0, 0.0], "parents": [2147483647, 0, 0, 1, 1, 2, 2, 3, 3, 4, 4, 5, 5, 6, 6, 7, 7, 8, 8, 9, 9, 10, 10, 11, 11, 12, 12, 13, 13, 14, 14, 15, 15, 16, 16, 17, 17, 18, 18, 19, 19, 20, 20, 21, 21, 22, 22, 23, 23, 24, 24, 25, 25, 26, 26, 27, 27, 28, 28, 29, 29, 30, 30], "right_children": [2, 4, 6, 8, 10, 12, 14, 16, 18, 20, 22, 24, 26, 28, 30, 32, 34, 36, 38, 40, 42, 44, 46, 48, 50, 52, 54, 56, 58, 60, 62, -1, -1, -1, -1, -1, -1, -1, -1, -1, -1, -1, -1, -1, -1, -1, -1, -1, -1, -1, -1, -1, -1, -1, -1, -1, -1, -1, -1, -1, -1, -1, -1], "split_conditions": [0.88421994, 0.13303345, 3.51732, 0.14138116, 5.487125, 1.4695545, 0.007257272, 0.12750028, 0.28232574, 0.1694973, 0.00075561285, 1.0, 2.8861556, 0.81320167, 3.7656999, 0.032905415, 0.1060243, 0.19542246, 0.022060633, 1.156473, 1.0, 23.903292, 2.2737935, 1.4514878, 0.12750028, 2.803696, 0.0012670634, 0.24667239, 1.1368312, 0.3980028, 1.5192585, -0.11716967, -0.054546937, -0.052712772, 0.02314443, -0.1422222, -0.10356208, 0.06937491, -0.0445938, -0.086769015, 0.018639378, -0.023054559, 0.037715424, 0.13166222, 0.023873087, 0.07741726, -0.061620604, -0.051742885, 0.043602683, 0.106134236, -0.03578182, 0.18456475, -0.0, 0.13433066, -0.015914071, 0.094551824, -0.019154962, 0.15940069, 0.05726936, 0.15238267, -0.0, -0.0, -0.09365618], "split_indices": [68, 39, 41, 5, 62, 43, 56, 56, 63, 68, 56, 29, 45, 4, 75, 61, 4, 83, 9, 57, 29, 38, 20, 54, 56, 28, 56, 5, 5, 5, 10, 0, 0, 0, 0, 0, 0, 0, 0, 0, 0, 0, 0, 0, 0, 0, 0, 0, 0, 0, 0, 0, 0, 0, 0, 0, 0, 0, 0, 0, 0, 0, 0], "split_type": [0, 0, 0, 0, 0, 0, 0, 0, 0, 0, 0, 0, 0, 0, 0, 0, 0, 0, 0, 0, 0, 0, 0, 0, 0, 0, 0, 0, 0, 0, 0, 0, 0, 0, 0, 0, 0, 0, 0, 0, 0, 0, 0, 0, 0, 0, 0, 0, 0, 0, 0, 0, 0, 0, 0, 0, 0, 0, 0, 0, 0, 0, 0], "sum_hessian": [57657.86, 44173.4, 13484.461, 11496.284, 32677.115, 5265.4004, 8219.061, 3892.0464, 7604.238, 24921.973, 7755.142, 4215.6235, 1049.7766, 7969.783, 249.27734, 2879.1028, 1012.9436, 7293.5273, 310.7105, 6738.9214, 18183.05, 4696.5845, 3058.5574, 2495.9944, 1719.6292, 789.70306, 260.07358, 334.25064, 7635.5327, 122.85439, 126.42295, 1779.7931, 1099.3098, 567.6336, 445.31003, 5379.6035, 1913.9241, 32.695747, 278.01474, 5820.391, 918.5305, 14008.819, 4174.233, 2406.1316, 2290.453, 1155.7031, 1902.8542, 731.8589, 1764.1355, 1561.1732, 158.45592, 782.25055, 7.452497, 102.99398, 157.0796, 173.47818, 160.77246, 7420.2373, 215.2954, 89.64473, 33.20966, 17.487656, 108.935295], "tree_param": {"num_deleted": "0", "num_feature": "84", "num_nodes": "63", "size_leaf_vector": "1"}}, {"base_weights": [-0.0, -0.10700785, 0.36812422, -0.2445151, 0.03966767, 0.18589237, 0.48063043, -0.35337126, -0.112430595, 0.09251477, -0.26677275, 0.23778757, -0.15689935, 0.49891686, -0.08509888, -0.38576448, -0.20375487, -0.17108789, 0.06414215, 0.033228535, 0.34844285, -0.0, -0.37546033, -0.041540317, 0.2785633, 0.12302092, -0.3406354, 0.22741526, 0.5224339, -0.0, -0.32262936, -0.073585935, -0.12751977, -0.08998095, -0.018432444, -0.022575086, -0.07646161, -0.03593726, 0.040909644, -0.0, 0.06114546, 0.17117044, 0.07312002, -0.024501842, 0.06675891, -0.0, -0.12330484, 0.03411545, -0.14584722, 0.087984115, -0.008345689, 0.085100636, -0.02052332, -0.12210239, -0.0, 0.08479834, -0.09355406, -0.0, 0.15731369, 0.045405485, -0.0021245477, -0.0, -0.10773574], "categories": [], "categories_nodes": [], "categories_segments": [], "categories_sizes": [], "default_left": [0, 0, 0, 0, 0, 0, 0, 0, 0, 0, 0, 0, 0, 0, 0, 0, 0, 0, 0, 0, 0, 0, 0, 0, 0, 0, 0, 0, 0, 0, 0, 0, 0, 0, 0, 0, 0, 0, 0, 0, 0, 0, 0, 0, 0, 0, 0, 0, 0, 0, 0, 0, 0, 0, 0, 0, 0, 0, 0, 0, 0, 0, 0], "id": 9, "left_children": [1, 3, 5, 7, 9, 11, 13, 15, 17, 19, 21, 23, 25, 27, 29, 31, 33, 35, 37, 39, 41, 43, 45, 47, 49, 51, 53, 55, 57, 59, 61, -1, -1, -1, -1, -1, -1, -1, -1, -1, -1, -1, -1, -1, -1, -1, -1, -1, -1, -1, -1, -1, -1, -1, -1, -1, -1, -1, -1, -1, -1, -1, -1], "loss_changes": [2080.045, 827.19495, 237.06287, 299.41443, 318.30716, 82.232376, 79.88904, 50.018555, 100.4986, 252.34169, 87.17143, 47.931946, 31.884224, 37.756226, 5.6499333, 45.314697, 25.293327, 54.879196, 31.424028, 78.59678, 64.833984, 16.092915, 31.269073, 36.84954, 18.539825, 8.5607395, 6.903866, 17.735275, 5.915039, 0.7585694, 1.379631, 0.0, 0.0, 0.0, 0.0, 0.0, 0.0, 0.0, 0.0, 0.0, 0.0, 0.0, 0.0, 0.0, 0.0, 0.0, 0.0, 0.0, 0.0, 0.0, 0.0, 0.0, 0.0, 0.0, 0.0, 0.0, 0.0, 0.0, 0.0, 0.0, 0.0, 0.0, 0.0], "parents": [2147483647, 0, 0, 1, 1, 2, 2, 3, 3, 4, 4, 5, 5, 6, 6, 7, 7, 8, 8, 9, 9, 10, 10, 11, 11, 12, 12, 13, 13, 14, 14, 15, 15, 16, 16, 17, 17, 18, 18, 19, 19, 20, 20, 21, 21, 22, 22, 23, 23, 24, 24, 25, 25, 26, 26, 27, 27, 28, 28, 29, 29, 30, 30], "right_children": [2, 4, 6, 8, 10, 12, 14, 16, 18, 20, 22, 24, 26, 28, 30, 32, 34, 36, 38, 40, 42, 44, 46, 48, 50, 52, 54, 56, 58, 60, 62, -1, -1, -1, -1, -1, -1, -1, -1, -1, -1, -1, -1, -1, -1, -1, -1, -1, -1, -1, -1, -1, -1, -1, -1, -1, -1, -1, -1, -1, -1, -1, -1], "split_conditions": [0.8883489, 0.6368054, 2.0705605, 0.21274492, 0.027504226, 0.022880586, 0.016578292, 0.26337066, 1.0, 4.365975, 5.153259, 7.9857697, 1.140045, 2.3294094, 3.4879823, 0.07004888, 0.0031226785, 0.31350148, 9.041965, 4.5737, 0.00023937102, 3.622609, 0.54928374, 31.852873, 1.4134177, 0.082617596, 1.2114081, 3.1318772, 0.5996759, 1.5359684, 0.6052505, -0.073585935, -0.12751977, -0.08998095, -0.018432444, -0.022575086, -0.07646161, -0.03593726, 0.040909644, -0.0, 0.06114546, 0.17117044, 0.07312002, -0.024501842, 0.06675891, -0.0, -0.12330484, 0.03411545, -0.14584722, 0.087984115, -0.008345689, 0.085100636, -0.02052332, -0.12210239, -0.0, 0.08479834, -0.09355406, -0.0, 0.15731369, 0.045405485, -0.0021245477, -0.0, -0.10773574], "split_indices": [73, 80, 51, 68, 56, 56, 56, 42, 29, 25, 65, 0, 24, 72, 60, 5, 56, 5, 0, 35, 56, 25, 24, 12, 48, 56, 67, 33, 46, 59, 48, 0, 0, 0, 0, 0, 0, 0, 0, 0, 0, 0, 0, 0, 0, 0, 0, 0, 0, 0, 0, 0, 0, 0, 0, 0, 0, 0, 0, 0, 0, 0, 0], "split_type": [0, 0, 0, 0, 0, 0, 0, 0, 0, 0, 0, 0, 0, 0, 0, 0, 0, 0, 0, 0, 0, 0, 0, 0, 0, 0, 0, 0, 0, 0, 0, 0, 0, 0, 0, 0, 0, 0, 0, 0, 0, 0, 0, 0, 0, 0, 0, 0, 0, 0, 0, 0, 0, 0, 0, 0, 0, 0, 0, 0, 0, 0, 0], "sum_hessian": [52801.5, 40910.25, 11891.25, 21149.89, 19760.36, 4574.021, 7317.229, 11552.0205, 9597.869, 16882.264, 2878.0952, 3998.2107, 575.8101, 7105.3525, 211.8765, 9439.807, 2112.2136, 7247.066, 2350.8032, 13739.651, 3142.6133, 807.24255, 2070.8528, 478.06116, 3520.1497, 206.7432, 369.06696, 601.1408, 6504.2114, 143.7866, 68.0899, 2120.8335, 7318.9736, 1217.7976, 894.416, 3436.9346, 3810.1313, 623.58496, 1727.2181, 11483.45, 2256.2012, 974.7908, 2167.8225, 558.64746, 248.59511, 157.85884, 1912.9939, 338.21188, 139.84926, 3389.993, 130.15663, 140.55057, 66.19263, 299.88742, 69.17953, 562.5308, 38.60999, 26.658567, 6477.5527, 31.867506, 111.9191, 2.629409, 65.46049], "tree_param": {"num_deleted": "0", "num_feature": "84", "num_nodes": "63", "size_leaf_vector": "1"}}, {"base_weights": [-0.0, -0.14999506, 0.22099654, -0.24593368, 0.017687121, 0.106860384, 0.4241964, -0.32351416, -0.13362919, 0.10843042, -0.13517888, 0.06704693, 0.3335911, 0.4513319, 0.0071989554, -0.19170734, -0.3835838, -0.18261898, 0.0009547227, -0.007755314, 0.24989375, -0.2706402, 0.097146794, 0.033556957, 0.31039068, 0.4183461, 0.05341906, 0.24933979, 0.4886207, 0.1874895, -0.3178948, -0.0693878, -0.0, -0.11731527, -0.0, -0.064630926, 0.010148271, 0.043219965, -0.07791518, -0.044548463, 0.031851772, 0.1215611, 0.049285475, -0.049524546, -0.11343076, 0.05061308, -0.07266694, 0.061221927, -3.0801373e-05, -0.04254909, 0.104962625, -0.044851013, 0.13085005, 0.07235264, -0.025743332, 0.08525407, -0.030914897, 0.14973935, -0.0, 0.10564107, -0.004925522, -0.113565855, -0.0], "categories": [], "categories_nodes": [], "categories_segments": [], "categories_sizes": [], "default_left": [0, 0, 0, 0, 0, 0, 0, 0, 0, 0, 0, 0, 0, 0, 0, 0, 0, 0, 0, 0, 0, 0, 0, 0, 0, 0, 0, 0, 0, 0, 0, 0, 0, 0, 0, 0, 0, 0, 0, 0, 0, 0, 0, 0, 0, 0, 0, 0, 0, 0, 0, 0, 0, 0, 0, 0, 0, 0, 0, 0, 0, 0, 0], "id": 10, "left_children": [1, 3, 5, 7, 9, 11, 13, 15, 17, 19, 21, 23, 25, 27, 29, 31, 33, 35, 37, 39, 41, 43, 45, 47, 49, 51, 53, 55, 57, 59, 61, -1, -1, -1, -1, -1, -1, -1, -1, -1, -1, -1, -1, -1, -1, -1, -1, -1, -1, -1, -1, -1, -1, -1, -1, -1, -1, -1, -1, -1, -1, -1, -1], "loss_changes": [1610.4152, 467.84845, 450.19293, 156.09778, 145.32918, 109.8035, 74.990845, 80.128174, 51.864258, 111.34917, 123.51462, 84.28412, 39.09076, 42.063965, 25.31949, 26.369698, 19.704956, 41.739853, 72.455635, 58.17616, 34.49025, 22.538773, 33.26933, 56.56714, 24.737488, 16.993637, 13.527315, 14.969238, 29.190552, 13.8362255, 3.2591162, 0.0, 0.0, 0.0, 0.0, 0.0, 0.0, 0.0, 0.0, 0.0, 0.0, 0.0, 0.0, 0.0, 0.0, 0.0, 0.0, 0.0, 0.0, 0.0, 0.0, 0.0, 0.0, 0.0, 0.0, 0.0, 0.0, 0.0, 0.0, 0.0, 0.0, 0.0, 0.0], "parents": [2147483647, 0, 0, 1, 1, 2, 2, 3, 3, 4, 4, 5, 5, 6, 6, 7, 7, 8, 8, 9, 9, 10, 10, 11, 11, 12, 12, 13, 13, 14, 14, 15, 15, 16, 16, 17, 17, 18, 18, 19, 19, 20, 20, 21, 21, 22, 22, 23, 23, 24, 24, 25, 25, 26, 26, 27, 27, 28, 28, 29, 29, 30, 30], "right_children": [2, 4, 6, 8, 10, 12, 14, 16, 18, 20, 22, 24, 26, 28, 30, 32, 34, 36, 38, 40, 42, 44, 46, 48, 50, 52, 54, 56, 58, 60, 62, -1, -1, -1, -1, -1, -1, -1, -1, -1, -1, -1, -1, -1, -1, -1, -1, -1, -1, -1, -1, -1, -1, -1, -1, -1, -1, -1, -1, -1, -1, -1, -1], "split_conditions": [0.47668037, 0.7665032, 1.6149818, 0.2361835, 0.003564836, 1.1734151, 0.008013998, 0.12294461, 0.014360425, 0.44743216, 1.8198391, 15.6413355, 0.8757296, 5.2043314, 7.451076, 0.088539764, 0.41757733, 0.3151385, 0.47749147, 9.609815, 6.644668e-05, 2.4787333, 5.213479, 0.36898768, 3.8702204, 2.180397, 0.008013998, 1.9486526, 0.0029360577, 0.082617596, 1.1368312, -0.0693878, -0.0, -0.11731527, -0.0, -0.064630926, 0.010148271, 0.043219965, -0.07791518, -0.044548463, 0.031851772, 0.1215611, 0.049285475, -0.049524546, -0.11343076, 0.05061308, -0.07266694, 0.061221927, -3.0801373e-05, -0.04254909, 0.104962625, -0.044851013, 0.13085005, 0.07235264, -0.025743332, 0.08525407, -0.030914897, 0.14973935, -0.0, 0.10564107, -0.004925522, -0.113565855, -0.0], "split_indices": [68, 80, 82, 42, 56, 26, 56, 5, 56, 66, 57, 65, 15, 72, 38, 81, 73, 46, 1, 65, 56, 24, 20, 52, 35, 36, 56, 76, 56, 56, 5, 0, 0, 0, 0, 0, 0, 0, 0, 0, 0, 0, 0, 0, 0, 0, 0, 0, 0, 0, 0, 0, 0, 0, 0, 0, 0, 0, 0, 0, 0, 0, 0], "split_type": [0, 0, 0, 0, 0, 0, 0, 0, 0, 0, 0, 0, 0, 0, 0, 0, 0, 0, 0, 0, 0, 0, 0, 0, 0, 0, 0, 0, 0, 0, 0, 0, 0, 0, 0, 0, 0, 0, 0, 0, 0, 0, 0, 0, 0, 0, 0, 0, 0, 0, 0, 0, 0, 0, 0, 0, 0, 0, 0, 0, 0, 0, 0], "sum_hessian": [48580.0, 28938.885, 19641.115, 18444.89, 10493.994, 12609.289, 7031.8257, 10855.166, 7589.725, 6626.263, 3867.731, 10764.471, 1844.8184, 6579.604, 452.22205, 3451.7922, 7403.3735, 5618.4893, 1971.2355, 3599.885, 3026.3784, 2470.2747, 1397.4563, 9499.361, 1265.1094, 1388.5745, 456.24396, 1068.3345, 5511.2695, 310.95578, 141.26627, 2863.9783, 587.814, 7252.16, 151.2136, 4918.8965, 699.5931, 1297.6312, 673.60425, 1649.5736, 1950.3114, 1032.5687, 1993.8097, 1294.4, 1175.8746, 1178.8414, 218.61488, 1614.1709, 7885.1904, 81.0447, 1184.0647, 24.95214, 1363.6223, 224.5382, 231.70575, 998.2132, 70.12122, 5398.734, 112.53542, 198.77103, 112.18475, 122.069466, 19.196802], "tree_param": {"num_deleted": "0", "num_feature": "84", "num_nodes": "63", "size_leaf_vector": "1"}}, {"base_weights": [-0.0, -0.080268815, 0.35647964, -0.25889936, 0.006031174, 0.23877446, 0.49421003, -0.098617315, -0.30547878, 0.20518696, -0.033059306, 0.17428239, 0.4793748, -0.07632421, 0.5023183, -0.18104337, 0.05074043, -0.41063714, -0.23891866, -0.0, 0.35637495, -0.053122263, 0.27768502, 0.084206805, 0.30582714, 0.49649468, -0.0, 0.5115969, -0.0, -0.08614573, -0.017323019, -0.031981524, 0.05131422, -0.13171083, -0.062918976, -0.06349102, -0.13008274, -0.03824628, 0.08076352, 0.044754904, 0.12968378, -0.052459065, 0.001824187, 0.118158005, -0.007541476, 0.07864939, -0.016537901, 0.033346627, 0.12565164, 0.1577082, -0.0, 0.07090156, 0.1583194, 0.06934523, -0.036908396], "categories": [], "categories_nodes": [], "categories_segments": [], "categories_sizes": [], "default_left": [0, 0, 0, 0, 0, 0, 0, 0, 0, 0, 0, 0, 0, 0, 0, 0, 0, 0, 0, 0, 0, 0, 0, 0, 0, 0, 0, 0, 0, 0, 0, 0, 0, 0, 0, 0, 0, 0, 0, 0, 0, 0, 0, 0, 0, 0, 0, 0, 0, 0, 0, 0, 0, 0, 0], "id": 11, "left_children": [1, 3, 5, 7, 9, 11, 13, 15, 17, 19, 21, 23, 25, -1, 27, 29, 31, 33, 35, 37, 39, 41, 43, 45, 47, 49, -1, 51, 53, -1, -1, -1, -1, -1, -1, -1, -1, -1, -1, -1, -1, -1, -1, -1, -1, -1, -1, -1, -1, -1, -1, -1, -1, -1, -1], "loss_changes": [1287.9895, 568.9006, 126.66528, 85.56036, 194.29271, 63.231873, 25.50299, 35.205894, 58.174133, 128.12105, 126.42016, 38.545998, 11.053879, 0.0, 16.356445, 20.312386, 18.394053, 13.544312, 23.876526, 59.162796, 31.363983, 141.62169, 46.66809, 55.99222, 25.703796, 9.871353, 0.0, 8.546753, 2.3401055, 0.0, 0.0, 0.0, 0.0, 0.0, 0.0, 0.0, 0.0, 0.0, 0.0, 0.0, 0.0, 0.0, 0.0, 0.0, 0.0, 0.0, 0.0, 0.0, 0.0, 0.0, 0.0, 0.0, 0.0, 0.0, 0.0], "parents": [2147483647, 0, 0, 1, 1, 2, 2, 3, 3, 4, 4, 5, 5, 6, 6, 7, 7, 8, 8, 9, 9, 10, 10, 11, 11, 12, 12, 14, 14, 15, 15, 16, 16, 17, 17, 18, 18, 19, 19, 20, 20, 21, 21, 22, 22, 23, 23, 24, 24, 25, 25, 27, 27, 28, 28], "right_children": [2, 4, 6, 8, 10, 12, 14, 16, 18, 20, 22, 24, 26, -1, 28, 30, 32, 34, 36, 38, 40, 42, 44, 46, 48, 50, -1, 52, 54, -1, -1, -1, -1, -1, -1, -1, -1, -1, -1, -1, -1, -1, -1, -1, -1, -1, -1, -1, -1, -1, -1, -1, -1, -1, -1], "split_conditions": [1.1065673, 0.18850431, 4.922679, 0.025328785, 0.00016019974, 1.7029774, 0.53396547, 0.082617596, 0.08273864, 2.7529764, 23.009136, 1.0, 0.082617596, -0.07632421, 1.1368312, 0.27941322, 0.096636616, 0.12750028, 47.929356, 0.46667886, 2.3430295, 0.07466106, 3.0833964, 0.27150378, 2.5633087, 5.0563474, -0.0, 2.5582154, 0.00016019974, -0.08614573, -0.017323019, -0.031981524, 0.05131422, -0.13171083, -0.062918976, -0.06349102, -0.13008274, -0.03824628, 0.08076352, 0.044754904, 0.12968378, -0.052459065, 0.001824187, 0.118158005, -0.007541476, 0.07864939, -0.016537901, 0.033346627, 0.12565164, 0.1577082, -0.0, 0.07090156, 0.1583194, 0.06934523, -0.036908396], "split_indices": [82, 46, 41, 5, 56, 26, 46, 56, 39, 35, 81, 29, 56, 0, 5, 33, 69, 56, 12, 49, 80, 55, 20, 5, 64, 8, 0, 60, 56, 0, 0, 0, 0, 0, 0, 0, 0, 0, 0, 0, 0, 0, 0, 0, 0, 0, 0, 0, 0, 0, 0, 0, 0, 0, 0], "split_type": [0, 0, 0, 0, 0, 0, 0, 0, 0, 0, 0, 0, 0, 0, 0, 0, 0, 0, 0, 0, 0, 0, 0, 0, 0, 0, 0, 0, 0, 0, 0, 0, 0, 0, 0, 0, 0, 0, 0, 0, 0, 0, 0, 0, 0, 0, 0, 0, 0, 0, 0, 0, 0, 0, 0], "sum_hessian": [45010.25, 36738.57, 8271.68, 12004.527, 24734.043, 4500.6978, 3770.9822, 2752.1282, 9252.399, 4099.5376, 20634.506, 3583.453, 917.24493, 26.865248, 3744.1167, 1816.4341, 935.6942, 3526.101, 5726.2983, 1732.4016, 2367.1357, 19414.062, 1220.4434, 2173.0867, 1410.3662, 899.8538, 17.391108, 3671.995, 72.12173, 931.97046, 884.46356, 369.4699, 566.2243, 3044.7551, 481.34604, 5069.3774, 656.92065, 1182.4874, 549.9142, 670.79944, 1696.3363, 6406.688, 13007.374, 905.70215, 314.7412, 985.40515, 1187.6814, 551.2549, 859.1113, 838.2786, 61.575203, 238.50218, 3433.493, 30.811312, 41.310413], "tree_param": {"num_deleted": "0", "num_feature": "84", "num_nodes": "55", "size_leaf_vector": "1"}}, {"base_weights": [-0.0, -0.065956675, 0.36211693, -0.23059636, 0.018336754, 0.19854257, 0.46503115, -0.2898071, -0.11133174, -0.0033067963, 0.30712295, 0.23457511, -0.1726503, 0.47868016, -0.0, -0.31777382, -0.047690913, -0.04343127, -0.26975295, -0.054301288, 0.11046142, 0.41985774, 0.027774354, 0.1725666, 0.4811073, -0.0, -0.24248916, 0.48894346, -0.0, 0.08788181, -0.16058953, -0.12415842, -0.081299536, -0.037048336, 0.022285562, -0.05323221, 0.0075914436, -0.0, -0.09515276, -0.029174495, 0.02816917, 0.04360655, -0.04460263, -0.0, 0.13203919, 0.055248827, -0.016467633, 0.06399541, -0.074999936, 0.15425871, -0.0, -0.0, -0.08589068, 0.053843793, 0.15175697, 0.05907092, -0.02552872, -0.0, -0.09952108], "categories": [], "categories_nodes": [], "categories_segments": [], "categories_sizes": [], "default_left": [0, 0, 0, 0, 0, 0, 0, 0, 0, 0, 0, 0, 0, 0, 0, 0, 0, 0, 0, 0, 0, 0, 0, 0, 0, 0, 0, 0, 0, 0, 0, 0, 0, 0, 0, 0, 0, 0, 0, 0, 0, 0, 0, 0, 0, 0, 0, 0, 0, 0, 0, 0, 0, 0, 0, 0, 0, 0, 0], "id": 12, "left_children": [1, 3, 5, 7, 9, 11, 13, 15, 17, 19, 21, 23, 25, 27, 29, 31, 33, 35, 37, 39, 41, 43, 45, 47, 49, -1, 51, 53, 55, -1, 57, -1, -1, -1, -1, -1, -1, -1, -1, -1, -1, -1, -1, -1, -1, -1, -1, -1, -1, -1, -1, -1, -1, -1, -1, -1, -1, -1, -1], "loss_changes": [1003.969, 495.60892, 102.30145, 81.26935, 149.788, 34.638702, 25.268616, 50.610657, 40.58995, 125.97795, 48.078094, 29.162277, 4.3449426, 17.345642, 5.2412696, 25.171082, 8.529641, 28.157963, 14.382614, 96.285034, 60.48088, 12.759872, 7.8509974, 32.47765, 9.755653, 0.0, 2.8935642, 12.629761, 1.8129153, 0.0, 3.6444583, 0.0, 0.0, 0.0, 0.0, 0.0, 0.0, 0.0, 0.0, 0.0, 0.0, 0.0, 0.0, 0.0, 0.0, 0.0, 0.0, 0.0, 0.0, 0.0, 0.0, 0.0, 0.0, 0.0, 0.0, 0.0, 0.0, 0.0, 0.0], "parents": [2147483647, 0, 0, 1, 1, 2, 2, 3, 3, 4, 4, 5, 5, 6, 6, 7, 7, 8, 8, 9, 9, 10, 10, 11, 11, 12, 12, 13, 13, 14, 14, 15, 15, 16, 16, 17, 17, 18, 18, 19, 19, 20, 20, 21, 21, 22, 22, 23, 23, 24, 24, 26, 26, 27, 27, 28, 28, 30, 30], "right_children": [2, 4, 6, 8, 10, 12, 14, 16, 18, 20, 22, 24, 26, 28, 30, 32, 34, 36, 38, 40, 42, 44, 46, 48, 50, -1, 52, 54, 56, -1, 58, -1, -1, -1, -1, -1, -1, -1, -1, -1, -1, -1, -1, -1, -1, -1, -1, -1, -1, -1, -1, -1, -1, -1, -1, -1, -1, -1, -1], "split_conditions": [1.3208307, 0.4060018, 3.9268103, 0.2561152, 17.38197, 0.043940976, 1.1368312, 0.23046379, 0.9069267, 0.41757733, 1.7560908, 0.8865479, 25.66862, 0.008013998, 0.00016019974, 0.05856627, 2.1402202, 0.008934997, 0.12294461, 39.722324, 0.03410791, 2.1932762, 0.23084258, 4.0938506, 5.237843, -0.0, 0.59828454, 0.4873706, 3.9942582, 0.08788181, 1.1890203, -0.12415842, -0.081299536, -0.037048336, 0.022285562, -0.05323221, 0.0075914436, -0.0, -0.09515276, -0.029174495, 0.02816917, 0.04360655, -0.04460263, -0.0, 0.13203919, 0.055248827, -0.016467633, 0.06399541, -0.074999936, 0.15425871, -0.0, -0.0, -0.08589068, 0.053843793, 0.15175697, 0.05907092, -0.02552872, -0.0, -0.09952108], "split_indices": [82, 4, 41, 68, 81, 56, 5, 56, 62, 73, 28, 7, 12, 56, 56, 52, 56, 56, 5, 64, 56, 36, 5, 83, 8, 0, 24, 39, 75, 0, 52, 0, 0, 0, 0, 0, 0, 0, 0, 0, 0, 0, 0, 0, 0, 0, 0, 0, 0, 0, 0, 0, 0, 0, 0, 0, 0, 0, 0], "split_type": [0, 0, 0, 0, 0, 0, 0, 0, 0, 0, 0, 0, 0, 0, 0, 0, 0, 0, 0, 0, 0, 0, 0, 0, 0, 0, 0, 0, 0, 0, 0, 0, 0, 0, 0, 0, 0, 0, 0, 0, 0, 0, 0, 0, 0, 0, 0, 0, 0, 0, 0, 0, 0, 0, 0, 0, 0, 0, 0], "sum_hessian": [42033.164, 35557.477, 6475.689, 12080.013, 23477.463, 2539.4783, 3936.2107, 8015.3784, 4064.6345, 21809.291, 1668.172, 2339.6694, 199.80885, 3825.1604, 111.05036, 7148.0913, 867.2872, 2890.2495, 1174.3849, 15120.312, 6688.978, 1162.6633, 505.50873, 1903.2267, 436.44266, 25.120007, 174.68884, 3738.7742, 86.38616, 37.747772, 73.30259, 2267.8198, 4880.2715, 585.43335, 281.85382, 1028.6577, 1861.5919, 182.23468, 992.1502, 11775.628, 3344.6843, 5929.5684, 759.40967, 38.861, 1123.8022, 216.21448, 289.29425, 1757.8622, 145.36455, 418.85315, 17.589497, 14.35659, 160.33226, 224.987, 3513.7874, 36.19961, 50.18655, 23.773941, 49.528652], "tree_param": {"num_deleted": "0", "num_feature": "84", "num_nodes": "59", "size_leaf_vector": "1"}}, {"base_weights": [-0.0, -0.0976902, 0.21156874, -0.19889414, 0.02457207, 0.30078053, -0.010497183, -0.27539513, -0.11533626, -0.034107804, 0.17445976, 0.19613744, 0.48692334, -0.20068192, 0.107054316, -0.34328088, -0.15109606, -0.18977694, -0.05693283, 0.060248867, -0.11059571, 0.10738673, 0.40463442, -0.0, 0.28682292, 0.52644426, 0.32458147, 0.0839535, -0.26893777, 0.18771875, -0.2055199, -0.10598549, 0.02947948, -0.06659375, -0.0013238189, -0.090890616, -0.0026212013, 0.066631325, -0.02355095, -0.035665695, 0.04910486, -0.025435587, -0.14335883, 0.039776858, -0.021688562, 0.13088425, -0.0, -0.025369793, 0.066889375, 0.11850381, 0.065456934, -0.0, 0.15910149, 0.058315054, 0.13787752, 0.10907477, -0.049970753, -0.096478105, -0.015760848, 0.07828291, -0.0, -0.08071238, 0.027975325], "categories": [], "categories_nodes": [], "categories_segments": [], "categories_sizes": [], "default_left": [0, 0, 0, 0, 0, 0, 0, 0, 0, 0, 0, 0, 0, 0, 0, 0, 0, 0, 0, 0, 0, 0, 0, 0, 0, 0, 0, 0, 0, 0, 0, 0, 0, 0, 0, 0, 0, 0, 0, 0, 0, 0, 0, 0, 0, 0, 0, 0, 0, 0, 0, 0, 0, 0, 0, 0, 0, 0, 0, 0, 0, 0, 0], "id": 13, "left_children": [1, 3, 5, 7, 9, 11, 13, 15, 17, 19, 21, 23, 25, 27, 29, 31, 33, 35, 37, 39, 41, 43, 45, 47, 49, 51, 53, 55, 57, 59, 61, -1, -1, -1, -1, -1, -1, -1, -1, -1, -1, -1, -1, -1, -1, -1, -1, -1, -1, -1, -1, -1, -1, -1, -1, -1, -1, -1, -1, -1, -1, -1, -1], "loss_changes": [819.0054, 337.17917, 250.88617, 91.156494, 109.0064, 167.64197, 80.46422, 60.00403, 28.714233, 63.619793, 48.715538, 102.61798, 11.78595, 28.902775, 54.47313, 24.358887, 26.585651, 59.965904, 23.24133, 71.932724, 40.671528, 13.008959, 8.511322, 34.500175, 23.089478, 7.583313, 5.265953, 18.950686, 9.354713, 22.285088, 9.741644, 0.0, 0.0, 0.0, 0.0, 0.0, 0.0, 0.0, 0.0, 0.0, 0.0, 0.0, 0.0, 0.0, 0.0, 0.0, 0.0, 0.0, 0.0, 0.0, 0.0, 0.0, 0.0, 0.0, 0.0, 0.0, 0.0, 0.0, 0.0, 0.0, 0.0, 0.0, 0.0], "parents": [2147483647, 0, 0, 1, 1, 2, 2, 3, 3, 4, 4, 5, 5, 6, 6, 7, 7, 8, 8, 9, 9, 10, 10, 11, 11, 12, 12, 13, 13, 14, 14, 15, 15, 16, 16, 17, 17, 18, 18, 19, 19, 20, 20, 21, 21, 22, 22, 23, 23, 24, 24, 25, 25, 26, 26, 27, 27, 28, 28, 29, 29, 30, 30], "right_children": [2, 4, 6, 8, 10, 12, 14, 16, 18, 20, 22, 24, 26, 28, 30, 32, 34, 36, 38, 40, 42, 44, 46, 48, 50, 52, 54, 56, 58, 60, 62, -1, -1, -1, -1, -1, -1, -1, -1, -1, -1, -1, -1, -1, -1, -1, -1, -1, -1, -1, -1, -1, -1, -1, -1, -1, -1, -1, -1, -1, -1, -1, -1], "split_conditions": [3.9771903, 0.3163801, 0.0012101277, 0.3153067, 1.0, 3.8482308, 1.3047086, 0.022880586, 0.1283489, 0.2546759, 2.1233656, 2.606661, 0.00020877749, 12.104729, 5.7625155, 0.106261805, 11.0069475, 3.0118208, 0.16202219, 1.1341908, 3.6131663, 0.548373, 0.05885572, 2.1080396, 2.7226542e-05, 2.22696, 0.7765038, 0.0051170858, 7.070752, 0.027504226, 1.1368312, -0.10598549, 0.02947948, -0.06659375, -0.0013238189, -0.090890616, -0.0026212013, 0.066631325, -0.02355095, -0.035665695, 0.04910486, -0.025435587, -0.14335883, 0.039776858, -0.021688562, 0.13088425, -0.0, -0.025369793, 0.066889375, 0.11850381, 0.065456934, -0.0, 0.15910149, 0.058315054, 0.13787752, 0.10907477, -0.049970753, -0.096478105, -0.015760848, 0.07828291, -0.0, -0.08071238, 0.027975325], "split_indices": [62, 68, 56, 80, 29, 25, 57, 56, 68, 5, 53, 35, 56, 75, 60, 7, 0, 83, 24, 8, 83, 56, 56, 41, 56, 51, 68, 56, 53, 56, 5, 0, 0, 0, 0, 0, 0, 0, 0, 0, 0, 0, 0, 0, 0, 0, 0, 0, 0, 0, 0, 0, 0, 0, 0, 0, 0, 0, 0, 0, 0, 0, 0], "split_type": [0, 0, 0, 0, 0, 0, 0, 0, 0, 0, 0, 0, 0, 0, 0, 0, 0, 0, 0, 0, 0, 0, 0, 0, 0, 0, 0, 0, 0, 0, 0, 0, 0, 0, 0, 0, 0, 0, 0, 0, 0, 0, 0, 0, 0, 0, 0, 0, 0, 0, 0, 0, 0, 0, 0, 0, 0, 0, 0, 0, 0, 0, 0], "sum_hessian": [39624.363, 27107.996, 12516.365, 14875.666, 12232.331, 8961.064, 3555.3015, 7702.086, 7173.58, 8743.409, 3488.9216, 5772.0127, 3189.0515, 1390.3071, 2164.9944, 4928.2935, 2773.7925, 3077.5195, 4096.0605, 3856.0269, 4887.3823, 2736.4346, 752.48694, 1826.0638, 3945.9485, 2513.353, 675.6984, 240.52983, 1149.7773, 1746.6398, 418.35458, 4841.4487, 86.84494, 1823.7822, 950.0102, 1859.1864, 1218.333, 259.98297, 3836.0774, 1376.0514, 2479.9756, 4593.055, 294.3271, 2448.8647, 287.5699, 691.8566, 60.63031, 1323.6323, 502.4315, 1473.2059, 2472.7427, 9.825748, 2503.5273, 382.92783, 292.7706, 132.3114, 108.21844, 887.20233, 262.57498, 1230.7145, 515.9253, 372.68784, 45.666767], "tree_param": {"num_deleted": "0", "num_feature": "84", "num_nodes": "63", "size_leaf_vector": "1"}}, {"base_weights": [-0.0, -0.097357005, 0.18335846, -0.23563871, -0.017637404, 0.10298626, 0.4120643, -0.09296104, -0.28980896, -0.09134874, 0.05928224, 0.17072746, -0.034519393, 0.4448577, -0.0, -0.14298795, 0.028923608, -0.32667145, -0.12669961, -0.12988429, 0.017119516, 0.07871955, -0.25276056, 0.10959235, 0.35634667, -0.22099435, 0.094528176, 0.03137949, 0.46622023, 0.2366104, -0.15107001, -0.060585417, -0.0072053117, 0.064334996, -0.01917452, -0.1031724, -0.0050856033, -0.06208657, 0.002392784, -0.06316296, -0.0252694, 0.046144, -0.019924363, -0.044764526, 0.030295389, 0.02102203, -0.10949467, -0.026353694, 0.049706835, -0.0, 0.11460125, -0.007902851, -0.095556095, 0.06519573, -0.0056745764, 0.07301102, -0.005369842, -0.0, 0.14413172, 0.10296856, -0.0, -0.10743361, -0.0], "categories": [], "categories_nodes": [], "categories_segments": [], "categories_sizes": [], "default_left": [0, 0, 0, 0, 0, 0, 0, 0, 0, 0, 0, 0, 0, 0, 0, 0, 0, 0, 0, 0, 0, 0, 0, 0, 0, 0, 0, 0, 0, 0, 0, 0, 0, 0, 0, 0, 0, 0, 0, 0, 0, 0, 0, 0, 0, 0, 0, 0, 0, 0, 0, 0, 0, 0, 0, 0, 0, 0, 0, 0, 0, 0, 0], "id": 14, "left_children": [1, 3, 5, 7, 9, 11, 13, 15, 17, 19, 21, 23, 25, 27, 29, 31, 33, 35, 37, 39, 41, 43, 45, 47, 49, 51, 53, 55, 57, 59, 61, -1, -1, -1, -1, -1, -1, -1, -1, -1, -1, -1, -1, -1, -1, -1, -1, -1, -1, -1, -1, -1, -1, -1, -1, -1, -1, -1, -1, -1, -1, -1, -1], "loss_changes": [662.5072, 264.6941, 231.40256, 64.30429, 87.77579, 90.39858, 44.10486, 16.261023, 33.548767, 34.330086, 43.658543, 68.52103, 76.04549, 22.096313, 9.05904, 10.474487, 12.957268, 23.724915, 15.18281, 18.866455, 23.89262, 35.433167, 17.78456, 55.015747, 15.070557, 21.271355, 27.132523, 4.0843263, 15.917664, 3.7019706, 7.7108326, 0.0, 0.0, 0.0, 0.0, 0.0, 0.0, 0.0, 0.0, 0.0, 0.0, 0.0, 0.0, 0.0, 0.0, 0.0, 0.0, 0.0, 0.0, 0.0, 0.0, 0.0, 0.0, 0.0, 0.0, 0.0, 0.0, 0.0, 0.0, 0.0, 0.0, 0.0, 0.0], "parents": [2147483647, 0, 0, 1, 1, 2, 2, 3, 3, 4, 4, 5, 5, 6, 6, 7, 7, 8, 8, 9, 9, 10, 10, 11, 11, 12, 12, 13, 13, 14, 14, 15, 15, 16, 16, 17, 17, 18, 18, 19, 19, 20, 20, 21, 21, 22, 22, 23, 23, 24, 24, 25, 25, 26, 26, 27, 27, 28, 28, 29, 29, 30, 30], "right_children": [2, 4, 6, 8, 10, 12, 14, 16, 18, 20, 22, 24, 26, 28, 30, 32, 34, 36, 38, 40, 42, 44, 46, 48, 50, 52, 54, 56, 58, 60, 62, -1, -1, -1, -1, -1, -1, -1, -1, -1, -1, -1, -1, -1, -1, -1, -1, -1, -1, -1, -1, -1, -1, -1, -1, -1, -1, -1, -1, -1, -1, -1, -1], "split_conditions": [3.3411057, 0.18342441, 1.8315288, 0.04403928, 0.55995923, 0.0023241045, 0.0020816915, 0.5199956, 0.25842214, 1.0, 22.711206, 1.9452481, 1.2013081, 1.088487, 8.357546, 0.043940976, 0.0066062594, 3.0118208, 0.07963851, 0.15236354, 0.32805562, 7.4442706, 0.22083502, 2.0629978, 7.9857697, 0.006043672, 8.133496, 1.2363592, 2.3294094, 3.0541353, 0.61780906, -0.060585417, -0.0072053117, 0.064334996, -0.01917452, -0.1031724, -0.0050856033, -0.06208657, 0.002392784, -0.06316296, -0.0252694, 0.046144, -0.019924363, -0.044764526, 0.030295389, 0.02102203, -0.10949467, -0.026353694, 0.049706835, -0.0, 0.11460125, -0.007902851, -0.095556095, 0.06519573, -0.0056745764, 0.07301102, -0.005369842, -0.0, 0.14413172, 0.10296856, -0.0, -0.10743361, -0.0], "split_indices": [62, 68, 82, 5, 36, 56, 56, 57, 72, 29, 78, 26, 57, 36, 38, 56, 56, 83, 48, 39, 28, 0, 5, 35, 0, 56, 65, 68, 72, 28, 5, 0, 0, 0, 0, 0, 0, 0, 0, 0, 0, 0, 0, 0, 0, 0, 0, 0, 0, 0, 0, 0, 0, 0, 0, 0, 0, 0, 0, 0, 0, 0, 0], "split_type": [0, 0, 0, 0, 0, 0, 0, 0, 0, 0, 0, 0, 0, 0, 0, 0, 0, 0, 0, 0, 0, 0, 0, 0, 0, 0, 0, 0, 0, 0, 0, 0, 0, 0, 0, 0, 0, 0, 0, 0, 0, 0, 0, 0, 0, 0, 0, 0, 0, 0, 0, 0, 0, 0, 0, 0, 0, 0, 0, 0, 0, 0, 0], "sum_hessian": [37110.69, 24240.365, 12870.327, 8817.729, 15422.638, 9556.974, 3313.3533, 2478.0833, 6339.645, 7941.855, 7480.782, 6451.2783, 3105.6948, 3065.5847, 247.76857, 1814.9984, 663.08484, 5120.179, 1219.4656, 5927.8584, 2013.9967, 7072.996, 407.78607, 4894.6514, 1556.6272, 1301.62, 1804.075, 173.72208, 2891.8628, 100.2831, 147.48546, 1156.8796, 658.11884, 256.63535, 406.44952, 4819.563, 300.6163, 810.3056, 409.15997, 2062.0337, 3865.8245, 809.0122, 1204.9845, 588.94495, 6484.0513, 82.29886, 325.4872, 1043.4215, 3851.2297, 98.93633, 1457.6908, 469.11768, 832.5023, 908.23615, 895.83875, 70.29811, 103.423965, 99.73633, 2792.1265, 78.556786, 21.726313, 85.55042, 61.935043], "tree_param": {"num_deleted": "0", "num_feature": "84", "num_nodes": "63", "size_leaf_vector": "1"}}, {"base_weights": [-0.0, -0.05323539, 0.2894025, -0.19506939, 0.010898752, 0.17853768, 0.45713302, -0.31823987, -0.14580537, -0.013919659, 0.21648167, 0.33895373, 0.10320237, -0.024272567, 0.4670251, -0.34128368, -0.04858875, 0.016160492, -0.17903374, -0.10504718, 0.04361218, 0.33444127, 0.072102234, -0.0, 0.37208745, 0.0028494422, 0.27717817, 0.47878078, -0.0, -0.10677321, -0.023574121, -0.042363223, -0.0, -0.028097896, 0.035179183, -0.07747136, -0.038695864, -0.0, -0.057999734, 0.026767427, -0.015585531, 0.11423964, -0.0, 0.106189094, -0.0, -0.021685643, -0.0, 0.12826198, 0.017281923, -0.06026295, 0.022901561, -0.0, 0.09500586, -0.0, 0.14677288, 0.028434303, -0.0], "categories": [], "categories_nodes": [], "categories_segments": [], "categories_sizes": [], "default_left": [0, 0, 0, 0, 0, 0, 0, 0, 0, 0, 0, 0, 0, 0, 0, 0, 0, 0, 0, 0, 0, 0, 0, 0, 0, 0, 0, 0, 0, 0, 0, 0, 0, 0, 0, 0, 0, 0, 0, 0, 0, 0, 0, 0, 0, 0, 0, 0, 0, 0, 0, 0, 0, 0, 0, 0, 0], "id": 15, "left_children": [1, 3, 5, 7, 9, 11, 13, 15, 17, 19, 21, 23, 25, -1, 27, 29, 31, 33, 35, 37, 39, 41, 43, 45, 47, 49, 51, 53, 55, -1, -1, -1, -1, -1, -1, -1, -1, -1, -1, -1, -1, -1, -1, -1, -1, -1, -1, -1, -1, -1, -1, -1, -1, -1, -1, -1, -1], "loss_changes": [540.9883, 271.63116, 95.0126, 51.645447, 105.99189, 35.691986, 15.2595825, 12.200043, 37.64279, 95.71514, 34.03129, 14.5035095, 37.431736, 0.0, 10.319885, 4.6762695, 1.6701727, 12.335589, 18.306427, 64.272804, 48.553696, 20.04866, 18.650337, 0.29176807, 11.693497, 21.210878, 9.752678, 8.6922, 0.18714555, 0.0, 0.0, 0.0, 0.0, 0.0, 0.0, 0.0, 0.0, 0.0, 0.0, 0.0, 0.0, 0.0, 0.0, 0.0, 0.0, 0.0, 0.0, 0.0, 0.0, 0.0, 0.0, 0.0, 0.0, 0.0, 0.0, 0.0, 0.0], "parents": [2147483647, 0, 0, 1, 1, 2, 2, 3, 3, 4, 4, 5, 5, 6, 6, 7, 7, 8, 8, 9, 9, 10, 10, 11, 11, 12, 12, 14, 14, 15, 15, 16, 16, 17, 17, 18, 18, 19, 19, 20, 20, 21, 21, 22, 22, 23, 23, 24, 24, 25, 25, 26, 26, 27, 27, 28, 28], "right_children": [2, 4, 6, 8, 10, 12, 14, 16, 18, 20, 22, 24, 26, -1, 28, 30, 32, 34, 36, 38, 40, 42, 44, 46, 48, 50, 52, 54, 56, -1, -1, -1, -1, -1, -1, -1, -1, -1, -1, -1, -1, -1, -1, -1, -1, -1, -1, -1, -1, -1, -1, -1, -1, -1, -1, -1, -1], "split_conditions": [1.1065673, 0.35902384, 4.922679, 0.096636616, 3.344412, 0.78831637, 0.53396547, 0.548373, 0.1859887, 0.12123419, 0.24667239, 0.7438985, 1.0, -0.024272567, 1.1368312, 4.442052, 13.343175, 1.0, 0.11494938, 0.17007802, 0.33888647, 0.12750028, 0.00018271158, 1.0670874, 4.0938506, 1.8676081, 0.38558522, 1.0503832, 1.2405798, -0.10677321, -0.023574121, -0.042363223, -0.0, -0.028097896, 0.035179183, -0.07747136, -0.038695864, -0.0, -0.057999734, 0.026767427, -0.015585531, 0.11423964, -0.0, 0.106189094, -0.0, -0.021685643, -0.0, 0.12826198, 0.017281923, -0.06026295, 0.022901561, -0.0, 0.09500586, -0.0, 0.14677288, 0.028434303, -0.0], "split_indices": [82, 36, 41, 69, 26, 13, 46, 56, 50, 55, 5, 36, 27, 0, 5, 35, 0, 29, 39, 5, 13, 56, 56, 14, 83, 53, 39, 37, 52, 0, 0, 0, 0, 0, 0, 0, 0, 0, 0, 0, 0, 0, 0, 0, 0, 0, 0, 0, 0, 0, 0, 0, 0, 0, 0, 0, 0], "split_type": [0, 0, 0, 0, 0, 0, 0, 0, 0, 0, 0, 0, 0, 0, 0, 0, 0, 0, 0, 0, 0, 0, 0, 0, 0, 0, 0, 0, 0, 0, 0, 0, 0, 0, 0, 0, 0, 0, 0, 0, 0, 0, 0, 0, 0, 0, 0, 0, 0, 0, 0, 0, 0, 0, 0, 0, 0], "sum_hessian": [35112.39, 29657.693, 5454.696, 9282.697, 20374.996, 3321.1797, 2133.516, 2592.4849, 6690.212, 18137.668, 2237.3281, 1017.7607, 2303.419, 20.137339, 2113.379, 2353.9692, 238.51569, 1087.7465, 5602.4653, 7086.307, 11051.361, 1192.4802, 1044.8479, 68.60223, 949.15845, 1497.8962, 805.52277, 2055.843, 57.535885, 2193.4214, 160.5478, 111.11557, 127.400116, 474.02173, 613.7248, 2090.351, 3512.1143, 3275.3647, 3810.9424, 7551.667, 3499.6946, 1057.8441, 134.63612, 191.25293, 853.595, 54.838764, 13.763461, 779.5435, 169.61494, 360.55637, 1137.3398, 91.43762, 714.0851, 50.713356, 2005.1296, 19.832283, 37.7036], "tree_param": {"num_deleted": "0", "num_feature": "84", "num_nodes": "57", "size_leaf_vector": "1"}}, {"base_weights": [-0.0, -0.08360328, 0.16418661, -0.16458392, 0.014537077, 0.09620905, 0.38594717, -0.20146169, -0.044036195, -0.035677534, 0.14026563, 0.15962404, -0.016803484, 0.16234705, 0.46210992, -0.28355998, -0.14387251, 0.03419029, -0.16686262, 0.037911743, -0.099574745, 0.07799691, 0.3261644, 0.12980294, 0.44477955, -0.17981154, 0.09566302, 0.24456075, -0.0, 0.12460866, 0.50231767, -0.039135784, -0.10071089, -0.06838689, -0.025999693, -0.014251529, 0.043136645, -0.08916192, -0.0, -0.06407329, 0.029597988, -0.00979173, -0.0688402, 0.06845446, 0.006864336, 0.123824775, -0.0, 0.058602322, -0.018131966, 0.14217015, -0.0, -0.009726737, -0.082575634, 0.003700698, 0.08030456, -0.0, 0.11496299, 0.057479914, -0.06797277, 0.07298232, -0.033260632, -0.0, 0.1523491], "categories": [], "categories_nodes": [], "categories_segments": [], "categories_sizes": [], "default_left": [0, 0, 0, 0, 0, 0, 0, 0, 0, 0, 0, 0, 0, 0, 0, 0, 0, 0, 0, 0, 0, 0, 0, 0, 0, 0, 0, 0, 0, 0, 0, 0, 0, 0, 0, 0, 0, 0, 0, 0, 0, 0, 0, 0, 0, 0, 0, 0, 0, 0, 0, 0, 0, 0, 0, 0, 0, 0, 0, 0, 0, 0, 0], "id": 16, "left_children": [1, 3, 5, 7, 9, 11, 13, 15, 17, 19, 21, 23, 25, 27, 29, 31, 33, 35, 37, 39, 41, 43, 45, 47, 49, 51, 53, 55, 57, 59, 61, -1, -1, -1, -1, -1, -1, -1, -1, -1, -1, -1, -1, -1, -1, -1, -1, -1, -1, -1, -1, -1, -1, -1, -1, -1, -1, -1, -1, -1, -1, -1, -1], "loss_changes": [459.14673, 177.64912, 165.27097, 51.769257, 63.966274, 63.593033, 38.179535, 39.550385, 29.413506, 33.841938, 29.51603, 41.9261, 56.992607, 11.723991, 19.657532, 25.251709, 23.417358, 16.5182, 23.455261, 47.936466, 30.8853, 15.817588, 22.987572, 65.1304, 6.927475, 15.014481, 22.65628, 13.4417515, 8.887902, 7.8248825, 7.021698, 0.0, 0.0, 0.0, 0.0, 0.0, 0.0, 0.0, 0.0, 0.0, 0.0, 0.0, 0.0, 0.0, 0.0, 0.0, 0.0, 0.0, 0.0, 0.0, 0.0, 0.0, 0.0, 0.0, 0.0, 0.0, 0.0, 0.0, 0.0, 0.0, 0.0, 0.0, 0.0], "parents": [2147483647, 0, 0, 1, 1, 2, 2, 3, 3, 4, 4, 5, 5, 6, 6, 7, 7, 8, 8, 9, 9, 10, 10, 11, 11, 12, 12, 13, 13, 14, 14, 15, 15, 16, 16, 17, 17, 18, 18, 19, 19, 20, 20, 21, 21, 22, 22, 23, 23, 24, 24, 25, 25, 26, 26, 27, 27, 28, 28, 29, 29, 30, 30], "right_children": [2, 4, 6, 8, 10, 12, 14, 16, 18, 20, 22, 24, 26, 28, 30, 32, 34, 36, 38, 40, 42, 44, 46, 48, 50, 52, 54, 56, 58, 60, 62, -1, -1, -1, -1, -1, -1, -1, -1, -1, -1, -1, -1, -1, -1, -1, -1, -1, -1, -1, -1, -1, -1, -1, -1, -1, -1, -1, -1, -1, -1, -1, -1], "split_conditions": [3.3411057, 0.3163801, 1.8315288, 0.6368054, 1.0, 0.0018702598, 6.915625, 0.11534354, 0.0044099265, 0.2546759, 0.16368963, 5401.8257, 1.2013081, 0.42069158, 5.2043314, 0.0468672, 8.699005, 9.772943, 0.79234457, 0.007910921, 0.30825162, 0.16958293, 0.05885572, 51.751926, 0.7234758, 0.006043672, 7.691517, 3.4882796, 1.6934682, 0.8964238, 2.22696, -0.039135784, -0.10071089, -0.06838689, -0.025999693, -0.014251529, 0.043136645, -0.08916192, -0.0, -0.06407329, 0.029597988, -0.00979173, -0.0688402, 0.06845446, 0.006864336, 0.123824775, -0.0, 0.058602322, -0.018131966, 0.14217015, -0.0, -0.009726737, -0.082575634, 0.003700698, 0.08030456, -0.0, 0.11496299, 0.057479914, -0.06797277, 0.07298232, -0.033260632, -0.0, 0.1523491], "split_indices": [62, 68, 82, 80, 29, 56, 64, 68, 56, 5, 5, 75, 57, 5, 72, 5, 0, 65, 81, 5, 13, 59, 56, 12, 63, 56, 7, 34, 18, 14, 51, 0, 0, 0, 0, 0, 0, 0, 0, 0, 0, 0, 0, 0, 0, 0, 0, 0, 0, 0, 0, 0, 0, 0, 0, 0, 0, 0, 0, 0, 0, 0, 0], "split_type": [0, 0, 0, 0, 0, 0, 0, 0, 0, 0, 0, 0, 0, 0, 0, 0, 0, 0, 0, 0, 0, 0, 0, 0, 0, 0, 0, 0, 0, 0, 0, 0, 0, 0, 0, 0, 0, 0, 0, 0, 0, 0, 0, 0, 0, 0, 0, 0, 0, 0, 0, 0, 0, 0, 0, 0, 0, 0, 0, 0, 0, 0, 0], "sum_hessian": [33447.562, 22162.818, 11284.743, 12198.462, 9964.357, 8672.76, 2611.9841, 9276.87, 2921.5916, 7064.1807, 2900.1768, 5611.8447, 3060.9146, 697.7996, 1914.1846, 3751.3838, 5525.4863, 1735.5496, 1186.042, 3210.5515, 3853.6292, 2213.8403, 686.3365, 5113.5967, 498.248, 1285.7195, 1775.1952, 502.962, 194.83762, 230.67992, 1683.5046, 1002.6337, 2748.75, 2165.2183, 3360.268, 942.402, 793.1476, 638.7057, 547.3363, 592.12103, 2618.4304, 2594.7517, 1258.8776, 544.7846, 1669.0557, 563.14386, 123.192635, 3842.4285, 1271.1682, 469.62222, 28.62575, 547.0405, 738.679, 1235.7786, 539.41656, 207.17113, 295.7909, 82.212395, 112.62523, 181.59921, 49.080708, 9.145827, 1674.3589], "tree_param": {"num_deleted": "0", "num_feature": "84", "num_nodes": "63", "size_leaf_vector": "1"}}, {"base_weights": [-0.0, -0.107302375, 0.112226464, -0.21825388, -0.04397289, 0.30257198, 0.03827602, -0.10581428, -0.29387102, -0.084721155, 0.1084611, 0.19319202, 0.48710692, 0.08373071, -0.12316529, -0.12569658, 0.16892587, -0.31696364, -0.042672385, -0.10980002, 0.016564427, 0.13054901, -0.11328941, 0.103524774, 0.3751839, -0.0, 0.49318367, 0.0452987, 0.25822088, -0.29606435, -0.012780349, -0.052596495, 0.0005228802, -0.0, 0.1339218, -0.113812126, -0.053191964, -0.06296193, 0.051994536, -0.024525356, -0.08193803, 0.121486776, -0.010842228, 0.027732624, 0.13277762, 0.06234542, -0.0, -0.0, 0.11786752, -0.0, 0.15041786, 0.03939185, -0.0058161737, 0.033517238, 0.12432339, -0.011011863, -0.1316131, 0.033282533, -0.028507326], "categories": [], "categories_nodes": [], "categories_segments": [], "categories_sizes": [], "default_left": [0, 0, 0, 0, 0, 0, 0, 0, 0, 0, 0, 0, 0, 0, 0, 0, 0, 0, 0, 0, 0, 0, 0, 0, 0, 0, 0, 0, 0, 0, 0, 0, 0, 0, 0, 0, 0, 0, 0, 0, 0, 0, 0, 0, 0, 0, 0, 0, 0, 0, 0, 0, 0, 0, 0, 0, 0, 0, 0], "id": 17, "left_children": [1, 3, 5, 7, 9, 11, 13, 15, 17, 19, 21, 23, 25, 27, 29, 31, 33, 35, 37, 39, 41, 43, -1, 45, 47, -1, 49, 51, 53, 55, 57, -1, -1, -1, -1, -1, -1, -1, -1, -1, -1, -1, -1, -1, -1, -1, -1, -1, -1, -1, -1, -1, -1, -1, -1, -1, -1, -1, -1], "loss_changes": [384.7432, 112.13307, 216.40007, 45.944183, 64.722824, 80.53262, 82.435394, 12.797411, 16.463318, 22.025837, 20.70897, 40.13617, 7.206299, 56.33742, 43.315544, 16.21457, 9.746607, 21.668427, 12.281221, 27.281517, 35.834126, 19.355232, 0.0, 20.6305, 9.152397, 0.0, 4.7620544, 41.763954, 30.185982, 28.975922, 15.322375, 0.0, 0.0, 0.0, 0.0, 0.0, 0.0, 0.0, 0.0, 0.0, 0.0, 0.0, 0.0, 0.0, 0.0, 0.0, 0.0, 0.0, 0.0, 0.0, 0.0, 0.0, 0.0, 0.0, 0.0, 0.0, 0.0, 0.0, 0.0], "parents": [2147483647, 0, 0, 1, 1, 2, 2, 3, 3, 4, 4, 5, 5, 6, 6, 7, 7, 8, 8, 9, 9, 10, 10, 11, 11, 12, 12, 13, 13, 14, 14, 15, 15, 16, 16, 17, 17, 18, 18, 19, 19, 20, 20, 21, 21, 23, 23, 24, 24, 26, 26, 27, 27, 28, 28, 29, 29, 30, 30], "right_children": [2, 4, 6, 8, 10, 12, 14, 16, 18, 20, 22, 24, 26, 28, 30, 32, 34, 36, 38, 40, 42, 44, -1, 46, 48, -1, 50, 52, 54, 56, 58, -1, -1, -1, -1, -1, -1, -1, -1, -1, -1, -1, -1, -1, -1, -1, -1, -1, -1, -1, -1, -1, -1, -1, -1, -1, -1, -1, -1], "split_conditions": [0.5250652, 0.056072474, 0.00024771498, 0.12471854, 0.55995923, 3.8482308, 0.022880586, 39.48558, 0.046904903, 3.8702204, 1.5775315, 14.405058, 2.22696, 1.0, 0.8156038, 0.12750028, 0.08178774, 0.022880586, 0.018150134, 38.25189, 5.6647277e-05, 16.107244, -0.11328941, 37.742382, 8.602577, -0.0, 0.36895344, 0.2575096, 0.07949805, 0.50276047, 0.722994, -0.052596495, 0.0005228802, -0.0, 0.1339218, -0.113812126, -0.053191964, -0.06296193, 0.051994536, -0.024525356, -0.08193803, 0.121486776, -0.010842228, 0.027732624, 0.13277762, 0.06234542, -0.0, -0.0, 0.11786752, -0.0, 0.15041786, 0.03939185, -0.0058161737, 0.033517238, 0.12432339, -0.011011863, -0.1316131, 0.033282533, -0.028507326], "split_indices": [3, 55, 56, 5, 36, 25, 56, 64, 43, 35, 25, 65, 51, 29, 69, 56, 7, 56, 55, 12, 56, 65, 0, 12, 0, 0, 47, 5, 5, 24, 2, 0, 0, 0, 0, 0, 0, 0, 0, 0, 0, 0, 0, 0, 0, 0, 0, 0, 0, 0, 0, 0, 0, 0, 0, 0, 0, 0, 0], "split_type": [0, 0, 0, 0, 0, 0, 0, 0, 0, 0, 0, 0, 0, 0, 0, 0, 0, 0, 0, 0, 0, 0, 0, 0, 0, 0, 0, 0, 0, 0, 0, 0, 0, 0, 0, 0, 0, 0, 0, 0, 0, 0, 0, 0, 0, 0, 0, 0, 0, 0, 0, 0, 0, 0, 0, 0, 0, 0, 0], "sum_hessian": [31947.666, 16332.152, 15615.514, 5876.441, 10455.712, 4330.545, 11284.969, 2417.0422, 3459.3984, 8302.386, 2153.326, 2754.2483, 1576.2968, 8854.39, 2430.5786, 2288.3782, 128.66403, 3131.4539, 327.94473, 6733.725, 1568.6608, 2080.1099, 73.215996, 1883.008, 871.2401, 9.002522, 1567.2942, 7304.1885, 1550.201, 911.1478, 1519.4309, 1703.2312, 585.14685, 62.187088, 66.476944, 2113.604, 1017.84973, 210.9618, 116.98292, 5800.335, 933.39026, 209.3063, 1359.3545, 1883.4453, 196.6647, 944.2117, 938.79645, 17.561785, 853.6783, 31.991516, 1535.3027, 3201.2798, 4102.9087, 833.8459, 716.3552, 348.63055, 562.5173, 558.0308, 961.4], "tree_param": {"num_deleted": "0", "num_feature": "84", "num_nodes": "59", "size_leaf_vector": "1"}}, {"base_weights": [-0.0, -0.04290667, 0.2451824, -0.080079496, 0.1444161, 0.15199386, 0.4275396, -0.15269974, -0.0034810773, -0.34152374, 0.1673375, -0.17944063, 0.17610464, -0.015847802, 0.4476977, -0.068836465, -0.20536385, -0.067285, 0.03504224, -0.40002546, -0.0, 0.06982438, 0.2564025, -0.0, -0.35521987, 0.14351606, 0.44959652, -0.12914106, -0.0, -0.0, 0.46099, -0.024653858, 0.09231754, -0.08807984, -0.040252097, -0.012128693, -0.07425159, 0.026630584, -0.015513147, -0.0, -0.13356721, 0.05251742, -0.030608468, 0.08478145, -0.030769465, -0.020911556, -0.0, -0.112118, -0.0, 0.059867788, 0.00066054286, -0.0, 0.14456508, -0.0, -0.051124047, 0.14122722, -0.0], "categories": [], "categories_nodes": [], "categories_segments": [], "categories_sizes": [], "default_left": [0, 0, 0, 0, 0, 0, 0, 0, 0, 0, 0, 0, 0, 0, 0, 0, 0, 0, 0, 0, 0, 0, 0, 0, 0, 0, 0, 0, 0, 0, 0, 0, 0, 0, 0, 0, 0, 0, 0, 0, 0, 0, 0, 0, 0, 0, 0, 0, 0, 0, 0, 0, 0, 0, 0, 0, 0], "id": 18, "left_children": [1, 3, 5, 7, 9, 11, 13, 15, 17, 19, 21, 23, 25, 27, 29, 31, 33, 35, 37, 39, -1, 41, 43, 45, 47, 49, 51, 53, -1, -1, 55, -1, -1, -1, -1, -1, -1, -1, -1, -1, -1, -1, -1, -1, -1, -1, -1, -1, -1, -1, -1, -1, -1, -1, -1, -1, -1], "loss_changes": [320.0397, 179.65685, 71.136566, 118.86359, 45.575363, 24.262817, 17.69217, 46.03018, 26.388943, 5.3035755, 32.0867, 3.8155112, 19.487152, 0.57967424, 7.7373962, 19.554474, 37.841003, 16.907227, 30.740381, 4.5629997, 0.0, 36.897015, 21.339905, 0.24010248, 0.8405752, 18.485088, 4.069702, 0.338323, 0.0, 0.0, 4.6278076, 0.0, 0.0, 0.0, 0.0, 0.0, 0.0, 0.0, 0.0, 0.0, 0.0, 0.0, 0.0, 0.0, 0.0, 0.0, 0.0, 0.0, 0.0, 0.0, 0.0, 0.0, 0.0, 0.0, 0.0, 0.0, 0.0], "parents": [2147483647, 0, 0, 1, 1, 2, 2, 3, 3, 4, 4, 5, 5, 6, 6, 7, 7, 8, 8, 9, 9, 10, 10, 11, 11, 12, 12, 13, 13, 14, 14, 15, 15, 16, 16, 17, 17, 18, 18, 19, 19, 21, 21, 22, 22, 23, 23, 24, 24, 25, 25, 26, 26, 27, 27, 30, 30], "right_children": [2, 4, 6, 8, 10, 12, 14, 16, 18, 20, 22, 24, 26, 28, 30, 32, 34, 36, 38, 40, -1, 42, 44, 46, 48, 50, 52, 54, -1, -1, 56, -1, -1, -1, -1, -1, -1, -1, -1, -1, -1, -1, -1, -1, -1, -1, -1, -1, -1, -1, -1, -1, -1, -1, -1, -1, -1], "split_conditions": [2.3035696, 1.1734151, 14.719158, 0.33376485, 1.5712657, 0.69728357, 0.79283243, 0.12471854, 0.4691254, 9.97972, 6.8693156, 2.0683086, 7.281649, 4.2748947, 0.40773314, 13.516719, 0.034001254, 48.852062, 0.5836638, 0.0830494, -0.0, 0.14924118, 3.2695923, 0.30732298, 0.46268556, 2.438369, 29.517416, 1.693226, -0.0, -0.0, 1.1368312, -0.024653858, 0.09231754, -0.08807984, -0.040252097, -0.012128693, -0.07425159, 0.026630584, -0.015513147, -0.0, -0.13356721, 0.05251742, -0.030608468, 0.08478145, -0.030769465, -0.020911556, -0.0, -0.112118, -0.0, 0.059867788, 0.00066054286, -0.0, 0.14456508, -0.0, -0.051124047, 0.14122722, -0.0], "split_indices": [41, 26, 65, 42, 46, 67, 73, 5, 36, 0, 53, 8, 41, 35, 83, 65, 55, 12, 52, 5, 0, 5, 28, 5, 63, 28, 12, 45, 0, 0, 5, 0, 0, 0, 0, 0, 0, 0, 0, 0, 0, 0, 0, 0, 0, 0, 0, 0, 0, 0, 0, 0, 0, 0, 0, 0, 0], "split_type": [0, 0, 0, 0, 0, 0, 0, 0, 0, 0, 0, 0, 0, 0, 0, 0, 0, 0, 0, 0, 0, 0, 0, 0, 0, 0, 0, 0, 0, 0, 0, 0, 0, 0, 0, 0, 0, 0, 0, 0, 0, 0, 0, 0, 0, 0, 0, 0, 0, 0, 0, 0, 0, 0, 0, 0, 0], "sum_hessian": [30420.14, 25890.207, 4529.935, 21648.23, 4241.9756, 3035.4329, 1494.5021, 11045.16, 10603.07, 170.8, 4071.1758, 177.28078, 2858.152, 43.42753, 1451.0746, 4334.698, 6710.462, 4089.2012, 6513.8687, 157.36774, 13.432261, 1997.8661, 2073.3096, 102.54868, 74.7321, 2587.8765, 270.2757, 34.4271, 9.000427, 46.122738, 1404.9518, 4212.7617, 121.93689, 2932.3782, 3778.0837, 3608.2239, 480.97745, 4093.804, 2420.065, 7.503061, 149.86467, 1275.1814, 722.68463, 1958.4272, 114.88242, 48.415874, 54.132805, 73.4356, 1.2964989, 1802.0376, 785.83887, 17.608286, 252.66742, 3.4322278, 30.994873, 1368.0978, 36.854008], "tree_param": {"num_deleted": "0", "num_feature": "84", "num_nodes": "57", "size_leaf_vector": "1"}}, {"base_weights": [-0.0, -0.069278084, 0.13294458, -0.17692728, -0.009645099, 0.098656215, 0.44045419, -0.067028955, -0.22433995, -0.04970533, 0.09139309, 0.05004241, 0.22953478, -0.10229209, 0.4643346, -0.099797316, 0.013219134, -0.3558742, -0.17880662, -0.112696975, 0.01487494, 0.05010545, 0.26731023, 0.11287826, -0.12083569, 0.47261062, 0.15595609, -0.0, -0.03676641, -0.0, 0.4855601, -0.044598006, -0.0, 0.077536024, -0.017768303, -0.117017336, -0.0, -0.06362716, -0.0, -0.022528393, -0.065778054, -0.01041956, 0.04724712, -0.009305653, 0.032575905, 0.098023064, -0.007892237, 0.048544828, -0.0008851522, -0.056433897, 0.004187878, -0.0, 0.14882997, -0.055758193, 0.053940356, 0.14919822, -0.0], "categories": [], "categories_nodes": [], "categories_segments": [], "categories_sizes": [], "default_left": [0, 0, 0, 0, 0, 0, 0, 0, 0, 0, 0, 0, 0, 0, 0, 0, 0, 0, 0, 0, 0, 0, 0, 0, 0, 0, 0, 0, 0, 0, 0, 0, 0, 0, 0, 0, 0, 0, 0, 0, 0, 0, 0, 0, 0, 0, 0, 0, 0, 0, 0, 0, 0, 0, 0, 0, 0], "id": 19, "left_children": [1, 3, 5, 7, 9, 11, 13, 15, 17, 19, 21, 23, 25, 27, 29, 31, 33, 35, 37, 39, 41, 43, 45, 47, 49, 51, 53, -1, -1, -1, 55, -1, -1, -1, -1, -1, -1, -1, -1, -1, -1, -1, -1, -1, -1, -1, -1, -1, -1, -1, -1, -1, -1, -1, -1, -1, -1], "loss_changes": [269.58414, 121.66074, 100.295746, 32.502487, 49.95596, 54.786995, 16.322937, 6.427223, 22.657501, 37.520546, 21.961494, 71.41681, 36.48809, 0.087334365, 10.483383, 7.120219, 11.343251, 16.02478, 20.523117, 15.57505, 32.06302, 14.3077545, 13.691174, 29.425777, 17.592567, 5.110214, 15.231625, 0.0, 0.0, 0.0, 4.211197, 0.0, 0.0, 0.0, 0.0, 0.0, 0.0, 0.0, 0.0, 0.0, 0.0, 0.0, 0.0, 0.0, 0.0, 0.0, 0.0, 0.0, 0.0, 0.0, 0.0, 0.0, 0.0, 0.0, 0.0, 0.0, 0.0], "parents": [2147483647, 0, 0, 1, 1, 2, 2, 3, 3, 4, 4, 5, 5, 6, 6, 7, 7, 8, 8, 9, 9, 10, 10, 11, 11, 12, 12, 13, 13, 14, 14, 15, 15, 16, 16, 17, 17, 18, 18, 19, 19, 20, 20, 21, 21, 22, 22, 23, 23, 24, 24, 25, 25, 26, 26, 30, 30], "right_children": [2, 4, 6, 8, 10, 12, 14, 16, 18, 20, 22, 24, 26, 28, 30, 32, 34, 36, 38, 40, 42, 44, 46, 48, 50, 52, 54, -1, -1, -1, 56, -1, -1, -1, -1, -1, -1, -1, -1, -1, -1, -1, -1, -1, -1, -1, -1, -1, -1, -1, -1, -1, -1, -1, -1, -1, -1], "split_conditions": [3.0765214, 0.18342441, 5.8974166, 0.04403928, 1.0, 4.4266624, 0.5996759, 0.5575108, 0.0029786523, 0.5385886, 0.21583119, 0.0018702598, 0.00023937102, 0.23608635, 2.6043065, 0.043940976, 0.006043672, 2.9872644, 3.5184884, 1.0, 1.5708368, 0.005565141, 0.12750028, 51.17501, 39.658783, 0.36895344, 1.5728331, -0.0, -0.03676641, -0.0, 0.0012101277, -0.044598006, -0.0, 0.077536024, -0.017768303, -0.117017336, -0.0, -0.06362716, -0.0, -0.022528393, -0.065778054, -0.01041956, 0.04724712, -0.009305653, 0.032575905, 0.098023064, -0.007892237, 0.048544828, -0.0008851522, -0.056433897, 0.004187878, -0.0, 0.14882997, -0.055758193, 0.053940356, 0.14919822, -0.0], "split_indices": [62, 68, 41, 5, 29, 25, 46, 32, 82, 4, 5, 56, 56, 5, 72, 56, 56, 83, 35, 27, 54, 56, 56, 12, 64, 47, 46, 0, 0, 0, 56, 0, 0, 0, 0, 0, 0, 0, 0, 0, 0, 0, 0, 0, 0, 0, 0, 0, 0, 0, 0, 0, 0, 0, 0, 0, 0], "split_type": [0, 0, 0, 0, 0, 0, 0, 0, 0, 0, 0, 0, 0, 0, 0, 0, 0, 0, 0, 0, 0, 0, 0, 0, 0, 0, 0, 0, 0, 0, 0, 0, 0, 0, 0, 0, 0, 0, 0, 0, 0, 0, 0, 0, 0, 0, 0, 0, 0, 0, 0, 0, 0, 0, 0, 0, 0], "sum_hessian": [29268.346, 19241.818, 10026.527, 6798.8696, 12442.949, 9051.135, 975.39246, 2113.438, 4685.4316, 8981.421, 3461.5276, 6656.4414, 2394.6934, 23.321083, 952.07135, 1588.9706, 524.46747, 1146.641, 3538.7905, 4624.6426, 4356.779, 2850.619, 610.9087, 4909.84, 1746.6016, 523.5969, 1871.0964, 1.562756, 21.758327, 37.038162, 915.0332, 1037.7216, 551.249, 150.4968, 373.97064, 1059.6288, 87.01222, 2971.1987, 567.59186, 3489.0332, 1135.6091, 3180.9626, 1175.8159, 1122.6963, 1727.9227, 536.2978, 74.6109, 3511.966, 1397.8738, 1214.3179, 532.2837, 27.737448, 495.8595, 94.22487, 1776.8716, 889.2239, 25.809298], "tree_param": {"num_deleted": "0", "num_feature": "84", "num_nodes": "57", "size_leaf_vector": "1"}}, {"base_weights": [-0.0, -0.11095377, 0.077563524, -0.2053939, -0.066706784, 0.031660926, 0.29450756, -0.24656998, -0.073423, -0.099825755, 0.006855338, 0.001816872, 0.20070653, 0.48045114, 0.17637475, -0.26754412, -0.0, -0.12716852, 0.040713634, -0.014129922, -0.14446026, 0.26513836, -0.021073684, -0.07202336, 0.0689795, 0.325667, 0.09202833, -0.0, 0.48935464, 0.2540616, 0.0020482957, -0.11122575, -0.06617963, 0.063624345, -0.026578203, -0.052792955, 0.004068639, -0.0, 0.03016694, -0.017249035, 0.02741244, -0.034520324, -0.08998648, 0.108315654, -0.0, 0.006230498, -0.044924915, -0.047697987, -0.0018995905, 0.02785575, -0.052249607, 0.05774237, 0.1331548, -0.020723324, 0.052848283, -0.0, 0.14805105, -0.04636921, 0.09232062, 0.027269956, -0.044547312], "categories": [], "categories_nodes": [], "categories_segments": [], "categories_sizes": [], "default_left": [0, 0, 0, 0, 0, 0, 0, 0, 0, 0, 0, 0, 0, 0, 0, 0, 0, 0, 0, 0, 0, 0, 0, 0, 0, 0, 0, 0, 0, 0, 0, 0, 0, 0, 0, 0, 0, 0, 0, 0, 0, 0, 0, 0, 0, 0, 0, 0, 0, 0, 0, 0, 0, 0, 0, 0, 0, 0, 0, 0, 0], "id": 20, "left_children": [1, 3, 5, 7, 9, 11, 13, 15, 17, 19, 21, 23, 25, 27, 29, 31, 33, 35, 37, 39, 41, 43, 45, 47, 49, 51, 53, -1, 55, 57, 59, -1, -1, -1, -1, -1, -1, -1, -1, -1, -1, -1, -1, -1, -1, -1, -1, -1, -1, -1, -1, -1, -1, -1, -1, -1, -1, -1, -1, -1, -1], "loss_changes": [242.42223, 45.695847, 161.82959, 16.480759, 20.337517, 67.20721, 56.107635, 13.539078, 6.5210233, 19.780914, 19.615828, 58.073463, 23.074883, 5.670212, 21.56681, 6.052185, 3.932298, 6.3394423, 1.4717112, 8.776592, 12.252785, 7.123171, 12.674288, 29.823824, 35.2287, 7.580559, 16.245417, 0.0, 1.5679932, 27.738785, 7.3279305, 0.0, 0.0, 0.0, 0.0, 0.0, 0.0, 0.0, 0.0, 0.0, 0.0, 0.0, 0.0, 0.0, 0.0, 0.0, 0.0, 0.0, 0.0, 0.0, 0.0, 0.0, 0.0, 0.0, 0.0, 0.0, 0.0, 0.0, 0.0, 0.0, 0.0], "parents": [2147483647, 0, 0, 1, 1, 2, 2, 3, 3, 4, 4, 5, 5, 6, 6, 7, 7, 8, 8, 9, 9, 10, 10, 11, 11, 12, 12, 13, 13, 14, 14, 15, 15, 16, 16, 17, 17, 18, 18, 19, 19, 20, 20, 21, 21, 22, 22, 23, 23, 24, 24, 25, 25, 26, 26, 28, 28, 29, 29, 30, 30], "right_children": [2, 4, 6, 8, 10, 12, 14, 16, 18, 20, 22, 24, 26, 28, 30, 32, 34, 36, 38, 40, 42, 44, 46, 48, 50, 52, 54, -1, 56, 58, 60, -1, -1, -1, -1, -1, -1, -1, -1, -1, -1, -1, -1, -1, -1, -1, -1, -1, -1, -1, -1, -1, -1, -1, -1, -1, -1, -1, -1, -1, -1], "split_conditions": [0.3035095, 0.16010815, 14.109333, 0.043940976, 3.1404724, 4.4266624, 4.6807152e-05, 4.442052, 0.068286575, 0.11073185, 8.915202e-05, 0.84604496, 0.004099628, 0.5237707, 1.1855172, 0.044664577, 0.0002565242, 2.1402202, 0.0013180086, 0.05885572, 1.0, 10.242236, 1.0, 0.053666312, 0.043940976, 0.23210149, 0.51259226, -0.0, 0.12354725, 9.402944, 0.00085420074, -0.11122575, -0.06617963, 0.063624345, -0.026578203, -0.052792955, 0.004068639, -0.0, 0.03016694, -0.017249035, 0.02741244, -0.034520324, -0.08998648, 0.108315654, -0.0, 0.006230498, -0.044924915, -0.047697987, -0.0018995905, 0.02785575, -0.052249607, 0.05774237, 0.1331548, -0.020723324, 0.052848283, -0.0, 0.14805105, -0.04636921, 0.09232062, 0.027269956, -0.044547312], "split_indices": [46, 69, 65, 56, 35, 25, 56, 35, 39, 5, 56, 10, 56, 39, 14, 57, 56, 56, 13, 56, 27, 23, 27, 43, 56, 82, 52, 0, 78, 0, 56, 0, 0, 0, 0, 0, 0, 0, 0, 0, 0, 0, 0, 0, 0, 0, 0, 0, 0, 0, 0, 0, 0, 0, 0, 0, 0, 0, 0, 0, 0], "split_type": [0, 0, 0, 0, 0, 0, 0, 0, 0, 0, 0, 0, 0, 0, 0, 0, 0, 0, 0, 0, 0, 0, 0, 0, 0, 0, 0, 0, 0, 0, 0, 0, 0, 0, 0, 0, 0, 0, 0, 0, 0, 0, 0, 0, 0, 0, 0, 0, 0, 0, 0, 0, 0, 0, 0, 0, 0, 0, 0, 0, 0], "sum_hessian": [28167.09, 11588.886, 16578.205, 3624.0725, 7964.813, 13722.037, 2856.1677, 2703.8157, 920.2568, 5585.6406, 2379.172, 11714.138, 2007.899, 1075.535, 1780.6327, 2485.4973, 218.31854, 685.1352, 235.12158, 1990.1051, 3595.5356, 266.2737, 2112.8984, 5508.735, 6205.403, 890.25446, 1117.6447, 15.139063, 1060.396, 1191.7292, 588.90344, 708.33246, 1777.1648, 58.333935, 159.9846, 561.28015, 123.85503, 51.867268, 183.25432, 1477.8744, 512.2307, 3079.4844, 516.0513, 197.77522, 68.4985, 1536.4198, 576.4787, 2304.3374, 3204.3977, 5688.616, 516.78674, 459.56482, 430.68964, 342.70865, 774.936, 11.33311, 1049.0629, 116.51261, 1075.2167, 412.34976, 176.5537], "tree_param": {"num_deleted": "0", "num_feature": "84", "num_nodes": "61", "size_leaf_vector": "1"}}, {"base_weights": [-0.0, -0.07272427, 0.09999114, -0.11521579, 0.08319445, 0.06040324, 0.35024324, -0.24139126, -0.071186036, -0.011599378, 0.16088049, 0.03570411, 0.24250089, -0.0, 0.3837438, -0.29507667, -0.1026196, -0.16008098, -0.02809536, 0.040689472, -0.1724439, 0.12173229, 0.37909126, -0.007210149, 0.13486992, 0.31043142, 0.06925818, 0.042658165, -0.2708769, 0.4603513, 0.22200708, -0.11574627, -0.063695624, -0.040483624, 0.044411045, -0.0567155, -0.0, -0.014534727, 0.042189486, -0.0, 0.09133306, 0.010329146, -0.07651812, 0.0006767962, 0.06490037, 0.13580649, -0.0, 0.0017166818, -0.09021373, 0.020368604, 0.09153922, -0.0, 0.098982014, 0.05791682, -0.032949813, -0.0, 0.06992346, -0.09411547, -0.0, -0.0, 0.14021604, 0.12580062, 0.0015867414], "categories": [], "categories_nodes": [], "categories_segments": [], "categories_sizes": [], "default_left": [0, 0, 0, 0, 0, 0, 0, 0, 0, 0, 0, 0, 0, 0, 0, 0, 0, 0, 0, 0, 0, 0, 0, 0, 0, 0, 0, 0, 0, 0, 0, 0, 0, 0, 0, 0, 0, 0, 0, 0, 0, 0, 0, 0, 0, 0, 0, 0, 0, 0, 0, 0, 0, 0, 0, 0, 0, 0, 0, 0, 0, 0, 0], "id": 21, "left_children": [1, 3, 5, 7, 9, 11, 13, 15, 17, 19, 21, 23, 25, 27, 29, 31, 33, 35, 37, 39, 41, 43, 45, 47, 49, 51, 53, 55, 57, 59, 61, -1, -1, -1, -1, -1, -1, -1, -1, -1, -1, -1, -1, -1, -1, -1, -1, -1, -1, -1, -1, -1, -1, -1, -1, -1, -1, -1, -1, -1, -1, -1, -1], "loss_changes": [197.7167, 104.61757, 109.29272, 65.86015, 25.95307, 41.828533, 20.894241, 19.489395, 33.614605, 13.426072, 11.034649, 38.664154, 9.554703, 3.0904944, 10.613541, 10.620773, 7.4510145, 13.074051, 20.786022, 10.053811, 9.053551, 16.318806, 6.491516, 25.962141, 27.310547, 4.657982, 8.89762, 1.9619579, 0.8673866, 3.4647522, 17.085732, 0.0, 0.0, 0.0, 0.0, 0.0, 0.0, 0.0, 0.0, 0.0, 0.0, 0.0, 0.0, 0.0, 0.0, 0.0, 0.0, 0.0, 0.0, 0.0, 0.0, 0.0, 0.0, 0.0, 0.0, 0.0, 0.0, 0.0, 0.0, 0.0, 0.0, 0.0, 0.0], "parents": [2147483647, 0, 0, 1, 1, 2, 2, 3, 3, 4, 4, 5, 5, 6, 6, 7, 7, 8, 8, 9, 9, 10, 10, 11, 11, 12, 12, 13, 13, 14, 14, 15, 15, 16, 16, 17, 17, 18, 18, 19, 19, 20, 20, 21, 21, 22, 22, 23, 23, 24, 24, 25, 25, 26, 26, 27, 27, 28, 28, 29, 29, 30, 30], "right_children": [2, 4, 6, 8, 10, 12, 14, 16, 18, 20, 22, 24, 26, 28, 30, 32, 34, 36, 38, 40, 42, 44, 46, 48, 50, 52, 54, 56, 58, 60, 62, -1, -1, -1, -1, -1, -1, -1, -1, -1, -1, -1, -1, -1, -1, -1, -1, -1, -1, -1, -1, -1, -1, -1, -1, -1, -1, -1, -1, -1, -1, -1, -1], "split_conditions": [0.42046008, 2.9117231, 15.863012, 0.10289931, 0.92474604, 6.366584, 0.8527906, 11.974291, 8.699005, 0.21835633, 14.755405, 1.0, 0.008934997, 0.50900507, 0.4758752, 0.0029786523, 0.1870817, 0.14393117, 15.396822, 11.15222, 0.0767972, 39.478756, 6.096171, 4.03842, 2.0002253, 0.106852986, 7.631515, 0.43907884, 1.3099153, 0.5499624, 4.9969047e-05, -0.11574627, -0.063695624, -0.040483624, 0.044411045, -0.0567155, -0.0, -0.014534727, 0.042189486, -0.0, 0.09133306, 0.010329146, -0.07651812, 0.0006767962, 0.06490037, 0.13580649, -0.0, 0.0017166818, -0.09021373, 0.020368604, 0.09153922, -0.0, 0.098982014, 0.05791682, -0.032949813, -0.0, 0.06992346, -0.09411547, -0.0, -0.0, 0.14021604, 0.12580062, 0.0015867414], "split_indices": [68, 83, 65, 68, 26, 77, 64, 0, 0, 5, 7, 29, 56, 57, 5, 82, 7, 7, 65, 65, 52, 64, 34, 83, 53, 73, 6, 16, 8, 10, 56, 0, 0, 0, 0, 0, 0, 0, 0, 0, 0, 0, 0, 0, 0, 0, 0, 0, 0, 0, 0, 0, 0, 0, 0, 0, 0, 0, 0, 0, 0, 0, 0], "split_type": [0, 0, 0, 0, 0, 0, 0, 0, 0, 0, 0, 0, 0, 0, 0, 0, 0, 0, 0, 0, 0, 0, 0, 0, 0, 0, 0, 0, 0, 0, 0, 0, 0, 0, 0, 0, 0, 0, 0, 0, 0, 0, 0, 0, 0, 0, 0, 0, 0, 0, 0, 0, 0, 0, 0, 0, 0, 0, 0, 0, 0, 0, 0], "sum_hessian": [27187.576, 15740.0205, 11447.556, 12419.744, 3320.2756, 9919.561, 1527.9951, 3152.9053, 9266.84, 1437.8788, 1882.3969, 8784.211, 1135.3499, 113.42013, 1414.575, 2220.6384, 932.26685, 2948.7864, 6318.053, 1038.7632, 399.1157, 1636.2328, 246.16396, 6061.268, 2722.943, 773.5265, 361.8234, 74.16467, 39.255455, 916.69965, 497.8753, 999.82855, 1220.8098, 861.5184, 70.74848, 2479.7983, 468.988, 5691.4653, 626.5877, 912.71814, 126.04502, 79.52484, 319.59085, 770.2228, 866.0101, 204.0075, 42.156452, 5773.771, 287.4971, 1997.3778, 725.5654, 46.095562, 727.4309, 246.90685, 114.916565, 36.532013, 37.632664, 37.824802, 1.4306539, 11.559352, 905.1403, 235.95406, 261.92123], "tree_param": {"num_deleted": "0", "num_feature": "84", "num_nodes": "63", "size_leaf_vector": "1"}}, {"base_weights": [-0.0, -0.022140631, 0.28878266, -0.1509259, 0.012308202, 0.47173035, 0.18859099, -0.027618483, -0.19609073, -0.007916919, 0.16382007, -0.0, 0.47717994, 0.28440565, 0.011411589, -0.19360408, -0.0, -0.21172985, -0.0, -0.018452048, 0.30889112, 0.40923947, 0.10522498, -0.0, 0.48256987, 0.3066412, -0.0, 0.299082, -0.07042314, -0.0, -0.06888434, -0.011370277, 0.036231, -0.069511175, -0.0, -0.025592256, 0.036305673, -0.009780673, 0.04487312, 0.09820417, -0.0, 0.134047, -0.0, 0.07743287, 0.0063912314, -0.0, 0.14595449, 0.013392748, 0.1066249, -0.0, -0.014667769, 0.13110444, -0.0, -0.047844697, 0.09945914], "categories": [], "categories_nodes": [], "categories_segments": [], "categories_sizes": [], "default_left": [0, 0, 0, 0, 0, 0, 0, 0, 0, 0, 0, 0, 0, 0, 0, 0, 0, 0, 0, 0, 0, 0, 0, 0, 0, 0, 0, 0, 0, 0, 0, 0, 0, 0, 0, 0, 0, 0, 0, 0, 0, 0, 0, 0, 0, 0, 0, 0, 0, 0, 0, 0, 0, 0, 0], "id": 22, "left_children": [1, 3, 5, 7, 9, 11, 13, 15, 17, 19, 21, -1, 23, 25, 27, 29, 31, 33, 35, 37, 39, 41, 43, -1, 45, 47, 49, 51, 53, -1, -1, -1, -1, -1, -1, -1, -1, -1, -1, -1, -1, -1, -1, -1, -1, -1, -1, -1, -1, -1, -1, -1, -1, -1, -1], "loss_changes": [168.41148, 109.92288, 27.68782, 26.85199, 60.520916, 2.732666, 18.240467, 5.554753, 10.568787, 53.56575, 28.235573, 0.0, 2.277771, 7.286709, 13.5136, 1.6632795, 5.393104, 12.492523, 2.951095, 37.8395, 4.239563, 7.7678146, 21.712503, 0.0, 1.8159485, 5.481224, 0.06409591, 3.5116825, 10.658721, 0.0, 0.0, 0.0, 0.0, 0.0, 0.0, 0.0, 0.0, 0.0, 0.0, 0.0, 0.0, 0.0, 0.0, 0.0, 0.0, 0.0, 0.0, 0.0, 0.0, 0.0, 0.0, 0.0, 0.0, 0.0, 0.0], "parents": [2147483647, 0, 0, 1, 1, 2, 2, 3, 3, 4, 4, 5, 5, 6, 6, 7, 7, 8, 8, 9, 9, 10, 10, 12, 12, 13, 13, 14, 14, 15, 15, 16, 16, 17, 17, 18, 18, 19, 19, 20, 20, 21, 21, 22, 22, 24, 24, 25, 25, 26, 26, 27, 27, 28, 28], "right_children": [2, 4, 6, 8, 10, 12, 14, 16, 18, 20, 22, -1, 24, 26, 28, 30, 32, 34, 36, 38, 40, 42, 44, -1, 46, 48, 50, 52, 54, -1, -1, -1, -1, -1, -1, -1, -1, -1, -1, -1, -1, -1, -1, -1, -1, -1, -1, -1, -1, -1, -1, -1, -1, -1, -1], "split_conditions": [3.608535, 0.2801028, 3.085359e-05, 0.007910921, 14.2608185, 0.13860148, 0.5071372, 0.027136674, 0.07963851, 162.84201, 3.1788368e-05, -0.0, 0.14767593, 0.05885572, 0.40327027, 0.00093104155, 0.548373, 0.12750028, 0.19489749, 7.6409783, 3.457599, 1.3082626, 0.20320785, -0.0, 0.43189657, 1.0134332, 2.0967681, 3.1575227, 1.0, -0.0, -0.06888434, -0.011370277, 0.036231, -0.069511175, -0.0, -0.025592256, 0.036305673, -0.009780673, 0.04487312, 0.09820417, -0.0, 0.134047, -0.0, 0.07743287, 0.0063912314, -0.0, 0.14595449, 0.013392748, 0.1066249, -0.0, -0.014667769, 0.13110444, -0.0, -0.047844697, 0.09945914], "split_indices": [41, 36, 56, 5, 65, 83, 5, 36, 48, 43, 56, 0, 55, 56, 13, 56, 56, 56, 11, 53, 28, 69, 5, 0, 46, 72, 8, 45, 29, 0, 0, 0, 0, 0, 0, 0, 0, 0, 0, 0, 0, 0, 0, 0, 0, 0, 0, 0, 0, 0, 0, 0, 0, 0, 0], "split_type": [0, 0, 0, 0, 0, 0, 0, 