{"model": "linear", "weights": [0.5523451487024337, 0.3501564202111918, 2.4170313891819677, 0.7406431008172646, 0.6183433682624321, -0.2929076849971533, 3.116720817549128, 4.453385971489199, -0.914297130616205, -0.9400409392904365, -1.0834715052715478, 3.710300764110806, 0.7433269612976738, 0.13815240701986295, 0.8711389213206339, 0.2080090661276497, 1.4640093797918405, -0.888741946887169, 1.735139172510862, 0.2337279488753674, 2.0937878002509733, 3.004190638367429, 0.7525210330628858, -1.1505445533966672, -1.344714298236492, 0.28598596673690735, -0.06024223010172345, 2.5066026437285873, -1.5431864077662871, 0.048634606158823444, -0.7553398246335278, -0.34452968580471144, 0.3954227264527653, -0.6728484387401168, 1.5909103848127883, 0.6866508102703487, -0.43043193026156573, 0.9868901187121552, 0.45218629853206965, -0.1683489765535467, 4.526360396640721, 25.876027216243326, 1.8038564741667231, 0.7828918705710977, -0.2396434127134951, -0.9921682170290861, -0.8505521807385079, 1.4837352998932405, 0.2621994024341737, -2.716692980723321, -2.528243695985324], "scale": [1.7329180221000564, 9.623400619381812, 2.9640252896503516, 24.61753608134031, 13.973363326582698, 2.8263429953457044, 1.1976369516195147, 0.5370611863368625, 1.2176681725039065, 0.6006366548505075, 1.6097439548761938, 8.678771301320403, 0.5402900929110258, 25.37585494580248, 0.543664319034312, 0.4235973599444964, 0.17451250826225634, 233.22198261665196, 0.5532506452051402, 0.6473992353638894, 4.979657197203491, 0.4383888077173667, 0.6490486776966623, 0.6287701388537806, 0.21719403031199278, 0.42992406377658965, 0.42992406377658954, 2.9640706279447318, 2.3133524204175604, 0.66646472279015, 1.7374066601320535, 1.6100771955661388, 623.2785034999596, 1.2004084842626195, 2.5825886301091328, 3.26053824141153, 1884.7541411094687, 0.6434928479912737, 200.82964186738758, 0.5211129002610803, 22.71963640955836, 33.6385215388613, 4.337194179849161, 40.20285830429307, 294.62281748766827, 1.3328099433111336, 1.5608084364073767, 0.6985752978261425, 1.7106710466758084, 4.1406037639947915, 0.7871009719888403], "bias": null, "scaled_weights": [0.31873703294577543, 0.03638593404351955, 0.8154557242212634, 0.030085996355202253, 0.0442515773626315, -0.10363486861980327, 2.602391996451442, 8.292138930881311, -0.7508590199381858, -1.5650742120032672, -0.6730707091581395, 0.4275145219630703, 1.375792321663177, 0.005444246403320306, 1.602347056485151, 0.4910537359224924, 8.389137227869856, -0.003810712596282136, 3.136262356942193, 0.3610259884598008, 0.42046826063183956, 6.852799582201602, 1.1594215640858019, -1.829833324295676, -6.191304136236386, 0.6652011153428252, -0.14012295467375463, 0.8456622524769762, -0.6670779575762787, 0.07297401422121039, -0.4347513118063663, -0.21398333368951739, 0.0006344238157297382, -0.5605162305674893, 0.6160138576717737, 0.21059431278839671, -0.0002283756384311166, 1.5336458234039894, 0.002251591420108485, -0.32305662836057786, 0.19922679725351763, 0.769237946036057, 0.4159040152150757, 0.01947353754415756, -0.000813390540342401, -0.7444183786356046, -0.5449433517262914, 2.1239446978878207, 0.15327283579369744, -0.6561103490140039, -3.212095761484042], "columns": ["ge_distances_mean", "rth_wmean_2v", "c_penalty_ell_mean_1_tango", "rth_cap_sum_1v_tango", "rth_mean_1v", "rc_sum_2_penalty_removed_tango", "rth_mean_1", "rsl_wmean_1v_tango", "rc_wmean_2v_penalty_removed", "rth_norm_2_tango", "rc_sum_1_penalty_removed_tango", "ge_distances_sum", "rsl_wmean_1v", "rth_sum_2", "rc_cap_wmean_1v", "rc_mean_1_penalty_removed", "rc_cap_norm_2_tango", "rc_mean_2", "rth_mean_1_penalty_removed", "rth_wmean_1v_penalty_removed_tango", "rth_cap_sum_2_tango", "rsl_norm_2_tango", "c_penalty_sum_1_tango", "rth_norm_2", "rth_cap_norm_2", "first_is_not_largest", "first_is_not_closest", "rc_mean_1_tango", "rsl_sum_1", "c_penalty_sum_1", "rth_cap_wmean_2v", "rc_sum_1_penalty_removed", "rc_norm_2v", "rth_wmean_1v_tango", "rc_norm_2", "rc_wmean_1v_tango", "rth_mean_2v_tango", "rth_wmean_1v_penalty_removed", "rc_cap_mean_1v_tango", "rth_cap_mean_1_tango", "distances_sum", "rsl_norm_2v", "rc_wmean_1v", "rth_sum_1v", "rc_wmean_2v", "rth_cap_mean_2", "rc_cap_sum_1", "rsl_mean_1_tango", "tango_v_sigma", "rth_cap_norm_2v", "tango_sigma"]}