{"model": "linear", "weights": [0.6604625201367139, 0.34009745783116396, 4.8499579832235655, 0.388808544819132, -0.5291430838846848, -0.7710033089273878, 3.033931975753765, 4.316504007610729, -1.3753961001904411, -1.0878560346591057, -1.480280883927724, 3.6030387460989286, 0.9761376506454851, 0.16196980359707985, 0.8980762508652802, 0.1885378928863408, 1.6933576333719804, -1.0065139288859004, 2.033116547399163, 1.04833132976138, 3.212518689353886, 2.074604757334005, -0.9160225379808938, -1.6843834100850623, 0.061237912048697545, 0.29035163195955616, -0.0656024901649324, -1.5863775470479267, -0.85603698937222, 0.46314833993226906, -0.5664946525231597, 1.6435519903021338, 0.7988210254215581, 4.638442983939262, 24.822886474085937, 1.5997047234167319, 0.8392368734768054, -0.8951862413321675, -0.6482143926731674, 1.2938661144462464, 0.29633697906696127, -0.2167329945398763, -2.5280702712117895], "scale": [1.7329180221000564, 9.623400619381812, 2.9640252896503516, 13.973363326582698, 2.8263429953457044, 1.2204880747996123, 1.1976369516195147, 0.5370611863368625, 4.144865164748456, 0.6006366548505075, 1.6097439548761938, 8.678771301320403, 0.5402900929110258, 25.37585494580248, 0.543664319034312, 0.4235973599444964, 0.17451250826225634, 233.22198261665196, 0.5532506452051402, 0.6473992353638894, 0.4383888077173667, 4.979657197203491, 0.6287701388537806, 0.21719403031199278, 3.737708991950296, 0.42992406377658965, 0.42992406377658954, 2.3133524204175604, 1.7374066601320535, 623.2785034999596, 1.2004084842626195, 2.5825886301091328, 3.26053824141153, 22.71963640955836, 33.6385215388613, 4.337194179849161, 24.939169433900044, 1.3328099433111336, 1.5608084364073767, 0.6985752978261425, 1.7106710466758084, 1.9652088674525527, 0.7871009719888403], "bias": null, "scaled_weights": [0.3811273884360236, 0.03534067335263978, 1.6362741573624313, 0.027824979264617633, -0.1872182833987432, -0.6317171997391094, 2.5332651699257482, 8.037266735010851, -0.331831325150938, -1.8111715724873005, -0.9195753644197242, 0.4151553971183405, 1.806691744773921, 0.006382831393977207, 1.6518947803315382, 0.4450875069453803, 9.703359663063308, -0.0043156906462814525, 3.67485617056136, 1.619296521368511, 7.32801256054198, 0.41661597880654827, -1.4568480297915567, -7.7552012256759335, 0.016383809488802463, 0.6753556184062253, -0.15259087753464948, -0.68574832483223, -0.4927096281000534, 0.000743084090549417, -0.4719182344592832, 0.6363971292759397, 0.24499667425330918, 0.20416008867060156, 0.7379303649064661, 0.3688340104413694, 0.033651356180932915, -0.6716533334889696, -0.41530682276757064, 1.8521498233226343, 0.1732284998000089, -0.11028496671746725, -3.2118754279058788], "columns": ["ge_distances_mean", "rth_wmean_2v", "c_penalty_ell_mean_1_tango", "rth_mean_1v", "rc_sum_2_penalty_removed_tango", "rc_wmean_2v_penalty_removed_tango", "rth_mean_1", "rsl_wmean_1v_tango", "rth_cap_norm_2v_tango", "rth_norm_2_tango", "rc_sum_1_penalty_removed_tango", "ge_distances_sum", "rsl_wmean_1v", "rth_sum_2", "rc_cap_wmean_1v", "rc_mean_1_penalty_removed", "rc_cap_norm_2_tango", "rc_mean_2", "rth_mean_1_penalty_removed", "rth_wmean_1v_penalty_removed_tango", "rsl_norm_2_tango", "rth_cap_sum_2_tango", "rth_norm_2", "rth_cap_norm_2", "rc_mean_1", "first_is_not_largest", "first_is_not_closest", "rsl_sum_1", "rth_cap_wmean_2v", "rc_norm_2v", "rth_wmean_1v_tango", "rc_norm_2", "rc_wmean_1v_tango", "distances_sum", "rsl_norm_2v", "rc_wmean_1v", "rth_sum_2_tango", "rth_cap_mean_2", "rc_cap_sum_1", "rsl_mean_1_tango", "tango_v_sigma", "rsl_wmean_2v", "tango_sigma"]}