{"model": "linear", "weights": [0.7567239508846423, 1.4663265402173256, 3.4040676899405002, 5.472674399910784, 5.403107164431276, 4.482645186225359, 1.9373499517058612, 4.055869982775519, 0.2664371574308079, 8.92891809909563, -1.2722779449915116, 1.3514393259014372, 2.198753968655091, 12.532159720832574, -0.4228551184775789, -0.9112630036391949, 0.4823085493649767, 0.5237137573168608, -0.24848238864321043, 1.133645142142763, 28.585760450658896, -5.417523938043386, 1.1255272006640284, 1.45428791735302, -0.4361002057216657, -0.9750518227862295, 0.8579890924276804, 2.471161329735037, 5.210474285258463, -1.564001656422583, 15.416236410411999, -0.2001305849639307, -0.9521721933986603, -1.3593740252963542, 3.2502464376395332, 0.4854018422059545, -0.41730240149955083], "scale": [0.36723169067093364, 2.164621584344692, 10.103315074256233, 64.04918323177633, 0.46834287931577423, 0.5249672634021163, 9.042306375338375, 0.6084299906471051, 0.09199963182429603, 0.4261549263658497, 2.70346959846681, 2.420221909623704, 1.127203775778837, 0.7189532086956002, 0.4054090912781989, 4.315621997568646, 0.36723169067093364, 1.0853101433917658, 0.703109635127457, 0.21409776147376652, 35.96140016475422, 0.13723654301068527, 1.601432716260378, 0.1332182274311604, 2.1141216087222126, 1.6056431289339848, 1.1620358667906252, 1.601432716260378, 2.4218667523384307, 1.6056431289339848, 0.4658563832822701, 2.450009951910144, 0.0407740817417473, 1.4662094072160536, 0.08972618057006633, 1.9936171909616018, 0.4885169611233239], "bias": null, "scaled_weights": [2.0606172345913416, 0.6774054877870188, 0.33692581740959854, 0.0854448741384677, 11.536648474991118, 8.538904230284787, 0.2142539603601258, 6.666124361262725, 2.896067648832101, 20.95228177986671, -0.47060930358271647, 0.5583947986453683, 1.9506268661457162, 17.431120091347424, -1.0430331425089039, -0.21115449966484234, 1.3133630937019547, 0.48254755611163136, -0.35340489765606253, 5.294988300387573, 0.7949012085095566, -39.47581175679699, 0.7028251572706276, 10.91658360418069, -0.20627962172206699, -0.6072655904762497, 0.7383499227070521, 1.543094071105045, 2.1514289670261566, -0.9740655493359547, 33.09225109634496, -0.08168562123917064, -23.352388397842475, -0.9271349771772698, 36.22405876400195, 0.24347795775769052, -0.8542229537741777], "columns": ["p_abs_max", "-log_p_compt_max", "cross_compt_dist_sum_tango", "rsg_mean_1v", "rsg_wmean_1v_tango", "-log_p_compt_mean_tango", "cross_total_dist_min", "-log_p_compt_mean", "p_compt_mean_nonfinal_tango", "rsg_mean_1_tango", "cross_compt_ge_dist_sum_nonfinal_tango", "cross_compt_dist_mean_tango", "-log_p_abs_mean", "cross_compt_ge_dist_mean_tango", "cross_compt_ge_dist_min", "cross_compt_dist_max_tango", "p_abs_final", "cross_abs_ge_dist_min_tango", "cross_compt_ge_dist_mean_nonfinal_tango", "rsg_mean_1_first_tango", "rsg_norm_2v", "p_abs_mean_tango", "-log_p_abs_final", "p_compt_mean_tango", "cross_compt_dist_min_nonfinal_tango", "-log_p_abs_min_tango", "cross_compt_dist_min_tango", "-log_p_abs_min", "-log_p_compt_sum_tango", "-log_p_abs_final_tango", "rsg_wmean_1v", "cross_compt_dist_mean_nonfinal_tango", "p_abs_min_tango", "cross_compt_ge_dist_max", "cross_compt_mean_nonfinal_tango", "-log_p_compt_max_tango", "cross_compt_ge_dist_min_nonfinal"]}