{"learner": {"attributes": {}, "feature_names": ["distances_mean", "rc_sum_2v_penalty_removed", "rc_cap_mean_2v", "rth_mean_1v_tango", "rc_mean_1", "rsl_sum_2", "rth_mean_1v", "tango_sigma", "rth_sum_1v", "c_penalty_ell_mean_1", "rc_cap_sum_1v_tango", "rsl_norm_2v_tango", "rth_cap_sum_1", "rc_mean_2v_penalty_removed", "rth_sum_1v_penalty_removed", "rth_cap_norm_2_tango", "rc_mean_2v_penalty_removed_tango", "rsl_mean_2", "rc_norm_2v", "rsl_mean_2v_tango", "rc_mean_1_tango", "distances_sum", "rc_cap_wmean_2v", "rth_cap_norm_2v", "rth_cap_sum_2_tango", "rc_cap_mean_1", "rth_mean_1_penalty_removed", "rc_sum_1v_penalty_removed", "rc_wmean_2v_penalty_removed", "rc_mean_2v", "rsl_wmean_1v", "rc_cap_sum_1v", "rsl_mean_1_tango", "rc_wmean_1v_tango", "rc_sum_1v_tango", "c_penalty_mean_1", "rc_wmean_2v_penalty_removed_tango", "rth_sum_2_penalty_removed_tango", "rth_wmean_2v_penalty_removed_tango", "rc_sum_2_penalty_removed_tango", "rc_cap_norm_2", "rth_cap_mean_2v", "rth_cap_sum_1v_tango", "rsl_sum_1v", "rc_sum_1", "rc_cap_sum_2v", "rth_cap_sum_2v_tango", "c_penalty_ell_sum_1", "rth_mean_2v_tango", "rc_cap_norm_2_tango", "rc_cap_wmean_2v_tango", "rth_wmean_1v_tango", "first_is_not_closest", "rsl_mean_1", "rc_cap_sum_1", "first_is_not_largest", "rsl_wmean_2v", "tango_variance", "rsl_sum_1", "rc_cap_mean_2", "rc_mean_2_tango", "rth_cap_mean_1_tango", "rth_cap_mean_2v_tango", "rc_mean_2", "rc_cap_mean_1v", "rth_sum_2v_tango", "rth_cap_sum_2", "rc_wmean_1v_penalty_removed_tango", "rth_cap_wmean_2v_tango", "ge_distances_mean", "rth_cap_mean_2_tango", "rth_sum_2_tango", "rth_mean_1", "rsl_mean_1v_tango", "rth_cap_mean_1v_tango", "rsl_sum_1v_tango", "rth_mean_1_penalty_removed_tango", "rth_sum_1v_tango", "rsl_norm_2", "rth_norm_2v_tango", "rth_sum_2v", "rth_norm_2_tango", "rth_mean_2_penalty_removed_tango", "rth_cap_sum_2v", "rth_cap_wmean_1v_tango", "rth_norm_2v", "rc_mean_1_penalty_removed", "rth_sum_2_penalty_removed", "rth_mean_1v_penalty_removed", "rsl_mean_1v", "c_penalty_ell_mean_2", "rc_wmean_2v_tango", "rc_cap_wmean_1v_tango", "rc_cap_sum_2_tango", "rc_wmean_1v_penalty_removed", "rc_cap_sum_2", "rc_norm_2_tango", "rc_sum_1_penalty_removed_tango", "rc_cap_sum_2v_tango", "rsl_norm_2_tango", "rth_norm_2", "rth_cap_mean_1v", "rc_cap_norm_2v_tango", "rth_sum_1v_penalty_removed_tango", "c_penalty_mean_1_tango", "rc_norm_2v_tango", "rc_mean_2_penalty_removed", "rc_mean_1v_penalty_removed_tango", "rth_cap_sum_1_tango", "rc_norm_2", "rth_sum_1_tango", "rth_wmean_2v_tango", "rc_sum_1_penalty_removed", "rth_mean_2", "rth_sum_2v_penalty_removed_tango", "rc_cap_wmean_1v", "rth_sum_1", "rth_sum_1_penalty_removed", "rc_sum_2v_tango", "rth_mean_2v_penalty_removed", "rc_sum_2_tango", "tango_v_variance", "rth_mean_2_tango", "rc_sum_1_tango", "rc_wmean_1v", "c_penalty_ell_sum_1_tango", "rc_cap_sum_1_tango", "rth_cap_mean_2", "rc_sum_2v_penalty_removed_tango", "rsl_sum_1_tango", "rsl_norm_2v", "rc_cap_mean_2_tango", "rc_cap_mean_2v_tango", "rc_sum_2_penalty_removed", "rth_cap_sum_1v", "rth_mean_2v", "rc_sum_1v", "rth_cap_norm_2", "rth_cap_norm_2v_tango", "rsl_sum_2v", "c_penalty_ell_mean_2_tango", "ge_distances_sum", "rth_sum_2", "c_penalty_ell_sum_2", "rth_cap_mean_1", "c_penalty_ell_mean_1_tango", "rth_wmean_1v_penalty_removed", "c_penalty_ell_sum_2_tango", "rsl_mean_2_tango", "rsl_mean_2v", "rsl_wmean_1v_tango", "rc_mean_1_penalty_removed_tango", "rc_mean_1v_tango", "rth_cap_wmean_1v", "rth_mean_1v_penalty_removed_tango", "rsl_sum_2_tango", "c_penalty_sum_1_tango", "rth_cap_wmean_2v", "rc_mean_1v_penalty_removed", "rth_sum_2v_penalty_removed", "rc_cap_mean_1_tango", "rth_mean_2_penalty_removed", "rth_mean_1_tango", "c_penalty_sum_1", "rsl_sum_2v_tango", "rc_mean_2_penalty_removed_tango", "rc_sum_2v", "rth_wmean_1v_penalty_removed_tango", "rc_cap_norm_2v", "rc_sum_2", "rsl_wmean_2v_tango", "rth_wmean_2v", "rc_cap_mean_1v_tango", "tango_v_sigma", "rc_sum_1v_penalty_removed_tango", "rth_sum_1_penalty_removed_tango", "rc_mean_1v", "rth_mean_2v_penalty_removed_tango", "rc_wmean_2v", "rth_wmean_2v_penalty_removed", "rc_mean_2v_tango", "rth_wmean_1v"], "feature_types": ["float", "float", "float", "float", "float", "float", "float", "float", "float", "float", "float", "float", "float", "float", "float", "float", "float", "float", "float", "float", "float", "float", "float", "float", "float", "float", "float", "float", "float", "float", "float", "float", "float", "float", "float", "float", "float", "float", "float", "float", "float", "float", "float", "float", "float", "float", "float", "float", "float", "float", "float", "float", "float", "float", "float", "float", "float", "float", "float", "float", "float", "float", "float", "float", "float", "float", "float", "float", "float", "float", "float", "float", "float", "float", "float", "float", "float", "float", "float", "float", "float", "float", "float", "float", "float", "float", "float", "float", "float", "float", "float", "float", "float", "float", "float", "float", "float", "float", "float", "float", "float", "float", "float", "float", "float", "float", "float", "float", "float", "float", "float", "float", "float", "float", "float", "float", "float", "float", "float", "float", "float", "float", "float", "float", "float", "float", "float", "float", "float", "float", "float", "float", "float", "float", "float", "float", "float", "float", "float", "float", "float", "float", "float", "float", "float", "float", "float", "float", "float", "float", "float", "float", "float", "float", "float", "float", "float", "float", "float", "float", "float", "float", "float", "float", "float", "float", "float", "float", "float", "float", "float", "float", "float", "float", "float", "float", "float", "float", "float", "float", "float", "float"], "gradient_booster": {"model": {"gbtree_model_param": {"num_parallel_tree": "1", "num_trees": "100"}, "iteration_indptr": [0, 1, 2, 3, 4, 5, 6, 7, 8, 9, 10, 11, 12, 13, 14, 15, 16, 17, 18, 19, 20, 21, 22, 23, 24, 25, 26, 27, 28, 29, 30, 31, 32, 33, 34, 35, 36, 37, 38, 39, 40, 41, 42, 43, 44, 45, 46, 47, 48, 49, 50, 51, 52, 53, 54, 55, 56, 57, 58, 59, 60, 61, 62, 63, 64, 65, 66, 67, 68, 69, 70, 71, 72, 73, 74, 75, 76, 77, 78, 79, 80, 81, 82, 83, 84, 85, 86, 87, 88, 89, 90, 91, 92, 93, 94, 95, 96, 97, 98, 99, 100], "tree_info": [0, 0, 0, 0, 0, 0, 0, 0, 0, 0, 0, 0, 0, 0, 0, 0, 0, 0, 0, 0, 0, 0, 0, 0, 0, 0, 0, 0, 0, 0, 0, 0, 0, 0, 0, 0, 0, 0, 0, 0, 0, 0, 0, 0, 0, 0, 0, 0, 0, 0, 0, 0, 0, 0, 0, 0, 0, 0, 0, 0, 0, 0, 0, 0, 0, 0, 0, 0, 0, 0, 0, 0, 0, 0, 0, 0, 0, 0, 0, 0, 0, 0, 0, 0, 0, 0, 0, 0, 0, 0, 0, 0, 0, 0, 0, 0, 0, 0, 0, 0], "trees": [{"base_weights": [-0.0, -0.73592687, 0.8114986, -0.8755931, -0.35959923, 0.27689043, 0.9216678, -0.89842916, -0.5508422, -0.63675874, -0.16856919, 0.64447165, -0.2923583, 0.46051493, 0.9594447, -0.7104518, -0.93752944, -0.8581202, -0.0, -0.0, -0.7294324, -0.34756094, 0.6318328, 0.33445063, 0.88994545, -0.56698066, 0.28652257, 0.6110283, -0.68310946, 0.61424196, 0.9763224, -0.24056873, -0.17598015, -0.28778023, -0.25337958, -0.25844857, -0.0, -0.10292053, 0.11437266, 0.13377576, -0.15083961, -0.25314927, -0.17232724, -0.13281123, 0.053579956, 0.21536495, 0.012767642, 0.029932017, 0.24469058, -0.0, 0.27108473, -0.19090125, -0.0, 0.2342532, -0.17343822, 0.21948858, -0.023904834, -0.26444498, -0.008199533, -0.045111973, 0.21445596, 0.18919794, 0.29417723], "categories": [], "categories_nodes": [], "categories_segments": [], "categories_sizes": [], "default_left": [0, 0, 0, 0, 0, 0, 0, 0, 0, 0, 0, 0, 0, 0, 0, 0, 0, 0, 0, 0, 0, 0, 0, 0, 0, 0, 0, 0, 0, 0, 0, 0, 0, 0, 0, 0, 0, 0, 0, 0, 0, 0, 0, 0, 0, 0, 0, 0, 0, 0, 0, 0, 0, 0, 0, 0, 0, 0, 0, 0, 0, 0, 0], "id": 0, "left_children": [1, 3, 5, 7, 9, 11, 13, 15, 17, 19, 21, 23, 25, 27, 29, 31, 33, 35, 37, 39, 41, 43, 45, 47, 49, 51, 53, 55, 57, 59, 61, -1, -1, -1, -1, -1, -1, -1, -1, -1, -1, -1, -1, -1, -1, -1, -1, -1, -1, -1, -1, -1, -1, -1, -1, -1, -1, -1, -1, -1, -1, -1, -1], "loss_changes": [49202.312, 2258.2363, 2295.4824, 218.54883, 612.1389, 1408.1111, 551.04297, 198.88281, 347.88287, 275.48145, 994.2494, 298.66003, 420.03177, 426.6784, 158.23633, 43.507324, 30.207031, 5.16687, 99.64006, 138.65445, 58.816406, 287.93585, 56.348083, 197.03616, 20.628418, 67.02344, 358.54834, 189.86432, 27.474625, 115.631714, 25.410156, 0.0, 0.0, 0.0, 0.0, 0.0, 0.0, 0.0, 0.0, 0.0, 0.0, 0.0, 0.0, 0.0, 0.0, 0.0, 0.0, 0.0, 0.0, 0.0, 0.0, 0.0, 0.0, 0.0, 0.0, 0.0, 0.0, 0.0, 0.0, 0.0, 0.0, 0.0, 0.0], "parents": [2147483647, 0, 0, 1, 1, 2, 2, 3, 3, 4, 4, 5, 5, 6, 6, 7, 7, 8, 8, 9, 9, 10, 10, 11, 11, 12, 12, 13, 13, 14, 14, 15, 15, 16, 16, 17, 17, 18, 18, 19, 19, 20, 20, 21, 21, 22, 22, 23, 23, 24, 24, 25, 25, 26, 26, 27, 27, 28, 28, 29, 29, 30, 30], "right_children": [2, 4, 6, 8, 10, 12, 14, 16, 18, 20, 22, 24, 26, 28, 30, 32, 34, 36, 38, 40, 42, 44, 46, 48, 50, 52, 54, 56, 58, 60, 62, -1, -1, -1, -1, -1, -1, -1, -1, -1, -1, -1, -1, -1, -1, -1, -1, -1, -1, -1, -1, -1, -1, -1, -1, -1, -1, -1, -1, -1, -1, -1, -1], "split_conditions": [1.6308724, 0.19903941, 0.6061292, 0.3468748, 0.6271813, 1.1855172, 3.1892335, 198.28905, 1.5666654, 0.7843075, 2.0198057, 1.3882914, 3.7461011, 1.544247, 0.21989945, 1.0, 0.11752204, 0.5909656, 2.4332788, 49.82392, 0.5049216, 1.0, 0.029931812, 0.23123772, 0.8544898, 15.32938, 0.022582512, 10.00089, 2.098961, 1.8511591, 0.65644664, -0.24056873, -0.17598015, -0.28778023, -0.25337958, -0.25844857, -0.0, -0.10292053, 0.11437266, 0.13377576, -0.15083961, -0.25314927, -0.17232724, -0.13281123, 0.053579956, 0.21536495, 0.012767642, 0.029932017, 0.24469058, -0.0, 0.27108473, -0.19090125, -0.0, 0.2342532, -0.17343822, 0.21948858, -0.023904834, -0.26444498, -0.008199533, -0.045111973, 0.21445596, 0.18919794, 0.29417723], "split_indices": [89, 130, 146, 9, 15, 23, 89, 155, 70, 31, 47, 143, 143, 23, 58, 55, 130, 15, 47, 75, 15, 55, 56, 53, 38, 141, 56, 150, 70, 61, 6, 0, 0, 0, 0, 0, 0, 0, 0, 0, 0, 0, 0, 0, 0, 0, 0, 0, 0, 0, 0, 0, 0, 0, 0, 0, 0, 0, 0, 0, 0, 0, 0], "split_type": [0, 0, 0, 0, 0, 0, 0, 0, 0, 0, 0, 0, 0, 0, 0, 0, 0, 0, 0, 0, 0, 0, 0, 0, 0, 0, 0, 0, 0, 0, 0, 0, 0, 0, 0, 0, 0, 0, 0, 0, 0, 0, 0, 0, 0, 0, 0, 0, 0, 0, 0, 0, 0, 0, 0, 0, 0, 0, 0, 0, 0, 0, 0], "sum_hessian": [82385.836, 43204.707, 39181.13, 31489.959, 11714.749, 6710.752, 32470.377, 29390.688, 2099.2717, 4757.5244, 6957.225, 4088.2676, 2622.4841, 2479.5664, 29990.81, 5108.0947, 24282.592, 1336.8624, 762.40924, 614.5689, 4142.9556, 5696.4116, 1260.8136, 1825.656, 2262.6116, 1790.4066, 832.07745, 2199.3215, 280.24475, 1427.3257, 28563.484, 2888.899, 2219.196, 19584.543, 4698.0493, 1333.3624, 3.5, 413.5963, 348.81293, 318.07617, 296.49274, 2344.052, 1798.9033, 4840.323, 856.0884, 1085.1616, 175.65193, 1241.9414, 583.71454, 42.70774, 2219.904, 1586.7041, 203.70253, 536.8322, 295.24527, 1884.6709, 314.65067, 203.18709, 77.05765, 154.35864, 1272.967, 378.80237, 28184.682], "tree_param": {"num_deleted": "0", "num_feature": "182", "num_nodes": "63", "size_leaf_vector": "1"}}, {"base_weights": [-0.0, -0.3485931, 0.6373527, -0.6013685, -0.16355963, 0.34482494, 0.75322086, -0.6571068, -0.36918062, -0.117183305, -0.24055555, -0.17617175, 0.45671362, -0.035027433, 0.76511014, -0.38679683, -0.6871483, -0.73482025, -0.27855843, -0.23023887, 0.10112053, 0.28567848, -0.448706, -0.013585953, 0.5548764, -0.70118105, 0.45186824, 0.535772, 0.7866766, -0.1387786, -0.025515178, -0.22143738, -0.17812742, -0.22598676, -0.0, -0.16123602, -0.05976917, -0.13834566, -0.053106412, 0.100273475, -0.080789074, -0.023530468, 0.1854989, 0.14980713, -0.16808087, -0.15196732, 0.02508172, 0.13839132, 0.23395093, -0.21866827, -0.0, -0.0, 0.18281236, 0.18381217, -0.12876941, 0.112158656, 0.23663813], "categories": [], "categories_nodes": [], "categories_segments": [], "categories_sizes": [], "default_left": [0, 0, 0, 0, 0, 0, 0, 0, 0, 0, 0, 0, 0, 0, 0, 0, 0, 0, 0, 0, 0, 0, 0, 0, 0, 0, 0, 0, 0, 0, 0, 0, 0, 0, 0, 0, 0, 0, 0, 0, 0, 0, 0, 0, 0, 0, 0, 0, 0, 0, 0, 0, 0, 0, 0, 0, 0], "id": 1, "left_children": [1, 3, 5, 7, 9, 11, 13, 15, 17, 19, -1, 21, 23, 25, 27, 29, 31, 33, 35, 37, 39, 41, 43, 45, 47, 49, 51, 53, 55, -1, -1, -1, -1, -1, -1, -1, -1, -1, -1, -1, -1, -1, -1, -1, -1, -1, -1, -1, -1, -1, -1, -1, -1, -1, -1, -1, -1], "loss_changes": [29227.44, 3969.6953, 1565.2402, 454.3291, 1444.8322, 773.66064, 319.31055, 223.90723, 221.27844, 1131.9573, 0.0, 294.09232, 508.6648, 159.50693, 148.62305, 61.47647, 110.021484, 19.58258, 108.055115, 364.79492, 1347.9142, 108.26725, 156.85797, 93.66479, 177.43677, 6.45459, 19.68605, 214.65363, 14.248047, 0.0, 0.0, 0.0, 0.0, 0.0, 0.0, 0.0, 0.0, 0.0, 0.0, 0.0, 0.0, 0.0, 0.0, 0.0, 0.0, 0.0, 0.0, 0.0, 0.0, 0.0, 0.0, 0.0, 0.0, 0.0, 0.0, 0.0, 0.0], "parents": [2147483647, 0, 0, 1, 1, 2, 2, 3, 3, 4, 4, 5, 5, 6, 6, 7, 7, 8, 8, 9, 9, 11, 11, 12, 12, 13, 13, 14, 14, 15, 15, 16, 16, 17, 17, 18, 18, 19, 19, 20, 20, 21, 21, 22, 22, 23, 23, 24, 24, 25, 25, 26, 26, 27, 27, 28, 28], "right_children": [2, 4, 6, 8, 10, 12, 14, 16, 18, 20, -1, 22, 24, 26, 28, 30, 32, 34, 36, 38, 40, 42, 44, 46, 48, 50, 52, 54, 56, -1, -1, -1, -1, -1, -1, -1, -1, -1, -1, -1, -1, -1, -1, -1, -1, -1, -1, -1, -1, -1, -1, -1, -1, -1, -1, -1, -1], "split_conditions": [2.3024607, 0.0941048, 0.39045796, 0.287754, 33.307186, 0.4860479, 0.06111106, 0.62961406, 4.104731, 0.8913273, -0.24055555, 47.929356, 3.374261, 0.63164365, 4.324177, 0.0641921, 0.08273864, 1.3803802, 0.39283904, 0.034339234, 0.6886428, 2.7439594, 9.998033, 1.9821653, 4.2304673, 100.60619, 1.4104466, 1.8035965, 0.28945678, -0.1387786, -0.025515178, -0.22143738, -0.17812742, -0.22598676, -0.0, -0.16123602, -0.05976917, -0.13834566, -0.053106412, 0.100273475, -0.080789074, -0.023530468, 0.1854989, 0.14980713, -0.16808087, -0.15196732, 0.02508172, 0.13839132, 0.23395093, -0.21866827, -0.0, -0.0, 0.18281236, 0.18381217, -0.12876941, 0.112158656, 0.23663813], "split_indices": [89, 130, 58, 4, 129, 4, 179, 10, 99, 89, 0, 21, 70, 15, 89, 56, 85, 179, 15, 53, 23, 36, 150, 70, 44, 170, 61, 23, 85, 0, 0, 0, 0, 0, 0, 0, 0, 0, 0, 0, 0, 0, 0, 0, 0, 0, 0, 0, 0, 0, 0, 0, 0, 0, 0, 0, 0], "split_type": [0, 0, 0, 0, 0, 0, 0, 0, 0, 0, 0, 0, 0, 0, 0, 0, 0, 0, 0, 0, 0, 0, 0, 0, 0, 0, 0, 0, 0, 0, 0, 0, 0, 0, 0, 0, 0, 0, 0, 0, 0, 0, 0, 0, 0, 0, 0, 0, 0, 0, 0, 0, 0, 0, 0, 0, 0], "sum_hessian": [131548.4, 85038.16, 46510.24, 35916.332, 49121.83, 13221.28, 33288.96, 28927.244, 6989.0854, 45810.246, 3311.5803, 2321.506, 10899.774, 482.1147, 32806.844, 2928.0178, 25999.227, 1364.8351, 5624.2505, 30210.523, 15599.725, 847.88934, 1473.6167, 1864.7437, 9035.03, 212.06836, 270.04633, 2861.9868, 29944.857, 2313.2556, 614.76215, 16745.084, 9254.144, 1333.1918, 31.643261, 1288.209, 4336.0415, 5621.7793, 24588.744, 9590.796, 6008.929, 390.81436, 457.07498, 145.3475, 1328.2693, 323.34805, 1541.3956, 6414.4478, 2620.5828, 208.32329, 3.7450788, 68.99387, 201.05246, 2660.5977, 201.38913, 177.79765, 29767.06], "tree_param": {"num_deleted": "0", "num_feature": "182", "num_nodes": "57", "size_leaf_vector": "1"}}, {"base_weights": [-0.0, -0.32370493, 0.555138, -0.5004119, -0.10361249, 0.28323773, 0.6575797, -0.56582475, -0.34620818, -0.06801514, -0.6881431, -0.18762884, 0.36977208, 0.36246213, 0.6905347, -0.24136557, -0.5850014, -0.29329616, -0.20159473, -0.34147295, 0.003341166, -0.2068352, -0.0, 0.108272746, -0.38396394, 0.021725953, 0.46534598, 0.43709016, -0.7501623, 0.5699871, 0.70118135, -0.041156232, -0.14538708, -0.18672635, -0.14715795, -0.12892279, -0.0624263, 0.038747795, -0.15578516, -0.0906227, 0.038915053, -0.024392504, 0.120437525, -0.14111325, 0.09791496, -0.022593934, 0.14495522, 0.15998954, 0.01892735, 0.17733344, -0.058433507, -0.0, -0.23016615, -0.08401384, 0.204697, -0.0, 0.21044473], "categories": [], "categories_nodes": [], "categories_segments": [], "categories_sizes": [], "default_left": [0, 0, 0, 0, 0, 0, 0, 0, 0, 0, 0, 0, 0, 0, 0, 0, 0, 0, 0, 0, 0, 0, 0, 0, 0, 0, 0, 0, 0, 0, 0, 0, 0, 0, 0, 0, 0, 0, 0, 0, 0, 0, 0, 0, 0, 0, 0, 0, 0, 0, 0, 0, 0, 0, 0, 0, 0], "id": 2, "left_children": [1, 3, 5, 7, 9, 11, 13, 15, 17, 19, 21, 23, 25, 27, 29, 31, 33, 35, -1, 37, 39, -1, -1, 41, 43, 45, 47, 49, 51, 53, 55, -1, -1, -1, -1, -1, -1, -1, -1, -1, -1, -1, -1, -1, -1, -1, -1, -1, -1, -1, -1, -1, -1, -1, -1, -1, -1], "loss_changes": [19653.793, 2680.7651, 1112.4785, 376.95215, 633.10944, 452.2395, 273.5254, 158.60156, 187.58716, 570.0761, 2.4869995, 101.47948, 306.3037, 243.72305, 20.595703, 32.4552, 78.05371, 108.42157, 0.0, 509.33258, 886.20514, 0.0, 0.0, 39.805695, 65.53186, 95.42187, 194.00488, 275.74493, 3.4569778, 215.53015, 5.9765625, 0.0, 0.0, 0.0, 0.0, 0.0, 0.0, 0.0, 0.0, 0.0, 0.0, 0.0, 0.0, 0.0, 0.0, 0.0, 0.0, 0.0, 0.0, 0.0, 0.0, 0.0, 0.0, 0.0, 0.0, 0.0, 0.0], "parents": [2147483647, 0, 0, 1, 1, 2, 2, 3, 3, 4, 4, 5, 5, 6, 6, 7, 7, 8, 8, 9, 9, 10, 10, 11, 11, 12, 12, 13, 13, 14, 14, 15, 15, 16, 16, 17, 17, 19, 19, 20, 20, 23, 23, 24, 24, 25, 25, 26, 26, 27, 27, 28, 28, 29, 29, 30, 30], "right_children": [2, 4, 6, 8, 10, 12, 14, 16, 18, 20, 22, 24, 26, 28, 30, 32, 34, 36, -1, 38, 40, -1, -1, 42, 44, 46, 48, 50, 52, 54, 56, -1, -1, -1, -1, -1, -1, -1, -1, -1, -1, -1, -1, -1, -1, -1, -1, -1, -1, -1, -1, -1, -1, -1, -1, -1, -1], "split_conditions": [2.0331285, 0.14321224, 0.38188866, 0.21078116, 33.307186, 0.4399062, 4.2055345, 14.899542, 31.598251, 0.5170722, 10.422849, 48.658012, 0.8684681, 35.181606, 1.4195992, 19.640217, 0.07363662, 0.5049216, -0.20159473, 0.36707342, 0.3386366, -0.2068352, -0.0, 1514.036, 77086940.0, 4.282398, 33.232864, 2.351594, 0.0830494, 0.05593536, 0.3805977, -0.041156232, -0.14538708, -0.18672635, -0.14715795, -0.12892279, -0.0624263, 0.038747795, -0.15578516, -0.0906227, 0.038915053, -0.024392504, 0.120437525, -0.14111325, 0.09791496, -0.022593934, 0.14495522, 0.15998954, 0.01892735, 0.17733344, -0.058433507, -0.0, -0.23016615, -0.08401384, 0.204697, -0.0, 0.21044473], "split_indices": [89, 130, 58, 124, 129, 4, 89, 75, 129, 15, 32, 21, 15, 129, 61, 129, 130, 15, 0, 18, 4, 0, 0, 75, 164, 44, 85, 101, 7, 56, 38, 0, 0, 0, 0, 0, 0, 0, 0, 0, 0, 0, 0, 0, 0, 0, 0, 0, 0, 0, 0, 0, 0, 0, 0, 0, 0], "split_type": [0, 0, 0, 0, 0, 0, 0, 0, 0, 0, 0, 0, 0, 0, 0, 0, 0, 0, 0, 0, 0, 0, 0, 0, 0, 0, 0, 0, 0, 0, 0, 0, 0, 0, 0, 0, 0, 0, 0, 0, 0, 0, 0, 0, 0, 0, 0, 0, 0, 0, 0, 0, 0, 0, 0, 0, 0], "sum_hessian": [109367.48, 69084.33, 40283.145, 38293.047, 30791.285, 11051.551, 29231.596, 26840.043, 11453.003, 29040.943, 1750.3414, 1697.5891, 9353.961, 2968.012, 26263.582, 1527.6694, 25312.373, 9880.771, 1572.2319, 6037.991, 23002.953, 1748.9368, 1.4046546, 656.9693, 1040.6199, 2038.0323, 7315.929, 2790.4412, 177.57079, 2211.98, 24051.604, 1099.4777, 428.19174, 18051.195, 7261.1772, 3751.6926, 6129.079, 1640.3431, 4397.648, 6708.8657, 16294.087, 378.7043, 278.26495, 940.6103, 100.00954, 1666.7097, 371.32257, 6237.1143, 1078.8146, 2256.3374, 534.1037, 1.9793838, 175.59142, 247.6363, 1964.3436, 8.496268, 24043.107], "tree_param": {"num_deleted": "0", "num_feature": "182", "num_nodes": "57", "size_leaf_vector": "1"}}, {"base_weights": [-0.0, -0.33594894, 0.4408556, -0.4922336, -0.20227265, 0.21757773, 0.6083235, -0.2403157, -0.5209809, -0.16879433, -0.6170405, 0.30292997, -0.18831675, 0.26435775, 0.63669443, -0.36733872, -0.11220919, -0.5638562, -0.40012252, -0.21358556, 0.09772877, -0.18531103, -0.0, 0.3388218, -0.63765544, -0.5101937, -0.060962796, 0.088617295, 0.61823636, -0.0, 0.637955, -0.13329476, -0.02793313, -0.117900014, 0.016445797, -0.17018391, -0.0, -0.10196817, -0.17966677, -0.10779116, -0.04256321, -0.1041013, 0.11359917, -0.1008365, 0.11519343, -0.19555634, -0.0, -0.16519634, -0.0, -0.0652266, 0.15493184, -0.02195647, 0.16735254, 0.19203565, -0.0, -0.026426943, -0.0, -0.0, 0.19189064], "categories": [], "categories_nodes": [], "categories_segments": [], "categories_sizes": [], "default_left": [0, 0, 0, 0, 0, 0, 0, 0, 0, 0, 0, 0, 0, 0, 0, 0, 0, 0, 0, 0, 0, 0, 0, 0, 0, 0, 0, 0, 0, 0, 0, 0, 0, 0, 0, 0, 0, 0, 0, 0, 0, 0, 0, 0, 0, 0, 0, 0, 0, 0, 0, 0, 0, 0, 0, 0, 0, 0, 0], "id": 3, "left_children": [1, 3, 5, 7, 9, 11, 13, 15, 17, 19, 21, 23, 25, 27, 29, 31, 33, 35, 37, 39, 41, -1, -1, 43, 45, 47, 49, 51, 53, 55, 57, -1, -1, -1, -1, -1, -1, -1, -1, -1, -1, -1, -1, -1, -1, -1, -1, -1, -1, -1, -1, -1, -1, -1, -1, -1, -1, -1, -1], "loss_changes": [13979.63, 1112.0879, 1517.9961, 170.854, 393.45825, 608.25586, 218.19531, 36.875824, 104.64502, 320.7979, 0.4230957, 486.69922, 118.24852, 105.065094, 21.419922, 20.918137, 65.1652, 27.806152, 60.455933, 234.78564, 477.8066, 0.0, 0.0, 426.59155, 4.8957214, 15.012894, 195.02472, 97.923355, 6.800888, 0.19637465, 19.267578, 0.0, 0.0, 0.0, 0.0, 0.0, 0.0, 0.0, 0.0, 0.0, 0.0, 0.0, 0.0, 0.0, 0.0, 0.0, 0.0, 0.0, 0.0, 0.0, 0.0, 0.0, 0.0, 0.0, 0.0, 0.0, 0.0, 0.0, 0.0], "parents": [2147483647, 0, 0, 1, 1, 2, 2, 3, 3, 4, 4, 5, 5, 6, 6, 7, 7, 8, 8, 9, 9, 10, 10, 11, 11, 12, 12, 13, 13, 14, 14, 15, 15, 16, 16, 17, 17, 18, 18, 19, 19, 20, 20, 23, 23, 24, 24, 25, 25, 26, 26, 27, 27, 28, 28, 29, 29, 30, 30], "right_children": [2, 4, 6, 8, 10, 12, 14, 16, 18, 20, 22, 24, 26, 28, 30, 32, 34, 36, 38, 40, 42, -1, -1, 44, 46, 48, 50, 52, 54, 56, 58, -1, -1, -1, -1, -1, -1, -1, -1, -1, -1, -1, -1, -1, -1, -1, -1, -1, -1, -1, -1, -1, -1, -1, -1, -1, -1, -1, -1], "split_conditions": [1.1963365, 0.0941048, 16.911007, 1.0182073, 33.307186, 25.527796, 0.19569203, 4.952295, 0.12806407, 1.4982995, 10.422849, 35.181606, 0.6478643, 6.204908, 0.44477695, 0.91093415, 0.024665007, 0.34596395, 30.13792, 0.18342441, 0.56429255, -0.18531103, -0.0, 0.35902384, 9.058076, 100.6239, 3.1726224, 12.394354, 0.028994966, 99.09949, 0.27474958, -0.13329476, -0.02793313, -0.117900014, 0.016445797, -0.17018391, -0.0, -0.10196817, -0.17966677, -0.10779116, -0.04256321, -0.1041013, 0.11359917, -0.1008365, 0.11519343, -0.19555634, -0.0, -0.16519634, -0.0, -0.0652266, 0.15493184, -0.02195647, 0.16735254, 0.19203565, -0.0, -0.026426943, -0.0, -0.0, 0.19189064], "split_indices": [89, 130, 43, 42, 129, 83, 58, 99, 18, 47, 32, 129, 15, 143, 113, 51, 78, 124, 129, 146, 15, 0, 0, 72, 39, 170, 44, 24, 5, 148, 85, 0, 0, 0, 0, 0, 0, 0, 0, 0, 0, 0, 0, 0, 0, 0, 0, 0, 0, 0, 0, 0, 0, 0, 0, 0, 0, 0, 0], "split_type": [0, 0, 0, 0, 0, 0, 0, 0, 0, 0, 0, 0, 0, 0, 0, 0, 0, 0, 0, 0, 0, 0, 0, 0, 0, 0, 0, 0, 0, 0, 0, 0, 0, 0, 0, 0, 0, 0, 0, 0, 0, 0, 0, 0, 0, 0, 0, 0, 0, 0, 0, 0, 0, 0, 0, 0, 0, 0, 0], "sum_hessian": [94388.01, 53567.64, 40820.367, 24659.754, 28907.885, 17521.588, 23298.78, 2562.3784, 22097.375, 26772.443, 2135.4417, 14497.845, 3023.7434, 1802.9396, 21495.84, 1246.4967, 1315.8816, 16247.179, 5850.1963, 22952.775, 3819.668, 2131.9673, 3.4744449, 13975.8125, 522.03217, 834.0985, 2189.6448, 1224.3976, 578.54205, 32.237934, 21463.602, 944.3322, 302.1645, 512.62585, 803.25574, 16138.0625, 109.11645, 4530.44, 1319.7563, 7522.6084, 15430.168, 1464.8745, 2354.7935, 862.10895, 13113.704, 511.01605, 11.016105, 765.39655, 68.70197, 1736.9298, 452.71503, 895.22424, 329.17334, 556.19366, 22.348358, 24.306616, 7.9313183, 65.54422, 21398.057], "tree_param": {"num_deleted": "0", "num_feature": "182", "num_nodes": "59", "size_leaf_vector": "1"}}, {"base_weights": [-0.0, -0.25043, 0.4863774, -0.40118635, -0.05852946, 0.224091, 0.5713084, -0.45947447, -0.26195648, -0.1066177, 0.2579291, 0.12857044, 0.5951477, 0.3602639, 0.5979087, -0.5062283, -0.27627328, -0.3575617, -0.105569765, -0.07868634, -0.5798305, -0.25953612, 0.49472713, 0.026359713, 0.36179167, 0.61722857, -0.0, 0.40679717, -0.3587026, 0.1376119, 0.60037535, -0.12140944, -0.16032362, -0.10704502, -0.0071417573, -0.003826193, -0.123578146, -0.04980378, 0.1463052, 0.0021103863, -0.06552015, -0.17428528, -0.0, 0.09786354, -0.099863976, 0.1108516, 0.18614395, 0.040173825, -0.043186136, 0.028827718, 0.16507448, -0.0, 0.18975702, -0.011949842, 0.03334172, -0.003375744, 0.14799169, -0.139738, -0.0, -0.0255166, 0.11888244, 0.15932398, 0.18416369], "categories": [], "categories_nodes": [], "categories_segments": [], "categories_sizes": [], "default_left": [0, 0, 0, 0, 0, 0, 0, 0, 0, 0, 0, 0, 0, 0, 0, 0, 0, 0, 0, 0, 0, 0, 0, 0, 0, 0, 0, 0, 0, 0, 0, 0, 0, 0, 0, 0, 0, 0, 0, 0, 0, 0, 0, 0, 0, 0, 0, 0, 0, 0, 0, 0, 0, 0, 0, 0, 0, 0, 0, 0, 0, 0, 0], "id": 4, "left_children": [1, 3, 5, 7, 9, 11, 13, 15, 17, 19, 21, 23, 25, 27, 29, 31, 33, 35, 37, 39, 41, 43, 45, 47, 49, 51, 53, 55, 57, 59, 61, -1, -1, -1, -1, -1, -1, -1, -1, -1, -1, -1, -1, -1, -1, -1, -1, -1, -1, -1, -1, -1, -1, -1, -1, -1, -1, -1, -1, -1, -1, -1, -1], "loss_changes": [10061.906, 1572.9609, 617.3706, 240.26611, 364.07642, 237.18463, 109.104004, 175.79883, 130.73785, 269.36536, 387.43948, 127.42385, 17.092773, 81.433685, 13.844238, 39.174805, 85.81439, 100.355286, 121.54629, 238.51141, 0.4013977, 42.00644, 24.024902, 70.64395, 76.03807, 11.325958, 0.37921166, 87.35547, 7.5695744, 10.226286, 5.6694336, 0.0, 0.0, 0.0, 0.0, 0.0, 0.0, 0.0, 0.0, 0.0, 0.0, 0.0, 0.0, 0.0, 0.0, 0.0, 0.0, 0.0, 0.0, 0.0, 0.0, 0.0, 0.0, 0.0, 0.0, 0.0, 0.0, 0.0, 0.0, 0.0, 0.0, 0.0, 0.0], "parents": [2147483647, 0, 0, 1, 1, 2, 2, 3, 3, 4, 4, 5, 5, 6, 6, 7, 7, 8, 8, 9, 9, 10, 10, 11, 11, 12, 12, 13, 13, 14, 14, 15, 15, 16, 16, 17, 17, 18, 18, 19, 19, 20, 20, 21, 21, 22, 22, 23, 23, 24, 24, 25, 25, 26, 26, 27, 27, 28, 28, 29, 29, 30, 30], "right_children": [2, 4, 6, 8, 10, 12, 14, 16, 18, 20, 22, 24, 26, 28, 30, 32, 34, 36, 38, 40, 42, 44, 46, 48, 50, 52, 54, 56, 58, 60, 62, -1, -1, -1, -1, -1, -1, -1, -1, -1, -1, -1, -1, -1, -1, -1, -1, -1, -1, -1, -1, -1, -1, -1, -1, -1, -1, -1, -1, -1, -1, -1, -1], "split_conditions": [2.3024607, 0.15599066, 0.32902986, 0.34919345, 7.7681894, 4.4266624, 4.565006, 0.062069103, 0.5909656, 33.307186, 0.59677696, 3.5389585, 0.038242385, 5.767171, 0.02076257, 2.2995863, 4.714613, 4.9548306, 7.62396, 0.49331793, 4.1225243, 1.778314, 15792.862, 47.57764, 8.685235, 1.3769058, 206.17078, 4.2341332, 0.45309708, 3.1280084, 0.20864029, -0.12140944, -0.16032362, -0.10704502, -0.0071417573, -0.003826193, -0.123578146, -0.04980378, 0.1463052, 0.0021103863, -0.06552015, -0.17428528, -0.0, 0.09786354, -0.099863976, 0.1108516, 0.18614395, 0.040173825, -0.043186136, 0.028827718, 0.16507448, -0.0, 0.18975702, -0.011949842, 0.03334172, -0.003375744, 0.14799169, -0.139738, -0.0, -0.0255166, 0.11888244, 0.15932398, 0.18416369], "split_indices": [89, 130, 58, 176, 143, 44, 89, 30, 15, 129, 15, 36, 56, 101, 161, 42, 99, 141, 169, 23, 99, 69, 19, 21, 141, 51, 169, 99, 49, 70, 30, 0, 0, 0, 0, 0, 0, 0, 0, 0, 0, 0, 0, 0, 0, 0, 0, 0, 0, 0, 0, 0, 0, 0, 0, 0, 0, 0, 0, 0, 0, 0, 0], "split_type": [0, 0, 0, 0, 0, 0, 0, 0, 0, 0, 0, 0, 0, 0, 0, 0, 0, 0, 0, 0, 0, 0, 0, 0, 0, 0, 0, 0, 0, 0, 0, 0, 0, 0, 0, 0, 0, 0, 0, 0, 0, 0, 0, 0, 0, 0, 0, 0, 0, 0, 0, 0, 0, 0, 0, 0, 0, 0, 0, 0, 0, 0, 0], "sum_hessian": [82605.7, 54529.562, 28076.143, 30508.775, 24020.79, 6897.2476, 21178.896, 21453.297, 9055.478, 20880.156, 3140.6326, 5507.704, 1389.5433, 2414.3262, 18764.57, 17046.58, 4406.7173, 5579.3657, 3476.1118, 19737.453, 1142.7032, 972.7014, 2167.9312, 3860.0173, 1647.6869, 1336.6984, 52.844975, 2281.0352, 133.29117, 121.93243, 18642.637, 3784.2449, 13262.335, 3310.5474, 1096.1698, 785.1021, 4794.2637, 3170.651, 305.46094, 12188.58, 7548.8716, 1139.4857, 3.2176182, 92.68626, 880.01514, 1128.0764, 1039.8549, 2402.0505, 1457.9667, 706.36993, 941.317, 35.60193, 1301.0964, 26.702822, 26.14215, 371.4221, 1909.613, 113.5285, 19.762663, 45.110413, 76.82201, 3167.7615, 15474.876], "tree_param": {"num_deleted": "0", "num_feature": "182", "num_nodes": "63", "size_leaf_vector": "1"}}, {"base_weights": [-0.0, -0.27761918, 0.37304536, -0.4185792, -0.16343705, 0.1817645, 0.54347545, -0.12588215, -0.44081035, -0.13624567, -0.16617768, 0.26323205, -0.058828607, 0.2349931, 0.570496, -0.21927103, 0.011455434, -0.48842326, -0.33578116, -0.29384497, -0.07000627, 0.29743442, -0.5548257, -0.42468035, 0.0127645135, 0.05239984, 0.46840343, -0.0, 0.5721481, -0.112650834, -0.022879785, -0.0052988767, 0.06451687, -0.12481099, -0.1581254, -0.010681013, -0.11265303, -0.09886487, 0.079645865, -0.07089713, 0.0061370577, 0.061481558, 0.1610139, -0.16869189, -0.0, -0.14243034, -0.0, -0.08023499, 0.0383906, 0.14087553, -0.0010795123, 0.004209771, 0.16228123, -0.023158077, -0.0, -0.0, 0.17208673], "categories": [], "categories_nodes": [], "categories_segments": [], "categories_sizes": [], "default_left": [0, 0, 0, 0, 0, 0, 0, 0, 0, 0, 0, 0, 0, 0, 0, 0, 0, 0, 0, 0, 0, 0, 0, 0, 0, 0, 0, 0, 0, 0, 0, 0, 0, 0, 0, 0, 0, 0, 0, 0, 0, 0, 0, 0, 0, 0, 0, 0, 0, 0, 0, 0, 0, 0, 0, 0, 0], "id": 5, "left_children": [1, 3, 5, 7, 9, 11, 13, 15, 17, 19, -1, 21, 23, 25, 27, 29, 31, 33, 35, 37, 39, 41, 43, 45, 47, 49, 51, 53, 55, -1, -1, -1, -1, -1, -1, -1, -1, -1, -1, -1, -1, -1, -1, -1, -1, -1, -1, -1, -1, -1, -1, -1, -1, -1, -1, -1, -1], "loss_changes": [7524.623, 664.5708, 1003.2593, 115.322266, 237.81714, 288.92902, 128.22412, 19.34816, 77.89111, 221.61224, 0.0, 304.38074, 100.30326, 52.28392, 18.439941, 14.327408, 4.957056, 23.39038, 60.889587, 127.35889, 231.44894, 225.6847, 2.754959, 12.138931, 97.07141, 22.938864, 13.168465, 0.14761792, 11.82959, 0.0, 0.0, 0.0, 0.0, 0.0, 0.0, 0.0, 0.0, 0.0, 0.0, 0.0, 0.0, 0.0, 0.0, 0.0, 0.0, 0.0, 0.0, 0.0, 0.0, 0.0, 0.0, 0.0, 0.0, 0.0, 0.0, 0.0, 0.0], "parents": [2147483647, 0, 0, 1, 1, 2, 2, 3, 3, 4, 4, 5, 5, 6, 6, 7, 7, 8, 8, 9, 9, 11, 11, 12, 12, 13, 13, 14, 14, 15, 15, 16, 16, 17, 17, 18, 18, 19, 19, 20, 20, 21, 21, 22, 22, 23, 23, 24, 24, 25, 25, 26, 26, 27, 27, 28, 28], "right_children": [2, 4, 6, 8, 10, 12, 14, 16, 18, 20, -1, 22, 24, 26, 28, 30, 32, 34, 36, 38, 40, 42, 44, 46, 48, 50, 52, 54, 56, -1, -1, -1, -1, -1, -1, -1, -1, -1, -1, -1, -1, -1, -1, -1, -1, -1, -1, -1, -1, -1, -1, -1, -1, -1, -1, -1, -1], "split_conditions": [1.1306697, 0.0941048, 16.911007, 0.8034371, 33.307186, 7.408036, 0.19569203, 13.120885, 0.11494938, 0.054097403, -0.16617768, 35.181606, 0.57855916, 9.2846155, 0.44477695, 0.013776588, 0.18470633, 92.073296, 198.28905, 0.67973065, 0.538756, 0.23647739, 0.8960648, 100.5384, 0.4557364, 9.997598, 3.0629704, 0.08614175, 0.24202923, -0.112650834, -0.022879785, -0.0052988767, 0.06451687, -0.12481099, -0.1581254, -0.010681013, -0.11265303, -0.09886487, 0.079645865, -0.07089713, 0.0061370577, 0.061481558, 0.1610139, -0.16869189, -0.0, -0.14243034, -0.0, -0.08023499, 0.0383906, 0.14087553, -0.0010795123, 0.004209771, 0.16228123, -0.023158077, -0.0, -0.0, 0.17208673], "split_indices": [89, 130, 43, 42, 129, 41, 58, 0, 85, 53, 0, 129, 15, 141, 113, 56, 86, 75, 155, 4, 15, 30, 15, 170, 4, 150, 36, 5, 85, 0, 0, 0, 0, 0, 0, 0, 0, 0, 0, 0, 0, 0, 0, 0, 0, 0, 0, 0, 0, 0, 0, 0, 0, 0, 0, 0, 0], "split_type": [0, 0, 0, 0, 0, 0, 0, 0, 0, 0, 0, 0, 0, 0, 0, 0, 0, 0, 0, 0, 0, 0, 0, 0, 0, 0, 0, 0, 0, 0, 0, 0, 0, 0, 0, 0, 0, 0, 0, 0, 0, 0, 0, 0, 0, 0, 0, 0, 0, 0, 0, 0, 0, 0, 0, 0, 0], "sum_hessian": [72654.36, 41655.055, 30999.307, 18601.234, 23053.818, 14634.799, 16364.508, 1345.3085, 17255.926, 21578.195, 1475.624, 10963.801, 3670.998, 1348.5459, 15015.962, 843.7674, 501.54102, 11805.345, 5450.5815, 6339.829, 15238.366, 10536.152, 427.64764, 622.8559, 3048.142, 781.3643, 567.1816, 30.265417, 14985.697, 369.0406, 474.7268, 396.61578, 104.92524, 4204.1763, 7601.169, 666.7158, 4783.8657, 5976.605, 363.22394, 5406.811, 9831.555, 7630.2437, 2905.9092, 425.03162, 2.6160297, 552.02136, 70.83455, 862.39325, 2185.7488, 112.72883, 668.6355, 97.221535, 469.96002, 23.77289, 6.4925265, 40.985123, 14944.712], "tree_param": {"num_deleted": "0", "num_feature": "182", "num_nodes": "57", "size_leaf_vector": "1"}}, {"base_weights": [-0.0, -0.22556159, 0.38665593, -0.31573668, -0.012721821, 0.18606468, 0.5278768, -0.4210191, -0.22954541, 0.013975753, -0.15829547, 0.0953308, 0.48168963, 0.27118245, 0.5551972, -0.20746194, -0.4479287, -0.108206496, -0.29605013, 0.12568387, -0.11547302, -0.114957914, 0.1802184, -0.060480043, 0.5389077, 0.004434003, 0.4662236, 0.107627615, 0.5593173, -0.0730205, 0.014306012, -0.14564733, -0.09914282, -0.09255031, -0.014017265, -0.10722334, -0.03519596, -0.009197305, 0.09134148, -0.07629412, 0.015484808, -0.075248405, 0.02206014, -0.07788637, 0.07422222, 0.14598596, -0.06305946, -0.0, 0.16350688, -0.10944513, 0.03836097, -0.05865374, 0.16332327, -0.02883968, 0.13394317, 0.12010918, 0.17013684], "categories": [], "categories_nodes": [], "categories_segments": [], "categories_sizes": [], "default_left": [0, 0, 0, 0, 0, 0, 0, 0, 0, 0, 0, 0, 0, 0, 0, 0, 0, 0, 0, 0, 0, 0, 0, 0, 0, 0, 0, 0, 0, 0, 0, 0, 0, 0, 0, 0, 0, 0, 0, 0, 0, 0, 0, 0, 0, 0, 0, 0, 0, 0, 0, 0, 0, 0, 0, 0, 0], "id": 6, "left_children": [1, 3, 5, 7, 9, 11, 13, 15, 17, 19, -1, 21, 23, 25, 27, 29, 31, 33, 35, 37, 39, 41, 43, 45, 47, 49, 51, 53, 55, -1, -1, -1, -1, -1, -1, -1, -1, -1, -1, -1, -1, -1, -1, -1, -1, -1, -1, -1, -1, -1, -1, -1, -1, -1, -1, -1, -1], "loss_changes": [5590.4062, 773.69507, 661.75903, 251.13403, 171.23297, 256.72888, 88.5708, 66.51953, 122.38934, 165.95648, 0.0, 134.84906, 75.31464, 66.43618, 16.252441, 15.43227, 41.377197, 65.434814, 105.642395, 175.99448, 124.33149, 56.298958, 159.20367, 13.814562, 9.168274, 25.034727, 43.343536, 13.009463, 5.39209, 0.0, 0.0, 0.0, 0.0, 0.0, 0.0, 0.0, 0.0, 0.0, 0.0, 0.0, 0.0, 0.0, 0.0, 0.0, 0.0, 0.0, 0.0, 0.0, 0.0, 0.0, 0.0, 0.0, 0.0, 0.0, 0.0, 0.0, 0.0], "parents": [2147483647, 0, 0, 1, 1, 2, 2, 3, 3, 4, 4, 5, 5, 6, 6, 7, 7, 8, 8, 9, 9, 11, 11, 12, 12, 13, 13, 14, 14, 15, 15, 16, 16, 17, 17, 18, 18, 19, 19, 20, 20, 21, 21, 22, 22, 23, 23, 24, 24, 25, 25, 26, 26, 27, 27, 28, 28], "right_children": [2, 4, 6, 8, 10, 12, 14, 16, 18, 20, -1, 22, 24, 26, 28, 30, 32, 34, 36, 38, 40, 42, 44, 46, 48, 50, 52, 54, 56, -1, -1, -1, -1, -1, -1, -1, -1, -1, -1, -1, -1, -1, -1, -1, -1, -1, -1, -1, -1, -1, -1, -1, -1, -1, -1, -1, -1], "split_conditions": [1.554885, 0.59190863, 0.5248656, 0.07363662, 35.181606, 3.555706, 1.2442447, 0.62961406, 199.5295, 0.4499632, -0.15829547, 0.6887723, 2.3968065, 0.44580993, 1.2048812, 0.36247364, 0.21974158, 0.001532843, 6.403146, 0.106552675, 0.21452162, 0.43827164, 0.3968762, 2.5614057, 4.42581, 0.5283254, 0.3060904, 0.25896567, 0.13317963, -0.0730205, 0.014306012, -0.14564733, -0.09914282, -0.09255031, -0.014017265, -0.10722334, -0.03519596, -0.009197305, 0.09134148, -0.07629412, 0.015484808, -0.075248405, 0.02206014, -0.07788637, 0.07422222, 0.14598596, -0.06305946, -0.0, 0.16350688, -0.10944513, 0.03836097, -0.05865374, 0.16332327, -0.02883968, 0.13394317, 0.12010918, 0.17013684], "split_indices": [89, 89, 58, 130, 129, 44, 51, 10, 155, 23, 0, 158, 70, 30, 61, 56, 176, 17, 116, 53, 9, 90, 72, 69, 116, 15, 88, 30, 30, 0, 0, 0, 0, 0, 0, 0, 0, 0, 0, 0, 0, 0, 0, 0, 0, 0, 0, 0, 0, 0, 0, 0, 0, 0, 0, 0, 0], "split_type": [0, 0, 0, 0, 0, 0, 0, 0, 0, 0, 0, 0, 0, 0, 0, 0, 0, 0, 0, 0, 0, 0, 0, 0, 0, 0, 0, 0, 0, 0, 0, 0, 0, 0, 0, 0, 0, 0, 0, 0, 0, 0, 0, 0, 0, 0, 0, 0, 0, 0, 0, 0, 0, 0, 0, 0, 0], "sum_hessian": [64097.344, 40481.984, 23615.361, 28401.488, 12080.494, 9786.982, 13828.379, 12730.863, 15670.626, 11467.491, 613.00256, 7515.4673, 2271.5151, 1366.4619, 12461.917, 1467.2169, 11263.646, 5602.2407, 10068.386, 6197.03, 5270.462, 2127.3384, 5388.129, 200.1517, 2071.3633, 599.22485, 767.23706, 136.05898, 12325.858, 1320.4586, 146.75833, 8467.419, 2796.2275, 1276.6276, 4325.613, 7452.777, 2615.6084, 3276.649, 2920.381, 2910.9597, 2359.502, 1266.8672, 860.4712, 693.9066, 4694.222, 28.170107, 171.9816, 15.378548, 2055.9849, 129.34067, 469.88416, 67.40004, 699.837, 66.98417, 69.07481, 639.34625, 11686.512], "tree_param": {"num_deleted": "0", "num_feature": "182", "num_nodes": "57", "size_leaf_vector": "1"}}, {"base_weights": [-0.0, -0.16793783, 0.43826467, -0.27749792, 0.029231105, 0.22368105, 0.5279654, -0.35960585, -0.16878201, 0.05395798, -0.520222, 0.14982268, 0.47734904, 0.32611793, 0.54871976, -0.09962131, -0.38461408, -0.04815595, -0.24487422, 0.006315198, 0.3263253, -0.522299, -0.0, -0.04859654, 0.24318232, 0.50932163, -0.0, -0.15459158, 0.49013865, 0.19063419, 0.5527756, -0.092660375, -0.0015170315, -0.1280011, -0.07997375, -0.025618736, 0.08362751, -0.06402421, -0.1556431, -0.022297725, 0.046772268, -0.023918785, 0.1503641, -0.15699887, -0.0, -0.06312393, 0.021085212, 0.02413306, 0.10828133, 0.15582907, -0.0, 0.0354756, -0.032313906, -0.13670136, 0.029651137, -0.0, 0.16355872, -0.035847835, 0.13509364, -0.0, 0.16598572], "categories": [], "categories_nodes": [], "categories_segments": [], "categories_sizes": [], "default_left": [0, 0, 0, 0, 0, 0, 0, 0, 0, 0, 0, 0, 0, 0, 0, 0, 0, 0, 0, 0, 0, 0, 0, 0, 0, 0, 0, 0, 0, 0, 0, 0, 0, 0, 0, 0, 0, 0, 0, 0, 0, 0, 0, 0, 0, 0, 0, 0, 0, 0, 0, 0, 0, 0, 0, 0, 0, 0, 0, 0, 0], "id": 7, "left_children": [1, 3, 5, 7, 9, 11, 13, 15, 17, 19, 21, 23, 25, 27, 29, 31, 33, 35, 37, 39, 41, 43, -1, 45, 47, 49, 51, 53, 55, 57, 59, -1, -1, -1, -1, -1, -1, -1, -1, -1, -1, -1, -1, -1, -1, -1, -1, -1, -1, -1, -1, -1, -1, -1, -1, -1, -1, -1, -1, -1, -1], "loss_changes": [4189.886, 891.5421, 295.9231, 231.10242, 194.66023, 81.40735, 37.522217, 92.8905, 102.17026, 179.05997, 1.0265503, 69.74682, 15.445175, 88.677765, 6.995117, 23.690748, 60.8761, 52.651592, 52.644135, 145.52837, 150.63602, 0.21096802, 0.0, 23.297379, 43.906235, 5.5950775, 0.8592527, 23.47504, 19.289856, 14.735222, 3.8103027, 0.0, 0.0, 0.0, 0.0, 0.0, 0.0, 0.0, 0.0, 0.0, 0.0, 0.0, 0.0, 0.0, 0.0, 0.0, 0.0, 0.0, 0.0, 0.0, 0.0, 0.0, 0.0, 0.0, 0.0, 0.0, 0.0, 0.0, 0.0, 0.0, 0.0], "parents": [2147483647, 0, 0, 1, 1, 2, 2, 3, 3, 4, 4, 5, 5, 6, 6, 7, 7, 8, 8, 9, 9, 10, 10, 11, 11, 12, 12, 13, 13, 14, 14, 15, 15, 16, 16, 17, 17, 18, 18, 19, 19, 20, 20, 21, 21, 23, 23, 24, 24, 25, 25, 26, 26, 27, 27, 28, 28, 29, 29, 30, 30], "right_children": [2, 4, 6, 8, 10, 12, 14, 16, 18, 20, 22, 24, 26, 28, 30, 32, 34, 36, 38, 40, 42, 44, -1, 46, 48, 50, 52, 54, 56, 58, 60, -1, -1, -1, -1, -1, -1, -1, -1, -1, -1, -1, -1, -1, -1, -1, -1, -1, -1, -1, -1, -1, -1, -1, -1, -1, -1, -1, -1, -1, -1], "split_conditions": [3.080051, 0.6385691, 0.39045796, 0.21078116, 35.181606, 6.204908, 1.4195992, 1.1511091, 0.16368963, 3.344412, 1.5498381, 1.3021991, 0.03329859, 0.30409098, 0.65644664, 0.0025618842, 0.2361835, 3.3708217, 33.307186, 0.07251693, 1.9821653, 255.41737, -0.0, 0.18450561, 0.07855293, 41.032017, 21.499798, 0.4642197, 0.40519994, 0.17633986, 0.3805977, -0.092660375, -0.0015170315, -0.1280011, -0.07997375, -0.025618736, 0.08362751, -0.06402421, -0.1556431, -0.022297725, 0.046772268, -0.023918785, 0.1503641, -0.15699887, -0.0, -0.06312393, 0.021085212, 0.02413306, 0.10828133, 0.15582907, -0.0, 0.0354756, -0.032313906, -0.13670136, 0.029651137, -0.0, 0.16355872, -0.035847835, 0.13509364, -0.0, 0.16598572], "split_indices": [89, 89, 58, 124, 129, 143, 61, 108, 7, 47, 20, 158, 56, 30, 6, 56, 88, 90, 129, 5, 70, 1, 0, 90, 53, 130, 6, 49, 119, 78, 38, 0, 0, 0, 0, 0, 0, 0, 0, 0, 0, 0, 0, 0, 0, 0, 0, 0, 0, 0, 0, 0, 0, 0, 0, 0, 0, 0, 0, 0, 0], "split_type": [0, 0, 0, 0, 0, 0, 0, 0, 0, 0, 0, 0, 0, 0, 0, 0, 0, 0, 0, 0, 0, 0, 0, 0, 0, 0, 0, 0, 0, 0, 0, 0, 0, 0, 0, 0, 0, 0, 0, 0, 0, 0, 0, 0, 0, 0, 0, 0, 0, 0, 0, 0, 0, 0, 0, 0, 0, 0, 0, 0, 0], "sum_hessian": [56924.863, 41155.27, 15769.595, 26487.42, 14667.851, 4682.653, 11086.941, 15036.658, 11450.762, 14054.463, 613.38715, 3658.462, 1024.191, 1080.173, 10006.769, 1354.9985, 13681.66, 4480.7124, 6970.049, 11994.169, 2060.2944, 612.27356, 1.1136024, 1136.4683, 2521.9937, 959.05853, 65.13252, 259.30255, 820.8704, 140.2241, 9866.545, 388.13757, 966.86096, 10023.071, 3658.5884, 4050.6213, 430.09113, 6286.374, 683.6751, 7750.0137, 4244.155, 603.1861, 1457.1084, 610.6308, 1.6427221, 516.6155, 619.85284, 1095.1265, 1426.8672, 942.7922, 16.266413, 32.750507, 32.38202, 136.17914, 123.1234, 92.71602, 728.15436, 46.600674, 93.62343, 5.7392683, 9860.806], "tree_param": {"num_deleted": "0", "num_feature": "182", "num_nodes": "61", "size_leaf_vector": "1"}}, {"base_weights": [-0.0, -0.17260838, 0.35903534, -0.33226976, -0.078859806, 0.19074138, 0.5170283, -0.40587103, -0.22446567, -0.110082045, 0.18809217, 0.45298687, 0.09916133, 0.1293819, 0.5364206, -0.42507178, -0.12717861, -0.17441122, -0.481113, -0.15081993, 0.04117407, -0.38373992, 0.3350626, 0.17106006, 0.5128714, 0.0102009885, 0.38828602, -0.20048605, 0.40992898, 0.10523144, 0.54331124, -0.06580312, -0.13525183, -0.061514597, 0.06778778, -0.0, -0.06630506, -0.1459536, -0.0, -0.05586699, 0.004916054, -0.04963898, 0.06279136, -0.0, -0.13229938, 0.037701767, 0.1335235, -0.0, 0.09472989, -0.0, 0.15665928, -0.08338733, 0.023945374, -0.0, 0.13435908, -0.0, -0.11377228, -0.0, 0.14632206, -0.04617485, 0.14425151, -0.0, 0.16351806], "categories": [], "categories_nodes": [], "categories_segments": [], "categories_sizes": [], "default_left": [0, 0, 0, 0, 0, 0, 0, 0, 0, 0, 0, 0, 0, 0, 0, 0, 0, 0, 0, 0, 0, 0, 0, 0, 0, 0, 0, 0, 0, 0, 0, 0, 0, 0, 0, 0, 0, 0, 0, 0, 0, 0, 0, 0, 0, 0, 0, 0, 0, 0, 0, 0, 0, 0, 0, 0, 0, 0, 0, 0, 0, 0, 0], "id": 8, "left_children": [1, 3, 5, 7, 9, 11, 13, 15, 17, 19, 21, 23, 25, 27, 29, 31, 33, 35, 37, 39, 41, 43, 45, 47, 49, 51, 53, 55, 57, 59, 61, -1, -1, -1, -1, -1, -1, -1, -1, -1, -1, -1, -1, -1, -1, -1, -1, -1, -1, -1, -1, -1, -1, -1, -1, -1, -1, -1, -1, -1, -1, -1, -1], "loss_changes": [3165.4248, 512.17676, 433.76465, 94.5437, 180.72397, 188.05829, 57.337402, 34.57605, 60.40323, 121.432846, 188.47043, 27.82129, 150.46341, 42.146683, 17.498047, 30.232666, 14.099281, 35.008774, 3.0486145, 93.083496, 142.64665, 13.432823, 35.744858, 10.838261, 7.793518, 90.712204, 28.000671, 7.570994, 10.062313, 18.07405, 9.027832, 0.0, 0.0, 0.0, 0.0, 0.0, 0.0, 0.0, 0.0, 0.0, 0.0, 0.0, 0.0, 0.0, 0.0, 0.0, 0.0, 0.0, 0.0, 0.0, 0.0, 0.0, 0.0, 0.0, 0.0, 0.0, 0.0, 0.0, 0.0, 0.0, 0.0, 0.0, 0.0], "parents": [2147483647, 0, 0, 1, 1, 2, 2, 3, 3, 4, 4, 5, 5, 6, 6, 7, 7, 8, 8, 9, 9, 10, 10, 11, 11, 12, 12, 13, 13, 14, 14, 15, 15, 16, 16, 17, 17, 18, 18, 19, 19, 20, 20, 21, 21, 22, 22, 23, 23, 24, 24, 25, 25, 26, 26, 27, 27, 28, 28, 29, 29, 30, 30], "right_children": [2, 4, 6, 8, 10, 12, 14, 16, 18, 20, 22, 24, 26, 28, 30, 32, 34, 36, 38, 40, 42, 44, 46, 48, 50, 52, 54, 56, 58, 60, 62, -1, -1, -1, -1, -1, -1, -1, -1, -1, -1, -1, -1, -1, -1, -1, -1, -1, -1, -1, -1, -1, -1, -1, -1, -1, -1, -1, -1, -1, -1, -1, -1], "split_conditions": [3.7978082, 0.0941048, 0.22241285, 0.07389236, 4.3136015, 9.999205, 0.34237418, 0.31669867, 30.273981, 1.0, 0.45149654, 0.5128611, 6.6145334, 0.19246927, 0.5049216, 49.82392, 2.1084065, 19.778263, 4.51963, 39.560158, 0.104216985, 1.8026748, 0.64002466, 2.7248833, 0.46215248, 0.7204677, 0.8027792, 0.28641936, 0.015615624, 0.29314455, 0.35389486, -0.06580312, -0.13525183, -0.061514597, 0.06778778, -0.0, -0.06630506, -0.1459536, -0.0, -0.05586699, 0.004916054, -0.04963898, 0.06279136, -0.0, -0.13229938, 0.037701767, 0.1335235, -0.0, 0.09472989, -0.0, 0.15665928, -0.08338733, 0.023945374, -0.0, 0.13435908, -0.0, -0.11377228, -0.0, 0.14632206, -0.04617485, 0.14425151, -0.0, 0.16351806], "split_indices": [43, 130, 30, 53, 44, 150, 119, 127, 129, 55, 15, 4, 169, 78, 15, 75, 44, 129, 99, 142, 53, 69, 15, 36, 181, 15, 36, 7, 28, 56, 113, 0, 0, 0, 0, 0, 0, 0, 0, 0, 0, 0, 0, 0, 0, 0, 0, 0, 0, 0, 0, 0, 0, 0, 0, 0, 0, 0, 0, 0, 0, 0, 0], "split_type": [0, 0, 0, 0, 0, 0, 0, 0, 0, 0, 0, 0, 0, 0, 0, 0, 0, 0, 0, 0, 0, 0, 0, 0, 0, 0, 0, 0, 0, 0, 0, 0, 0, 0, 0, 0, 0, 0, 0, 0, 0, 0, 0, 0, 0, 0, 0, 0, 0, 0, 0, 0, 0, 0, 0, 0, 0, 0, 0, 0, 0, 0, 0], "sum_hessian": [51075.89, 34493.473, 16582.422, 12720.3955, 21773.074, 8061.1694, 8521.252, 7502.604, 5217.7915, 19527.25, 2245.8257, 2057.1746, 6003.995, 430.9058, 8090.3457, 6984.9624, 517.6417, 4400.246, 817.5453, 15435.984, 4091.2654, 444.95276, 1800.8728, 390.34372, 1666.8307, 4618.5444, 1385.4506, 181.7934, 249.1124, 150.33737, 7940.0083, 821.7481, 6163.2144, 447.6646, 69.97713, 943.78784, 3456.4585, 812.35876, 5.186557, 12788.018, 2647.9666, 1808.7708, 2282.4946, 39.21412, 405.73865, 652.33636, 1148.5364, 167.79596, 222.54778, 30.460669, 1636.3701, 870.15564, 3748.389, 204.73657, 1180.714, 79.06699, 102.7264, 31.139162, 217.97324, 73.555115, 76.78225, 20.49143, 7919.517], "tree_param": {"num_deleted": "0", "num_feature": "182", "num_nodes": "63", "size_leaf_vector": "1"}}, {"base_weights": [-0.0, -0.1298529, 0.3974545, -0.24145737, 0.019956335, 0.20809434, 0.5098875, -0.32634246, -0.14487092, 0.037982713, -0.49726334, 0.13475665, 0.44585475, 0.23391937, 0.52671635, -0.34806234, 0.00594763, -0.1144039, -0.15133661, -0.27693048, 0.06622886, -0.50060713, -0.0, 0.2151183, -0.06839184, -0.21422525, 0.4868886, -0.012584744, 0.4662987, -0.0, 0.53053933, -0.070484065, -0.11720271, -0.04825331, 0.056335498, -0.04173597, 0.05539209, 0.06324014, -0.105070695, -0.06948835, 0.027890254, -0.15084949, -0.0, 0.026178481, 0.112698756, -0.0631662, 0.041804615, -0.10012469, -0.0, -0.0, 0.14896129, -0.0862982, 0.032114133, -0.0, 0.15082553, -0.021145713, 0.083887674, 0.061935287, 0.16062674], "categories": [], "categories_nodes": [], "categories_segments": [], "categories_sizes": [], "default_left": [0, 0, 0, 0, 0, 0, 0, 0, 0, 0, 0, 0, 0, 0, 0, 0, 0, 0, 0, 0, 0, 0, 0, 0, 0, 0, 0, 0, 0, 0, 0, 0, 0, 0, 0, 0, 0, 0, 0, 0, 0, 0, 0, 0, 0, 0, 0, 0, 0, 0, 0, 0, 0, 0, 0, 0, 0, 0, 0], "id": 9, "left_children": [1, 3, 5, 7, 9, 11, 13, 15, 17, 19, 21, 23, 25, 27, 29, 31, 33, 35, -1, 37, 39, 41, -1, 43, 45, 47, 49, 51, 53, 55, 57, -1, -1, -1, -1, -1, -1, -1, -1, -1, -1, -1, -1, -1, -1, -1, -1, -1, -1, -1, -1, -1, -1, -1, -1, -1, -1, -1, -1], "loss_changes": [2383.6223, 584.2454, 234.85522, 159.11584, 133.64467, 68.62282, 25.255249, 79.79956, 96.80527, 125.51074, 1.2723999, 55.33048, 29.225388, 29.986069, 9.178467, 41.668457, 19.164507, 63.863342, 0.0, 42.64917, 103.71669, 0.5820694, 0.0, 44.58178, 27.334044, 2.2018766, 6.6215973, 8.274545, 5.884094, 2.949155, 2.9094238, 0.0, 0.0, 0.0, 0.0, 0.0, 0.0, 0.0, 0.0, 0.0, 0.0, 0.0, 0.0, 0.0, 0.0, 0.0, 0.0, 0.0, 0.0, 0.0, 0.0, 0.0, 0.0, 0.0, 0.0, 0.0, 0.0, 0.0, 0.0], "parents": [2147483647, 0, 0, 1, 1, 2, 2, 3, 3, 4, 4, 5, 5, 6, 6, 7, 7, 8, 8, 9, 9, 10, 10, 11, 11, 12, 12, 13, 13, 14, 14, 15, 15, 16, 16, 17, 17, 19, 19, 20, 20, 21, 21, 23, 23, 24, 24, 25, 25, 26, 26, 27, 27, 28, 28, 29, 29, 30, 30], "right_children": [2, 4, 6, 8, 10, 12, 14, 16, 18, 20, 22, 24, 26, 28, 30, 32, 34, 36, -1, 38, 40, 42, -1, 44, 46, 48, 50, 52, 54, 56, 58, -1, -1, -1, -1, -1, -1, -1, -1, -1, -1, -1, -1, -1, -1, -1, -1, -1, -1, -1, -1, -1, -1, -1, -1, -1, -1, -1, -1], "split_conditions": [3.080051, 0.5478925, 0.46619573, 0.07389236, 33.307186, 12.394354, 1.2442447, 0.069382325, 33.307186, 0.2801028, 10.422849, 59.502968, 0.8586834, 0.53977567, 0.72651386, 199.5295, 197.41934, 4.2304673, -0.15133661, 0.3051818, 0.45149654, 0.892665, -0.0, 2.7977216, 0.9888787, 1.4845753, 0.5498851, 1.0678436, 0.3060904, 0.23647739, 0.28896472, -0.070484065, -0.11720271, -0.04825331, 0.056335498, -0.04173597, 0.05539209, 0.06324014, -0.105070695, -0.06948835, 0.027890254, -0.15084949, -0.0, 0.026178481, 0.112698756, -0.0631662, 0.041804615, -0.10012469, -0.0, -0.0, 0.14896129, -0.0862982, 0.032114133, -0.0, 0.15082553, -0.021145713, 0.083887674, 0.061935287, 0.16062674], "split_indices": [89, 89, 58, 53, 129, 24, 51, 90, 129, 72, 32, 21, 15, 30, 20, 155, 75, 44, 0, 29, 15, 15, 0, 36, 4, 63, 79, 60, 88, 30, 23, 0, 0, 0, 0, 0, 0, 0, 0, 0, 0, 0, 0, 0, 0, 0, 0, 0, 0, 0, 0, 0, 0, 0, 0, 0, 0, 0, 0], "split_type": [0, 0, 0, 0, 0, 0, 0, 0, 0, 0, 0, 0, 0, 0, 0, 0, 0, 0, 0, 0, 0, 0, 0, 0, 0, 0, 0, 0, 0, 0, 0, 0, 0, 0, 0, 0, 0, 0, 0, 0, 0, 0, 0, 0, 0, 0, 0, 0, 0, 0, 0, 0, 0, 0, 0, 0, 0, 0, 0], "sum_hessian": [46182.723, 34810.434, 11372.291, 19986.836, 14823.598, 4270.9424, 7101.3486, 10581.427, 9405.409, 14343.937, 479.6608, 3297.46, 973.4823, 443.16843, 6658.18, 9960.419, 621.00824, 8697.603, 707.80597, 1150.813, 13193.124, 478.33844, 1.3223671, 2398.0168, 899.44324, 42.464615, 931.0177, 194.6256, 248.54282, 63.015083, 6595.165, 2791.5452, 7168.873, 295.2806, 325.72763, 8065.0054, 632.59766, 132.29636, 1018.51666, 1055.3492, 12137.774, 476.40872, 1.9297051, 1370.4377, 1027.579, 562.5793, 336.86392, 36.675163, 5.78945, 9.014079, 922.0036, 83.89851, 110.72709, 11.595893, 236.94693, 28.149675, 34.86541, 128.93605, 6466.229], "tree_param": {"num_deleted": "0", "num_feature": "182", "num_nodes": "59", "size_leaf_vector": "1"}}, {"base_weights": [-0.0, -0.14586887, 0.2987496, -0.3213548, -0.07744235, 0.15968236, 0.49430355, -0.19773357, -0.37547463, -0.10409671, 0.18913732, 0.08369124, 0.391655, 0.17848657, 0.52045774, -0.22727653, 0.021188801, -0.45307744, -0.27833125, -0.17808792, -0.03565643, -0.35359865, 0.30599862, 0.33783552, 0.021954937, -0.0, 0.45055354, -0.019295203, 0.44187784, -0.0, 0.52589613, -0.0, -0.0791808, -0.041877463, 0.14306492, -0.1370897, -0.0, -0.08832154, 0.002734772, -0.06522616, 0.016664578, 0.023534512, -0.03859745, 0.009751279, -0.1282218, 0.05848699, 0.14507844, -0.0, 0.11814491, 0.015146197, -0.13341753, -0.051690366, 0.076895356, -0.0, 0.1398597, -0.09020345, 0.011465419, -0.0, 0.1551261, -0.0, 0.04055743, -0.0, 0.1583007], "categories": [], "categories_nodes": [], "categories_segments": [], "categories_sizes": [], "default_left": [0, 0, 0, 0, 0, 0, 0, 0, 0, 0, 0, 0, 0, 0, 0, 0, 0, 0, 0, 0, 0, 0, 0, 0, 0, 0, 0, 0, 0, 0, 0, 0, 0, 0, 0, 0, 0, 0, 0, 0, 0, 0, 0, 0, 0, 0, 0, 0, 0, 0, 0, 0, 0, 0, 0, 0, 0, 0, 0, 0, 0, 0, 0], "id": 10, "left_children": [1, 3, 5, 7, 9, 11, 13, 15, 17, 19, 21, 23, 25, 27, 29, 31, 33, 35, 37, 39, 41, 43, 45, 47, 49, 51, 53, 55, 57, 59, 61, -1, -1, -1, -1, -1, -1, -1, -1, -1, -1, -1, -1, -1, -1, -1, -1, -1, -1, -1, -1, -1, -1, -1, -1, -1, -1, -1, -1, -1, -1, -1, -1], "loss_changes": [1829.5686, 334.72626, 367.96204, 46.86389, 143.68225, 137.66144, 39.949585, 17.946701, 33.404663, 91.66243, 114.744995, 92.42644, 47.44876, 28.522835, 12.937866, 18.24112, 21.948616, 2.6517334, 14.249115, 82.78049, 103.39003, 12.707535, 22.880386, 23.360168, 62.086365, 10.519299, 10.09491, 6.6100755, 10.822567, 0.4034581, 6.682617, 0.0, 0.0, 0.0, 0.0, 0.0, 0.0, 0.0, 0.0, 0.0, 0.0, 0.0, 0.0, 0.0, 0.0, 0.0, 0.0, 0.0, 0.0, 0.0, 0.0, 0.0, 0.0, 0.0, 0.0, 0.0, 0.0, 0.0, 0.0, 0.0, 0.0, 0.0, 0.0], "parents": [2147483647, 0, 0, 1, 1, 2, 2, 3, 3, 4, 4, 5, 5, 6, 6, 7, 7, 8, 8, 9, 9, 10, 10, 11, 11, 12, 12, 13, 13, 14, 14, 15, 15, 16, 16, 17, 17, 18, 18, 19, 19, 20, 20, 21, 21, 22, 22, 23, 23, 24, 24, 25, 25, 26, 26, 27, 27, 28, 28, 29, 29, 30, 30], "right_children": [2, 4, 6, 8, 10, 12, 14, 16, 18, 20, 22, 24, 26, 28, 30, 32, 34, 36, 38, 40, 42, 44, 46, 48, 50, 52, 54, 56, 58, 60, 62, -1, -1, -1, -1, -1, -1, -1, -1, -1, -1, -1, -1, -1, -1, -1, -1, -1, -1, -1, -1, -1, -1, -1, -1, -1, -1, -1, -1, -1, -1, -1, -1], "split_conditions": [3.160529, 0.07363662, 0.24031964, 1.9350693, 4.2304673, 6.5532937, 0.36861098, 0.691553, 0.16033624, 0.08099902, 0.42505535, 9.999144, 2.3678718, 0.26736346, 0.10876433, 0.30742761, 0.5049216, 5.0059466, 0.9622485, 6.436986, 1.4763433, 0.49595103, 76.29834, 0.7534211, 31.017246, 10.000308, 0.6370635, 4.241032, 0.013294774, 0.28948784, 0.13382488, -0.0, -0.0791808, -0.041877463, 0.14306492, -0.1370897, -0.0, -0.08832154, 0.002734772, -0.06522616, 0.016664578, 0.023534512, -0.03859745, 0.009751279, -0.1282218, 0.05848699, 0.14507844, -0.0, 0.11814491, 0.015146197, -0.13341753, -0.051690366, 0.076895356, -0.0, 0.1398597, -0.09020345, 0.011465419, -0.0, 0.1551261, -0.0, 0.04055743, -0.0, 0.1583007], "split_indices": [43, 130, 30, 42, 44, 169, 49, 153, 176, 53, 15, 150, 70, 78, 119, 10, 15, 69, 4, 116, 8, 58, 73, 15, 129, 150, 79, 99, 28, 78, 53, 0, 0, 0, 0, 0, 0, 0, 0, 0, 0, 0, 0, 0, 0, 0, 0, 0, 0, 0, 0, 0, 0, 0, 0, 0, 0, 0, 0, 0, 0, 0, 0], "split_type": [0, 0, 0, 0, 0, 0, 0, 0, 0, 0, 0, 0, 0, 0, 0, 0, 0, 0, 0, 0, 0, 0, 0, 0, 0, 0, 0, 0, 0, 0, 0, 0, 0, 0, 0, 0, 0, 0, 0, 0, 0, 0, 0, 0, 0, 0, 0, 0, 0, 0, 0, 0, 0, 0, 0, 0, 0, 0, 0, 0, 0, 0, 0], "sum_hessian": [41981.516, 28208.71, 13772.805, 7871.5576, 20337.154, 8079.828, 5692.9766, 2454.4648, 5417.093, 18523.205, 1813.9481, 6119.599, 1960.2291, 465.2434, 5227.733, 2202.838, 251.62686, 2952.1602, 2464.9326, 8829.674, 9693.532, 305.8588, 1508.0894, 1163.4945, 4956.1045, 245.5078, 1714.7213, 244.56146, 220.68196, 60.80197, 5166.931, 307.83804, 1894.9999, 170.29254, 81.334335, 2914.8171, 37.342968, 2367.3186, 97.614006, 7594.085, 1235.5894, 4304.692, 5388.84, 27.43128, 278.42752, 963.84827, 544.2411, 156.91248, 1006.58203, 4691.585, 264.5194, 158.44171, 87.06608, 66.77852, 1647.9427, 70.293976, 174.26749, 19.320051, 201.36191, 39.727, 21.07497, 10.667328, 5156.2637], "tree_param": {"num_deleted": "0", "num_feature": "182", "num_nodes": "63", "size_leaf_vector": "1"}}, {"base_weights": [-0.0, -0.15145625, 0.24158277, -0.28415576, -0.08118359, 0.12262949, 0.46810734, -0.33413786, -0.15293111, -0.120950595, 0.08263262, 0.0675794, 0.38007, 0.08001238, 0.5052341, -0.12976415, -0.37070796, 0.077867895, -0.19129115, -0.18470608, -0.031138021, -0.23843752, 0.12246635, 0.09073226, -0.46600002, -0.0, 0.46269923, -0.056905143, 0.41241807, -0.0, 0.5128896, -0.04824187, 0.01711731, -0.118424594, -0.07692329, 0.07533889, -0.0, -0.06453936, 0.071412094, -0.059898034, 0.0079269335, 0.04186355, -0.047887232, -0.0, -0.11856961, 0.008200749, 0.08441826, -0.012731493, 0.05287553, -0.14595656, -0.0, 0.045176264, -0.08007746, -0.0, 0.14085166, 0.011316516, -0.056500804, -0.0, 0.14529988, -0.013331497, -0.0, -0.0, 0.15551569], "categories": [], "categories_nodes": [], "categories_segments": [], "categories_sizes": [], "default_left": [0, 0, 0, 0, 0, 0, 0, 0, 0, 0, 0, 0, 0, 0, 0, 0, 0, 0, 0, 0, 0, 0, 0, 0, 0, 0, 0, 0, 0, 0, 0, 0, 0, 0, 0, 0, 0, 0, 0, 0, 0, 0, 0, 0, 0, 0, 0, 0, 0, 0, 0, 0, 0, 0, 0, 0, 0, 0, 0, 0, 0, 0, 0], "id": 11, "left_children": [1, 3, 5, 7, 9, 11, 13, 15, 17, 19, 21, 23, 25, 27, 29, 31, 33, 35, 37, 39, 41, 43, 45, 47, 49, 51, 53, 55, 57, 59, 61, -1, -1, -1, -1, -1, -1, -1, -1, -1, -1, -1, -1, -1, -1, -1, -1, -1, -1, -1, -1, -1, -1, -1, -1, -1, -1, -1, -1, -1, -1, -1, -1], "loss_changes": [1406.1837, 216.6034, 393.08972, 48.393738, 101.33106, 133.54376, 67.15686, 38.52478, 21.504787, 69.51048, 36.95736, 95.83615, 57.084244, 24.849174, 19.66333, 6.428437, 6.861084, 5.686532, 20.384186, 24.644302, 115.64328, 11.182043, 37.389595, 89.512314, 3.7687988, 12.434491, 5.294861, 5.3759823, 6.587635, 0.09448107, 10.263184, 0.0, 0.0, 0.0, 0.0, 0.0, 0.0, 0.0, 0.0, 0.0, 0.0, 0.0, 0.0, 0.0, 0.0, 0.0, 0.0, 0.0, 0.0, 0.0, 0.0, 0.0, 0.0, 0.0, 0.0, 0.0, 0.0, 0.0, 0.0, 0.0, 0.0, 0.0, 0.0], "parents": [2147483647, 0, 0, 1, 1, 2, 2, 3, 3, 4, 4, 5, 5, 6, 6, 7, 7, 8, 8, 9, 9, 10, 10, 11, 11, 12, 12, 13, 13, 14, 14, 15, 15, 16, 16, 17, 17, 18, 18, 19, 19, 20, 20, 21, 21, 22, 22, 23, 23, 24, 24, 25, 25, 26, 26, 27, 27, 28, 28, 29, 29, 30, 30], "right_children": [2, 4, 6, 8, 10, 12, 14, 16, 18, 20, 22, 24, 26, 28, 30, 32, 34, 36, 38, 40, 42, 44, 46, 48, 50, 52, 54, 56, 58, 60, 62, -1, -1, -1, -1, -1, -1, -1, -1, -1, -1, -1, -1, -1, -1, -1, -1, -1, -1, -1, -1, -1, -1, -1, -1, -1, -1, -1, -1, -1, -1, -1, -1], "split_conditions": [2.2518563, 0.08324009, 0.24031964, 0.12806407, 3.2452753, 4.4266624, 0.32089138, 783.7553, 19.534803, 0.0994389, 0.42505535, 35.181606, 0.6591672, 0.64251286, 0.25014314, 0.21143466, 0.063465945, 0.18471442, 5.0173674, 4.8690386, 0.64836836, 3.0199304, 2.9216, 3.4934008, 1.0554826, 298.92398, 19.862696, 0.5128611, 0.009319313, 1.7853973, 0.04379571, -0.04824187, 0.01711731, -0.118424594, -0.07692329, 0.07533889, -0.0, -0.06453936, 0.071412094, -0.059898034, 0.0079269335, 0.04186355, -0.047887232, -0.0, -0.11856961, 0.008200749, 0.08441826, -0.012731493, 0.05287553, -0.14595656, -0.0, 0.045176264, -0.08007746, -0.0, 0.14085166, 0.011316516, -0.056500804, -0.0, 0.14529988, -0.013331497, -0.0, -0.0, 0.15551569], "split_indices": [43, 130, 30, 18, 72, 44, 49, 164, 129, 53, 15, 129, 15, 30, 87, 78, 130, 41, 44, 69, 83, 134, 44, 39, 26, 155, 11, 4, 28, 153, 17, 0, 0, 0, 0, 0, 0, 0, 0, 0, 0, 0, 0, 0, 0, 0, 0, 0, 0, 0, 0, 0, 0, 0, 0, 0, 0, 0, 0, 0, 0, 0, 0], "split_type": [0, 0, 0, 0, 0, 0, 0, 0, 0, 0, 0, 0, 0, 0, 0, 0, 0, 0, 0, 0, 0, 0, 0, 0, 0, 0, 0, 0, 0, 0, 0, 0, 0, 0, 0, 0, 0, 0, 0, 0, 0, 0, 0, 0, 0, 0, 0, 0, 0, 0, 0, 0, 0, 0, 0, 0, 0, 0, 0, 0, 0, 0, 0], "sum_hessian": [38429.64, 23621.137, 14808.502, 8127.747, 15493.391, 9739.667, 5068.836, 5829.5723, 2298.1748, 12516.313, 2977.0767, 8056.9136, 1682.753, 466.36026, 4602.4756, 926.9984, 4902.5737, 290.23206, 2007.9427, 7254.292, 5262.0215, 300.32773, 2676.7488, 7740.6074, 316.30588, 281.03955, 1401.7135, 309.58688, 156.77339, 61.650402, 4540.825, 840.9358, 86.06258, 3976.2786, 926.29517, 117.167946, 173.0641, 1924.8502, 83.09261, 6818.7466, 435.54535, 2226.4502, 3035.5715, 120.07453, 180.25319, 1714.5516, 962.1972, 2981.4612, 4759.1465, 306.02408, 10.281795, 158.18053, 122.85902, 16.3545, 1385.359, 136.1731, 173.41379, 15.291809, 141.48158, 46.844234, 14.80617, 57.602757, 4483.222], "tree_param": {"num_deleted": "0", "num_feature": "182", "num_nodes": "63", "size_leaf_vector": "1"}}, {"base_weights": [-0.0, -0.095170856, 0.3244875, -0.21243584, -0.0, 0.17337173, 0.48742938, -0.32584208, -0.15312907, -0.09656369, 0.061116442, 0.11112552, 0.43336996, -0.0, 0.5048048, -0.23250325, -0.3890011, -0.13137563, -0.14604141, -0.14023316, 0.17615074, -0.06073989, 0.14165309, -0.07081495, 0.19192106, -0.0, 0.4601012, -0.27686006, 0.30946, -0.0, 0.5138952, -0.07543015, -0.0, -0.12376655, -0.017662201, -0.047369342, 0.022579756, -0.032910448, -0.111355424, 0.078734726, -0.060435634, 0.094074704, -0.035163164, 0.036030047, 0.16435406, -0.008076837, -0.1292021, 0.02277492, 0.12644291, -0.0, 0.13905743, -0.0, -0.1187352, 0.122092046, -0.0, -0.013017198, 0.07134508, -0.0, 0.1549418], "categories": [], "categories_nodes": [], "categories_segments": [], "categories_sizes": [], "default_left": [0, 0, 0, 0, 0, 0, 0, 0, 0, 0, 0, 0, 0, 0, 0, 0, 0, 0, 0, 0, 0, 0, 0, 0, 0, 0, 0, 0, 0, 0, 0, 0, 0, 0, 0, 0, 0, 0, 0, 0, 0, 0, 0, 0, 0, 0, 0, 0, 0, 0, 0, 0, 0, 0, 0, 0, 0, 0, 0], "id": 12, "left_children": [1, 3, 5, 7, 9, 11, 13, 15, 17, 19, 21, 23, 25, 27, 29, 31, 33, 35, -1, 37, 39, 41, 43, 45, 47, -1, 49, 51, 53, 55, 57, -1, -1, -1, -1, -1, -1, -1, -1, -1, -1, -1, -1, -1, -1, -1, -1, -1, -1, -1, -1, -1, -1, -1, -1, -1, -1, -1, -1], "loss_changes": [1092.0883, 304.21027, 190.77985, 77.40875, 89.373, 62.38691, 28.01654, 18.102936, 52.47235, 69.7836, 91.392235, 51.446846, 9.067108, 13.215799, 14.039001, 9.278076, 13.9548645, 42.621384, 0.0, 31.162872, 26.128973, 74.673645, 42.336967, 11.417364, 59.01638, 0.0, 1.812149, 3.6370893, 4.2989874, 1.8760581, 7.3254395, 0.0, 0.0, 0.0, 0.0, 0.0, 0.0, 0.0, 0.0, 0.0, 0.0, 0.0, 0.0, 0.0, 0.0, 0.0, 0.0, 0.0, 0.0, 0.0, 0.0, 0.0, 0.0, 0.0, 0.0, 0.0, 0.0, 0.0, 0.0], "parents": [2147483647, 0, 0, 1, 1, 2, 2, 3, 3, 4, 4, 5, 5, 6, 6, 7, 7, 8, 8, 9, 9, 10, 10, 11, 11, 12, 12, 13, 13, 14, 14, 15, 15, 16, 16, 17, 17, 19, 19, 20, 20, 21, 21, 22, 22, 23, 23, 24, 24, 26, 26, 27, 27, 28, 28, 29, 29, 30, 30], "right_children": [2, 4, 6, 8, 10, 12, 14, 16, 18, 20, 22, 24, 26, 28, 30, 32, 34, 36, -1, 38, 40, 42, 44, 46, 48, -1, 50, 52, 54, 56, 58, -1, -1, -1, -1, -1, -1, -1, -1, -1, -1, -1, -1, -1, -1, -1, -1, -1, -1, -1, -1, -1, -1, -1, -1, -1, -1, -1, -1], "split_conditions": [5.54005, 0.14321224, 0.20864029, 0.021433637, 0.07855293, 4.365975, 0.28945678, 0.11073185, 33.307186, 1.6623322, 0.60249996, 3.5487483, 0.7729461, 0.19246927, 0.35035875, 2.819515, 0.045221712, 0.80199164, -0.14604141, 52.37951, 0.07884847, 0.5525277, 8.828391, 35.181606, 12.632485, -0.0, 1.5666654, 10.000413, 312.2804, 0.3883933, 0.49036807, -0.07543015, -0.0, -0.12376655, -0.017662201, -0.047369342, 0.022579756, -0.032910448, -0.111355424, 0.078734726, -0.060435634, 0.094074704, -0.035163164, 0.036030047, 0.16435406, -0.008076837, -0.1292021, 0.02277492, 0.12644291, -0.0, 0.13905743, -0.0, -0.1187352, 0.122092046, -0.0, -0.013017198, 0.07134508, -0.0, 0.1549418], "split_indices": [43, 130, 30, 78, 53, 44, 85, 7, 129, 169, 15, 70, 33, 78, 161, 97, 9, 124, 0, 21, 30, 136, 109, 129, 141, 0, 70, 150, 155, 53, 3, 0, 0, 0, 0, 0, 0, 0, 0, 0, 0, 0, 0, 0, 0, 0, 0, 0, 0, 0, 0, 0, 0, 0, 0, 0, 0, 0, 0], "split_type": [0, 0, 0, 0, 0, 0, 0, 0, 0, 0, 0, 0, 0, 0, 0, 0, 0, 0, 0, 0, 0, 0, 0, 0, 0, 0, 0, 0, 0, 0, 0, 0, 0, 0, 0, 0, 0, 0, 0, 0, 0, 0, 0, 0, 0, 0, 0, 0, 0, 0, 0, 0, 0, 0, 0, 0, 0, 0, 0], "sum_hessian": [35361.543, 27342.736, 8018.8057, 12227.855, 15114.881, 4193.2925, 3825.5132, 4139.3994, 8088.456, 5886.676, 9228.205, 3415.481, 777.81165, 148.94127, 3676.572, 1736.3562, 2403.0432, 7622.859, 465.59714, 5106.182, 780.49335, 3622.7961, 5605.409, 1012.2921, 2403.1887, 45.035465, 732.7762, 63.830322, 85.11095, 75.795296, 3600.7769, 1631.3531, 105.003105, 2214.501, 188.54225, 6798.8623, 823.9967, 4549.513, 556.669, 657.10474, 123.38862, 451.0858, 3171.7102, 5347.577, 257.8318, 927.9705, 84.32157, 1626.2595, 776.92926, 2.364901, 730.41125, 9.888052, 53.942272, 74.74499, 10.36596, 45.1608, 30.634493, 8.397713, 3592.379], "tree_param": {"num_deleted": "0", "num_feature": "182", "num_nodes": "59", "size_leaf_vector": "1"}}, {"base_weights": [-0.0, -0.122873396, 0.21066147, -0.2588342, -0.06723253, 0.10160456, 0.43672124, -0.30690822, -0.087694004, -0.08396528, 0.24606325, 0.06635943, 0.43370026, 0.20207264, 0.50322497, -0.327266, 0.065516286, -0.18555245, -0.0, -0.04476932, -0.16971396, -0.16712035, 0.3438662, -0.13571346, 0.11035393, -0.0, 0.46421817, 0.278937, -0.0, -0.0, 0.50645673, -0.10680088, -0.036556967, -0.0025521358, 0.068844855, -0.07406277, -0.0, -0.0073314644, 0.046194028, -0.020488018, 0.022597443, -0.101621665, -0.030947318, -0.0, -0.08051565, 0.11291679, -0.0, -0.054663252, 0.025200043, -0.029978298, 0.045244504, -0.017547172, -0.0, -0.0, 0.14387071, -0.0, 0.106735885, -0.043373853, 0.06186803, -0.0, 0.15353423], "categories": [], "categories_nodes": [], "categories_segments": [], "categories_sizes": [], "default_left": [0, 0, 0, 0, 0, 0, 0, 0, 0, 0, 0, 0, 0, 0, 0, 0, 0, 0, 0, 0, 0, 0, 0, 0, 0, 0, 0, 0, 0, 0, 0, 0, 0, 0, 0, 0, 0, 0, 0, 0, 0, 0, 0, 0, 0, 0, 0, 0, 0, 0, 0, 0, 0, 0, 0, 0, 0, 0, 0, 0, 0], "id": 13, "left_children": [1, 3, 5, 7, 9, 11, 13, 15, 17, 19, 21, 23, 25, 27, 29, 31, 33, 35, 37, 39, 41, 43, 45, 47, 49, 51, 53, 55, 57, -1, 59, -1, -1, -1, -1, -1, -1, -1, -1, -1, -1, -1, -1, -1, -1, -1, -1, -1, -1, -1, -1, -1, -1, -1, -1, -1, -1, -1, -1, -1, -1], "loss_changes": [847.1432, 153.09628, 291.8122, 44.982025, 75.57468, 90.53144, 53.60315, 37.509766, 12.69707, 44.92254, 30.773136, 65.63115, 12.754898, 15.616558, 4.631592, 21.071167, 4.806134, 6.6417255, 3.3355646, 27.320759, 44.071, 4.039645, 7.322258, 14.120293, 52.643715, 0.09566141, 7.3022156, 11.273758, 6.371069, 0.0, 3.411499, 0.0, 0.0, 0.0, 0.0, 0.0, 0.0, 0.0, 0.0, 0.0, 0.0, 0.0, 0.0, 0.0, 0.0, 0.0, 0.0, 0.0, 0.0, 0.0, 0.0, 0.0, 0.0, 0.0, 0.0, 0.0, 0.0, 0.0, 0.0, 0.0, 0.0], "parents": [2147483647, 0, 0, 1, 1, 2, 2, 3, 3, 4, 4, 5, 5, 6, 6, 7, 7, 8, 8, 9, 9, 10, 10, 11, 11, 12, 12, 13, 13, 14, 14, 15, 15, 16, 16, 17, 17, 18, 18, 19, 19, 20, 20, 21, 21, 22, 22, 23, 23, 24, 24, 25, 25, 26, 26, 27, 27, 28, 28, 30, 30], "right_children": [2, 4, 6, 8, 10, 12, 14, 16, 18, 20, 22, 24, 26, 28, 30, 32, 34, 36, 38, 40, 42, 44, 46, 48, 50, 52, 54, 56, 58, -1, 60, -1, -1, -1, -1, -1, -1, -1, -1, -1, -1, -1, -1, -1, -1, -1, -1, -1, -1, -1, -1, -1, -1, -1, -1, -1, -1, -1, -1, -1, -1], "split_conditions": [2.2518563, 0.17597029, 0.2792169, 0.0021552988, 23.950956, 14.471451, 0.6924685, 0.260262, 9.653725, 29.585512, 0.42505535, 0.1879349, 0.6783953, 0.65909314, 6.483408, 3.9385302, 12.809893, 0.056072474, 0.25294057, 6.436986, 0.5170722, 27.236126, 299.50305, 5.0059466, 0.44079605, 4.3147535, 0.7146818, 0.24533433, 100.64298, -0.0, 0.09328776, -0.10680088, -0.036556967, -0.0025521358, 0.068844855, -0.07406277, -0.0, -0.0073314644, 0.046194028, -0.020488018, 0.022597443, -0.101621665, -0.030947318, -0.0, -0.08051565, 0.11291679, -0.0, -0.054663252, 0.025200043, -0.029978298, 0.045244504, -0.017547172, -0.0, -0.0, 0.14387071, -0.0, 0.106735885, -0.043373853, 0.06186803, -0.0, 0.15353423], "split_indices": [43, 153, 53, 56, 63, 24, 33, 63, 0, 129, 15, 63, 79, 94, 0, 69, 10, 119, 53, 116, 15, 143, 155, 69, 49, 99, 176, 23, 170, 0, 17, 0, 0, 0, 0, 0, 0, 0, 0, 0, 0, 0, 0, 0, 0, 0, 0, 0, 0, 0, 0, 0, 0, 0, 0, 0, 0, 0, 0, 0, 0], "split_type": [0, 0, 0, 0, 0, 0, 0, 0, 0, 0, 0, 0, 0, 0, 0, 0, 0, 0, 0, 0, 0, 0, 0, 0, 0, 0, 0, 0, 0, 0, 0, 0, 0, 0, 0, 0, 0, 0, 0, 0, 0, 0, 0, 0, 0, 0, 0, 0, 0, 0, 0, 0, 0, 0, 0, 0, 0, 0, 0, 0, 0], "sum_hessian": [32725.578, 20669.822, 12055.757, 5949.2363, 14720.586, 8163.274, 3892.483, 4598.3228, 1350.9132, 14005.233, 715.3522, 7408.343, 754.9315, 893.6781, 2998.8047, 4385.568, 212.75519, 669.74634, 681.1669, 9692.779, 4312.4546, 117.21295, 598.1392, 1283.5289, 6124.8135, 36.935734, 717.9958, 669.24866, 224.42949, 20.105108, 2978.6997, 3803.9736, 581.5942, 105.21535, 107.53985, 486.88266, 182.8637, 555.502, 125.66483, 8175.1313, 1517.6477, 1174.7482, 3137.706, 16.294863, 100.91809, 550.75745, 47.38181, 1097.0482, 186.48076, 948.2117, 5176.602, 26.961796, 9.973938, 13.542368, 704.4534, 169.21309, 500.03555, 149.69002, 74.73948, 48.64722, 2930.0525], "tree_param": {"num_deleted": "0", "num_feature": "182", "num_nodes": "61", "size_leaf_vector": "1"}}, {"base_weights": [-0.0, -0.06869015, 0.31514153, -0.14491601, 0.045857172, 0.16855137, 0.48172113, -0.16520147, 0.13327743, -0.0076934975, 0.1726562, 0.09719567, 0.40743804, -0.0, 0.49871564, -0.23844962, -0.094838776, -0.21574603, 0.30142468, -0.048013512, 0.16750316, 0.30821583, -0.0, 0.036921483, 0.38192433, -0.0, 0.4532093, -0.064458266, 0.10463895, -0.0, 0.5065037, -0.031049926, -0.08338381, -0.053696964, -0.011820091, 0.035914026, -0.096517354, -0.0, 0.105431184, -0.0061382945, -0.0729285, 0.103016555, 0.0011491518, 0.11055229, 0.0027236342, -0.0973625, 0.03842088, 0.039729342, -0.025725786, 0.12181384, -0.0, -0.0, 0.024926601, -0.0, 0.14046112, -0.0, -0.07419933, -0.0, 0.051789533, 0.016295495, 0.15465023], "categories": [], "categories_nodes": [], "categories_segments": [], "categories_sizes": [], "default_left": [0, 0, 0, 0, 0, 0, 0, 0, 0, 0, 0, 0, 0, 0, 0, 0, 0, 0, 0, 0, 0, 0, 0, 0, 0, 0, 0, 0, 0, 0, 0, 0, 0, 0, 0, 0, 0, 0, 0, 0, 0, 0, 0, 0, 0, 0, 0, 0, 0, 0, 0, 0, 0, 0, 0, 0, 0, 0, 0, 0, 0], "id": 14, "left_children": [1, 3, 5, 7, 9, 11, 13, 15, 17, 19, 21, 23, 25, 27, 29, 31, 33, 35, 37, 39, 41, 43, 45, 47, 49, 51, 53, 55, -1, 57, 59, -1, -1, -1, -1, -1, -1, -1, -1, -1, -1, -1, -1, -1, -1, -1, -1, -1, -1, -1, -1, -1, -1, -1, -1, -1, -1, -1, -1, -1, -1], "loss_changes": [663.5108, 220.73264, 127.36151, 85.91147, 69.57784, 45.21981, 16.82959, 69.65839, 59.467346, 48.11123, 71.799774, 35.37188, 9.326553, 4.579515, 6.22876, 32.7778, 31.850716, 12.922814, 13.611954, 28.106457, 32.78342, 26.977264, 55.593536, 23.12846, 4.9838676, 0.2819604, 5.973999, 2.5792193, 0.0, 0.99576044, 3.968689, 0.0, 0.0, 0.0, 0.0, 0.0, 0.0, 0.0, 0.0, 0.0, 0.0, 0.0, 0.0, 0.0, 0.0, 0.0, 0.0, 0.0, 0.0, 0.0, 0.0, 0.0, 0.0, 0.0, 0.0, 0.0, 0.0, 0.0, 0.0, 0.0, 0.0], "parents": [2147483647, 0, 0, 1, 1, 2, 2, 3, 3, 4, 4, 5, 5, 6, 6, 7, 7, 8, 8, 9, 9, 10, 10, 11, 11, 12, 12, 13, 13, 14, 14, 15, 15, 16, 16, 17, 17, 18, 18, 19, 19, 20, 20, 21, 21, 22, 22, 23, 23, 24, 24, 25, 25, 26, 26, 27, 27, 29, 29, 30, 30], "right_children": [2, 4, 6, 8, 10, 12, 14, 16, 18, 20, 22, 24, 26, 28, 30, 32, 34, 36, 38, 40, 42, 44, 46, 48, 50, 52, 54, 56, -1, 58, 60, -1, -1, -1, -1, -1, -1, -1, -1, -1, -1, -1, -1, -1, -1, -1, -1, -1, -1, -1, -1, -1, -1, -1, -1, -1, -1, -1, -1, -1, -1], "split_conditions": [7.2862844, 0.6385691, 0.20864029, 3.058591, 0.040781148, 3.7721133, 0.45113993, 0.18342441, 0.45149654, 2.3800359, 4.169133, 4.365975, 4.5451407, 0.94925827, 0.3327478, 194.5872, 4.335035, 0.49595103, 1.1970642, 48.471413, 0.10362422, 10.000442, 0.4904717, 82.592384, 46.155994, 0.06915441, 0.7596152, 10.000413, 0.10463895, 0.53977567, 0.04379571, -0.031049926, -0.08338381, -0.053696964, -0.011820091, 0.035914026, -0.096517354, -0.0, 0.105431184, -0.0061382945, -0.0729285, 0.103016555, 0.0011491518, 0.11055229, 0.0027236342, -0.0973625, 0.03842088, 0.039729342, -0.025725786, 0.12181384, -0.0, -0.0, 0.024926601, -0.0, 0.14046112, -0.0, -0.07419933, -0.0, 0.051789533, 0.016295495, 0.15465023], "split_indices": [43, 89, 30, 44, 17, 36, 135, 146, 15, 63, 83, 44, 141, 30, 102, 155, 99, 58, 47, 21, 30, 150, 15, 83, 102, 58, 15, 150, 0, 30, 17, 0, 0, 0, 0, 0, 0, 0, 0, 0, 0, 0, 0, 0, 0, 0, 0, 0, 0, 0, 0, 0, 0, 0, 0, 0, 0, 0, 0, 0, 0], "split_type": [0, 0, 0, 0, 0, 0, 0, 0, 0, 0, 0, 0, 0, 0, 0, 0, 0, 0, 0, 0, 0, 0, 0, 0, 0, 0, 0, 0, 0, 0, 0, 0, 0, 0, 0, 0, 0, 0, 0, 0, 0, 0, 0, 0, 0, 0, 0, 0, 0, 0, 0, 0, 0, 0, 0, 0, 0, 0, 0, 0, 0], "sum_hessian": [30649.227, 25164.912, 5484.314, 15162.209, 10002.704, 2950.189, 2534.1252, 14165.625, 996.5837, 6977.8447, 3024.859, 2304.9622, 645.2268, 102.16746, 2431.9578, 6869.7, 7295.9253, 304.59036, 691.99335, 5719.3823, 1258.4624, 1704.329, 1320.5299, 1932.1881, 372.774, 78.53127, 566.6955, 67.877525, 34.289932, 49.964523, 2381.9932, 1613.5139, 5256.1865, 2825.078, 4470.847, 50.440346, 254.15001, 72.99265, 619.0007, 5057.4536, 661.9291, 576.62067, 681.84174, 1390.4242, 313.90482, 380.2365, 940.2934, 1132.1635, 800.02466, 359.9123, 12.861688, 38.689503, 39.841766, 8.527138, 558.1684, 22.036394, 45.84113, 17.551678, 32.412846, 68.28999, 2313.7031], "tree_param": {"num_deleted": "0", "num_feature": "182", "num_nodes": "61", "size_leaf_vector": "1"}}, {"base_weights": [-0.0, -0.09890704, 0.18100458, -0.226855, -0.05108555, 0.09915551, 0.43974903, 0.0051603783, -0.2755268, -0.06734972, 0.26148495, 0.053512726, 0.3373069, 0.16105889, 0.4987303, -0.065220825, 0.26141277, -0.3235624, -0.17832075, -0.08140535, 0.15099028, -0.024226299, 0.32409844, 0.40104437, 0.028644867, -0.0, 0.3952306, -0.01020958, 0.34872603, -0.0, 0.50663364, 0.0006367049, -0.045185182, 0.101782285, -0.0, -0.07803681, -0.12255763, -0.0039931876, -0.07137398, -0.056399036, -0.015419639, -0.059112083, 0.059463713, -0.0, -0.043142036, 0.105771236, -0.0, -0.0, 0.1329474, -0.06336318, 0.01619137, -0.016815731, 0.084990196, 0.02283028, 0.12787749, 0.0042084265, -0.063400105, 0.122785576, -0.0, -0.0, 0.15348811], "categories": [], "categories_nodes": [], "categories_segments": [], "categories_sizes": [], "default_left": [0, 0, 0, 0, 0, 0, 0, 0, 0, 0, 0, 0, 0, 0, 0, 0, 0, 0, 0, 0, 0, 0, 0, 0, 0, 0, 0, 0, 0, 0, 0, 0, 0, 0, 0, 0, 0, 0, 0, 0, 0, 0, 0, 0, 0, 0, 0, 0, 0, 0, 0, 0, 0, 0, 0, 0, 0, 0, 0, 0, 0], "id": 15, "left_children": [1, 3, 5, 7, 9, 11, 13, 15, 17, 19, 21, 23, 25, 27, 29, 31, 33, 35, 37, 39, 41, 43, 45, 47, 49, 51, 53, 55, 57, -1, 59, -1, -1, -1, -1, -1, -1, -1, -1, -1, -1, -1, -1, -1, -1, -1, -1, -1, -1, -1, -1, -1, -1, -1, -1, -1, -1, -1, -1, -1, -1], "loss_changes": [515.9154, 111.23053, 210.21906, 59.31311, 67.33252, 80.49373, 33.057983, 17.031155, 14.437897, 39.152683, 14.520145, 52.331585, 22.614197, 17.95982, 9.272095, 5.079243, 5.713835, 7.9057007, 11.775196, 36.742737, 12.252022, 1.4625987, 4.947441, 7.7940903, 35.762024, 3.5993252, 5.1305237, 3.0003996, 5.7687054, 0.0, 4.2287292, 0.0, 0.0, 0.0, 0.0, 0.0, 0.0, 0.0, 0.0, 0.0, 0.0, 0.0, 0.0, 0.0, 0.0, 0.0, 0.0, 0.0, 0.0, 0.0, 0.0, 0.0, 0.0, 0.0, 0.0, 0.0, 0.0, 0.0, 0.0, 0.0, 0.0], "parents": [2147483647, 0, 0, 1, 1, 2, 2, 3, 3, 4, 4, 5, 5, 6, 6, 7, 7, 8, 8, 9, 9, 10, 10, 11, 11, 12, 12, 13, 13, 14, 14, 15, 15, 16, 16, 17, 17, 18, 18, 19, 19, 20, 20, 21, 21, 22, 22, 23, 23, 24, 24, 25, 25, 26, 26, 27, 27, 28, 28, 30, 30], "right_children": [2, 4, 6, 8, 10, 12, 14, 16, 18, 20, 22, 24, 26, 28, 30, 32, 34, 36, 38, 40, 42, 44, 46, 48, 50, 52, 54, 56, 58, -1, 60, -1, -1, -1, -1, -1, -1, -1, -1, -1, -1, -1, -1, -1, -1, -1, -1, -1, -1, -1, -1, -1, -1, -1, -1, -1, -1, -1, -1, -1, -1], "split_conditions": [2.2518563, 0.11494938, 0.26270866, 32.303303, 23.950956, 4.4266624, 1.4529651, 0.063465945, 0.063465945, 40.197403, 0.42505535, 9.997359, 81.06709, 0.2138191, 0.4625614, 0.065169245, 10.000062, 5.2096624, 92.073296, 0.10289931, 0.39283904, 27.236126, 299.50305, 4.2944145, 2.64112, 100.5384, 1.4529651, 0.6413704, 1.5559517, -0.0, 0.260262, 0.0006367049, -0.045185182, 0.101782285, -0.0, -0.07803681, -0.12255763, -0.0039931876, -0.07137398, -0.056399036, -0.015419639, -0.059112083, 0.059463713, -0.0, -0.043142036, 0.105771236, -0.0, -0.0, 0.1329474, -0.06336318, 0.01619137, -0.016815731, 0.084990196, 0.02283028, 0.12787749, 0.0042084265, -0.063400105, 0.122785576, -0.0, -0.0, 0.15348811], "split_indices": [43, 85, 30, 75, 63, 44, 38, 130, 130, 142, 15, 150, 73, 78, 146, 54, 150, 24, 75, 146, 15, 143, 155, 99, 98, 170, 38, 146, 59, 0, 63, 0, 0, 0, 0, 0, 0, 0, 0, 0, 0, 0, 0, 0, 0, 0, 0, 0, 0, 0, 0, 0, 0, 0, 0, 0, 0, 0, 0, 0, 0], "split_type": [0, 0, 0, 0, 0, 0, 0, 0, 0, 0, 0, 0, 0, 0, 0, 0, 0, 0, 0, 0, 0, 0, 0, 0, 0, 0, 0, 0, 0, 0, 0, 0, 0, 0, 0, 0, 0, 0, 0, 0, 0, 0, 0, 0, 0, 0, 0, 0, 0, 0, 0, 0, 0, 0, 0, 0, 0, 0, 0, 0, 0], "sum_hessian": [28815.861, 18634.043, 10181.819, 5011.842, 13622.201, 7765.4062, 2416.4128, 833.5933, 4178.2485, 12979.603, 642.5982, 6552.756, 1212.6503, 452.34262, 1964.0703, 623.94476, 209.64857, 2725.972, 1452.2766, 12238.197, 741.40607, 86.91225, 555.6859, 409.71277, 6143.043, 184.89886, 1027.7513, 209.13861, 243.204, 24.707367, 1939.3629, 283.9207, 340.02405, 173.69699, 35.951576, 1630.3733, 1095.5986, 430.1717, 1022.105, 2614.007, 9624.189, 62.89881, 678.5072, 14.693344, 72.2189, 509.20496, 46.480976, 34.66454, 375.04825, 548.2845, 5594.759, 146.84006, 38.0588, 119.93441, 907.81696, 143.10286, 66.03577, 210.72098, 32.483013, 21.535553, 1917.8274], "tree_param": {"num_deleted": "0", "num_feature": "182", "num_nodes": "61", "size_leaf_vector": "1"}}, {"base_weights": [-0.0, -0.037621524, 0.41627195, -0.12053828, 0.062287048, 0.09023895, 0.45712912, -0.23775777, -0.07832786, -0.04376339, 0.12259225, -0.0, 0.28026816, 0.14876014, 0.48737597, -0.2744904, -0.07420048, -0.096760586, 0.17732105, -0.07992175, 0.21374175, 0.29166767, 0.08818989, 0.19990212, -0.12396507, 0.383544, -0.0, -0.0, 0.21521227, -0.0, 0.49231574, -0.045464173, -0.098692544, -0.053154055, 0.005630965, -0.039921742, 0.005773689, -0.056314994, 0.09639571, -0.053169042, -0.0, -0.00041835793, 0.09174527, -0.0, 0.09967644, 0.019985158, 0.09466212, 0.08215427, -0.0, 0.0073921434, -0.088452026, -0.0, 0.14444992, -0.010792832, -0.0, -0.0, 0.07706417, -0.0, 0.019659292, -0.0, 0.14855862], "categories": [], "categories_nodes": [], "categories_segments": [], "categories_sizes": [], "default_left": [0, 0, 0, 0, 0, 0, 0, 0, 0, 0, 0, 0, 0, 0, 0, 0, 0, 0, 0, 0, 0, 0, 0, 0, 0, 0, 0, 0, 0, 0, 0, 0, 0, 0, 0, 0, 0, 0, 0, 0, 0, 0, 0, 0, 0, 0, 0, 0, 0, 0, 0, 0, 0, 0, 0, 0, 0, 0, 0, 0, 0], "id": 16, "left_children": [1, 3, 5, 7, 9, 11, 13, 15, 17, 19, 21, 23, 25, 27, 29, 31, 33, 35, 37, 39, 41, 43, 45, 47, 49, 51, -1, 53, 55, 57, 59, -1, -1, -1, -1, -1, -1, -1, -1, -1, -1, -1, -1, -1, -1, -1, -1, -1, -1, -1, -1, -1, -1, -1, -1, -1, -1, -1, -1, -1, -1], "loss_changes": [427.84225, 208.1475, 24.648651, 64.83815, 73.119965, 6.908385, 12.078064, 17.979172, 47.14251, 36.29769, 38.461494, 3.536507, 4.910081, 3.1137881, 2.1380615, 14.37085, 8.358149, 41.26194, 35.454285, 27.074997, 12.229866, 14.2309265, 26.032616, 1.1431471, 5.891352, 4.523838, 0.0, 0.04441172, 1.9616084, 0.085744664, 2.2783813, 0.0, 0.0, 0.0, 0.0, 0.0, 0.0, 0.0, 0.0, 0.0, 0.0, 0.0, 0.0, 0.0, 0.0, 0.0, 0.0, 0.0, 0.0, 0.0, 0.0, 0.0, 0.0, 0.0, 0.0, 0.0, 0.0, 0.0, 0.0, 0.0, 0.0], "parents": [2147483647, 0, 0, 1, 1, 2, 2, 3, 3, 4, 4, 5, 5, 6, 6, 7, 7, 8, 8, 9, 9, 10, 10, 11, 11, 12, 12, 13, 13, 14, 14, 15, 15, 16, 16, 17, 17, 18, 18, 19, 19, 20, 20, 21, 21, 22, 22, 23, 23, 24, 24, 25, 25, 27, 27, 28, 28, 29, 29, 30, 30], "right_children": [2, 4, 6, 8, 10, 12, 14, 16, 18, 20, 22, 24, 26, 28, 30, 32, 34, 36, 38, 40, 42, 44, 46, 48, 50, 52, -1, 54, 56, 58, 60, -1, -1, -1, -1, -1, -1, -1, -1, -1, -1, -1, -1, -1, -1, -1, -1, -1, -1, -1, -1, -1, -1, -1, -1, -1, -1, -1, -1, -1, -1], "split_conditions": [23.469345, 0.6385691, 1.3921881, 0.034339234, 0.07855293, 9.824165, 0.48234797, 0.21078116, 3.8709755, 0.54954267, 9.999755, 8.674115, 387.65472, 4.4626145, 2.1472461, 19.962896, 156.49815, 11.370371, 0.8723268, 2.6211648, 1.7240475, 0.40773314, 0.59295785, 5.4801702, 1.7587152, 8.419395, -0.0, 4.529865, 1.1868229, 0.036910176, 1.2598898, -0.045464173, -0.098692544, -0.053154055, 0.005630965, -0.039921742, 0.005773689, -0.056314994, 0.09639571, -0.053169042, -0.0, -0.00041835793, 0.09174527, -0.0, 0.09967644, 0.019985158, 0.09466212, 0.08215427, -0.0, 0.0073921434, -0.088452026, -0.0, 0.14444992, -0.010792832, -0.0, -0.0, 0.07706417, -0.0, 0.019659292, -0.0, 0.14855862], "split_indices": [43, 89, 113, 53, 53, 24, 117, 124, 44, 109, 150, 8, 135, 70, 80, 129, 73, 0, 61, 69, 51, 181, 53, 66, 97, 89, 0, 69, 169, 56, 39, 0, 0, 0, 0, 0, 0, 0, 0, 0, 0, 0, 0, 0, 0, 0, 0, 0, 0, 0, 0, 0, 0, 0, 0, 0, 0, 0, 0, 0, 0], "split_type": [0, 0, 0, 0, 0, 0, 0, 0, 0, 0, 0, 0, 0, 0, 0, 0, 0, 0, 0, 0, 0, 0, 0, 0, 0, 0, 0, 0, 0, 0, 0, 0, 0, 0, 0, 0, 0, 0, 0, 0, 0, 0, 0, 0, 0, 0, 0, 0, 0, 0, 0, 0, 0, 0, 0, 0, 0, 0, 0, 0, 0], "sum_hessian": [27317.336, 25053.94, 2263.397, 13745.8125, 11308.127, 279.667, 1983.73, 3575.3704, 10170.442, 4039.2703, 7268.8564, 163.62245, 116.04453, 207.2573, 1776.4728, 2869.1758, 706.19446, 9523.518, 646.92444, 3576.5781, 462.6922, 1178.5491, 6090.307, 39.308617, 124.313835, 94.87616, 21.168373, 41.52483, 165.73247, 26.66924, 1749.8035, 938.59186, 1930.584, 385.66434, 320.53012, 7318.698, 2204.8198, 163.2736, 483.65082, 1588.4905, 1988.0876, 106.4198, 356.2724, 141.6668, 1036.8822, 5603.8506, 486.45685, 35.722534, 3.586084, 35.646492, 88.667336, 15.529211, 79.34695, 33.31384, 8.21099, 19.977015, 145.75545, 7.7021904, 18.96705, 11.011689, 1738.7917], "tree_param": {"num_deleted": "0", "num_feature": "182", "num_nodes": "61", "size_leaf_vector": "1"}}, {"base_weights": [-0.0, -0.10051698, 0.13399142, -0.17994043, -0.043235715, 0.06056117, 0.3704876, -0.22584218, -0.043053128, -0.06854893, 0.07137506, 0.027423162, 0.28409666, 0.1096745, 0.44680575, -0.23823144, 0.029419325, -0.14058731, 0.028504865, -0.0022292517, -0.15608919, -0.12608556, 0.1642433, -0.016745405, 0.17172337, 0.08469728, 0.40060365, 0.26545545, -0.068058565, 0.45880726, -0.0, -0.07638493, -0.0017382037, 0.09237835, -0.012032394, 0.001118238, -0.06109373, -0.009411064, 0.04298091, -0.015223837, 0.054325644, -0.05389905, 0.0132108005, 0.02966092, -0.054827895, 0.14440763, 0.03047559, -0.05230597, 0.0039381813, 0.010855176, 0.102085285, -0.029028052, 0.044122424, -0.0, 0.12498823, 0.10897168, -0.0, -0.10054571, 0.028015386, -0.0, 0.13894603, -0.0, 0.031395834], "categories": [], "categories_nodes": [], "categories_segments": [], "categories_sizes": [], "default_left": [0, 0, 0, 0, 0, 0, 0, 0, 0, 0, 0, 0, 0, 0, 0, 0, 0, 0, 0, 0, 0, 0, 0, 0, 0, 0, 0, 0, 0, 0, 0, 0, 0, 0, 0, 0, 0, 0, 0, 0, 0, 0, 0, 0, 0, 0, 0, 0, 0, 0, 0, 0, 0, 0, 0, 0, 0, 0, 0, 0, 0, 0, 0], "id": 17, "left_children": [1, 3, 5, 7, 9, 11, 13, 15, 17, 19, 21, 23, 25, 27, 29, 31, 33, 35, 37, 39, 41, 43, 45, 47, 49, 51, 53, 55, 57, 59, 61, -1, -1, -1, -1, -1, -1, -1, -1, -1, -1, -1, -1, -1, -1, -1, -1, -1, -1, -1, -1, -1, -1, -1, -1, -1, -1, -1, -1, -1, -1, -1, -1], "loss_changes": [350.5904, 65.4254, 189.42693, 35.99797, 25.261854, 60.19199, 46.35852, 16.507004, 12.3091, 40.27986, 28.013966, 49.251812, 19.841751, 19.215393, 6.5444336, 14.089447, 6.0690074, 8.7110195, 7.0743885, 35.781414, 15.721123, 6.565539, 15.163033, 28.347034, 37.507957, 5.3334894, 4.460335, 12.995707, 13.719458, 5.4849243, 0.5396933, 0.0, 0.0, 0.0, 0.0, 0.0, 0.0, 0.0, 0.0, 0.0, 0.0, 0.0, 0.0, 0.0, 0.0, 0.0, 0.0, 0.0, 0.0, 0.0, 0.0, 0.0, 0.0, 0.0, 0.0, 0.0, 0.0, 0.0, 0.0, 0.0, 0.0, 0.0, 0.0], "parents": [2147483647, 0, 0, 1, 1, 2, 2, 3, 3, 4, 4, 5, 5, 6, 6, 7, 7, 8, 8, 9, 9, 10, 10, 11, 11, 12, 12, 13, 13, 14, 14, 15, 15, 16, 16, 17, 17, 18, 18, 19, 19, 20, 20, 21, 21, 22, 22, 23, 23, 24, 24, 25, 25, 26, 26, 27, 27, 28, 28, 29, 29, 30, 30], "right_children": [2, 4, 6, 8, 10, 12, 14, 16, 18, 20, 22, 24, 26, 28, 30, 32, 34, 36, 38, 40, 42, 44, 46, 48, 50, 52, 54, 56, 58, 60, 62, -1, -1, -1, -1, -1, -1, -1, -1, -1, -1, -1, -1, -1, -1, -1, -1, -1, -1, -1, -1, -1, -1, -1, -1, -1, -1, -1, -1, -1, -1, -1, -1], "split_conditions": [0.78488547, 0.0941048, 0.2792169, 0.1313468, 6.6292176, 4.4266624, 0.4713481, 0.73495704, 8.739503, 0.64836836, 0.56429255, 12.85056, 2.4076092, 1.6465275, 2.961922, 3.73822, 2.5201461, 0.14975083, 0.1218408, 0.07640356, 2.7889564, 0.043515503, 0.10216552, 0.2031902, 2.0637383, 1.0041009, 92.073296, 2.2812662, 0.8723268, 6.483408, 4.0983806, -0.07638493, -0.0017382037, 0.09237835, -0.012032394, 0.001118238, -0.06109373, -0.009411064, 0.04298091, -0.015223837, 0.054325644, -0.05389905, 0.0132108005, 0.02966092, -0.054827895, 0.14440763, 0.03047559, -0.05230597, 0.0039381813, 0.010855176, 0.102085285, -0.029028052, 0.044122424, -0.0, 0.12498823, 0.10897168, -0.0, -0.10054571, 0.028015386, -0.0, 0.13894603, -0.0, 0.031395834], "split_indices": [89, 130, 53, 53, 116, 44, 33, 144, 0, 83, 15, 141, 38, 101, 100, 69, 135, 5, 36, 78, 178, 26, 7, 169, 36, 51, 75, 117, 61, 0, 66, 0, 0, 0, 0, 0, 0, 0, 0, 0, 0, 0, 0, 0, 0, 0, 0, 0, 0, 0, 0, 0, 0, 0, 0, 0, 0, 0, 0, 0, 0, 0, 0], "split_type": [0, 0, 0, 0, 0, 0, 0, 0, 0, 0, 0, 0, 0, 0, 0, 0, 0, 0, 0, 0, 0, 0, 0, 0, 0, 0, 0, 0, 0, 0, 0, 0, 0, 0, 0, 0, 0, 0, 0, 0, 0, 0, 0, 0, 0, 0, 0, 0, 0, 0, 0, 0, 0, 0, 0, 0, 0, 0, 0, 0, 0, 0, 0], "sum_hessian": [26028.566, 14872.124, 11156.442, 6157.5884, 8714.535, 8546.393, 2610.0496, 4556.109, 1601.4797, 7209.812, 1504.7229, 7482.9424, 1063.4502, 621.0642, 1988.9854, 4382.637, 173.47162, 736.4601, 865.0196, 4167.6772, 3042.1345, 446.7615, 1057.9614, 5676.8965, 1806.0461, 424.49475, 638.9554, 360.69223, 260.37195, 1917.328, 71.65737, 4053.7612, 328.87613, 62.702206, 110.76941, 176.00801, 560.4521, 511.66553, 353.3541, 3339.1877, 828.48975, 2766.3372, 275.7973, 54.247185, 392.51434, 147.11679, 910.84467, 957.11066, 4719.7856, 1034.6371, 771.40906, 67.44122, 357.05353, 22.583178, 616.3722, 290.66437, 70.02784, 121.02006, 139.3519, 10.264042, 1907.064, 23.380228, 48.27714], "tree_param": {"num_deleted": "0", "num_feature": "182", "num_nodes": "63", "size_leaf_vector": "1"}}, {"base_weights": [-0.0, -0.029783867, 0.39009634, -0.14998758, 0.020699821, 0.22752443, 0.49464032, -0.038141124, -0.20652312, -0.0, 0.21224253, 0.010556744, 0.38255772, -0.0, 0.50287294, -0.05360745, 0.2401786, -0.3133876, -0.14628716, -0.023714267, 0.14177737, -0.15503937, 0.24317999, -0.1792498, 0.122153714, -0.0, 0.40227953, -0.0, 0.5075547, -0.019736985, 0.10815453, -0.0, 0.15942794, -0.09713129, -0.0, -0.048809703, 0.014927278, -0.012840496, 0.0489366, 0.07363338, -0.009885884, -0.085458554, -0.0, 0.10864409, 0.039025422, -0.0, -0.076090455, -0.0, 0.069666974, -0.0, 0.12475076, -0.0, 0.15261063], "categories": [], "categories_nodes": [], "categories_segments": [], "categories_sizes": [], "default_left": [0, 0, 0, 0, 0, 0, 0, 0, 0, 0, 0, 0, 0, 0, 0, 0, 0, 0, 0, 0, 0, 0, 0, 0, 0, 0, 0, 0, 0, 0, 0, 0, 0, 0, 0, 0, 0, 0, 0, 0, 0, 0, 0, 0, 0, 0, 0, 0, 0, 0, 0, 0, 0], "id": 18, "left_children": [1, 3, 5, 7, 9, 11, 13, 15, 17, 19, 21, 23, 25, -1, 27, 29, 31, 33, 35, 37, 39, 41, 43, 45, 47, -1, 49, -1, 51, -1, -1, -1, -1, -1, -1, -1, -1, -1, -1, -1, -1, -1, -1, -1, -1, -1, -1, -1, -1, -1, -1, -1, -1], "loss_changes": [288.8201, 141.44495, 22.63498, 41.109802, 65.977776, 20.600357, 4.2296906, 8.365446, 24.43164, 48.096497, 19.313194, 6.481144, 4.6302795, 0.0, 2.7467651, 8.597844, 5.732026, 5.427124, 10.629765, 43.55324, 39.115948, 3.884058, 15.461922, 2.1885989, 3.090187, 0.0, 3.446148, 0.0, 0.2441101, 0.0, 0.0, 0.0, 0.0, 0.0, 0.0, 0.0, 0.0, 0.0, 0.0, 0.0, 0.0, 0.0, 0.0, 0.0, 0.0, 0.0, 0.0, 0.0, 0.0, 0.0, 0.0, 0.0, 0.0], "parents": [2147483647, 0, 0, 1, 1, 2, 2, 3, 3, 4, 4, 5, 5, 6, 6, 7, 7, 8, 8, 9, 9, 10, 10, 11, 11, 12, 12, 14, 14, 15, 15, 16, 16, 17, 17, 18, 18, 19, 19, 20, 20, 21, 21, 22, 22, 23, 23, 24, 24, 26, 26, 28, 28], "right_children": [2, 4, 6, 8, 10, 12, 14, 16, 18, 20, 22, 24, 26, -1, 28, 30, 32, 34, 36, 38, 40, 42, 44, 46, 48, -1, 50, -1, 52, -1, -1, -1, -1, -1, -1, -1, -1, -1, -1, -1, -1, -1, -1, -1, -1, -1, -1, -1, -1, -1, -1, -1, -1], "split_conditions": [23.469345, 0.30732673, 0.23123772, 1.8052511, 4.4266624, 9.986214, 0.38728583, 2.01811, 0.032905415, 0.27154967, 0.42505535, 1.9731358, 0.7818078, -0.0, 0.24086371, 1.5192536, 0.8294266, 4.507298, 1.0195264, 15.396822, 1.6252856, 4.75319, 99.63502, 274.72104, 1.0, -0.0, 1.7873683, -0.0, 0.06624315, -0.019736985, 0.10815453, -0.0, 0.15942794, -0.09713129, -0.0, -0.048809703, 0.014927278, -0.012840496, 0.0489366, 0.07363338, -0.009885884, -0.085458554, -0.0, 0.10864409, 0.039025422, -0.0, -0.076090455, -0.0, 0.069666974, -0.0, 0.12475076, -0.0, 0.15261063], "split_indices": [43, 89, 53, 42, 44, 24, 49, 124, 135, 53, 15, 60, 15, 0, 18, 30, 51, 69, 176, 141, 64, 99, 148, 149, 52, 0, 48, 0, 5, 0, 0, 0, 0, 0, 0, 0, 0, 0, 0, 0, 0, 0, 0, 0, 0, 0, 0, 0, 0, 0, 0, 0, 0], "split_type": [0, 0, 0, 0, 0, 0, 0, 0, 0, 0, 0, 0, 0, 0, 0, 0, 0, 0, 0, 0, 0, 0, 0, 0, 0, 0, 0, 0, 0, 0, 0, 0, 0, 0, 0, 0, 0, 0, 0, 0, 0, 0, 0, 0, 0, 0, 0, 0, 0, 0, 0, 0, 0], "sum_hessian": [24856.475, 23094.158, 1762.316, 6888.4917, 16205.667, 728.41644, 1033.8995, 2372.8145, 4515.6772, 14587.863, 1617.8032, 330.89804, 397.5184, 16.881567, 1017.018, 2282.7012, 90.113235, 1566.4413, 2949.2358, 12547.164, 2040.6991, 100.262886, 1517.5404, 89.11497, 241.78307, 9.50476, 388.01364, 8.0318775, 1008.98615, 2241.7432, 40.958145, 52.205956, 37.907276, 1519.2894, 47.151848, 2768.6387, 180.59718, 11433.409, 1113.7551, 1316.4674, 724.2318, 76.86106, 23.401821, 695.4065, 822.1339, 11.085164, 78.02981, 118.303635, 123.47942, 5.021213, 382.99243, 3.6074688, 1005.37866], "tree_param": {"num_deleted": "0", "num_feature": "182", "num_nodes": "53", "size_leaf_vector": "1"}}, {"base_weights": [-0.0, -0.066927336, 0.15671596, -0.18755339, -0.03033179, 0.0962599, 0.40395364, -0.2544613, -0.08888203, -0.121735156, 0.003635986, -0.13488102, 0.12726043, 0.17392644, 0.49559468, -0.29154164, -0.018368807, -0.15984817, -0.0, -0.20371936, -0.047806773, -0.004091148, 0.3796402, 0.046641823, -0.31962836, 0.01109418, 0.18900204, 0.020039264, 0.40645644, -0.0, 0.5077878, -0.022533469, -0.10043555, -0.051913273, 0.02948931, -0.05648841, 0.06604893, 0.032212637, -0.025002386, -0.07045474, 0.0038177143, -0.041631516, -0.0, 0.006878382, -0.032924574, 0.1290502, -0.0, -0.034678888, 0.050929613, -0.11098809, -0.0, -0.03086122, 0.026021928, -0.0012936214, 0.07679752, -0.0031548482, 0.0706714, -0.0, 0.1364759, 0.018818999, -0.0, -0.0, 0.1528201], "categories": [], "categories_nodes": [], "categories_segments": [], "categories_sizes": [], "default_left": [0, 0, 0, 0, 0, 0, 0, 0, 0, 0, 0, 0, 0, 0, 0, 0, 0, 0, 0, 0, 0, 0, 0, 0, 0, 0, 0, 0, 0, 0, 0, 0, 0, 0, 0, 0, 0, 0, 0, 0, 0, 0, 0, 0, 0, 0, 0, 0, 0, 0, 0, 0, 0, 0, 0, 0, 0, 0, 0, 0, 0, 0, 0], "id": 19, "left_children": [1, 3, 5, 7, 9, 11, 13, 15, 17, 19, 21, 23, 25, 27, 29, 31, 33, 35, 37, 39, 41, 43, 45, 47, 49, 51, 53, 55, 57, 59, 61, -1, -1, -1, -1, -1, -1, -1, -1, -1, -1, -1, -1, -1, -1, -1, -1, -1, -1, -1, -1, -1, -1, -1, -1, -1, -1, -1, -1, -1, -1, -1, -1], "loss_changes": [251.41043, 71.9624, 102.177246, 21.93399, 41.393867, 41.48383, 22.237045, 16.425583, 9.364304, 19.227371, 30.963234, 24.474632, 34.939064, 10.928032, 2.6003418, 13.577789, 6.908831, 9.085527, 6.603695, 13.256172, 8.807941, 26.992603, 3.2294197, 6.5619464, 6.907089, 15.751299, 45.342392, 4.113902, 4.069826, 0.10053331, 0.74272156, 0.0, 0.0, 0.0, 0.0, 0.0, 0.0, 0.0, 0.0, 0.0, 0.0, 0.0, 0.0, 0.0, 0.0, 0.0, 0.0, 0.0, 0.0, 0.0, 0.0, 0.0, 0.0, 0.0, 0.0, 0.0, 0.0, 0.0, 0.0, 0.0, 0.0, 0.0, 0.0], "parents": [2147483647, 0, 0, 1, 1, 2, 2, 3, 3, 4, 4, 5, 5, 6, 6, 7, 7, 8, 8, 9, 9, 10, 10, 11, 11, 12, 12, 13, 13, 14, 14, 15, 15, 16, 16, 17, 17, 18, 18, 19, 19, 20, 20, 21, 21, 22, 22, 23, 23, 24, 24, 25, 25, 26, 26, 27, 27, 28, 28, 29, 29, 30, 30], "right_children": [2, 4, 6, 8, 10, 12, 14, 16, 18, 20, 22, 24, 26, 28, 30, 32, 34, 36, 38, 40, 42, 44, 46, 48, 50, 52, 54, 56, 58, 60, 62, -1, -1, -1, -1, -1, -1, -1, -1, -1, -1, -1, -1, -1, -1, -1, -1, -1, -1, -1, -1, -1, -1, -1, -1, -1, -1, -1, -1, -1, -1, -1, -1], "split_conditions": [2.597126, 0.034339234, 0.26270866, 0.17597029, 8.699005, 2.731584, 1.0678436, 4.009744, 2.5614057, 0.062030487, 162.84201, 245.93217, 0.15563554, 0.3375052, 0.25848442, 2.5966036, 1.6958991, 0.7823983, 0.06092761, 2.4791746, 0.048486974, 0.6177738, 3.4641004, 0.6575664, 29.896286, 0.96467674, 1.4195992, 35.92037, 0.15669385, 1.5192585, 0.15621217, -0.022533469, -0.10043555, -0.051913273, 0.02948931, -0.05648841, 0.06604893, 0.032212637, -0.025002386, -0.07045474, 0.0038177143, -0.041631516, -0.0, 0.006878382, -0.032924574, 0.1290502, -0.0, -0.034678888, 0.050929613, -0.11098809, -0.0, -0.03086122, 0.026021928, -0.0012936214, 0.07679752, -0.0031548482, 0.0706714, -0.0, 0.1364759, 0.018818999, -0.0, -0.0, 0.1528201], "split_indices": [43, 53, 30, 153, 0, 10, 60, 69, 69, 13, 90, 75, 58, 78, 85, 24, 51, 47, 87, 63, 30, 119, 12, 80, 129, 15, 61, 21, 48, 14, 88, 0, 0, 0, 0, 0, 0, 0, 0, 0, 0, 0, 0, 0, 0, 0, 0, 0, 0, 0, 0, 0, 0, 0, 0, 0, 0, 0, 0, 0, 0, 0, 0], "split_type": [0, 0, 0, 0, 0, 0, 0, 0, 0, 0, 0, 0, 0, 0, 0, 0, 0, 0, 0, 0, 0, 0, 0, 0, 0, 0, 0, 0, 0, 0, 0, 0, 0, 0, 0, 0, 0, 0, 0, 0, 0, 0, 0, 0, 0, 0, 0, 0, 0, 0, 0, 0, 0, 0, 0, 0, 0, 0, 0, 0, 0, 0, 0], "sum_hessian": [23967.92, 16795.7, 7172.2217, 3844.871, 12950.828, 5796.631, 1375.591, 2229.886, 1614.9851, 3587.9314, 9362.896, 646.959, 5149.672, 423.80984, 951.78107, 1890.3925, 339.49353, 865.12, 749.86505, 1636.3026, 1951.6288, 9149.267, 213.62978, 299.4021, 347.5569, 1843.7737, 3305.898, 281.56375, 142.2461, 35.12273, 916.6583, 353.77316, 1536.6193, 182.61514, 156.87837, 829.82153, 35.298477, 300.37402, 449.49106, 1470.8734, 165.42926, 688.11285, 1263.516, 7211.304, 1937.9626, 183.62263, 30.007149, 94.16463, 205.23747, 309.63254, 37.924347, 682.6948, 1161.0789, 812.60333, 2493.2947, 206.80057, 74.763176, 9.22914, 133.01695, 24.548153, 10.574577, 2.938108, 913.7202], "tree_param": {"num_deleted": "0", "num_feature": "182", "num_nodes": "63", "size_leaf_vector": "1"}}, {"base_weights": [-0.0, -0.07231527, 0.12333463, -0.17918667, -0.040110566, 0.07483873, 0.3845859, -0.02180438, -0.23046432, -0.054525357, 0.14442371, 0.05215788, 0.38963008, 0.11970749, 0.45812976, -0.0891112, 0.15786919, -0.24024321, 0.015829721, -0.0118986005, -0.10665186, -0.0675475, 0.2294653, 0.02070819, 0.18999717, -0.0, 0.41831574, -0.0, 0.30301493, -0.0, 0.495457, 0.019800266, -0.046925943, 0.09675301, -0.0, -0.075305074, -0.0, 0.07467517, -0.0, -0.017932614, 0.052629087, -0.049490158, 0.00787631, -0.06308182, 0.02489122, -0.0, 0.07914669, -0.027152224, 0.01898893, -0.008810762, 0.07189084, -0.0, 0.13457538, 0.0132415425, -0.023997448, -0.0, 0.100133784, -0.00021952007, 0.0450501, -0.0, 0.15019463], "categories": [], "categories_nodes": [], "categories_segments": [], "categories_sizes": [], "default_left": [0, 0, 0, 0, 0, 0, 0, 0, 0, 0, 0, 0, 0, 0, 0, 0, 0, 0, 0, 0, 0, 0, 0, 0, 0, 0, 0, 0, 0, 0, 0, 0, 0, 0, 0, 0, 0, 0, 0, 0, 0, 0, 0, 0, 0, 0, 0, 0, 0, 0, 0, 0, 0, 0, 0, 0, 0, 0, 0, 0, 0], "id": 20, "left_children": [1, 3, 5, 7, 9, 11, 13, 15, 17, 19, 21, 23, 25, 27, 29, 31, 33, 35, 37, 39, 41, 43, 45, 47, 49, -1, 51, 53, 55, 57, 59, -1, -1, -1, -1, -1, -1, -1, -1, -1, -1, -1, -1, -1, -1, -1, -1, -1, -1, -1, -1, -1, -1, -1, -1, -1, -1, -1, -1, -1, -1], "loss_changes": [205.67134, 47.831497, 103.36424, 24.055016, 29.017405, 47.127716, 19.528778, 9.708625, 8.116028, 22.099695, 15.418883, 27.227318, 6.4228287, 8.371326, 12.459702, 7.8644137, 8.072006, 5.694397, 2.1022394, 51.518463, 37.1134, 5.287254, 6.1769485, 26.119019, 15.155861, 0.0, 6.7830276, 0.795959, 1.6524496, 1.353994, 2.9310913, 0.0, 0.0, 0.0, 0.0, 0.0, 0.0, 0.0, 0.0, 0.0, 0.0, 0.0, 0.0, 0.0, 0.0, 0.0, 0.0, 0.0, 0.0, 0.0, 0.0, 0.0, 0.0, 0.0, 0.0, 0.0, 0.0, 0.0, 0.0, 0.0, 0.0], "parents": [2147483647, 0, 0, 1, 1, 2, 2, 3, 3, 4, 4, 5, 5, 6, 6, 7, 7, 8, 8, 9, 9, 10, 10, 11, 11, 12, 12, 13, 13, 14, 14, 15, 15, 16, 16, 17, 17, 18, 18, 19, 19, 20, 20, 21, 21, 22, 22, 23, 23, 24, 24, 26, 26, 27, 27, 28, 28, 29, 29, 30, 30], "right_children": [2, 4, 6, 8, 10, 12, 14, 16, 18, 20, 22, 24, 26, 28, 30, 32, 34, 36, 38, 40, 42, 44, 46, 48, 50, -1, 52, 54, 56, 58, 60, -1, -1, -1, -1, -1, -1, -1, -1, -1, -1, -1, -1, -1, -1, -1, -1, -1, -1, -1, -1, -1, -1, -1, -1, -1, -1, -1, -1, -1, -1], "split_conditions": [1.9384854, 0.063465945, 0.19944084, 19.04956, 3.7581053, 14.400781, 0.18947776, 0.16170596, 0.24104828, 0.64836836, 0.33408645, 6.427355, 0.62610054, 0.7724757, 0.45149654, 0.028877042, 1.0990819, 0.8097843, 0.019268306, 0.14179969, 2.6758163, 0.39584327, 1.1658094, 0.65307176, 1.2048812, -0.0, 0.14471799, 0.75724536, 0.3235767, 0.57055914, 0.16217388, 0.019800266, -0.046925943, 0.09675301, -0.0, -0.075305074, -0.0, 0.07467517, -0.0, -0.017932614, 0.052629087, -0.049490158, 0.00787631, -0.06308182, 0.02489122, -0.0, 0.07914669, -0.027152224, 0.01898893, -0.008810762, 0.07189084, -0.0, 0.13457538, 0.0132415425, -0.023997448, -0.0, 0.100133784, -0.00021952007, 0.0450501, -0.0, 0.15019463], "split_indices": [43, 130, 78, 73, 44, 24, 30, 18, 90, 83, 33, 169, 79, 36, 15, 25, 134, 133, 121, 53, 38, 17, 66, 159, 61, 0, 153, 146, 144, 53, 127, 0, 0, 0, 0, 0, 0, 0, 0, 0, 0, 0, 0, 0, 0, 0, 0, 0, 0, 0, 0, 0, 0, 0, 0, 0, 0, 0, 0, 0, 0], "split_type": [0, 0, 0, 0, 0, 0, 0, 0, 0, 0, 0, 0, 0, 0, 0, 0, 0, 0, 0, 0, 0, 0, 0, 0, 0, 0, 0, 0, 0, 0, 0, 0, 0, 0, 0, 0, 0, 0, 0, 0, 0, 0, 0, 0, 0, 0, 0, 0, 0, 0, 0, 0, 0, 0, 0, 0, 0, 0, 0, 0, 0], "sum_hessian": [23057.969, 14535.644, 8522.325, 3292.9385, 11242.705, 7221.3877, 1300.9379, 857.5063, 2435.4321, 10479.036, 763.66907, 6766.772, 454.61588, 312.83185, 988.1061, 664.67535, 192.83093, 2381.5032, 53.929077, 5871.033, 4608.003, 185.04636, 578.62274, 5569.6807, 1197.0912, 23.64014, 430.97574, 173.67967, 139.15219, 92.66538, 895.4407, 156.18904, 508.4863, 123.05016, 69.78077, 2271.7502, 109.75281, 33.151234, 20.777842, 4719.026, 1152.0072, 3254.8643, 1353.1384, 128.8796, 56.166775, 52.389515, 526.2332, 1476.9135, 4092.767, 183.7979, 1013.2932, 22.621315, 408.35443, 72.73477, 100.9449, 9.81261, 129.33958, 33.622456, 59.042927, 6.801924, 888.63873], "tree_param": {"num_deleted": "0", "num_feature": "182", "num_nodes": "61", "size_leaf_vector": "1"}}, {"base_weights": [-0.0, -0.07743827, 0.09645173, -0.09872829, 0.06480257, 0.06676332, 0.4428017, -0.20806794, -0.061712682, 0.21356113, 0.010460025, 0.022267465, 0.1786932, 0.05975827, 0.4899678, -0.22095726, 0.15815006, -0.114906244, -0.014935475, 0.025478879, 0.3453317, -0.10112635, 0.07103398, -0.18385684, 0.04611776, 0.31994277, 0.09981969, 0.2082508, -0.0, -0.0, 0.4981303, -0.0, -0.07314842, -0.0, 0.08837101, -0.045207232, -0.0, 0.022069331, -0.029055234, -0.0, 0.046040982, -0.0, 0.12774676, -0.079967104, 0.020025007, 0.04286401, -0.0, -0.06783413, 0.03295903, 0.0017132045, 0.04807735, -0.0, 0.10935036, -0.0, 0.05394539, 0.08517809, -0.0, -0.032718703, -0.0, 0.15077394, -0.0], "categories": [], "categories_nodes": [], "categories_segments": [], "categories_sizes": [], "default_left": [0, 0, 0, 0, 0, 0, 0, 0, 0, 0, 0, 0, 0, 0, 0, 0, 0, 0, 0, 0, 0, 0, 0, 0, 0, 0, 0, 0, 0, 0, 0, 0, 0, 0, 0, 0, 0, 0, 0, 0, 0, 0, 0, 0, 0, 0, 0, 0, 0, 0, 0, 0, 0, 0, 0, 0, 0, 0, 0, 0, 0], "id": 21, "left_children": [1, 3, 5, 7, 9, 11, 13, 15, 17, 19, 21, 23, 25, 27, 29, 31, 33, 35, 37, 39, 41, 43, 45, 47, 49, 51, 53, 55, 57, -1, 59, -1, -1, -1, -1, -1, -1, -1, -1, -1, -1, -1, -1, -1, -1, -1, -1, -1, -1, -1, -1, -1, -1, -1, -1, -1, -1, -1, -1, -1, -1], "loss_changes": [166.20898, 37.724396, 96.7743, 40.990623, 10.258503, 43.583576, 8.125, 13.22924, 18.94558, 5.3160667, 7.701918, 31.156706, 24.070251, 2.1127017, 1.686264, 15.298256, 2.5859885, 16.150936, 32.359306, 2.1058793, 6.23864, 11.973055, 4.0370755, 9.166378, 25.893005, 15.150764, 13.189539, 0.6363244, 0.22978845, 0.0, 0.5838318, 0.0, 0.0, 0.0, 0.0, 0.0, 0.0, 0.0, 0.0, 0.0, 0.0, 0.0, 0.0, 0.0, 0.0, 0.0, 0.0, 0.0, 0.0, 0.0, 0.0, 0.0, 0.0, 0.0, 0.0, 0.0, 0.0, 0.0, 0.0, 0.0, 0.0], "parents": [2147483647, 0, 0, 1, 1, 2, 2, 3, 3, 4, 4, 5, 5, 6, 6, 7, 7, 8, 8, 9, 9, 10, 10, 11, 11, 12, 12, 13, 13, 14, 14, 15, 15, 16, 16, 17, 17, 18, 18, 19, 19, 20, 20, 21, 21, 22, 22, 23, 23, 24, 24, 25, 25, 26, 26, 27, 27, 28, 28, 30, 30], "right_children": [2, 4, 6, 8, 10, 12, 14, 16, 18, 20, 22, 24, 26, 28, 30, 32, 34, 36, 38, 40, 42, 44, 46, 48, 50, 52, 54, 56, 58, -1, 60, -1, -1, -1, -1, -1, -1, -1, -1, -1, -1, -1, -1, -1, -1, -1, -1, -1, -1, -1, -1, -1, -1, -1, -1, -1, -1, -1, -1, -1, -1], "split_conditions": [1.5107783, 3.0118208, 48.89433, 0.10289931, 21.24286, 0.04379571, 0.18771558, 3.9453344, 0.07389236, 0.17698753, 0.053666312, 0.075095676, 0.26312193, 29.32496, 0.8316608, 0.062471695, 879.66846, 3.2241423, 0.8795049, 0.6089764, 0.16856422, 84.90717, 0.022880586, 5.9048553, 12.924776, 0.099748105, 5.2096624, 29.376387, 3488.4495, -0.0, 2.961922, -0.0, -0.07314842, -0.0, 0.08837101, -0.045207232, -0.0, 0.022069331, -0.029055234, -0.0, 0.046040982, -0.0, 0.12774676, -0.079967104, 0.020025007, 0.04286401, -0.0, -0.06783413, 0.03295903, 0.0017132045, 0.04807735, -0.0, 0.10935036, -0.0, 0.05394539, 0.08517809, -0.0, -0.032718703, -0.0, 0.15077394, -0.0], "split_indices": [43, 181, 43, 146, 171, 17, 58, 44, 53, 94, 90, 63, 7, 134, 72, 39, 19, 69, 31, 176, 36, 11, 121, 69, 141, 36, 24, 130, 48, 0, 100, 0, 0, 0, 0, 0, 0, 0, 0, 0, 0, 0, 0, 0, 0, 0, 0, 0, 0, 0, 0, 0, 0, 0, 0, 0, 0, 0, 0, 0, 0], "split_type": [0, 0, 0, 0, 0, 0, 0, 0, 0, 0, 0, 0, 0, 0, 0, 0, 0, 0, 0, 0, 0, 0, 0, 0, 0, 0, 0, 0, 0, 0, 0, 0, 0, 0, 0, 0, 0, 0, 0, 0, 0, 0, 0, 0, 0, 0, 0, 0, 0, 0, 0, 0, 0, 0, 0, 0, 0, 0, 0, 0, 0], "sum_hessian": [22251.014, 12342.101, 9908.914, 10796.703, 1545.397, 9154.292, 754.6219, 2661.1653, 8135.538, 363.47214, 1181.9248, 6615.1074, 2539.1846, 106.22607, 648.3958, 2597.4487, 63.71643, 3705.9797, 4429.5586, 181.49654, 181.97559, 357.53476, 824.39, 641.86334, 5973.244, 863.30493, 1675.8796, 56.544468, 49.6816, 14.312231, 634.0836, 207.28105, 2390.1677, 16.25997, 47.456463, 2865.6853, 840.2945, 2070.572, 2358.9866, 88.05636, 93.44017, 28.230005, 153.74559, 209.78543, 147.74933, 400.76193, 423.62808, 591.0993, 50.764008, 4476.9917, 1496.2523, 84.363235, 778.9417, 752.235, 923.6447, 37.850765, 18.693703, 18.31873, 31.36287, 625.1996, 8.884003], "tree_param": {"num_deleted": "0", "num_feature": "182", "num_nodes": "61", "size_leaf_vector": "1"}}, {"base_weights": [-0.0, -0.06080851, 0.10678299, -0.09483423, 0.024439774, 0.065920874, 0.35620856, -0.12074585, 0.025687004, -0.060242955, 0.09918474, 0.047196306, 0.3625469, 0.16524674, 0.47071606, -0.19526507, -0.06850732, 0.21578465, -0.003278262, 0.14266598, -0.14013937, 0.1780137, -0.0, -0.08167075, 0.078467175, -0.0, 0.39100078, -0.02075616, 0.26266736, -0.0, 0.47581092, -0.013502527, -0.066200815, -0.038736872, -0.002219745, -0.0, 0.08096762, -0.013837556, 0.056500863, 0.0077641774, 0.10702978, -0.057082076, 0.004562286, -0.0, 0.0719445, -0.050924428, 0.025132133, 0.025092626, -0.032521993, -0.07408961, 0.02737528, -0.0, 0.1266615, -0.043787885, -0.0, 0.08799903, -0.0, -0.0, 0.14343698], "categories": [], "categories_nodes": [], "categories_segments": [], "categories_sizes": [], "default_left": [0, 0, 0, 0, 0, 0, 0, 0, 0, 0, 0, 0, 0, 0, 0, 0, 0, 0, 0, 0, 0, 0, 0, 0, 0, 0, 0, 0, 0, 0, 0, 0, 0, 0, 0, 0, 0, 0, 0, 0, 0, 0, 0, 0, 0, 0, 0, 0, 0, 0, 0, 0, 0, 0, 0, 0, 0, 0, 0], "id": 22, "left_children": [1, 3, 5, 7, 9, 11, 13, 15, 17, 19, 21, 23, 25, 27, 29, 31, 33, 35, 37, 39, 41, 43, 45, 47, 49, -1, 51, 53, 55, -1, 57, -1, -1, -1, -1, -1, -1, -1, -1, -1, -1, -1, -1, -1, -1, -1, -1, -1, -1, -1, -1, -1, -1, -1, -1, -1, -1, -1, -1], "loss_changes": [139.84218, 40.509167, 75.39791, 31.844246, 24.647396, 33.37576, 16.856644, 29.307579, 11.392087, 28.1097, 16.581121, 25.69238, 4.9184, 10.281744, 0.9960022, 9.944847, 16.80925, 4.4908676, 10.209589, 7.5430593, 11.723679, 12.759338, 13.247654, 5.4909863, 20.093288, 0.0, 5.2402267, 1.6137657, 4.2124195, 0.0, 0.83480835, 0.0, 0.0, 0.0, 0.0, 0.0, 0.0, 0.0, 0.0, 0.0, 0.0, 0.0, 0.0, 0.0, 0.0, 0.0, 0.0, 0.0, 0.0, 0.0, 0.0, 0.0, 0.0, 0.0, 0.0, 0.0, 