{"model": "linear", "weights": [0.002061416705462087, -0.0001782800773555155, 0.004024088089931406, 3.989161414013154e-05, -0.0011144990029989439, -1.8931202795778728e-05, 0.00015678604660370675, 6.038670968842666e-06, 1.610709917750261e-05, 0.00013405830494962227, -3.420483924781232e-07, -2.7828310973821348e-05, 0.000244380963061447, -2.7689118277202074e-05, -4.3787092829230834e-07, 4.5506257992111074e-05, -4.4972461304818335e-05, -0.003080534746075036, -3.640985055373977e-05, -0.0009496305448913464, -0.00020887670767358145, -2.9527085947267563e-05, 0.00183902879174289, -0.0006402672981906883, -7.364293086273488e-07, 2.2575174470477485e-15, -1.9315808437658686e-05, -1.9315808435884636e-05, 1.4915255052050447e-05, -0.47951320872106357, -1.8931202801483786e-05, 0.0023493108093132747, -4.968202878010556e-06, -4.378709595173539e-07, 2.526301138951863e-06, 7.574385997906715e-05, 0.0002373494659749544, -6.329515188380128e-06, -2.12853385952417e-06, -2.347512604743378e-05, 8.996320147716187e-07, -2.985434083108585e-17, -0.005914298875529291, 1.2943823635994943e-05, 0.0003237947938804906, -1.0044333687532171e-05, -0.0042502095520362635, 9.68573084254519e-06, -2.0611005960606208e-05, -8.654342704085204e-05, 0.00042873697658067905, 2.1196857403723715e-05, 0.00013296648618407148, -6.419333503626578e-07, 3.197568650637047e-05, 7.84863394619603e-05, 9.090834970328999e-07, -8.94799507755382e-09, 9.46116914344991e-06, -3.328726459943494e-06, -0.0003281455158663261, -1.5284099127287645e-05, -5.0346931482079744e-05, -0.00043320500990771656, 0.00023458132240337457, -2.0769263408434905e-06, 0.47950036397654205, -4.474391532324864e-05, 1.8283698254653994e-16, 0.00026371815958457854, -2.952708625919775e-05, -0.00020887681762785088, -0.0006002449953211222, -3.513778397616525e-05, 2.0265386625846745e-05, 1.1854824741775928e-05, 5.557257587492225e-06, -2.6386788014250357e-05, -0.0002350988013641391, 8.56122749011464e-05, -1.0257772182330051e-06, 0.0002501543720252567, 6.665237213990576e-06, 1.4348606635339106e-06, -0.00040635126193781193, -8.038739159021178e-05, -3.0016486102338705e-05, 3.7969748629559706e-05, -0.0006745377285217578, -3.516787822689998e-06, 0.00014982388139349762, 0.00012565552765415026, 0.003775122253144697, 0.00010191106059042396, -0.0004583910890262082, 4.8853177684543316e-05, -0.00042853489849309286, 0.0019562054264560588, -4.2722027772080505e-06, 4.870558254930635e-06, 9.3077323449294e-05, -0.0004288478140443783, 3.362188302124651e-05, 1.716577240952612e-16], "scale": [10140.539943522452, 10167.71999916096, 4110.816211922031, 5.720865135808337, 0.7869990139718835, 1.2611234295686164, 5.3131816655420545, 4.327960860341336, 238.27417713172204, 0.48044382949640846, 0.4885169611233239, 10.077907951487141, 0.14191435089513352, 22.71963640955836, 0.6364397517941597, 0.08199323041843305, 4123.263963202542, 2.164621584344692, 0.8662048025870851, 35.96140016475422, 0.36723169067093364, 868.5048888508767, 64.04918323177633, 47827.30742610575, 0.2261573231269946, 0.992565385308932, 1.601432716260378, 1.601432716260378, 871.8361771041352, 899.5732515964763, 1.261123429568616, 10140.49932626295, 0.7871009719888403, 0.6364397517941597, 0.21375083461180985, 0.3998970272255298, 0.14601883105541327, 0.09859629005797582, 1.4662094072160536, 868.4800892234279, 8.708497176862368, 0.37644606025452726, 4110.848512554627, 7.303358237366297, 2.656477160739345, 1.1681864888448454, 10140.214462295236, 2.2140630440843605, 0.08060055641253036, 53502.88413678559, 214.3195371648319, 0.0765136846367669, 85.07289438663827, 0.42992406377658965, 1.8466765957072728, 841.4849764931672, 9.042306375338375, 2279.4260227014133, 199.5796602185848, 0.22351434936122025, 0.7192865363769918, 2.43107446391819, 0.12232437491732263, 0.35912053623971346, 1.127203775778837, 0.42992406377658954, 899.6286752819528, 0.41524305767843556, 0.39248741072373394, 23379.244046614956, 868.5048888508767, 0.36723169067093364, 0.9386358757472293, 2.5177842244844952, 0.6084299906471051, 0.7074632003475282, 199.57784037656205, 1.7106710466758084, 1.5283808388405522, 1.7329180221000564, 10169.046489361092, 0.42363632227642195, 8.678771301320403, 0.8483633223693582, 0.7475731653346568, 3.477627568708073, 2.703992927097108, 2279.705619879433, 0.07636650353370997, 0.4054090912781989, 0.088015715360907, 155383.850037125, 2.644232767414133, 871.8586365301849, 33.00520700474345, 0.09108687608333699, 0.6349777491789669, 4110.831970396861, 1.948750417011882, 4123.577734449815, 0.4658563832822701, 0.04801670574719098, 0.19622567410861258, 0.047970882542836234], "bias": null, "scaled_weights": [2.0328470840242325e-07, -1.7533928685115952e-08, 9.789024569526854e-07, 6.9730037665876565e-06, -0.0014161377374213085, -1.5011379815736505e-05, 2.950888120775583e-05, 1.3952693112770918e-06, 6.759901291610937e-08, 0.00027903013155593963, -7.001771068328878e-07, -2.7613182326908314e-06, 0.0017220313627198307, -1.2187306952479667e-06, -6.880005955912172e-07, 0.0005550001842820517, -1.0907005155665124e-08, -0.0014231285358856955, -4.2033766662335324e-05, -2.6406940234270403e-05, -0.0005687872615023037, -3.3997604764591486e-08, 2.8712759459991113e-05, -1.3387065520673843e-08, -3.2562700090583407e-06, 2.2744269349521042e-15, -1.206157976013156e-05, -1.2061579759023772e-05, 1.7107864348543678e-08, -0.0005330452054572205, -1.5011379820260302e-05, 2.3167604806488948e-07, -6.312027369826443e-06, -6.880006446532777e-07, 1.1818906548551475e-05, 0.00018940840972131036, 0.001625471620745147, -6.419628146919418e-05, -1.4517256873734675e-06, -2.7030125778041294e-08, 1.0330508197922526e-07, -7.93057597970354e-17, -1.4387051377512172e-06, 1.7723112046962502e-06, 0.00012188879267095703, -8.598227922893076e-06, -4.1914395083456935e-07, 4.374640942778928e-06, -0.0002557179116123567, -1.6175469497979757e-09, 2.0004568050692454e-06, 0.0002770335464087433, 1.5629712277069943e-06, -1.4931319375884923e-06, 1.7315260604212e-05, 9.32712308056252e-08, 1.005366838168963e-07, -3.925547479250629e-12, 4.740547775804305e-08, -1.4892674539494367e-05, -0.0004562097290450864, -6.286972840253561e-06, -0.0004115854384386476, -0.0012062941719895171, 0.00020810906372389638, -4.830914377295166e-06, 0.0005329980881570519, -0.00010775355420366439, 4.658416488044662e-16, 1.1280012264672085e-08, -3.3997605123749145e-08, -0.0005687875609161949, -0.0006394865259579804, -1.3955836101626044e-05, 3.330767210257532e-05, 1.6756807613388888e-05, 2.7845063244530708e-08, -1.5424817100590673e-05, -0.00015382213345627117, 4.940353427532376e-05, -1.008725074967627e-10, 0.0005904932104996214, 7.679931850464265e-07, 1.691328026212341e-06, -0.0005435605246155482, -2.3115583828913408e-05, -1.1100800524120871e-05, 1.6655548987753874e-08, -0.008832900516703648, -8.674664427484967e-06, 0.0017022401144971356, 8.086781710205281e-10, 0.0014276815186873627, 1.1688943175009275e-07, -1.3888447630712606e-05, 0.0005363360759001844, -0.000674881756167351, 4.7586606325512405e-07, -2.192278056704068e-06, 1.1811486453232792e-09, 0.0001997983215202547, -0.00893122106923102, 0.00017134293549495727, 3.578373275538076e-15], "columns": ["cross_total_dist_max", "cross_abs_dist_sum", "cross_total_ge_dist_max", "-log_p_abs_sum", "-log_p_compt_sum_nonfinal", "rsg_wmean_2v_first", "distances_mean", "cross_compt_dist_max", "tango_variance", "cross_compt_sum", "cross_compt_ge_dist_min_nonfinal", "cross_compt_dist_sum", "p_compt_mean", "distances_sum", "rsg_sum_1_first", "cross_compt_min_nonfinal", "cross_abs_ge_dist_sum", "-log_p_compt_max", "rsg_wmean_2v", "rsg_norm_2v", "p_abs_max", "cross_abs_max", "rsg_mean_1v", "rsg_mean_2v", "-log_p_compt_mean_nonfinal", "-log_p_abs_max", "-log_p_abs_min", "-log_p_abs_final", "cross_abs_sum", "cross_abs_ge_dist_mean", "rsg_sum_2_first", "cross_abs_dist_max", "tango_sigma", "rsg_wmean_1v_first", "rsg_mean_1_first", "rsg_mean_2_first", "p_abs_mean", "p_compt_mean_nonfinal", "cross_compt_ge_dist_max", "cross_total_max", "cross_abs_dist_min", "cross_abs_min", "cross_abs_ge_dist_max", "cross_compt_dist_sum_nonfinal", "rsg_sum_2", "cross_compt_dist_min", "cross_abs_dist_final", "cross_compt_dist_min_nonfinal", "cross_compt_min", "rsg_sum_2v_first", "rsg_sum_1v", "-log_p_compt_min_nonfinal", "rsg_sum_1v_first", "first_is_not_largest", "cross_abs_ge_dist_min", "tango_v_variance", "cross_total_dist_min", "cross_abs_dist_mean", "cross_total_mean", "p_compt_min_nonfinal", "cross_compt_ge_dist_mean", "cross_compt_dist_mean", "cross_compt_max", "p_compt_min", "-log_p_abs_mean", "first_is_not_closest", "cross_total_ge_dist_mean", "cross_compt_sum_nonfinal", "cross_total_min", "rsg_mean_2v_first", "cross_abs_final", "p_abs_final", "p_compt_sum", "cross_compt_dist_mean_nonfinal", "-log_p_compt_mean", "cross_compt_ge_dist_mean_nonfinal", "cross_abs_mean", "tango_v_sigma", "rsg_sum_1", "ge_distances_mean", "cross_total_dist_sum", "rsg_mean_1", "ge_distances_sum", "p_compt_sum_nonfinal", "rsg_mean_2", "cross_compt_ge_dist_sum", "cross_compt_ge_dist_sum_nonfinal", "cross_total_dist_mean", "-log_p_compt_min", "cross_compt_ge_dist_min", "cross_compt_mean", "rsg_sum_2v", "-log_p_compt_sum", "cross_total_sum", "rsg_mean_1v_first", "cross_compt_mean_nonfinal", "p_abs_sum", "cross_abs_ge_dist_final", "cross_total_ge_dist_min", "cross_total_ge_dist_sum", "rsg_wmean_1v", "p_compt_max", "rsg_norm_2", "p_abs_min"]}