{"model": "linear", "weights": [9.897741161077828e-11, -0.1648994690560818, 3.531557096525276e-10, -7.928147753358499e-11, 1.8706417307973632e-11, -6.129595563832353e-10, -2.1767867710712195e-10, -4.004655954178409e-10, 1.6817659742571674e-09, -0.32077744038164774, -0.032425564924342946, 1.1051436729830573, 2.909156162863557e-10, 7.002088798777018e-10, -0.06571771697746605, -2.2071454321006781e-10, 3.1205027730426704, -4.683801522194981, -1.5529010228563054e-10, 1.2022632440611531e-09, -3.867952958975807e-10, 6.392403843308296e-12, 1.9015568314286753, -9.038815148371798e-10, 2.2528818570352987e-10, 2.63812507757932e-10, -1.2657289559425262, 3.929514274058035e-11, 2.358506919902239e-10, 2.358578198547867e-10, 8.461212899651711e-12, -0.1883768615323667, -1.0860465664806865e-11, 3.331258789996631e-10, 2.8354387472996647, 6.388094510898011, -1.368312459745778e-09, 2.8587493489787142e-11, -5.060630523175781e-09, 0.05996798299482549, -0.4056357602437265, -2.318181060036061e-09, 2.016705506471463, 1.3578298991709008e-09, 2.1313931643396334e-10, -5.2745522458304354e-11, -3.256286486145766e-10, -0.2552603585324907, 1.4199898588113433e-08, -0.13004382056830743, 5.02741057007761e-10, -1.0804361993860364e-09, 0.39131835430589773, -7.969210519951298e-10, 0.14859083606106505, 1.720572150432707e-10, 1.431329378934771e-10, 0.6692907193495834, 4.835139102721421e-11, 5.716735922364932e-12, 2.638195777414418e-10, 1.0964204711504548, 2.4413704150298092, -1.5316543091302468, -6.914310614339425e-10, -4.3683395016301165e-10, 4.6470706284241616e-10, 6.02284806873182e-10, 2.3586130538567557e-10, 1.7383234756347166, 0.6432559354223651, 3.887310951160324e-10, 2.0437329210902706e-10, 4.771939198459991e-10, -1.301828916306802e-10, 0.23240183423118518, -0.7491178015842171, 8.60815881113085e-10, 4.5787811567274284e-10, 0.8237275560726971, 1.8874969581511924e-10, -1.1364291111286753, -0.8986144854068524, 1.5253114631335749e-09, 1.1495721236309458e-09, -6.838279596155499e-10, 4.046543884898416, 4.52336905336186, 4.447921467439561e-10, 1.1175873510965826, 2.638128999055274e-10, -0.057615986496360044, -0.1791168255965315, 4.028293436478624e-10, 0.07758123049042472, 4.357740845036823e-11, -0.9273428172674211, -5.654832707229828e-10, 5.904679290759066, 2.088995786164288e-09, -1.4934913048227814, -2.069874925215602e-10, 8.072068677487026e-12, 0.47239666630222427, -1.07030534780165, 5.668971381567714e-10, -0.9882877604087446, 2.6383503345704723e-10, 2.3742100169594003, -1.6863502623457747, 6.076823668137065e-10, 2.3214351674768077, -1.7846841685198116, 3.31324507607884, -3.6072993907460766e-10, -2.0840333860275279e-10, 3.8172905880672686e-10, -9.339454304787622e-10, 3.8384590436267882, 1.1953899246718483e-09, -1.0469967373685793e-10, 1.4125445630316734e-09, 2.358573562394914e-10, 4.718942082667824e-10, -1.6076610662124777, 1.9901731972133445e-09, 2.5487831898799502, 2.4173063593545416, -1.0564946020750326e-09, -0.760936615011493, -3.6272298302048564e-11, 0.2595689946152597, -1.6219611754355268e-10, 4.1874559023457253e-10, 2.866390219919253, -0.5694798182501039, -0.9843248082230921, -2.802022782050771, 0.7232399783516024, 1.653866255478566e-10, -12.271214911029508, 1.5765918483319933e-10], "scale": [1.8320217614689693, 1929.7669813595455, 1.3475951441098866, 4.9746442137544005, 2.8240662861582497, 649.8851714283896, 5011.190796000346, 9.623400619381812, 0.7703065474657396, 0.6030619551577623, 1.1324002276843517, 24.61753608134031, 8.28284233511746, 200.8005382687225, 182.10585878306313, 4.0131209642953936, 13.973363326582698, 2.8263429953457044, 1878.2357793468932, 200.82250330110892, 1.2204880747996123, 304020918.855084, 1.1976369516195147, 0.5538487286351177, 3.977608728955865, 6101106.625306113, 11.73617963181699, 1.2068847869736086, 21036899.499552067, 21036899.35737111, 638366286.2120825, 4959.802184146053, 1881.141068108714, 0.7710363002491839, 7.681419479357841, 1.3489986976977582, 4.144865164748456, 730.3230570802035, 1.2176681725039065, 0.6006366548505075, 0.4238674140321679, 1.6097439548761938, 592.1601781106464, 143.3601004509824, 40.00419058692647, 2.7973640163755675, 7.346704168032263, 2.118218078284036, 3.7724945378172055, 0.1696726764555906, 2134.953064058175, 11.755027968701482, 9.00016079759795, 0.40725419025556187, 25.37585494580248, 7.674625597300401, 2.165258198484743, 0.543664319034312, 0.4235973599444964, 290993301.3966436, 6101106.645181805, 0.17451250826225634, 887.0601153654164, 233.22198261665196, 4.923794892770277, 1.2111110898248543, 2.0745342454857685, 2476.5963756571095, 21036873.461330827, 0.5532506452051402, 720.368414096746, 7.595329527219522, 591.2025205456359, 0.6473992353638894, 7.554401770805783, 4.979657197203491, 1.828008201640765, 143.33932827752028, 688.2178717350724, 0.7644269497396028, 0.2206275929590759, 0.6287701388537806, 0.21719403031199278, 3.737708991950296, 530.412602629557, 0.3979341355844085, 7.597408949214924, 2.9640706279447318, 592.2056188835788, 0.66646472279015, 6101112.302332298, 2.0300590195458823, 1.7374066601320535, 688.1632898444103, 0.22391579856011207, 0.5066134782096677, 7.473447370602289, 1.6100771955661388, 24.362502108964613, 623.2785034999596, 220.5670572264869, 0.5893559489137365, 593823596.2896891, 2.826731617025389, 2.1173337724974375, 0.7608165262998224, 1.2004084842626195, 6101112.27388476, 2.5825886301091328, 0.5457937966516953, 200.80334788715354, 3.26053824141153, 1884.7541411094687, 0.6434928479912737, 4.977471157767449, 1878.2770520954314, 1.333418967849009, 0.5511591954241813, 24.586307597671478, 200.82964186738758, 1881.2682671787154, 24.36621967061161, 21036873.33102735, 688.2556848410459, 0.5211129002610803, 759.0206829420099, 4.337194179849161, 40.20285830429307, 1.2603161809186687, 294.62281748766827, 24.939169433900044, 1.7404184751578247, 1.3328099433111336, 688.1331106483699, 1.588895840759247, 0.5487734901001236, 10.622483783103313, 1.5608084364073767, 13.70100738048018, 591.2199307556597, 4.1406037639947915, 229.96953846920044], "bias": null, "scaled_weights": [5.402632964982646e-11, -8.545045627213915e-05, 2.620636555393601e-10, -1.5937115123606133e-11, 6.62392996922927e-12, -9.43181323919124e-13, -4.343851311366172e-14, -4.1613730037518276e-11, 2.1832424763752465e-09, -0.5319145697024308, -0.02863436807201114, 0.04489253795877395, 3.512267945182735e-11, 3.4870866677690035e-12, -0.00036087645623611404, -5.4998228354878386e-11, 0.22331794429951426, -1.6571950148683499, -8.267870519409899e-14, 5.986695834871182e-12, -3.169185376605071e-10, 2.102619736622574e-20, 1.5877573156516915, -1.6320007036301567e-09, 5.663910179588447e-11, 4.3240107731225837e-17, -0.10784846480289997, 3.255914994099568e-11, 1.1211285769333346e-17, 1.1211624671871835e-17, 1.3254479571373649e-20, -3.798072070989263e-05, -5.773339303960814e-15, 4.320495401993438e-10, 0.36912952806695365, 4.7354341570530245, -3.301223092570294e-10, 3.914362721078336e-14, -4.156001312549331e-09, 0.09984069821671293, -0.9569873663676874, -1.4400930365440345e-09, 0.003405675661787979, 9.471463084215465e-12, 5.327924732555847e-12, -1.885543752959424e-11, -4.4323092527869247e-11, -0.12050711923829702, 3.764060741710074e-09, -0.7664393777765659, 2.3548108174899993e-13, -9.191268640642688e-11, 0.04347904033118348, -1.9568148617330188e-09, 0.005855599205560719, 2.2418971826298983e-11, 6.610432787814504e-11, 1.231073469265771, 1.1414469399325259e-10, 1.964559285360536e-20, 4.324126639382491e-17, 6.282761517029833, 0.002752204019480809, -0.006567366814850528, -1.4042645489745864e-10, -3.6068858904279766e-10, 2.2400549128250296e-10, 2.431905387543738e-13, 1.1211804159930266e-17, 3.1420179817235683, 0.0008929541090844877, 5.1180280424032904e-11, 3.4569083352419697e-13, 7.370937340971348e-10, -1.723272015181612e-11, 0.046670247574812765, -0.4098000221836158, 6.005441015088709e-12, 6.653098306185831e-13, 1.0775752429362866, 8.555126459188191e-10, -1.807384035762789, -4.137381143100569, 4.0808727121842724e-10, 2.1673167604462316e-12, -1.7184450854191638e-09, 0.5326215703205714, 1.526066555471499, 7.510772146716112e-13, 1.6768889828373972, 4.324013177149329e-17, -0.02838143420541958, -0.10309435879733392, 5.853688355549157e-13, 0.3464750186869793, 8.601707282713317e-11, -0.12408501341900613, -3.5121500526820787e-10, 0.24236752302163314, 3.3516249548696707e-12, -0.0067711439940426185, -3.512096431758539e-10, 1.3593378114178495e-20, 0.1671176221530837, -0.5054967533716724, 7.451167509646979e-10, -0.8232928818524843, 4.324375976268596e-17, 0.9193140515216599, -3.089720463462759, 3.0262561516415e-12, 0.711979126020564, -0.0009469055563232504, 5.148845222478323, -7.24725322640355e-11, -1.1095452524975226e-13, 2.8627840762045643e-10, -1.6945112015412936e-09, 0.1561218181452477, 5.952258409449296e-12, -5.565377121566668e-14, 5.797142856490621e-11, 1.1211616504417728e-17, 6.856379375577077e-13, -3.0850532876983685, 2.622027623146333e-12, 0.5876571544160358, 0.060127723781679694, -8.382774244038772e-10, -0.0025827484154153906, -1.454430886248493e-12, 0.1491417140878842, -1.2169485856370846e-10, 6.085241122026868e-13, 1.804013923624824, -1.0377320124304883, -0.09266427968464508, -1.795238106542008, 0.05278735776626192, 2.79737906224626e-13, -2.963629366744918, 6.855655139487721e-13], "columns": ["rth_wmean_2v_penalty_removed_tango", "rth_mean_2v", "rth_mean_2_penalty_removed", "rth_sum_2_penalty_removed", "rc_sum_2_penalty_removed", "rc_sum_2_tango", "rth_sum_2v", "rth_wmean_2v", "rc_mean_2_penalty_removed", "rth_cap_wmean_1v_tango", "rth_mean_1_tango", "rth_cap_sum_1v_tango", "rth_mean_2", "rc_mean_1v_penalty_removed", "rc_mean_2_tango", "rth_sum_1_tango", "rth_mean_1v", "rc_sum_2_penalty_removed_tango", "rth_sum_2v_penalty_removed", "rc_mean_1v_penalty_removed_tango", "rc_wmean_2v_penalty_removed_tango", "rc_mean_2v", "rth_mean_1", "rth_mean_1_penalty_removed_tango", "rth_sum_1", "rc_mean_2v_penalty_removed", "rc_sum_1", "rc_cap_wmean_2v", "rc_cap_sum_2v_tango", "rc_sum_2v_penalty_removed_tango", "rc_sum_2v", "rth_sum_2v_tango", "rth_cap_sum_2v", "rc_mean_2_penalty_removed_tango", "rth_cap_mean_1v_tango", "rth_mean_2_penalty_removed_tango", "rth_cap_norm_2v_tango", "rc_sum_2", "rc_wmean_2v_penalty_removed", "rth_norm_2_tango", "rc_mean_1_penalty_removed_tango", "rc_sum_1_penalty_removed_tango", "rth_cap_mean_2v", "rc_cap_norm_2v_tango", "rth_sum_1v_tango", "rc_cap_sum_2", "rth_norm_2v_tango", "rth_sum_1_penalty_removed", "c_penalty_ell_mean_1", "rc_cap_norm_2", "rc_sum_1v_tango", "c_penalty_ell_sum_1", "rth_wmean_2v_tango", "rc_cap_mean_1_tango", "rth_sum_2", "rth_cap_mean_1v", "rc_norm_2_tango", "rc_cap_wmean_1v", "rc_mean_1_penalty_removed", "rc_mean_2v_tango", "rc_cap_mean_2v", "rc_cap_norm_2_tango", "rc_mean_1v", "rc_mean_2", "rth_cap_sum_2", "rc_cap_wmean_2v_tango", "rth_cap_sum_1_tango", "rc_sum_1v", "rc_cap_sum_2v", "rth_mean_1_penalty_removed", "c_penalty_ell_sum_2", "rth_mean_1v_penalty_removed", "rth_mean_2v_penalty_removed", "rth_wmean_1v_penalty_removed_tango", "rth_mean_2_tango", "rth_cap_sum_2_tango", "rth_wmean_2v_penalty_removed", "rc_cap_norm_2v", "rc_sum_1v_penalty_removed_tango", "rc_cap_mean_2_tango", "c_penalty_mean_1", "rth_norm_2", "rth_cap_norm_2", "rc_mean_1", "rc_norm_2v_tango", "rc_cap_mean_1", "rth_mean_1v_penalty_removed_tango", "rc_mean_1_tango", "rth_cap_mean_2v_tango", "c_penalty_sum_1", "rc_cap_mean_2v_tango", "rth_cap_sum_1", "rth_cap_wmean_2v", "rc_cap_sum_1v", "rth_cap_norm_2_tango", "rth_cap_mean_1", "rth_norm_2v", "rc_sum_1_penalty_removed", "rth_sum_1v_penalty_removed", "rc_norm_2v", "rc_wmean_2v_tango", "rth_cap_wmean_1v", "rc_sum_2v_tango", "rc_cap_sum_2_tango", "rth_sum_1_penalty_removed_tango", "rc_cap_mean_2", "rth_wmean_1v_tango", "rc_mean_2v_penalty_removed_tango", "rc_norm_2", "rc_wmean_1v_penalty_removed", "rc_cap_mean_1v", "rc_wmean_1v_tango", "rth_mean_2v_tango", "rth_wmean_1v_penalty_removed", "rth_sum_2_penalty_removed_tango", "rth_sum_2v_penalty_removed_tango", "rth_cap_mean_2_tango", "rc_cap_wmean_1v_tango", "rth_cap_sum_1v", "rc_cap_mean_1v_tango", "rth_cap_sum_2v_tango", "rth_sum_1v_penalty_removed_tango", "rc_sum_2v_penalty_removed", "rc_cap_sum_1v_tango", "rth_cap_mean_1_tango", "rc_mean_1v_tango", "rc_wmean_1v", "rth_sum_1v", "rth_wmean_1v", "rc_wmean_2v", "rth_sum_2_tango", "rth_cap_wmean_2v_tango", "rth_cap_mean_2", "rc_sum_1v_penalty_removed", "rc_cap_sum_1_tango", "rc_wmean_1v_penalty_removed_tango", "rc_sum_1_tango", "rc_cap_sum_1", "rth_mean_1v_tango", "rth_mean_2v_penalty_removed_tango", "rth_cap_norm_2v", "c_penalty_ell_mean_2"]}