{"model": "linear", "weights": [0.010152390503741442, 1.2290213771098812, 0.4797250904212272, 0.2392033987701986, 0.11183077313265524, 1.9845480225963796, 0.15027670391257855, -1.225647172151582, 1.7518266255370645, 2.575322474087327, -1.8188114410071947, 1.021038731073044, 1.037240080992835, 0.8655167915175243, 0.3392145455742711, 0.13711704993356486, -0.3882256460399161, 1.6695159939786455, 1.7433135554161427, -1.8360904191632559, 0.4576593577806837, -0.21226864412743712, 20.52032929409737, -1.4744215631796047, 0.2844556856931481, -0.014602415361643188, -1.1648012202565696, 0.4496743653368602, -0.8813746442217977, -0.7057482186205619, -0.3863197256115277, -0.8353184649222171, 1.3530404347416605, 2.8287042839589063, 2.9998292086268727, 24.725218351773968, 1.756585131192304, -0.24311234584549324, -0.6249577557682647, -1.5849298941879761, -0.33187899836781526, -3.7191798358423687, 1.3817487322585018], "scale": [1.3475951441098866, 1.7329180221000564, 8.28284233511746, 200.8005382687225, 13.973363326582698, 1.1976369516195147, 11.73617963181699, 1.2176681725039065, 8.678771301320403, 0.5402900929110258, 2.118218078284036, 3.7724945378172055, 0.1696726764555906, 0.543664319034312, 0.4235973599444964, 887.0601153654164, 233.22198261665196, 4.923794892770277, 0.5532506452051402, 7.595329527219522, 0.7017887753092958, 591.2025205456359, 99.69769740657071, 0.6287701388537806, 0.42992406377658965, 0.42992406377658954, 2.3133524204175604, 0.66646472279015, 1.7374066601320535, 0.5066134782096677, 1.6100771955661388, 0.7608165262998224, 0.6434928479912737, 24.586307597671478, 22.71963640955836, 33.6385215388613, 4.337194179849161, 1.2603161809186687, 294.62281748766827, 1.3328099433111336, 1.7106710466758084, 4.1406037639947915, 0.7871009719888403], "bias": null, "scaled_weights": [0.007533709622000232, 0.7092207256408343, 0.05791793094832876, 0.0011912487926206813, 0.00800313929574208, 1.6570530993660122, 0.012804567468034978, -1.0065526880211284, 0.20185191713376968, 4.766555056028813, -0.8586516467089216, 0.27065346837157384, 6.113182762601838, 1.592005877919127, 0.8007947585384341, 0.00015457469855589294, -0.0016646185821944767, 0.33907098697998866, 3.151037546047033, -0.24173940216592643, 0.6521326271982361, -0.00035904556687533904, 0.2058255087919909, -2.344929366186836, 0.6616416936386369, -0.03396510358915696, -0.5035122232030357, 0.6747159301310076, -0.5072932344778786, -1.3930703563486324, -0.23993863566006793, -1.097923659709036, 2.1026503075602307, 0.11505201717344525, 0.13203684929415582, 0.735026904295121, 0.4050049544365557, -0.19289790096028442, -0.002121213017706692, -1.189164218155887, -0.19400515313141328, -0.8982216236634438, 1.7554910760268918], "columns": ["rth_mean_2_penalty_removed", "ge_distances_mean", "rth_mean_2", "rc_mean_1v_penalty_removed", "rth_mean_1v", "rth_mean_1", "rc_sum_1", "rc_wmean_2v_penalty_removed", "ge_distances_sum", "rsl_wmean_1v", "rth_sum_1_penalty_removed", "c_penalty_ell_mean_1", "rc_cap_norm_2", "rc_cap_wmean_1v", "rc_mean_1_penalty_removed", "rc_mean_1v", "rc_mean_2", "rth_cap_sum_2", "rth_mean_1_penalty_removed", "rth_mean_1v_penalty_removed", "rsl_mean_1", "rth_mean_2v_penalty_removed", "rsl_mean_1v", "rth_norm_2", "first_is_not_largest", "first_is_not_closest", "rsl_sum_1", "c_penalty_sum_1", "rth_cap_wmean_2v", "rth_cap_mean_1", "rc_sum_1_penalty_removed", "rc_cap_mean_2", "rth_wmean_1v_penalty_removed", "rth_cap_sum_1v", "distances_sum", "rsl_norm_2v", "rc_wmean_1v", "rth_wmean_1v", "rc_wmean_2v", "rth_cap_mean_2", "tango_v_sigma", "rth_cap_norm_2v", "tango_sigma"]}