{"model": "linear", "weights": [-2.387950972468106e-07, 0.0005305060167786992, -0.005830304680691985, 0.0008757967759144954, -0.18336423697867693, 0.002015592904545745, -0.002101411444620772, -4.5852413825605945e-06, -0.000544630750810069, 0.0004726103950420216, 6.50518476873708e-05, 0.0028833255518144075, -7.338930304523033e-06, -2.2157250955824126e-05, 0.00023957690282127938, 9.176870939227442e-05, 1.2881166409475326e-06, 3.9462247312673984e-05, -0.00019429330107176122, -2.9804512758918474e-06, 0.00010821200623133842, 0.009855736471818907, -4.685414544689652e-05, 0.001443992577298062, 0.00015885707957261305, 0.013270832840056061, -3.372437120284973e-05, -1.6773819565898437e-05, -0.00731416821829285, -1.970163412914603e-05, 7.13496274259688e-05, -0.0003499732008670761, -0.0001964099722341426, -6.525980076706464e-05, -0.001105225936032933, 0.00019023614158294742, 4.629560181692108e-05, -0.0032602888343103527, 9.1585037957231e-05, -0.000963667561618074, -0.00011159802104040507, 9.681178105479918e-05, 0.00010828043879904429, -3.779448811215453e-05, 0.0008689817606778336, -0.0006613875844701209, 0.0005875130610856153, 7.896691491981755e-07, 0.001802252624608676, 0.05154137663226946, -0.00021129025037920225, -3.742803682055734e-05, -0.00046086267826713547, -0.0026135019772450634, -0.00010512488684162277, 5.492682828237266e-05, -5.5199797438400175e-05, -4.688832073891513e-05, 8.539138357607129e-06, -3.6830494939232656e-05, 6.0863971876832724e-05, 3.761804794095238e-07, 0.0009414457648659407, -0.0005678285011791501, -0.02303026158974577, -0.00027252136415319194, 0.0007175926621683096, 0.012260530579480828, 0.0006482584896277408, 0.00017792527571370003, -2.1338937748601367e-05, 2.4198104911751867e-05, -9.795576935364247e-05, 5.424360446890568e-07, 4.277071637681605e-05, 7.670237977580716e-08, 6.9650771729536e-05, -7.750971573646992e-05, 0.012217059899976929, 6.483196876612497e-05, -0.0005933255907000617, -0.0010639201058097443, 0.00010425757251155296, 0.00010572169927889702, 2.8771756591695317e-05, -9.59810591998176e-05, -0.0004920825954932598, 4.936097104064486e-05, -0.01126909611136426, 0.5095475872149028, -0.0020178923454558665, -0.0012989735757689034, -5.464627035514626e-06, 0.0005935352607476302, 0.001582085910043518, 0.0020521416101727708, 6.65750306844297e-07, -2.8650363796982546e-06, -0.0009296563315826179, 0.0003906238168244224, 0.00010739189850808522, 3.101121442267743e-05, -0.0002721449157782653, -0.0007007657726369473, 0.0013977836994406938, 0.0007430843488104204, -1.449047923130709e-05, 3.764253629921854e-06, -0.00043919852795569215, 0.0013354182980948358, 5.527702578700207e-06, 0.0002383572533364757, 2.9173606095358496e-05, -4.826295843007285e-05, 3.3091978529190455e-05, -2.2168925914281135e-07, 4.042161486971426e-05, 0.026613725323262293, 0.0007550241157919295, 4.962953297910863e-06, 2.974280109659371e-05, 0.00018659280443023403, 5.768068146950058e-05, 0.07746958588067519, -1.546586634785392e-05, -0.0009277023791514869, 8.899265834542019e-06, 1.5517937844914756e-05, -2.244925061685388e-07, 4.713625319997086e-05, -0.0004921280652573076, -0.00045127636424494884, -0.00011378268858175833, 1.2267888985039123e-05, -0.0016844701824095642, -0.00010657731945582282, 2.215808514619547e-05, -1.0343434320972307e-06, -2.4139904531260366e-05, 0.0004582998433738361, 3.471422396346118e-05, 0.00018110704031275968, -0.000564244910298518, -0.00012059255721560214, 0.0011835094761161256, 1.1078832287694862e-06, -0.00017681516894251257, 0.0008665232429415499, -2.5595059567079237e-05, -0.000589920269972621, -4.249846693076049e-07, 0.0001079617656079141], "scale": [24.939169433900044, 4.977471157767449, 143.3601004509824, 1.6100771955661388, 6101112.302332298, 229.96953846920044, 233.22198261665196, 1.7404184751578247, 2.0745342454857685, 7.346704168032263, 0.17451250826225634, 2134.953064058175, 11.755027968701482, 1.7329180221000564, 2.9640706279447318, 0.7710363002491839, 304020918.855084, 9.00016079759795, 4959.802184146053, 593823596.2896891, 0.5211129002610803, 688.2556848410459, 1.8320217614689693, 7.681419479357841, 24.362502108964613, 200.82250330110892, 40.20285830429307, 0.6006366548505075, 200.8005382687225, 294.62281748766827, 1.2603161809186687, 2.8263429953457044, 1.3475951441098866, 0.5457937966516953, 720.368414096746, 7.595329527219522, 24.586307597671478, 623.2785034999596, 3.26053824141153, 2.118218078284036, 220.5670572264869, 8.678771301320403, 0.5538487286351177, 0.5511591954241813, 759.0206829420099, 4.923794892770277, 13.973363326582698, 7.554401770805783, 887.0601153654164, 638366286.2120825, 2.8240662861582497, 2.1173337724974375, 7.674625597300401, 688.1632898444103, 1.3489986976977582, 0.6434928479912737, 4.979657197203491, 0.21719403031199278, 3.7724945378172055, 5.3131816655420545, 1.1324002276843517, 8.28284233511746, 200.82964186738758, 7.597408949214924, 688.2178717350724, 182.10585878306313, 1881.2682671787154, 688.1331106483699, 2.7973640163755675, 4.9746442137544005, 1.2204880747996123, 1.1976369516195147, 2.826731617025389, 238.27417713172204, 21036873.33102735, 21036899.499552067, 40.00419058692647, 0.5893559489137365, 143.33932827752028, 0.543664319034312, 1878.2357793468932, 591.2025205456359, 1884.7541411094687, 0.6030619551577623, 1.2176681725039065, 1.2004084842626195, 7.473447370602289, 1.333418967849009, 200.80334788715354, 21036899.35737111, 530.412602629557, 1.5608084364073767, 4.0131209642953936, 0.5532506452051402, 2476.5963756571095, 591.2199307556597, 0.42992406377658954, 1.828008201640765, 4.144865164748456, 649.8851714283896, 3.737708991950296, 0.22391579856011207, 1.6097439548761938, 0.5066134782096677, 1881.141068108714, 24.36621967061161, 0.1696726764555906, 6101112.27388476, 0.7608165262998224, 2.0300590195458823, 0.7871009719888403, 4.1406037639947915, 0.6473992353638894, 3.977608728955865, 2.5825886301091328, 1.7374066601320535, 0.7644269497396028, 290993301.3966436, 0.3979341355844085, 6101106.625306113, 4.337194179849161, 5011.190796000346, 592.1601781106464, 6101106.645181805, 2.165258198484743, 592.2056188835788, 0.6287701388537806, 21036873.461330827, 25.37585494580248, 0.4238674140321679, 0.4235973599444964, 0.40725419025556187, 1929.7669813595455, 0.42992406377658965, 1878.2770520954314, 11.73617963181699, 0.5487734901001236, 0.66646472279015, 1.2068847869736086, 1.3328099433111336, 1.7106710466758084, 0.7703065474657396, 13.70100738048018, 841.4849764931672, 730.3230570802035, 0.2206275929590759, 10.622483783103313, 1.588895840759247, 9.623400619381812, 24.61753608134031, 1.2111110898248543, 22.71963640955836], "bias": null, "columns": ["rth_sum_2_tango", "rth_sum_2_penalty_removed_tango", "rc_cap_norm_2v_tango", "rc_sum_1_penalty_removed", "rc_cap_mean_2v_tango", "c_penalty_ell_mean_2", "rc_mean_2", "rth_cap_wmean_2v_tango", "rth_cap_sum_1_tango", "rth_norm_2v_tango", "rc_cap_norm_2_tango", "rc_sum_1v_tango", "c_penalty_ell_sum_1", "ge_distances_mean", "rc_mean_1_tango", "rc_mean_2_penalty_removed_tango", "rc_mean_2v", "rth_wmean_2v_tango", "rth_sum_2v_tango", "rc_sum_2v_tango", "rth_cap_mean_1_tango", "rc_cap_sum_1v_tango", "rth_wmean_2v_penalty_removed_tango", "rth_cap_mean_1v_tango", "rth_sum_1v_penalty_removed", "rc_mean_1v_penalty_removed_tango", "rth_sum_1v", "rth_norm_2_tango", "rc_mean_1v_penalty_removed", "rc_wmean_2v", "rth_wmean_1v", "rc_sum_2_penalty_removed_tango", "rth_mean_2_penalty_removed", "rc_wmean_1v_penalty_removed", "c_penalty_ell_sum_2", "rth_mean_1v_penalty_removed", "rth_cap_sum_1v", "rc_norm_2v", "rc_wmean_1v_tango", "rth_sum_1_penalty_removed", "rc_wmean_2v_tango", "ge_distances_sum", "rth_mean_1_penalty_removed_tango", "rc_cap_wmean_1v_tango", "rc_mean_1v_tango", "rth_cap_sum_2", "rth_mean_1v", "rth_mean_2_tango", "rc_mean_1v", "rc_sum_2v", "rc_sum_2_penalty_removed", "rth_sum_1_penalty_removed_tango", "rth_cap_mean_1v", "rc_cap_sum_1v", "rth_mean_2_penalty_removed_tango", "rth_wmean_1v_penalty_removed", "rth_cap_sum_2_tango", "rth_cap_norm_2", "c_penalty_ell_mean_1", "distances_mean", "rth_mean_1_tango", "rth_mean_2", "rc_cap_mean_1v_tango", "rth_mean_1v_penalty_removed_tango", "rc_sum_1v_penalty_removed_tango", "rc_mean_2_tango", "rth_cap_sum_2v_tango", "rc_sum_1v_penalty_removed", "rc_cap_sum_2", "rth_sum_2_penalty_removed", "rc_wmean_2v_penalty_removed_tango", "rth_mean_1", "rc_cap_sum_2_tango", "tango_variance", "rc_sum_2v_penalty_removed", "rc_cap_sum_2v_tango", "rth_sum_1v_tango", "rth_cap_wmean_1v", "rc_cap_norm_2v", "rc_cap_wmean_1v", "rth_sum_2v_penalty_removed", "rth_mean_2v_penalty_removed", "rth_mean_2v_tango", "rth_cap_wmean_1v_tango", "rc_wmean_2v_penalty_removed", "rth_wmean_1v_tango", "rth_norm_2v", "rth_cap_mean_2_tango", "rc_cap_mean_1v", "rc_sum_2v_penalty_removed_tango", "rc_norm_2v_tango", "rc_cap_sum_1", "rth_sum_1_tango", "rth_mean_1_penalty_removed", "rc_sum_1v", "rth_mean_2v_penalty_removed_tango", "first_is_not_closest", "rth_wmean_2v_penalty_removed", "rth_cap_norm_2v_tango", "rc_sum_2_tango", "rc_mean_1", "rth_cap_norm_2_tango", "rc_sum_1_penalty_removed_tango", "rth_cap_mean_1", "rth_cap_sum_2v", "rth_sum_1v_penalty_removed_tango", "rc_cap_norm_2", "rc_mean_2v_penalty_removed_tango", "rc_cap_mean_2", "rth_cap_sum_1", "tango_sigma", "rth_cap_norm_2v", "rth_wmean_1v_penalty_removed_tango", "rth_sum_1", "rc_norm_2", "rth_cap_wmean_2v", "rc_cap_mean_2_tango", "rc_mean_2v_tango", "rc_cap_mean_1", "rc_mean_2v_penalty_removed", "rc_wmean_1v", "rth_sum_2v", "rth_cap_mean_2v", "rc_cap_mean_2v", "rc_norm_2_tango", "rth_cap_mean_2v_tango", "rth_norm_2", "rc_cap_sum_2v", "rth_sum_2", "rc_mean_1_penalty_removed_tango", "rc_mean_1_penalty_removed", "rc_cap_mean_1_tango", "rth_mean_2v", "first_is_not_largest", "rth_sum_2v_penalty_removed_tango", "rc_sum_1", "rc_wmean_1v_penalty_removed_tango", "c_penalty_sum_1", "rc_cap_wmean_2v", "rth_cap_mean_2", "tango_v_sigma", "rc_mean_2_penalty_removed", "rth_mean_1v_tango", "tango_v_variance", "rc_sum_2", "c_penalty_mean_1", "rc_sum_1_tango", "rc_cap_sum_1_tango", "rth_wmean_2v", "rth_cap_sum_1v_tango", "rc_cap_wmean_2v_tango", "distances_sum"]}