{"model": "linear", "weights": [0.3162104848207413, 2.6072450310480777, 1.4474972694333101, -1.2309713977046022, -1.0137824528595578, 1.6440043640742903, -1.0201017611712937, 1.0389997384399943, 0.6995959562875964, -0.5105058035398783, 1.0057402069698655, -3.538985226784303, 1.3984730278566546, -1.8969308727681555, 1.3935452377386066, -0.5261641298429063, -0.8257445045417553, 0.4548526351621554, 0.7008413088394531, 2.6081904745763693, 3.3679050161043276, -1.4622400737798973, -1.532123889982611, -1.3619187310078527, -0.6007561746882809, -0.13336962462385135, 3.9060709816066215, -1.8419487434918234, 1.347950007819629, 1.90204344935065, 2.4853271083090034, 0.1803918989987965, -5.602942213384412, 3.985418019172371, 4.534726932873759], "scale": [720.368414096746, 4.337194179849161, 2.5825886301091328, 233.22198261665196, 294.62281748766827, 887.0601153654164, 0.3979341355844085, 0.543664319034312, 0.1696726764555906, 1.6100771955661388, 0.4235973599444964, 2.8240662861582497, 0.7703065474657396, 0.5457937966516953, 1.1976369516195147, 1.2603161809186687, 0.6287701388537806, 25.37585494580248, 8.28284233511746, 40.20285830429307, 13.973363326582698, 7.473447370602289, 1929.7669813595455, 0.5066134782096677, 0.5893559489137365, 0.21719403031199278, 4.923794892770277, 1.3328099433111336, 0.5532506452051402, 1.3475951441098866, 0.6434928479912737, 1.828008201640765, 4.1406037639947915, 24.362502108964613, 7.595329527219522], "bias": null, "scaled_weights": [0.0004389566208524434, 0.6011363390556687, 0.5604830953554315, -0.005278110510397107, -0.0034409502342838422, 0.0018533178705673824, -2.5634939804125274, 1.9111052575337768, 4.123209292750832, -0.3170691473338787, 2.374283463668534, -1.2531523229926027, 1.8154759718160822, -3.475544948303442, 1.1635790260597532, -0.4174858165031057, -1.3132692752347463, 0.01792462307707959, 0.08461362422269436, 0.0648757472624242, 0.24102321949199448, -0.1956580412316538, -0.0007939424317972371, -2.688279703534076, -1.0193435321991007, -0.61405750624117, 0.7933049744500926, -1.3820040529678397, 2.436418320524184, 1.4114353688970789, 3.8622451144052286, 0.09868221534065448, -1.353170342476523, 0.16358820622557754, 0.5970414998615365], "columns": ["c_penalty_ell_sum_2", "rc_wmean_1v", "rc_norm_2", "rc_mean_2", "rc_wmean_2v", "rc_mean_1v", "rc_cap_mean_1", "rc_cap_wmean_1v", "rc_cap_norm_2", "rc_sum_1_penalty_removed", "rc_mean_1_penalty_removed", "rc_sum_2_penalty_removed", "rc_mean_2_penalty_removed", "rc_wmean_1v_penalty_removed", "rth_mean_1", "rth_wmean_1v", "rth_norm_2", "rth_sum_2", "rth_mean_2", "rth_sum_1v", "rth_mean_1v", "rth_norm_2v", "rth_mean_2v", "rth_cap_mean_1", "rth_cap_wmean_1v", "rth_cap_norm_2", "rth_cap_sum_2", "rth_cap_mean_2", "rth_mean_1_penalty_removed", "rth_mean_2_penalty_removed", "rth_wmean_1v_penalty_removed", "rth_wmean_2v_penalty_removed", "rth_cap_norm_2v", "rth_sum_1v_penalty_removed", "rth_mean_1v_penalty_removed"]}