{"model": "linear", "weights": [0.7970342894344951, 2.782439612544255, 2.248801238073592, 30.479604464774543, -10.085783485631417, 0.3567770266568938, 0.12142733201316235, 1.0158619553627681, -0.1551567115093956, -0.8309847361099232, 1.2617496026085933, 0.21771777717757404, 6.6892670265150596, 0.26219498347725906, 0.7917260536188623, 5.515118725558072, 2.7176997746249834, -0.26160611760516556, 1.6095041707841022, -0.12546645765091669, -0.24878145879758323, 0.8633016438171393, -0.4394674135911887, -1.9034608867334322, 1.1096310048608502, 0.02207695451851843, 0.9613802205670954, 0.06047107343150466, 1.561418329240706, 0.15626593077905765, -0.025320887598072356, -0.20717175479121896, 0.6336800235228683, 0.6092753992279696, -0.2835710277417008, 0.41679090123010865], "scale": [0.6364397517941597, 0.42363632227642195, 0.4658563832822701, 64.04918323177633, 33.00520700474345, 199.57784037656205, 2279.4260227014133, 1.8466765957072728, 8.708497176862368, 0.14601883105541327, 0.36723169067093364, 1.601432716260378, 1.127203775778837, 1.601432716260378, 0.48044382949640846, 0.088015715360907, 0.7192865363769918, 1.4662094072160536, 2.43107446391819, 0.4054090912781989, 1.1681864888448454, 0.09108687608333699, 2.5177842244844952, 2.703992927097108, 0.7074632003475282, 0.4885169611233239, 0.14191435089513352, 0.09859629005797582, 0.6084299906471051, 0.2261573231269946, 0.35912053623971346, 0.22351434936122025, 199.5796602185848, 2279.705619879433, 1.948750417011882, 9.042306375338375], "bias": null, "scaled_weights": [1.2523326633630447, 6.567991142951898, 4.827241439151873, 0.4758781131443513, -0.3055815854807972, 0.0017876585195216537, 5.327101244077898e-05, 0.5501027942435667, -0.017816703428650348, -5.690942257951438, 3.435840736684168, 0.13595187294910688, 5.934390187695333, 0.1637252572743297, 1.6479055510999767, 62.660613538655205, 3.7783270465674126, -0.17842343414088907, 0.6620546571782283, -0.30948111512580606, -0.21296382142168874, 9.477782979704886, -0.17454530428681497, -0.7039444769468783, 1.5684646272990095, 0.045191787134173225, 6.774369290372189, 0.6133199676777588, 2.5663073044444036, 0.6909611796709731, -0.07050804686137645, -0.9268834657966853, 0.003175073165415983, 0.0002672605593963454, -0.14551428713817272, 0.04609342837208519], "columns": ["rsg_sum_1_first", "rsg_mean_1", "rsg_wmean_1v", "rsg_mean_1v", "rsg_mean_1v_first", "cross_abs_mean", "cross_abs_dist_mean", "cross_abs_ge_dist_min", "cross_abs_dist_min", "p_abs_mean", "p_abs_max", "-log_p_abs_final", "-log_p_abs_mean", "-log_p_abs_min", "cross_compt_sum", "cross_compt_mean", "cross_compt_ge_dist_mean", "cross_compt_ge_dist_max", "cross_compt_dist_mean", "cross_compt_ge_dist_min", "cross_compt_dist_min", "cross_compt_mean_nonfinal", "cross_compt_dist_mean_nonfinal", "cross_compt_ge_dist_sum_nonfinal", "cross_compt_ge_dist_mean_nonfinal", "cross_compt_ge_dist_min_nonfinal", "p_compt_mean", "p_compt_mean_nonfinal", "-log_p_compt_mean", "-log_p_compt_mean_nonfinal", "p_compt_min", "p_compt_min_nonfinal", "cross_total_mean", "cross_total_dist_mean", "cross_total_ge_dist_min", "cross_total_dist_min"]}