{"model": "linear", "weights": [1.577101667059399e-06, 7.58772137191949e-07, -0.00012671319407855288, 7.80332383015584e-05, -0.0017585039284750432, 0.0027022266514181714, -1.0417571809738328e-05, 1.3951282342339869e-05, 4.618407091303595e-05, 7.806672573066627e-05, 0.0018431638219710779, -0.0027898167302312566, -4.027596415015592e-05, 0.003821104725633813, 0.0018889320248153603, -0.004564617268310495, -0.008168443987505812, 0.011165268121015082, 0.00013542179913971958, -0.00014865164016268203, 7.343031598246435e-05, 2.325425719827744e-05, -4.8063758987740384e-05, 8.533026320775289e-05, -1.9194395618136266e-05, -0.00012524576810225624, 0.00012881400768148182, -8.046922528753658e-05, -3.613592363957803e-05, -8.121741232602888e-05, 6.490983915580829e-06, -0.003818125381731408, -0.002214290102964964, 0.005713142221238146, 3.0473597612801107e-06, -0.20969573229661773, -0.0005201826782195559, -0.0005424360980791896, 0.7320407664068695, -9.23078064598579e-06, 3.1139453459182124e-05, -1.1220638645045615e-06, -3.566876705448798e-06, -1.3079243228529356e-05, 3.6726085706798953e-06, 1.45039085713902e-06, 6.259682119932089e-06, -4.6852756883097014e-05, 0.00018559970050675804, -5.1002468865872895e-05, 2.3752473179432325e-05, -6.806131329876367e-05, -8.119488685229226e-05, 0.00011650042950457049, -7.926067315903497e-05, 2.0571459438832627e-06, -5.4177065657023096e-06, -7.22854532617228e-05, 2.6759743342689112e-05, 4.56386934736307e-05, -0.00011876513552633967, 0.00015729476323557559, 3.8743695021463516e-05, 0.0001177257735806957, -2.1599041108680453e-05, 0.00046525013680661243, -0.00016923708679087422, -0.000466173962253771, 9.709111846238225e-05, 0.0009268310954576973, 7.29003272664418e-05, 0.00036091220488989955, -0.0005585682014818852, -0.0006190555325244815], "scale": [0.66646472279015, 0.2206275929590759, 11.755027968701482, 3.7724945378172055, 720.368414096746, 229.96953846920044, 11.73617963181699, 3.737708991950296, 4.337194179849161, 2.5825886301091328, 730.3230570802035, 233.22198261665196, 294.62281748766827, 2476.5963756571095, 887.0601153654164, 623.2785034999596, 638366286.2120825, 304020918.855084, 1.5608084364073767, 0.3979341355844085, 0.543664319034312, 0.1696726764555906, 2.7973640163755675, 0.7608165262998224, 1.2068847869736086, 1.6100771955661388, 0.4235973599444964, 2.8240662861582497, 0.7703065474657396, 0.5457937966516953, 1.2176681725039065, 688.1632898444103, 200.80334788715354, 143.33932827752028, 21036873.461330827, 6101106.645181805, 688.1331106483699, 200.8005382687225, 21036873.33102735, 6101106.625306113, 3.977608728955865, 1.1976369516195147, 1.2603161809186687, 0.6287701388537806, 25.37585494580248, 8.28284233511746, 9.623400619381812, 40.20285830429307, 13.973363326582698, 7.473447370602289, 5011.190796000346, 1929.7669813595455, 2.0300590195458823, 0.5066134782096677, 0.5893559489137365, 0.21719403031199278, 4.923794892770277, 1.3328099433111336, 1.7374066601320535, 2.118218078284036, 0.5532506452051402, 4.9746442137544005, 1.3475951441098866, 0.6434928479912737, 1.828008201640765, 24.586307597671478, 7.674625597300401, 4.1406037639947915, 1881.141068108714, 592.1601781106464, 24.362502108964613, 7.595329527219522, 1878.2357793468932, 591.2025205456359], "bias": null, "columns": ["c_penalty_sum_1", "c_penalty_mean_1", "c_penalty_ell_sum_1", "c_penalty_ell_mean_1", "c_penalty_ell_sum_2", "c_penalty_ell_mean_2", "rc_sum_1", "rc_mean_1", "rc_wmean_1v", "rc_norm_2", "rc_sum_2", "rc_mean_2", "rc_wmean_2v", "rc_sum_1v", "rc_mean_1v", "rc_norm_2v", "rc_sum_2v", "rc_mean_2v", "rc_cap_sum_1", "rc_cap_mean_1", "rc_cap_wmean_1v", "rc_cap_norm_2", "rc_cap_sum_2", "rc_cap_mean_2", "rc_cap_wmean_2v", "rc_sum_1_penalty_removed", "rc_mean_1_penalty_removed", "rc_sum_2_penalty_removed", "rc_mean_2_penalty_removed", "rc_wmean_1v_penalty_removed", "rc_wmean_2v_penalty_removed", "rc_cap_sum_1v", "rc_cap_mean_1v", "rc_cap_norm_2v", "rc_cap_sum_2v", "rc_cap_mean_2v", "rc_sum_1v_penalty_removed", "rc_mean_1v_penalty_removed", "rc_sum_2v_penalty_removed", "rc_mean_2v_penalty_removed", "rth_sum_1", "rth_mean_1", "rth_wmean_1v", "rth_norm_2", "rth_sum_2", "rth_mean_2", "rth_wmean_2v", "rth_sum_1v", "rth_mean_1v", "rth_norm_2v", "rth_sum_2v", "rth_mean_2v", "rth_cap_sum_1", "rth_cap_mean_1", "rth_cap_wmean_1v", "rth_cap_norm_2", "rth_cap_sum_2", "rth_cap_mean_2", "rth_cap_wmean_2v", "rth_sum_1_penalty_removed", "rth_mean_1_penalty_removed", "rth_sum_2_penalty_removed", "rth_mean_2_penalty_removed", "rth_wmean_1v_penalty_removed", "rth_wmean_2v_penalty_removed", "rth_cap_sum_1v", "rth_cap_mean_1v", "rth_cap_norm_2v", "rth_cap_sum_2v", "rth_cap_mean_2v", "rth_sum_1v_penalty_removed", "rth_mean_1v_penalty_removed", "rth_sum_2v_penalty_removed", "rth_mean_2v_penalty_removed"]}