{"model": "linear", "weights": [-8.945281000806741e-09, 1.610710340724163e-05, 1.8287002203020237e-16, -0.00017827980676045647, 0.4795003376113169, -2.7828271063361768e-05, -0.0006745360443085288, 8.561230176567852e-05, 7.574381119081291e-05, -0.00020887674507427518, -0.003080535681275746, -1.0044337399435136e-05, 7.848633729313635e-05, 4.871557803331546e-06, 0.00183902878073932, -2.952714546244421e-05, -4.497339921516291e-05, 3.796970486164e-05, -2.985908138823851e-17, 0.00023734949534961997, -0.00023509879229553725, 3.197571526698078e-05, -1.89311762237695e-05, -0.4795131823888722, 9.090920573800309e-07, -1.0259770221737428e-06, -0.0004285351533427001, 2.0265422914608776e-05, 1.4347898133979128e-06, 9.46121342278451e-06, -2.9527145473797864e-05, -7.364304725267449e-07, -4.272207701769868e-06, 0.0002501543591777609, 6.665214185101096e-06, 1.4916130642239503e-05, 0.0002345815616562704, -2.347514116885662e-05, 0.00206141430884716, 4.885318857673609e-05, 0.00026371813306930533, 8.996180315810621e-07, -4.4743707863474205e-05, -0.0059143032945555155, 5.55730286582699e-06, 0.00013296630962901003, -5.034691658384034e-05, -3.5167893256033175e-06, 0.00015678607578521037, 0.00013405783567413924, -2.061097266509689e-05, -0.00020887694769637627, -0.0006402673416810658, -3.3287276047269433e-06, -1.8931176333576388e-05, 3.3621887215084876e-05, 6.038667461330105e-06, -0.0011144993409365877, 0.00012565551622170122, -1.5284130652777942e-05, -6.419331067107857e-07, -0.000949630482817228, 0.0019562057771948687, -2.0769253672154193e-06, -0.0004063511262189826, -3.6409865581564706e-05, -1.9315832769667258e-05, 2.5262955150914607e-06, -0.0003281454999781276, 0.00014982417825651798, -3.0016480949608303e-05, 0.0002443810338309713, -0.00042884663709905204, 1.1854820327401507e-05, 0.00010191020586155852, -1.9315832273307306e-05, 9.307732628902849e-05, 1.7168859210835232e-16, 0.00042873701210739793, -4.968207378409885e-06, 9.685734224440462e-06, 0.004024092129738437, -0.0004583910113296289, -0.004250210343389278, 0.0023493139688379487, 2.2579219080938634e-15, -2.1285360378405652e-06, 3.9891465873679005e-05, -8.038739738032031e-05, -2.7689139370562067e-05, -3.5137787685344195e-05, -0.0006002453590779, 4.550622529037112e-05, -2.638678704539716e-05, -6.329509693068386e-06, 0.00032379463657512657, -8.654335593577742e-05, 1.2943820697717218e-05, -4.3786601435034726e-07, -4.378660172501242e-07, -3.420481454772052e-07, -0.0004332052049874802, 0.003775123354802118, 2.1196915616634932e-05], "scale": [2279.4260227014133, 238.27417713172204, 0.39248741072373394, 10167.71999916096, 899.6286752819528, 10.077907951487141, 0.07636650353370997, 1.7329180221000564, 0.3998970272255298, 0.36723169067093364, 2.164621584344692, 1.1681864888448454, 841.4849764931672, 4123.577734449815, 64.04918323177633, 868.5048888508767, 4123.263963202542, 2279.705619879433, 0.37644606025452726, 0.14601883105541327, 1.5283808388405522, 1.8466765957072728, 1.2611234295686164, 899.5732515964763, 9.042306375338375, 10169.046489361092, 0.6349777491789669, 0.6084299906471051, 0.8483633223693582, 199.5796602185848, 868.5048888508767, 0.2261573231269946, 1.948750417011882, 0.42363632227642195, 8.678771301320403, 871.8361771041352, 1.127203775778837, 868.4800892234279, 10140.539943522452, 0.09108687608333699, 23379.244046614956, 8.708497176862368, 0.41524305767843556, 4110.848512554627, 199.57784037656205, 85.07289438663827, 0.12232437491732263, 0.4054090912781989, 5.3131816655420545, 0.48044382949640846, 0.08060055641253036, 0.36723169067093364, 47827.30742610575, 0.22351434936122025, 1.261123429568616, 0.19622567410861258, 4.327960860341336, 0.7869990139718835, 155383.850037125, 2.43107446391819, 0.42992406377658965, 35.96140016475422, 4110.831970396861, 0.42992406377658954, 0.7475731653346568, 0.8662048025870851, 1.601432716260378, 0.21375083461180985, 0.7192865363769918, 0.088015715360907, 2.703992927097108, 0.14191435089513352, 0.04801670574719098, 0.7074632003475282, 871.8586365301849, 1.601432716260378, 0.4658563832822701, 0.047970882542836234, 214.3195371648319, 0.7871009719888403, 2.2140630440843605, 4110.816211922031, 33.00520700474345, 10140.214462295236, 10140.49932626295, 0.992565385308932, 1.4662094072160536, 5.720865135808337, 3.477627568708073, 22.71963640955836, 2.5177842244844952, 0.9386358757472293, 0.08199323041843305, 1.7106710466758084, 0.09859629005797582, 2.656477160739345, 53502.88413678559, 7.303358237366297, 0.6364397517941597, 0.6364397517941597, 0.4885169611233239, 0.35912053623971346, 2.644232767414133, 0.0765136846367669], "bias": null, "scaled_weights": [-3.9243567949643e-12, 6.759903066767217e-08, 4.659258285329357e-16, -1.7533902071965804e-08, 0.0005329980588502657, -2.7613142724979248e-06, -0.008832878462358472, 4.940354977780673e-05, 0.00018940828771926753, -0.0005687873633472552, -0.001423128967924587, -8.598231100384856e-06, 9.32712282282483e-08, 1.1813910436640599e-09, 2.8712759288192357e-05, -3.399767329060373e-08, -1.0907232623601434e-08, 1.665552978881901e-08, -7.931835272243208e-17, 0.0016254718219155394, -0.00015382212752280118, 1.7315276178465974e-05, -1.501135874562663e-05, -0.0005330451761853503, 1.0053763051641914e-07, -1.008921557441128e-10, -0.0006748821575193787, 3.330773174585817e-05, 1.6912445123048799e-06, 4.74056996210052e-08, -3.399767330367637e-08, -3.256275155473146e-06, -2.1922805837397386e-06, 0.0005904931801729116, 7.679905315729473e-07, 1.71088686544122e-08, 0.00020810927597735132, -2.7030143189405157e-08, 2.0328447206245118e-07, 0.0005363361954804493, 1.1280011130534764e-08, 1.0330347628420434e-07, -0.00010775305459320587, -1.438706212718152e-06, 2.784529011508247e-08, 1.5629691523683952e-06, -0.0004115853166457554, -8.67466813463745e-06, 2.950888670004001e-05, 0.00027902915480183387, -0.0002557174985195593, -0.0005687879151027443, -1.3387066429994896e-08, -1.4892679661239135e-05, -1.5011358832697326e-05, 0.0001713429568674835, 1.395268500846343e-06, -0.001416138166821648, 8.086780974449987e-10, -6.286985807972471e-06, -1.4931313708561487e-06, -2.6406938508138545e-05, 4.758661485757629e-07, -4.83091211264391e-06, -0.0005435603430696665, -4.2033784011378987e-05, -1.2061594954031577e-05, 1.1818880238196185e-05, -0.0004562097069562557, 0.0017022434873382145, -1.1100798618520324e-05, 0.0017220318613975461, -0.008931196558067499, 1.6756801373665862e-05, 1.1688845139751076e-07, -1.2061594644084148e-05, 0.00019979832761598417, 3.579016749484247e-15, 2.000456970834436e-06, -6.312033087516407e-06, 4.3746424702400726e-06, 9.789034396789426e-07, -1.3888445276642252e-05, -4.1914402887562235e-07, 2.3167635963975106e-07, 2.2748344255336833e-15, -1.4517271730523784e-06, 6.972977849799022e-06, -2.3115585493872757e-05, -1.2187316236677535e-06, -1.3955837574817792e-05, -0.0006394869134956691, 0.0005549997854474188, -1.542481653423211e-05, -6.419622573371226e-05, 0.00012188873345517818, -1.6175456208028055e-09, 1.7723108023775319e-06, -6.87992874605928e-07, -6.879928791621754e-07, -7.001766012190858e-07, -0.0012062947152048, 0.0014276819353138542, 0.00027703430722573303], "columns": ["cross_abs_dist_mean", "tango_variance", "cross_total_min", "cross_abs_dist_sum", "cross_total_ge_dist_mean", "cross_compt_dist_sum", "-log_p_compt_min", "ge_distances_mean", "rsg_mean_2_first", "p_abs_max", "-log_p_compt_max", "cross_compt_dist_min", "tango_v_variance", "cross_total_ge_dist_sum", "rsg_mean_1v", "cross_abs_max", "cross_abs_ge_dist_sum", "cross_total_dist_mean", "cross_abs_min", "p_abs_mean", "rsg_sum_1", "cross_abs_ge_dist_min", "rsg_wmean_2v_first", "cross_abs_ge_dist_mean", "cross_total_dist_min", "cross_total_dist_sum", "p_abs_sum", "-log_p_compt_mean", "p_compt_sum_nonfinal", "cross_total_mean", "cross_abs_final", "-log_p_compt_mean_nonfinal", "cross_total_ge_dist_min", "rsg_mean_1", "ge_distances_sum", "cross_abs_sum", "-log_p_abs_mean", "cross_total_max", "cross_total_dist_max", "cross_compt_mean_nonfinal", "rsg_mean_2v_first", "cross_abs_dist_min", "cross_compt_sum_nonfinal", "cross_abs_ge_dist_max", "cross_abs_mean", "rsg_sum_1v_first", "cross_compt_max", "cross_compt_ge_dist_min", "distances_mean", "cross_compt_sum", "cross_compt_min", "p_abs_final", "rsg_mean_2v", "p_compt_min_nonfinal", "rsg_sum_2_first", "rsg_norm_2", "cross_compt_dist_max", "-log_p_compt_sum_nonfinal", "rsg_sum_2v", "cross_compt_dist_mean", "first_is_not_largest", "rsg_norm_2v", "cross_abs_ge_dist_final", "first_is_not_closest", "rsg_mean_2", "rsg_wmean_2v", "-log_p_abs_final", "rsg_mean_1_first", "cross_compt_ge_dist_mean", "cross_compt_mean", "cross_compt_ge_dist_sum_nonfinal", "p_compt_mean", "p_compt_max", "cross_compt_ge_dist_mean_nonfinal", "cross_total_sum", "-log_p_abs_min", "rsg_wmean_1v", "p_abs_min", "rsg_sum_1v", "tango_sigma", "cross_compt_dist_min_nonfinal", "cross_total_ge_dist_max", "rsg_mean_1v_first", "cross_abs_dist_final", "cross_abs_dist_max", "-log_p_abs_max", "cross_compt_ge_dist_max", "-log_p_abs_sum", "cross_compt_ge_dist_sum", "distances_sum", "cross_compt_dist_mean_nonfinal", "p_compt_sum", "cross_compt_min_nonfinal", "tango_v_sigma", "p_compt_mean_nonfinal", "rsg_sum_2", "rsg_sum_2v_first", "cross_compt_dist_sum_nonfinal", "rsg_sum_1_first", "rsg_wmean_1v_first", "cross_compt_ge_dist_min_nonfinal", "p_compt_min", "-log_p_compt_sum", "-log_p_compt_min_nonfinal"]}