{"model": "linear", "weights": [0.7718690175835597, -0.9058909506544092, 2.0376674753997444, 6.107420393754126, -2.163237314104816, -0.20914519627677658, -0.40742597322346663, -1.0020312226204648, -0.9636468081835845, -2.90868646850951, 2.1323800441164695, 2.9362715533437735, 1.7286158445615878, 1.6186866339949058, 1.184594477891738, -2.5646319699089073, 5.909044039443874, 1.1865019448442617, 2.3599040883066738, -2.091368252360479, 1.3091774710005841, 0.061148491837775515, 4.388456802007184, -1.0559686180462655, 2.5600817358389034, 0.9407168200742716, -0.7922672583138527, -0.09387609141190208, -0.20564644875881188, 1.7091434774354894, 0.3906181184919961, -0.1943651224693777, -0.5255893945417761, 0.2856504942424669, -3.0829203249445825, 1.7504346292447885, -0.355522374693362, 2.6314586378586533, -0.5000894004380705, 0.2511747361391606, -1.2525939428641137, 0.6483294428212073, -1.1422726848652767, 1.0890436339335836, 0.45275345692473484, -2.042465103140936, 3.391658900953476], "scale": [24.939169433900044, 233.22198261665196, 0.17451250826225634, 2.9640706279447318, 0.7710363002491839, 9.00016079759795, 0.5211129002610803, 0.6006366548505075, 294.62281748766827, 2.8263429953457044, 3.26053824141153, 8.678771301320403, 0.5538487286351177, 13.973363326582698, 887.0601153654164, 2.1173337724974375, 1.3489986976977582, 0.6434928479912737, 4.979657197203491, 0.21719403031199278, 3.7724945378172055, 8.28284233511746, 7.597408949214924, 1.2204880747996123, 1.1976369516195147, 0.543664319034312, 1884.7541411094687, 1.2176681725039065, 1.2004084842626195, 0.5532506452051402, 591.2199307556597, 0.5066134782096677, 2.0300590195458823, 0.7871009719888403, 4.1406037639947915, 0.6473992353638894, 1.7374066601320535, 4.337194179849161, 0.6287701388537806, 0.4235973599444964, 0.40725419025556187, 0.42992406377658965, 0.5487734901001236, 1.7106710466758084, 13.70100738048018, 841.4849764931672, 22.71963640955836], "bias": null, "columns": ["rth_sum_2_tango", "rc_mean_2", "rc_cap_norm_2_tango", "rc_mean_1_tango", "rc_mean_2_penalty_removed_tango", "rth_wmean_2v_tango", "rth_cap_mean_1_tango", "rth_norm_2_tango", "rc_wmean_2v", "rc_sum_2_penalty_removed_tango", "rc_wmean_1v_tango", "ge_distances_sum", "rth_mean_1_penalty_removed_tango", "rth_mean_1v", "rc_mean_1v", "rth_sum_1_penalty_removed_tango", "rth_mean_2_penalty_removed_tango", "rth_wmean_1v_penalty_removed", "rth_cap_sum_2_tango", "rth_cap_norm_2", "c_penalty_ell_mean_1", "rth_mean_2", "rth_mean_1v_penalty_removed_tango", "rc_wmean_2v_penalty_removed_tango", "rth_mean_1", "rc_cap_wmean_1v", "rth_mean_2v_tango", "rc_wmean_2v_penalty_removed", "rth_wmean_1v_tango", "rth_mean_1_penalty_removed", "rth_mean_2v_penalty_removed_tango", "rth_cap_mean_1", "rth_cap_sum_1", "tango_sigma", "rth_cap_norm_2v", "rth_wmean_1v_penalty_removed_tango", "rth_cap_wmean_2v", "rc_wmean_1v", "rth_norm_2", "rc_mean_1_penalty_removed", "rc_cap_mean_1_tango", "first_is_not_largest", "rc_wmean_1v_penalty_removed_tango", "tango_v_sigma", "rth_mean_1v_tango", "tango_v_variance", "distances_sum"]}