{"model": "linear", "weights": [2.3591433612325683, -0.792692381473541, 1.8687917472588749, -1.0908301489418544, -0.4802512982928995, 0.6013164036371649, 1.0792111108021212, 2.505176595743128, -0.6878198895387678, 0.5249813522551366, -2.793341851392956, 1.3858100631263999, 1.4070241583408674, 1.754737961407249, -1.1352164898793737, 2.8267288489463547, 4.2729714925012505, 3.305619905611436, 0.6780901897288991, 0.034149096324144625, -1.3645460966363225, -0.42940578742771435, 0.6743375922306429, 0.10854148603995127, 0.21093826172193036, -0.8131322839265457, -2.835914380339007, -0.2647712193346414, -1.800876528321792, 1.5735546974845298, -1.1910302341604038, 2.486239718935098, 2.5647621416396547, 2.6186152328389585, -0.38477017011752895, -1.022773747819372, 0.3595016363046963, -1.4325871609676104, 0.5212954860590037], "scale": [1.3475951441098866, 2.8240662861582497, 1.7329180221000564, 0.7703065474657396, 841.4849764931672, 8.28284233511746, 13.973363326582698, 1.1976369516195147, 1.2176681725039065, 8.678771301320403, 2.118218078284036, 0.1696726764555906, 0.543664319034312, 887.0601153654164, 233.22198261665196, 4.923794892770277, 0.5532506452051402, 7.595329527219522, 591.2025205456359, 0.2206275929590759, 0.6287701388537806, 0.21719403031199278, 0.42992406377658965, 0.42992406377658954, 0.66646472279015, 1.7374066601320535, 0.5066134782096677, 7.473447370602289, 0.7608165262998224, 2.5825886301091328, 0.5457937966516953, 0.6434928479912737, 22.71963640955836, 4.337194179849161, 1.2603161809186687, 294.62281748766827, 1.7106710466758084, 4.1406037639947915, 0.7871009719888403], "bias": null, "scaled_weights": [1.750632132761824, -0.2806918468446748, 1.0784074742290224, -1.416098762928366, -0.0005707188027222006, 0.07259783288252553, 0.07723345379197631, 2.091766283893864, -0.5648664431496103, 0.060490285321294864, -1.3187225055013394, 8.167549967829475, 2.588038444090105, 0.0019781499934583354, -0.004867536400911806, 0.5740955727251975, 7.723391792732338, 0.435217444320885, 0.0011469676907044854, 0.15478162031382411, -2.170182730248335, -1.9770607268113478, 1.5685039499930455, 0.2524666451244631, 0.3165032664277245, -0.46801494583009295, -5.59778707499237, -0.03542825769753207, -2.3670312960737436, 0.6092935898265903, -2.1821981881565313, 3.8636633284987396, 0.11288746419201655, 0.6037578960622023, -0.305296540616548, -0.003471468220081702, 0.21015240598318605, -0.34598508879909634, 0.6622981099131392], "columns": ["rth_mean_2_penalty_removed", "rc_sum_2_penalty_removed", "ge_distances_mean", "rc_mean_2_penalty_removed", "tango_v_variance", "rth_mean_2", "rth_mean_1v", "rth_mean_1", "rc_wmean_2v_penalty_removed", "ge_distances_sum", "rth_sum_1_penalty_removed", "rc_cap_norm_2", "rc_cap_wmean_1v", "rc_mean_1v", "rc_mean_2", "rth_cap_sum_2", "rth_mean_1_penalty_removed", "rth_mean_1v_penalty_removed", "rth_mean_2v_penalty_removed", "c_penalty_mean_1", "rth_norm_2", "rth_cap_norm_2", "first_is_not_largest", "first_is_not_closest", "c_penalty_sum_1", "rth_cap_wmean_2v", "rth_cap_mean_1", "rth_norm_2v", "rc_cap_mean_2", "rc_norm_2", "rc_wmean_1v_penalty_removed", "rth_wmean_1v_penalty_removed", "distances_sum", "rc_wmean_1v", "rth_wmean_1v", "rc_wmean_2v", "tango_v_sigma", "rth_cap_norm_2v", "tango_sigma"]}