{"model": "linear", "weights": [2.962342951705337, 0.31704156837101316, 0.82916935671681, 25.06841187722095, 1.0199645316898351, 3.501775616573269, -1.7713114295502133, -1.8956746268377633, 0.7342029339830622, 1.0992462169653678, -0.01624115587444553, 1.1267299351903604, 0.23442039702851347, 5.791217842331751, 1.5693079021499927, 2.4634297301816437, 1.7423359453772909, -0.14137928535835284, 0.6107376142498522, -0.1375285249243591, 3.3644125185447593, 2.2017186330896843, -0.19834064158898296, 0.768178059718465, 2.3012669847763987, 0.05047998317880177, -0.2522905068741386, 0.09386841842699815, 0.6020881260322787, -0.32293715444014304, -0.399956916148526, 0.025243949010301064, -2.9247643452426377, -0.17551986187309415, -2.2267678303799725, 0.7436413478497113, 1.1161956031791627, 1.2816142599424778, -0.07963022442147924, -0.0985564306451907, -0.6808253737757919, -1.3092252624831975, 2.244192731808237, -0.6803429987236842, 8.086326932676169, -0.518969508332219, -0.6012205073623639, -0.4596250898123131, -4.397554172340107, 0.18205385627993798, -0.618654275303379, 0.4314058814704385, -0.19295490843935129, 0.21841821759154392, -0.05839724071943566], "scale": [1.7329180221000564, 0.1965424031359967, 0.36723169067093364, 64.04918323177633, 2279.705619879433, 0.5249672634021163, 1.5283808388405522, 33.00081661434636, 1.2611234295686164, 9.042306375338375, 1.219806058017803, 0.6084299906471051, 0.09199963182429603, 0.4261549263658497, 1.127203775778837, 0.7189532086956002, 0.09108687608333699, 0.3603939169090687, 8.708497176862368, 0.4054090912781989, 5.3131816655420545, 0.12322559836652847, 0.6190903372034923, 0.36723169067093364, 1.0853101433917658, 0.703109635127457, 0.22351434936122025, 1.261123429568616, 0.7166259968023543, 4.327960860341336, 0.7869990139718835, 0.42992406377658965, 0.13723654301068527, 0.42992406377658954, 0.7475731653346568, 0.08007009097541598, 1.601432716260378, 0.21375083461180985, 2.1141216087222126, 0.3603939169090687, 1.6056431289339848, 2.703992927097108, 1.601432716260378, 1.6056431289339848, 0.4658563832822701, 2.450009951910144, 0.7871009719888403, 0.0407740817417473, 33.00520700474345, 10140.49932626295, 1.4662094072160536, 0.3520591394200337, 1.7106710466758084, 163.05354084554054, 0.4885169611233239], "bias": null, "scaled_weights": [1.7094536001855343, 1.613095002973163, 2.2578916193259753, 0.391393154640322, 0.0004474106317919145, 6.67046473313321, -1.1589463728778169, -0.057443264177094985, 0.5821816618173574, 0.12156701745512716, -0.013314539444768434, 1.8518645571563777, 2.5480579908865, 13.589465905552032, 1.3922131347241857, 3.4264117614149807, 19.128287414129748, -0.39229098695920656, 0.07013122951598616, -0.33923394389294687, 0.6332199292872324, 17.867380335543437, -0.32037431319783183, 2.0918076495930973, 2.120377293797859, 0.071795322744583, -1.128744116854947, 0.07443238007171676, 0.8401706451047642, -0.07461646832330035, -0.5082051045146735, 0.05871722738325041, -21.311848004032825, -0.40825782193085897, -2.978662067656138, 9.287379829230273, 0.6969981266435421, 5.995832775436882, -0.037665867513462584, -0.2734686297994801, -0.4240203576418653, -0.48418220675182244, 1.401365607821985, -0.4237199328193034, 17.35798246597499, -0.21182342868754706, -0.7638416527973594, -11.272481688820411, -0.13323819395249054, 1.7953145148231056e-05, -0.4219412808693138, 1.2253790149607167, -0.11279486422261195, 0.0013395490613629173, -0.11953984276237553], "columns": ["ge_distances_mean", "-log_p_compt_mean_nonfinal_tango", "p_abs_max", "rsg_mean_1v", "cross_total_dist_mean", "-log_p_compt_mean_tango", "rsg_sum_1", "rsg_mean_1v_first_tango", "rsg_wmean_2v_first", "cross_total_dist_min", "cross_total_ge_dist_min_tango", "-log_p_compt_mean", "p_compt_mean_nonfinal_tango", "rsg_mean_1_tango", "-log_p_abs_mean", "cross_compt_ge_dist_mean_tango", "cross_compt_mean_nonfinal", "p_abs_max_tango", "cross_abs_dist_min", "cross_compt_ge_dist_min", "distances_mean", "cross_compt_max_tango", "p_abs_sum_tango", "p_abs_final", "cross_abs_ge_dist_min_tango", "cross_compt_ge_dist_mean_nonfinal_tango", "p_compt_min_nonfinal", "rsg_sum_2_first", "-log_p_compt_sum_nonfinal_tango", "cross_compt_dist_max", "-log_p_compt_sum_nonfinal", "first_is_not_largest", "p_abs_mean_tango", "first_is_not_closest", "rsg_mean_2", "cross_compt_min_nonfinal_tango", "-log_p_abs_final", "rsg_mean_1_first", "cross_compt_dist_min_nonfinal_tango", "p_abs_final_tango", "-log_p_abs_min_tango", "cross_compt_ge_dist_sum_nonfinal", "-log_p_abs_min", "-log_p_abs_final_tango", "rsg_wmean_1v", "cross_compt_dist_mean_nonfinal_tango", "tango_sigma", "p_abs_min_tango", "rsg_mean_1v_first", "cross_abs_dist_max", "cross_compt_ge_dist_max", "p_compt_min_tango", "tango_v_sigma", "cross_total_mean_tango", "cross_compt_ge_dist_min_nonfinal"]}