{"model": "linear", "weights": [1.6221253438441818, 5.818057999316313, 4.59928212222546, -3.717091871377482, -0.004776737266996088, 2.757602767900693, -0.8316635934027089, 1.5588701459459298, -5.591983932023883, 1.4084256775289425, -2.2657995333586767, 3.408891812570528, -0.6652814430245406, 0.00030687660161622795, -0.797024966090507, 1.2506521985250771, 1.621101949862232, -5.695402428973104, -0.17546720243113648, -0.645768178335288, 5.700234033168052, -0.5300273815272364, 5.172411874403255, 5.400771542953931, 4.199422813861832, 0.6748568608897255, -0.9513470108234006, 9.594299691068255], "scale": [0.66646472279015, 4.337194179849161, 2.5825886301091328, 233.22198261665196, 294.62281748766827, 887.0601153654164, 1.6100771955661388, 0.4235973599444964, 2.8240662861582497, 0.7703065474657396, 0.5457937966516953, 1.1976369516195147, 0.6287701388537806, 25.37585494580248, 9.623400619381812, 40.20285830429307, 13.973363326582698, 0.5066134782096677, 0.5893559489137365, 0.21719403031199278, 4.923794892770277, 1.7374066601320535, 0.5532506452051402, 1.3475951441098866, 0.6434928479912737, 1.828008201640765, 4.1406037639947915, 7.595329527219522], "bias": null, "scaled_weights": [2.4339252902286637, 1.3414335992488706, 1.7808806515310598, -0.015937999624534894, -1.6213059489854424e-05, 0.0031086988583233994, -0.5165364714766223, 3.6800752161207693, -1.980117803690437, 1.8283963470939915, -4.15138381428806, 2.8463482259467905, -1.0580678087501394, 1.2093251725770509e-05, -0.08282155109341237, 0.031108539324715773, 0.11601372640030581, -11.242106011668321, -0.29772704043209625, -2.973231710870051, 1.1576912030876507, -0.3050681188749162, 9.349129403157537, 4.007710747964477, 6.525982109934468, 0.3691760574618836, -0.22976045645709298, 1.2631841260718164], "columns": ["c_penalty_sum_1", "rc_wmean_1v", "rc_norm_2", "rc_mean_2", "rc_wmean_2v", "rc_mean_1v", "rc_sum_1_penalty_removed", "rc_mean_1_penalty_removed", "rc_sum_2_penalty_removed", "rc_mean_2_penalty_removed", "rc_wmean_1v_penalty_removed", "rth_mean_1", "rth_norm_2", "rth_sum_2", "rth_wmean_2v", "rth_sum_1v", "rth_mean_1v", "rth_cap_mean_1", "rth_cap_wmean_1v", "rth_cap_norm_2", "rth_cap_sum_2", "rth_cap_wmean_2v", "rth_mean_1_penalty_removed", "rth_mean_2_penalty_removed", "rth_wmean_1v_penalty_removed", "rth_wmean_2v_penalty_removed", "rth_cap_norm_2v", "rth_mean_1v_penalty_removed"]}