{"model": "linear", "weights": [-0.0001904406932586291, 0.002036810493458139, -0.00013843757917376934, -0.0012287247377711444, -0.00036137920349679645, -0.007990019525793228, -0.00022521256986880888, -0.0002706548903133411, 0.00041872903215176715, -5.822904814357325e-06, -0.0004011139286026513, -3.3545292817179244e-06, -2.6098661875386353e-07, 7.634795130767968e-05, -1.542377789567943e-05, 1.4528411757448904e-05, 0.00034612503685709905, -1.7622779276310065e-05, -0.000791884810549385, 0.0003505309287783399, -6.136214607233419e-05, -1.6002769030879704e-06, 5.027206274789541e-05, -1.106267343364535e-05, -2.4980735502605165e-05, -0.00051071848361987, -0.00013878799237418939, 0.0005083808073369538, -0.00010336101910810838, 6.986434925991373e-07, 0.00013241253727046037, 0.00016135907298300736, 6.4838305299396075e-06, -0.00018073516806095375, 8.548864846042466e-05, 0.00010114920749291524, 0.0002206174140018536, -0.00012162179220447907, -2.345037095899956e-05, 0.00010609034875640347, 4.090162589893052e-05, -7.077823576409022e-05, 7.32773168628055e-05, 0.0002231071201763243, -0.005477449177623524, -4.752595056868092e-05, -0.002274022449673399, 1.8752050183326053e-06, -1.091032260119529e-07, -0.0009377976597382985, -0.003908986125662522, 0.0006866489114720349, -0.0003428125972257112, 0.10709308149026235, -0.00016101283236792213, -9.03849706782491e-05, 0.0013201577294563549, 0.5431245670077632, -0.0010557169719711706, -6.647940318871657e-05, 5.045880895106941e-05, -5.49457546303301e-05, 0.000838009190159022, 0.1276390105549457, -0.00054848880714457, 5.5859150380243585e-05, -0.000834132850714054, -0.0003403128432268367, 8.894744613114891e-05, 0.011185276130475572, 0.0004681878270643442, -0.0052517851220385495, -0.001596653702427085, 1.6530068131072648e-06, 4.98610783306959e-07, 0.0033477221658209607, -0.0003236502319325873, 0.007502303313846457, 4.4720844032597474e-05, 0.00011541783772845396, 0.00022642965437818976, 0.00012780081974840456, 0.00017665615014485274, 0.002094625085050826, -0.00016221216890827675, -8.289122204443472e-05, -0.00038570828729828056, -0.00013595985211895223, 9.393052981237553e-08, 1.9257175256890294e-05, 1.4583663437367368e-05, -0.0012928019699226384, 0.0008480801652784754, 2.0169213581754228e-05, 2.4360501418022375e-05, -0.0001489994202696835, 0.0011215747144543659, 0.00033337179316422343, 0.00045486336434602347, 2.2559106894886255e-05, 4.11391665391267e-05, -0.000843489556028625, -7.616531996664354e-05, 5.37243237008451e-05, 3.451343592032344e-05, 2.0357412432735533e-07, -0.00011301576966334483, 3.053637713076734e-05, 0.002179359383812899, -0.0002111290616541013, 5.6719258153250374e-05, -0.0001645807691097028, 0.0039076321099682015, -0.004021283562814523, -0.0009270920179366777, -9.68604120873958e-07, -9.058578117797187e-06, -0.0012317305879536767, -4.925954315749808e-07, 0.001301406336146652, -0.00015122287688805868, 0.0006174813607596435, -1.8288021829775488e-07, 0.0040498048446341835, 8.299313640127765e-05, 0.0009650002797927874, 2.3842135608031846e-05, 0.000761966240376541, -7.115531380364063e-05, 0.00033058421687027215, -0.12064087101857979, 9.020173798052386e-08, -0.00042394165251047794, -0.0033481249555923544, 0.0003272745770158075, -5.108424206035511e-05, 0.0002833072964883539, 0.00018976954620410268, -1.3516629174147787e-05, 5.973121110785456e-06, -4.855693193303743e-08, 7.913051484633822e-07], "scale": [2.8240662861582497, 1881.141068108714, 0.7608165262998224, 720.368414096746, 0.4235973599444964, 688.1632898444103, 24.36621967061161, 2.826731617025389, 0.4238674140321679, 1.7374066601320535, 0.5538487286351177, 1.8320217614689693, 1.1976369516195147, 7.597408949214924, 0.5511591954241813, 0.17451250826225634, 4.1406037639947915, 1.2111110898248543, 2.0745342454857685, 1.3489986976977582, 8.28284233511746, 11.755027968701482, 1.7404184751578247, 0.6006366548505075, 294.62281748766827, 7.473447370602289, 200.82250330110892, 200.8005382687225, 24.586307597671478, 21036873.461330827, 1.3328099433111336, 2.9640706279447318, 290993301.3966436, 0.5066134782096677, 1.2176681725039065, 5011.190796000346, 4.979657197203491, 11.73617963181699, 1.2068847869736086, 0.6434928479912737, 3.26053824141153, 1.828008201640765, 0.543664319034312, 0.5211129002610803, 200.80334788715354, 1.2004084842626195, 233.22198261665196, 3.7724945378172055, 6101106.625306113, 7.674625597300401, 591.2025205456359, 13.973363326582698, 759.0206829420099, 21036899.35737111, 182.10585878306313, 4959.802184146053, 730.3230570802035, 21036873.33102735, 4.144865164748456, 0.21719403031199278, 1.2603161809186687, 40.00419058692647, 2.0300590195458823, 304020918.855084, 13.70100738048018, 40.20285830429307, 2.118218078284036, 530.412602629557, 0.7703065474657396, 143.33932827752028, 592.1601781106464, 1878.2770520954314, 688.1331106483699, 638366286.2120825, 21036899.499552067, 2134.953064058175, 4.923794892770277, 688.2556848410459, 7.595329527219522, 2.8263429953457044, 649.8851714283896, 3.737708991950296, 4.9746442137544005, 2476.5963756571095, 4.977471157767449, 1.3475951441098866, 200.82964186738758, 1929.7669813595455, 3.977608728955865, 0.1696726764555906, 9.00016079759795, 1881.2682671787154, 1.6100771955661388, 0.6030619551577623, 0.5487734901001236, 592.2056188835788, 887.0601153654164, 0.5532506452051402, 7.346704168032263, 2.5825886301091328, 4.337194179849161, 1.6097439548761938, 0.5893559489137365, 0.22391579856011207, 25.37585494580248, 1.1324002276843517, 0.5457937966516953, 2.165258198484743, 229.96953846920044, 0.7710363002491839, 7.554401770805783, 1.333418967849009, 591.2199307556597, 143.3601004509824, 1.5608084364073767, 0.2206275929590759, 24.939169433900044, 688.2178717350724, 6101106.645181805, 7.681419479357841, 10.622483783103313, 24.362502108964613, 6101112.27388476, 1878.2357793468932, 1884.7541411094687, 1.588895840759247, 0.6473992353638894, 2.1173337724974375, 220.5670572264869, 2.7973640163755675, 6101112.302332298, 593823596.2896891, 0.40725419025556187, 623.2785034999596, 0.3979341355844085, 1.2204880747996123, 24.61753608134031, 0.7644269497396028, 9.623400619381812, 0.6287701388537806, 4.0131209642953936, 0.66646472279015], "bias": null, "scaled_weights": [-6.743492324951665e-05, 1.082752659004959e-06, -0.0001819592166945305, -1.7056893580096998e-06, -0.0008531195839939788, -1.1610644804374444e-05, -9.2428194817779e-06, -9.574835073948591e-05, 0.0009878773840349738, -3.351492168169051e-06, -0.0007242301153080917, -1.8310531852133477e-06, -2.179179745589364e-07, 1.0049209120902867e-05, -2.798425214299297e-05, 8.325140645858861e-05, 8.359289045401507e-05, -1.455091892425706e-05, -0.00038171691418087866, 0.0002598452684769574, -7.408344091275523e-06, -1.3613552493016697e-07, 2.8885043146497648e-05, -1.8418245613729217e-05, -8.478886908903707e-08, -6.833773736453181e-05, -6.910978107174257e-07, 2.531770142252359e-06, -4.204007401172248e-06, 3.321042425260374e-14, 9.934840142436553e-05, 5.443833607126047e-05, 2.228171747878728e-14, -0.0003567515982789436, 7.020685141554885e-05, 2.018466500490201e-08, 4.430373523015789e-05, -1.0362979778765507e-05, -1.943049677327017e-05, 0.00016486639919553877, 1.2544439865616686e-05, -3.871877363600547e-05, 0.00013478412008528516, 0.0004281358608941488, -2.7277678560925754e-05, -3.959148172621831e-05, -9.750463589065787e-06, 4.97072957835908e-07, -1.7882530614924113e-14, -0.0001221945810709222, -6.611923985125805e-06, 4.9139845248692935e-05, -4.51651193346865e-07, 5.090725570864038e-09, -8.841716210774501e-07, -1.822350314033966e-08, 1.8076352877783732e-06, 2.5817741945838838e-08, -0.0002547047804956136, -0.00030608301293189727, 4.003662709010767e-05, -1.3734999714826524e-06, 0.00041280040732337035, 4.198362765155206e-10, -4.0032735689640005e-05, 1.3894323124353238e-06, -0.00039378988370724477, -6.416002212988763e-07, 0.00011547019355317757, 7.803354644455763e-05, 7.906438905739155e-07, -2.796065211029218e-06, -2.3202686772660783e-06, 2.5894331339391743e-15, 2.3701723883672868e-14, 1.568054221977846e-06, -6.573186718395003e-05, 1.0900459638890058e-05, 5.887939933656672e-06, 4.0836458249589276e-05, 3.4841486516843827e-07, 3.4192287313871236e-05, 3.5511313483769534e-05, 8.457676453213188e-07, -3.2589273501894874e-05, -6.15104784302158e-05, -1.9205744914536698e-06, -7.045402550268882e-08, 2.3614823933934947e-08, 0.00011349603046976504, 1.6203780982734882e-06, -6.871970321709709e-07, 0.0005267326110909059, 3.344467912335461e-05, 4.439081307221639e-05, -2.5160082160411784e-07, 1.2643728367748146e-06, 0.0006025691900288923, 6.191393500302787e-05, 8.735075587292805e-06, 9.485202836954245e-06, -0.000523989888872419, -0.0001292348369555387, 0.0002399309206689244, 1.3600895809830614e-06, 1.7977223895799158e-07, -0.00020706679034585506, 1.4102880271801684e-05, 9.476730693638271e-06, -0.000273825060617598, 7.50810717698967e-06, -0.0001234276495820324, 6.609439071131643e-06, -2.8050228411980486e-05, -0.000593981936739547, -4.390222038335993e-06, -3.632269367192228e-07, -1.789739323171526e-06, -8.073870204579945e-14, 0.0001694226359651235, -1.4236112756284158e-05, 2.534556417882999e-05, -2.997489803302859e-14, 2.1561749004922034e-06, 4.403393237933059e-08, 0.0006073401761387116, 3.682756219912846e-05, 0.0003598706308253831, -3.226017280113393e-07, 0.00011817704629610446, -1.977358636268044e-08, 1.5189988835761946e-16, -0.0010409755446455795, -5.371795973696005e-06, 0.0008224340355601061, -4.185558475755075e-05, 1.1508353051753875e-05, 0.0002482507272522855, -1.4045585036670819e-06, 9.499689539446298e-06, -1.2099543563487587e-08, 1.1873173799066042e-06], "columns": ["rc_sum_2_penalty_removed", "rth_cap_sum_2v", "rc_cap_mean_2", "c_penalty_ell_sum_2", "rc_mean_1_penalty_removed", "rc_cap_sum_1v", "rth_sum_1v_penalty_removed_tango", "rc_cap_sum_2_tango", "rc_mean_1_penalty_removed_tango", "rth_cap_wmean_2v", "rth_mean_1_penalty_removed_tango", "rth_wmean_2v_penalty_removed_tango", "rth_mean_1", "rth_mean_1v_penalty_removed_tango", "rc_cap_wmean_1v_tango", "rc_cap_norm_2_tango", "rth_cap_norm_2v", "rc_cap_wmean_2v_tango", "rth_cap_sum_1_tango", "rth_mean_2_penalty_removed_tango", "rth_mean_2", "c_penalty_ell_sum_1", "rth_cap_wmean_2v_tango", "rth_norm_2_tango", "rc_wmean_2v", "rth_norm_2v", "rc_mean_1v_penalty_removed_tango", "rc_mean_1v_penalty_removed", "rth_cap_sum_1v", "rc_cap_sum_2v", "rth_cap_mean_2", "rc_mean_1_tango", "rc_mean_2v_tango", "rth_cap_mean_1", "rc_wmean_2v_penalty_removed", "rth_sum_2v", "rth_cap_sum_2_tango", "rc_sum_1", "rc_cap_wmean_2v", "rth_wmean_1v_penalty_removed", "rc_wmean_1v_tango", "rth_wmean_2v_penalty_removed", "rc_cap_wmean_1v", "rth_cap_mean_1_tango", "rc_cap_mean_1v", "rth_wmean_1v_tango", "rc_mean_2", "c_penalty_ell_mean_1", "rc_mean_2v_penalty_removed", "rth_cap_mean_1v", "rth_mean_2v_penalty_removed", "rth_mean_1v", "rc_mean_1v_tango", "rc_sum_2v_penalty_removed_tango", "rc_mean_2_tango", "rth_sum_2v_tango", "rc_sum_2", "rc_sum_2v_penalty_removed", "rth_cap_norm_2v_tango", "rth_cap_norm_2", "rth_wmean_1v", "rth_sum_1v_tango", "rth_cap_sum_1", "rc_mean_2v", "rth_mean_1v_tango", "rth_sum_1v", "rth_sum_1_penalty_removed", "rc_norm_2v_tango", "rc_mean_2_penalty_removed", "rc_cap_norm_2v", "rth_cap_mean_2v", "rth_sum_2v_penalty_removed_tango", "rc_sum_1v_penalty_removed", "rc_sum_2v", "rc_cap_sum_2v_tango", "rc_sum_1v_tango", "rth_cap_sum_2", "rc_cap_sum_1v_tango", "rth_mean_1v_penalty_removed", "rc_sum_2_penalty_removed_tango", "rc_sum_2_tango", "rc_mean_1", "rth_sum_2_penalty_removed", "rc_sum_1v", "rth_sum_2_penalty_removed_tango", "rth_mean_2_penalty_removed", "rc_cap_mean_1v_tango", "rth_mean_2v", "rth_sum_1", "rc_cap_norm_2", "rth_wmean_2v_tango", "rth_cap_sum_2v_tango", "rc_sum_1_penalty_removed", "rth_cap_wmean_1v_tango", "rc_wmean_1v_penalty_removed_tango", "rth_cap_mean_2v_tango", "rc_mean_1v", "rth_mean_1_penalty_removed", "rth_norm_2v_tango", "rc_norm_2", "rc_wmean_1v", "rc_sum_1_penalty_removed_tango", "rth_cap_wmean_1v", "rth_cap_norm_2_tango", "rth_sum_2", "rth_mean_1_tango", "rc_wmean_1v_penalty_removed", "rc_norm_2_tango", "c_penalty_ell_mean_2", "rc_mean_2_penalty_removed_tango", "rth_mean_2_tango", "rth_cap_mean_2_tango", "rth_mean_2v_penalty_removed_tango", "rc_cap_norm_2v_tango", "rc_cap_sum_1", "c_penalty_mean_1", "rth_sum_2_tango", "rc_sum_1v_penalty_removed_tango", "rc_cap_mean_2v", "rth_cap_mean_1v_tango", "rc_sum_1_tango", "rth_sum_1v_penalty_removed", "rc_mean_2v_penalty_removed_tango", "rth_sum_2v_penalty_removed", "rth_mean_2v_tango", "rc_cap_sum_1_tango", "rth_wmean_1v_penalty_removed_tango", "rth_sum_1_penalty_removed_tango", "rc_wmean_2v_tango", "rc_cap_sum_2", "rc_cap_mean_2v_tango", "rc_sum_2v_tango", "rc_cap_mean_1_tango", "rc_norm_2v", "rc_cap_mean_1", "rc_wmean_2v_penalty_removed_tango", "rth_cap_sum_1v_tango", "rc_cap_mean_2_tango", "rth_wmean_2v", "rth_norm_2", "rth_sum_1_tango", "c_penalty_sum_1"]}