{"model": "linear", "weights": [19.49001875118241, 1.1927714731414512, 4.336183674507178, -0.17339105459762874, 10.118278114672016, -0.07859554346954668, 0.537122608785283, 2.654480840230661, 2.821815328072127, -1.2014601017937803, -0.24839477282968767, 0.8234152821845782, -0.6258775513447845, 0.18122713185034486, -0.9573269639457451, 10.203079774186582, 1.922638832042344, 0.5053440386599298, -0.5443919058158156, -1.4042199925405376, 15.569115241991145, -1.559182539560554, 14.80004989403671, -0.8821096199339544, 2.8194082425116007, 2.5188453882385016, -0.07215103340397354, 6.0652068884095405, 10.495202912170983, -0.49700111706087197, 3.6158105121979034, 7.309746936920627, 6.130495927748517, 4.490321269030392, 0.20832713768243696, -0.6087669834672594, 10.398894606536764, 3.3559930580203794, 0.28032044264358313, 0.6327021791303683, 4.450920994885905], "scale": [1.7329180221000564, 13.973363326582698, 0.7189532086956002, 233.22198261665196, 0.21409776147376652, 0.21719403031199278, 0.42992406377658965, 0.1332182274311604, 1.1620358667906252, 0.7608165262998224, 0.0407740817417473, 1.2603161809186687, 0.7871009719888403, 2.164621584344692, 9.00016079759795, 5.3131816655420545, 0.17451250826225634, 1.0853101433917658, 0.42992406377658954, 1.7374066601320535, 33.6385215388613, 1.3328099433111336, 0.46834287931577423, 0.6006366548505075, 7.597408949214924, 1.601432716260378, 0.7074632003475282, 2.4218667523384307, 0.4658563832822701, 1.7106710466758084, 1.1976369516195147, 0.6084299906471051, 1.127203775778837, 0.5532506452051402, 0.6473992353638894, 0.13723654301068527, 2.9640706279447318, 1.601432716260378, 0.5457937966516953, 0.6434928479912737, 4.337194179849161], "bias": null, "scaled_weights": [11.24693638280893, 0.08536037067556543, 6.031246014430249, -0.0007434593113918957, 47.260083641331356, -0.36186788079141274, 1.2493429748198488, 19.92580813764652, 2.4283375485350316, -1.5791719294492679, -6.091977114358018, 0.6533402448141028, -0.7951680579981019, 0.08372231578999466, -0.10636776225167509, 1.9203333174841966, 11.017197856975466, 0.46562177801144455, -1.2662513026921642, -0.8082275869909514, 0.46283589556707305, -1.1698461190100649, 31.60088590576812, -1.468624355191081, 0.371101287472875, 1.572869944933085, -0.1019855638689485, 2.504352017943715, 22.52883783243508, -0.2905299169157326, 3.01912070039956, 12.014113454772723, 5.438675827281252, 8.116251301189939, 0.32179083060754726, -4.435895644936646, 3.508315391845873, 2.0956191439982583, 0.5136013717328358, 0.9832310974479521, 1.0262212873855465], "columns": ["ge_distances_mean", "rth_mean_1v", "cross_compt_ge_dist_mean_tango", "rc_mean_2", "rsg_mean_1_first_tango", "rth_cap_norm_2", "first_is_not_largest", "p_compt_mean_tango", "cross_compt_dist_min_tango", "rc_cap_mean_2", "p_abs_min_tango", "rth_wmean_1v", "tango_sigma", "-log_p_compt_max", "rth_wmean_2v_tango", "distances_mean", "rc_cap_norm_2_tango", "cross_abs_ge_dist_min_tango", "first_is_not_closest", "rth_cap_wmean_2v", "rsl_norm_2v", "rth_cap_mean_2", "rsg_wmean_1v_tango", "rth_norm_2_tango", "rth_mean_1v_penalty_removed_tango", "-log_p_abs_final", "cross_compt_ge_dist_mean_nonfinal", "-log_p_compt_sum_tango", "rsg_wmean_1v", "tango_v_sigma", "rth_mean_1", "-log_p_compt_mean", "-log_p_abs_mean", "rth_mean_1_penalty_removed", "rth_wmean_1v_penalty_removed_tango", "p_abs_mean_tango", "rc_mean_1_tango", "-log_p_abs_min", "rc_wmean_1v_penalty_removed", "rth_wmean_1v_penalty_removed", "rc_wmean_1v"]}