{"model": "linear", "weights": [2.4672192792069483, 10.383612980883399, 6.949016978598318, 1.2522694972285544, 0.9346583732364063, 0.030229606702970667, -0.5360818870508003, 0.5019568111603633, 1.6566245090158978, 0.05401388404335477, -1.7844619138254971, 1.6797890098858468, 1.9514565826004076, 0.5684494578128878, 0.31291257716648346, 0.6636400700694768, 0.09325361841876674, -0.10058360356091953, -1.2566728591201612, 3.4485484797662043, 0.09723188318842095, 1.3490293380925185, -0.05892583237695934, 2.093652339536894, 0.6932604943190848, 3.691267916266702, 1.27705855784007, 3.2408289435211994, 0.2759464062835452, -0.4744761829021559, 0.20443325534230392, 0.5914840502634876, 2.115656944840195, 2.6129863336827874, -0.10247318726781604, 1.6618012931644985, -0.2940873650347625, -0.17984948238097934, -0.07409404741226062, -0.03160672078949932, 3.358755522661215, 1.4440416353879257, 2.459603780989866, 0.24095707998785904, 0.10878975422591657, 7.273097201793899, -0.2774109853953328, -0.8712786331810211, 0.6000768828573214, 1.1345002823393338, 0.2762547650422499, -0.5548243611528257, -0.29510114157326245, -0.7085676727246647, 0.2892831870484033, 2.325104145339851, 1.5002587352540722, 8.756266555947786, -1.2495440505035555, 1.1449772879401239, -0.24404158334943013, -0.927961047605872, -1.9065545679630362, -0.4702203859462606, 2.166329289063596, -0.20671097311880215, 1.5391805721674297, 1.6514486609829584, -0.05375131357366083, -1.1989771566450373, -1.598342118788868, -0.7679349050217071, 0.5364871656006408, -1.0685578257345485, -0.1327032552530181, 0.6963812496501046, 0.014986611707967105, 0.3330612312988884, 0.3794082338464583, -0.502867903741032, -0.4086008576811572, -0.008470484954338133, -0.39340076531327084, -0.4155926991032323], "scale": [0.21375083461180985, 0.4658563832822701, 33.6385215388613, 0.5402900929110258, 2.3616681510432023, 0.10729707811961062, 233.22198261665196, 0.4235973599444964, 4.337194179849161, 887.0601153654164, 0.7608165262998224, 1.1976369516195147, 0.5532506452051402, 1.2603161809186687, 40.20285830429307, 13.973363326582698, 5011.190796000346, 0.21719403031199278, 1.7374066601320535, 5.3131816655420545, 2279.4260227014133, 0.7192865363769918, 0.4054090912781989, 0.36723169067093364, 1.601432716260378, 1.127203775778837, 1.601432716260378, 0.6084299906471051, 2.164621584344692, 0.7869990139718835, 2279.705619879433, 9.042306375338375, 0.010574343179804935, 0.009608066564835288, 0.4345987659182585, 0.0014399321938973852, 2.408311267020082, 0.2427239857622152, 0.3051155509269348, 0.42992406377658965, 0.4261549263658497, 0.21409776147376652, 0.46834287931577423, 0.1975518750113046, 0.048318954857064764, 2.9640706279447318, 2.8263429953457044, 0.7710363002491839, 3.26053824141153, 0.17451250826225634, 0.5511591954241813, 0.6006366548505075, 9.00016079759795, 7.346704168032263, 4.979657197203491, 5.3131816655420545, 1.0853101433917658, 0.7189532086956002, 1.4648632309127814, 1.1620358667906252, 2.450009951910144, 0.703109635127457, 0.13723654301068527, 0.0407740817417473, 0.1332182274311604, 0.21507922493230253, 2.4218667523384307, 0.1965424031359967, 0.5762104322617511, 0.011983623107134257, 0.0032317009168008263, 0.0034174643238435395, 0.5466373347610649, 0.00804407074967813, 0.0024075257322314927, 0.005098363857757737, 0.001393849090593702, 0.002247852235737195, 1.0779927855001366, 2.4083112670200806, 2.408311267020082, 0.42992406377658965, 0.42992406377658954, 0.047594898481148146], "bias": null, "scaled_weights": [11.542501266428426, 22.28930063751385, 0.20657914381196524, 2.317772459016339, 0.3957619417544106, 0.28173746417653495, -0.002298590729039297, 1.184985693079235, 0.3819576528790583, 6.0890894661749315e-05, -2.3454562987795518, 1.402586157361242, 3.527255864070119, 0.45103718131947973, 0.007783341542486023, 0.047493223682732046, 1.8609073614438426e-05, -0.4631048257469792, -0.723303811339509, 0.6490552548073624, 4.265630128815878e-05, 1.8755103423560626, -0.14534906504236086, 5.701175559526966, 0.4329001695044471, 3.2747121643699564, 0.7974475261266187, 5.3265437163515985, 0.12748020636922736, -0.6028929826830851, 8.967528682633848e-05, 0.06541296276762724, 200.0745492051661, 271.9575594163863, -0.23578803094689343, 1154.0830187750664, -0.12211351956952425, -0.7409629576418091, -0.24283930198629478, -0.07351698463178784, 7.881536302545891, 6.744776897468237, 5.2517159748072295, 1.2197154796636105, 2.2514922880210086, 2.4537530021128475, -0.09815191781470291, -1.1300098748910274, 0.18404227720314675, 6.500968289530362, 0.5012249951298364, -0.923727109679838, -0.032788429919165654, -0.09644701304400652, 0.058092992266789135, 0.4376105113098259, 1.3823318103021929, 12.17918836725733, -0.853010727646528, 0.9853200926597777, -0.09960840492062643, -1.319795663783863, -13.892470082218491, -11.532335391990367, 16.261508134711008, -0.9610922355883776, 0.6355347876514162, 8.40250569155932, -0.09328417287183652, -100.05130718198619, -494.5823143718147, -224.70897491565597, 0.981431621085924, -132.8379447405165, -55.12018146946983, 136.5891625389745, 10.751961463477832, 148.16865005793375, 0.35195804549882137, -0.20880519500423822, -0.16966281031718067, -0.01970228156091264, -0.9150470942647722, -8.731874893437253], "columns": ["rsg_mean_1_first", "rsg_wmean_1v", "rsl_norm_2v", "rsl_wmean_1v", "rlg_norm_2v", "rlg_wmean_1v", "rc_mean_2", "rc_mean_1_penalty_removed", "rc_wmean_1v", "rc_mean_1v", "rc_cap_mean_2", "rth_mean_1", "rth_mean_1_penalty_removed", "rth_wmean_1v", "rth_sum_1v", "rth_mean_1v", "rth_sum_2v", "rth_cap_norm_2", "rth_cap_wmean_2v", "distances_mean", "cross_abs_dist_mean", "cross_compt_ge_dist_mean", "cross_compt_ge_dist_min", "p_abs_final", "-log_p_abs_final", "-log_p_abs_mean", "-log_p_abs_min", "-log_p_compt_mean", "-log_p_compt_max", "-log_p_compt_sum_nonfinal", "cross_total_dist_mean", "cross_total_dist_min", "klein-nishina_rel_sum_mean", "klein-nishina_rel_sum_min", "-log_klein-nishina_rel_geo_min", "klein-nishina_geo_mean", "final_r", "first_energy_ratio", "final_energy_ratio", "first_is_not_largest", "rsg_mean_1_tango", "rsg_mean_1_first_tango", "rsg_wmean_1v_tango", "rsg_norm_2_tango", "rlg_wmean_1v_tango", "rc_mean_1_tango", "rc_sum_2_penalty_removed_tango", "rc_mean_2_penalty_removed_tango", "rc_wmean_1v_tango", "rc_cap_norm_2_tango", "rc_cap_wmean_1v_tango", "rth_norm_2_tango", "rth_wmean_2v_tango", "rth_norm_2v_tango", "rth_cap_sum_2_tango", "distances_mean_tango", "cross_abs_ge_dist_min_tango", "cross_compt_ge_dist_mean_tango", "cross_compt_ge_dist_max_tango", "cross_compt_dist_min_tango", "cross_compt_dist_mean_nonfinal_tango", "cross_compt_ge_dist_mean_nonfinal_tango", "p_abs_mean_tango", "p_abs_min_tango", "p_compt_mean_tango", "p_compt_min_nonfinal_tango", "-log_p_compt_sum_tango", "-log_p_compt_mean_nonfinal_tango", "-log_klein-nishina_rel_sum_min_tango", "klein-nishina_rel_geo_sum_tango", "klein-nishina_rel_geo_mean_tango", "klein-nishina_rel_geo_min_tango", "-log_klein-nishina_rel_geo_mean_tango", "klein-nishina_sum_sum_tango", "klein-nishina_sum_max_tango", "klein-nishina_geo_sum_tango", "klein-nishina_geo_mean_tango", "klein-nishina_geo_max_tango", "-log_klein-nishina_geo_max_tango", "first_r_tango", "final_r_tango", "first_is_not_largest_tango", "first_is_not_closest_tango", "escape_probability_tango"]}