{"model": "linear", "weights": [0.4374508961469863, 4.2093208574326884e-11, 3.520590197430126e-11, 0.1662513226710826, -1.2700585049699975e-11, -7.395925322437156e-11, 4.053258768989272e-11, 3.962854737636689e-10, 1.6735501448679366, 1.0147142734360757, -3.209369901879301e-11, -0.6884256337597046, -1.140863074717742e-09, 1.778406851337584e-10, 0.47014531226313155, 6.527487912944146e-10, 1.0981878559022404e-11, 9.938381217104775e-12, 2.4564437073298587e-11, -1.6558025507664264e-10, -6.390624332372962e-11, 0.035875317237177254, 2.6659264922613545e-11, -3.973325585129559e-11, -8.396768622020007e-12, -0.6625941310194371, 0.6115853796352093, -1.6625798541457837, 0.6454429908157735, -0.5401074475070539, -2.666283736535316e-11, 2.6377856571549556e-11, 3.4739111064382044e-11, 3.17950105354975e-11, 9.34439936612045e-12, 1.1169601621921968e-11, 2.7145178717305885e-11, 3.9409803644037925e-11, 9.34471266886325e-12, 1.1170982955631273e-11, 1.201280658117926e-10, 1.1440165998191867, -0.1115982634959583, -2.0162099374600868e-10, 9.635967280588842e-10, 8.028292534835981e-11, -0.19071973413032883, 0.9134098133031696, 6.012643168941509e-10, -4.0251686825324124e-12, -2.2244907595942128e-11, -9.264758156960004e-11, 6.042911358719142e-11, -1.8465822378722763, -3.0652516487757933e-10, -4.734890907151939e-11, 1.3518759607868878, -1.6235128654424782e-10, -0.17246572520096526, -6.003851099852445e-11, 1.8820902418996086, -2.994743165522658e-11, 1.3374548779009354, 1.310679866248301, 1.909821584025867e-10, 8.753586114920867e-11, 1.0029668218515532e-12, -3.327423175432502e-10, 6.554936600432399e-12, 3.354406379739932e-11, 0.35851758541806056, 2.12486057102342, 8.215285290130736e-12, 4.520165522741719e-11], "scale": [0.66646472279015, 0.2206275929590759, 11.755027968701482, 3.7724945378172055, 720.368414096746, 229.96953846920044, 11.73617963181699, 3.737708991950296, 4.337194179849161, 2.5825886301091328, 730.3230570802035, 233.22198261665196, 294.62281748766827, 2476.5963756571095, 887.0601153654164, 623.2785034999596, 638366286.2120825, 304020918.855084, 1.5608084364073767, 0.3979341355844085, 0.543664319034312, 0.1696726764555906, 2.7973640163755675, 0.7608165262998224, 1.2068847869736086, 1.6100771955661388, 0.4235973599444964, 2.8240662861582497, 0.7703065474657396, 0.5457937966516953, 1.2176681725039065, 688.1632898444103, 200.80334788715354, 143.33932827752028, 21036873.461330827, 6101106.645181805, 688.1331106483699, 200.8005382687225, 21036873.33102735, 6101106.625306113, 3.977608728955865, 1.1976369516195147, 1.2603161809186687, 0.6287701388537806, 25.37585494580248, 8.28284233511746, 9.623400619381812, 40.20285830429307, 13.973363326582698, 7.473447370602289, 5011.190796000346, 1929.7669813595455, 2.0300590195458823, 0.5066134782096677, 0.5893559489137365, 0.21719403031199278, 4.923794892770277, 1.3328099433111336, 1.7374066601320535, 2.118218078284036, 0.5532506452051402, 4.9746442137544005, 1.3475951441098866, 0.6434928479912737, 1.828008201640765, 24.586307597671478, 7.674625597300401, 4.1406037639947915, 1881.141068108714, 592.1601781106464, 24.362502108964613, 7.595329527219522, 1878.2357793468932, 591.2025205456359], "bias": null, "scaled_weights": [0.656375170640092, 1.907885047820593e-10, 2.9949653942159253e-12, 0.044069334230839446, -1.76306800814205e-14, -3.21604564311794e-13, 3.4536441126044253e-12, 1.0602362961298692e-10, 0.38586009190995907, 0.39290588582557057, -4.394452387564221e-14, -0.0029518042254673433, -3.872283499445843e-12, 7.180850577097866e-14, 0.0005300038905136203, 1.047282695663283e-12, 1.7203099217827315e-20, 3.268979402645003e-20, 1.5738277997676828e-11, -4.1609965134926277e-10, -1.1754724576599688e-10, 0.21143838823434313, 9.530137932193353e-12, -5.22244910274695e-11, -6.957390392728202e-12, -0.4115294178714545, 1.443789403492375, -0.5887184243141449, 0.83790406941138, -0.9895815064599017, -2.1896636511838877e-11, 3.8330810377161264e-14, 1.7300065676148266e-13, 2.2181637738624642e-13, 4.441914518950245e-19, 1.830750103465718e-18, 3.944756951417331e-14, 1.962634362627929e-13, 4.4420634767433345e-19, 1.8309765165054442e-18, 3.0201076575806535e-11, 0.9552282085753788, -0.08854783044569989, -3.20659301845273e-10, 3.79729758905434e-11, 9.692678201536877e-12, -0.01981833051262707, 0.022720021705661432, 4.302931963060858e-11, -5.385959762513217e-13, -4.439046227035852e-15, -4.800972473076964e-14, 2.97671708090089e-11, -3.6449528433352247, -5.201019272691606e-10, -2.1800281068270657e-10, 0.27455976339954347, -1.2181128101499182e-10, -0.09926618169396036, -2.8343876210876983e-11, 3.4018762711099, -6.020014772599191e-12, 0.9924752873641074, 2.036821186652994, 1.0447554788384805e-10, 3.560350036355155e-12, 1.3068609134553133e-13, -8.036082091135073e-11, 3.4845534508598473e-15, 5.6646942900526386e-14, 0.01471595913320158, 0.2797588390876944, 4.3739371704373476e-15, 7.645714227621936e-14], "columns": ["c_penalty_sum_1", "c_penalty_mean_1", "c_penalty_ell_sum_1", "c_penalty_ell_mean_1", "c_penalty_ell_sum_2", "c_penalty_ell_mean_2", "rc_sum_1", "rc_mean_1", "rc_wmean_1v", "rc_norm_2", "rc_sum_2", "rc_mean_2", "rc_wmean_2v", "rc_sum_1v", "rc_mean_1v", "rc_norm_2v", "rc_sum_2v", "rc_mean_2v", "rc_cap_sum_1", "rc_cap_mean_1", "rc_cap_wmean_1v", "rc_cap_norm_2", "rc_cap_sum_2", "rc_cap_mean_2", "rc_cap_wmean_2v", "rc_sum_1_penalty_removed", "rc_mean_1_penalty_removed", "rc_sum_2_penalty_removed", "rc_mean_2_penalty_removed", "rc_wmean_1v_penalty_removed", "rc_wmean_2v_penalty_removed", "rc_cap_sum_1v", "rc_cap_mean_1v", "rc_cap_norm_2v", "rc_cap_sum_2v", "rc_cap_mean_2v", "rc_sum_1v_penalty_removed", "rc_mean_1v_penalty_removed", "rc_sum_2v_penalty_removed", "rc_mean_2v_penalty_removed", "rth_sum_1", "rth_mean_1", "rth_wmean_1v", "rth_norm_2", "rth_sum_2", "rth_mean_2", "rth_wmean_2v", "rth_sum_1v", "rth_mean_1v", "rth_norm_2v", "rth_sum_2v", "rth_mean_2v", "rth_cap_sum_1", "rth_cap_mean_1", "rth_cap_wmean_1v", "rth_cap_norm_2", "rth_cap_sum_2", "rth_cap_mean_2", "rth_cap_wmean_2v", "rth_sum_1_penalty_removed", "rth_mean_1_penalty_removed", "rth_sum_2_penalty_removed", "rth_mean_2_penalty_removed", "rth_wmean_1v_penalty_removed", "rth_wmean_2v_penalty_removed", "rth_cap_sum_1v", "rth_cap_mean_1v", "rth_cap_norm_2v", "rth_cap_sum_2v", "rth_cap_mean_2v", "rth_sum_1v_penalty_removed", "rth_mean_1v_penalty_removed", "rth_sum_2v_penalty_removed", "rth_mean_2v_penalty_removed"]}