{"model": "linear", "weights": [0.8186227006583598, 0.5834054924335909, -0.1105770738543786, 27.280233429854682, 0.7809715086548813, 3.4985342633873513, -0.7712380685673625, -1.8852369775475664, 1.378685474771299, 1.0972924592254298, 0.5319348287955689, 3.9164939474335188, -0.7587294912111324, -0.400128836132668, 1.8609540080164018, 1.4766482102635201, 4.254693811090032, 1.712033514646213, -0.14096739721293727, -0.14943115754955158, 0.014187287510514362, 2.430898927408407, 0.44812408807676735, 0.8107309287683364, 1.466588440567751, 0.6122271057960086, -0.8845298142430558, -0.21902775255468362, -3.6471399363278354, -0.34287931763811585, 1.2976674942018283, 0.9561167703924401, -0.22665699945284562, -0.3822560787769344, 0.08924242151119612, 1.5643733817597905, -0.3510923091009137, 5.967811525488791, -0.15349563128087268, -0.4371186880203168, -8.583868647411224, 0.38658372177703254, -0.6044234345505599, -0.074815431747754], "scale": [0.1965424031359967, 0.36723169067093364, 1.1681864888448454, 64.04918323177633, 2279.705619879433, 0.5249672634021163, 1.5283808388405522, 33.00081661434636, 9.042306375338375, 0.6084299906471051, 0.09199963182429603, 0.4261549263658497, 2.70346959846681, 0.21507922493230253, 2.420221909623704, 1.127203775778837, 0.7189532086956002, 0.09108687608333699, 0.3603939169090687, 0.4054090912781989, 0.058966902303657226, 0.12322559836652847, 163.0538504885885, 0.36723169067093364, 1.0853101433917658, 1.2619382956662302, 4.327960860341336, 0.7869990139718835, 0.13723654301068527, 0.7475731653346568, 1.601432716260378, 0.21375083461180985, 2.1141216087222126, 1.6056431289339848, 1.1620358667906252, 1.601432716260378, 1.6056431289339848, 0.4658563832822701, 2.450009951910144, 0.0407740817417473, 33.00520700474345, 10140.214462295236, 1.4662094072160536, 0.4885169611233239], "bias": null, "scaled_weights": [4.165120033115283, 1.588657807194436, -0.09465703884635929, 0.42592632807096137, 0.0003425755947806036, 6.664290342058018, -0.5046111865367489, -0.05712697960110484, 0.15247055535869375, 1.8034818731706297, 5.781923451731587, 9.190305461988837, -0.2806502768299753, -1.860378826725877, 0.7689187510519409, 1.310009992863301, 5.917900858679442, 18.79561126983698, -0.3911481037803002, -0.3685935041032646, 0.2405974700426894, 19.727223560950527, 0.0027483195688661755, 2.2076823688258713, 1.3513081486407472, 0.4851482104145102, -0.20437565005458366, -0.2783075310975023, -26.57557423348873, -0.45865653495550945, 0.8103165877815373, 4.4730434485967345, -0.1072109563223463, -0.23807038555991022, 0.07679833648996633, 0.9768586378158131, -0.21866148384666909, 12.810410546361014, -0.06265102358510838, -10.720503549017137, -0.26007619483124483, 3.812382107049927e-05, -0.41223540892306865, -0.1531480740724316], "columns": ["-log_p_compt_mean_nonfinal_tango", "p_abs_max", "cross_compt_dist_min", "rsg_mean_1v", "cross_total_dist_mean", "-log_p_compt_mean_tango", "rsg_sum_1", "rsg_mean_1v_first_tango", "cross_total_dist_min", "-log_p_compt_mean", "p_compt_mean_nonfinal_tango", "rsg_mean_1_tango", "cross_compt_ge_dist_sum_nonfinal_tango", "p_compt_min_nonfinal_tango", "cross_compt_dist_mean_tango", "-log_p_abs_mean", "cross_compt_ge_dist_mean_tango", "cross_compt_mean_nonfinal", "p_abs_max_tango", "cross_compt_ge_dist_min", "-log_p_compt_min_tango", "cross_compt_max_tango", "cross_abs_mean_tango", "p_abs_final", "cross_abs_ge_dist_min_tango", "rsg_wmean_2v_first_tango", "cross_compt_dist_max", "-log_p_compt_sum_nonfinal", "p_abs_mean_tango", "rsg_mean_2", "-log_p_abs_final", "rsg_mean_1_first", "cross_compt_dist_min_nonfinal_tango", "-log_p_abs_min_tango", "cross_compt_dist_min_tango", "-log_p_abs_min", "-log_p_abs_final_tango", "rsg_wmean_1v", "cross_compt_dist_mean_nonfinal_tango", "p_abs_min_tango", "rsg_mean_1v_first", "cross_abs_dist_final", "cross_compt_ge_dist_max", "cross_compt_ge_dist_min_nonfinal"]}