{"model": "linear", "weights": [4.866944280750291, 0.21769619443368593, 0.2140523374058793, -0.44565831243182896, 3.5103753737684085, 0.36992484821441673, -0.24724403599429268, -0.29294221114107516, 2.9847905613730306, -0.9509487507824169, 0.03197005982872956, 0.8925260829895761, 0.07411774110703195, -1.1633436022417722, -0.598273928889917, 1.0815771652317718, -0.4167462570648479, 0.2376923034280965, -1.1053766478602376, -0.2809814260124565, 1.1855959246475274, -0.28660172003912654, 0.40071420953254827, 2.8561861723530657, 0.9911045437170031, 0.19199942321258226, 2.0863575848408473, -0.24897947053191624, -1.3539046753712047, 16.59446471146322, 3.5927097918893525, 0.43369285221267134, 2.014876432643059, -0.5303174871845744, 0.45608328744483145, -0.6143218663010396, -0.19343392911982243, -0.29665595455048394, 0.28758968629070797, 0.051198183871594624, -0.6837249660147362, 2.482548152083249, 6.270567496288374, 1.5303812385470188, 2.737741466053368, 0.46940249257433386, 0.09794929413441678, -0.20488924421433086, 0.19013253910301936, 2.333203026860703, 0.6579782159375898, 2.2951795854157093, 2.774379044148028, 0.24540782975610573, 0.9412793685495723, 2.1771711891072156, 1.8027175955314754, -0.440785343072369, -3.593363177472796, 3.5719160502525344, 1.4975543476346285, -0.37285941963627345, 0.2686790914457398, -0.9429610014138189, 1.202651059024777], "scale": [1.7329180221000564, 0.36723169067093364, 13.973363326582698, 0.21507922493230253, 0.7189532086956002, 0.5402900929110258, 0.4054090912781989, 233.22198261665196, 0.21409776147376652, 0.21719403031199278, 0.42992406377658965, 1.1620358667906252, 0.48082475646658024, 0.7608165262998224, 0.0407740817417473, 40.20285830429307, 0.7871009719888403, 9.623400619381812, 2.8263429953457044, 1.2204880747996123, 8.678771301320403, 9.00016079759795, 0.543664319034312, 5.3131816655420545, 0.17451250826225634, 0.36723169067093364, 1.0853101433917658, 0.42992406377658954, 1.7374066601320535, 33.6385215388613, 0.46834287931577423, 2279.705619879433, 0.5249672634021163, 0.6006366548505075, 0.09108687608333699, 7.346704168032263, 4.327960860341336, 0.7869990139718835, 1.601432716260378, 0.21375083461180985, 0.7074632003475282, 2.4218667523384307, 0.4658563832822701, 3.26053824141153, 22.71963640955836, 0.08972618057006633, 0.486086967945062, 1.7106710466758084, 0.1965424031359967, 1.1976369516195147, 9.042306375338375, 0.6084299906471051, 1.127203775778837, 887.0601153654164, 0.12322559836652847, 0.5532506452051402, 4.979657197203491, 0.6287701388537806, 0.13723654301068527, 2.9640706279447318, 1.601432716260378, 2.450009951910144, 0.6434928479912737, 1.4662094072160536, 4.337194179849161], "bias": null, "scaled_weights": [2.808525399748702, 0.5928033989549055, 0.015318598135831024, -2.0720658286364135, 4.882620080571442, 0.6846781998561196, -0.6098630773542013, -0.0012560660356900645, 13.941250673649654, -4.378337422149252, 0.07436210838698906, 0.7680710281814312, 0.15414709852233557, -1.5290724662614938, -14.672897667671156, 0.02690299174863085, -0.5294698798450431, 0.024699408538534414, -0.3910978425762629, -0.23022054194064115, 0.1366087299093996, -0.031844066621078325, 0.7370618146217872, 0.5375660672166525, 5.679275105183733, 0.5228291242016685, 1.922360716468244, -0.5791242954506931, -0.7792675753115277, 0.49331730267313534, 7.671110100228542, 0.00019024072600900467, 3.838099198005984, -0.8829256138497993, 5.007124045263698, -0.0836187019717141, -0.044694010727390626, -0.3769457766577104, 0.1795827469806409, 0.23952273199108198, -0.9664459800578589, 1.0250556310276886, 13.460301761044956, 0.4693646033988844, 0.12050111263671347, 5.231499765085641, 0.20150569876106428, -0.11977127023484352, 0.9673868644592585, 1.9481722100387848, 0.07276663592511455, 3.7722985728803993, 2.461293249511236, 0.0002766529860887863, 7.638667460552987, 3.9352347945295945, 0.36201640477257296, -0.7010277935206984, -26.183719719557608, 1.2050711668531593, 0.9351341036242075, -0.15218690003506904, 0.4175323661862724, -0.6431284622598719, 0.27728780616103355], "columns": ["ge_distances_mean", "p_abs_max", "rth_mean_1v", "p_compt_min_nonfinal_tango", "cross_compt_ge_dist_mean_tango", "rsl_wmean_1v", "cross_compt_ge_dist_min", "rc_mean_2", "rsg_mean_1_first_tango", "rth_cap_norm_2", "first_is_not_largest", "cross_compt_dist_min_tango", "cross_compt_ge_dist_min_nonfinal_tango", "rc_cap_mean_2", "p_abs_min_tango", "rth_sum_1v", "tango_sigma", "rth_wmean_2v", "rc_sum_2_penalty_removed_tango", "rc_wmean_2v_penalty_removed_tango", "ge_distances_sum", "rth_wmean_2v_tango", "rc_cap_wmean_1v", "distances_mean", "rc_cap_norm_2_tango", "p_abs_final", "cross_abs_ge_dist_min_tango", "first_is_not_closest", "rth_cap_wmean_2v", "rsl_norm_2v", "rsg_wmean_1v_tango", "cross_total_dist_mean", "-log_p_compt_mean_tango", "rth_norm_2_tango", "cross_compt_mean_nonfinal", "rth_norm_2v_tango", "cross_compt_dist_max", "-log_p_compt_sum_nonfinal", "-log_p_abs_final", "rsg_mean_1_first", "cross_compt_ge_dist_mean_nonfinal", "-log_p_compt_sum_tango", "rsg_wmean_1v", "rc_wmean_1v_tango", "distances_sum", "cross_compt_mean_nonfinal_tango", "cross_compt_sum_tango", "tango_v_sigma", "-log_p_compt_mean_nonfinal_tango", "rth_mean_1", "cross_total_dist_min", "-log_p_compt_mean", "-log_p_abs_mean", "rc_mean_1v", "cross_compt_max_tango", "rth_mean_1_penalty_removed", "rth_cap_sum_2_tango", "rth_norm_2", "p_abs_mean_tango", "rc_mean_1_tango", "-log_p_abs_min", "cross_compt_dist_mean_nonfinal_tango", "rth_wmean_1v_penalty_removed", "cross_compt_ge_dist_max", "rc_wmean_1v"]}