{"model": "linear", "weights": [5.424360441729803e-07, -4.6854145440091186e-05, -0.00011378268857508962, -0.00019640997226094497, 0.00017792527580095824, -0.0002112902504167808, 0.00039062381681498456, -2.2157250955028522e-05, 0.00018659280441796553, -2.5595059570400744e-05, 0.0001811070403261138, 0.00010572169928397846, 6.086397180936316e-05, -0.0005899202698688655, 3.7618051278421913e-07, -0.0001205925572102661, -0.007314168216922947, -0.0002725213641451567, -5.464627114682169e-06, 0.0005875130610765378, -0.00034997320078677865, -0.0005933255888340649, 0.013270832839102227, -2.133893774738772e-05, 1.2881168208197037e-06, 2.419810477531149e-05, 0.00010828043885455931, -4.826295836204717e-05, 4.96295380064685e-06, -0.00010657731887139835, -2.413990453340016e-05, 7.670240270992107e-08, 0.5095475872138573, 0.05154137662712682, -0.00019429330106047966, 0.0013977836996724867, 9.176870933480241e-05, 0.0014439925773012355, -0.00010512488678760741, -0.0009296563316167488, 0.0011835094761625145, 2.8771756594439205e-05, -1.6773819565867337e-05, 4.713625317447688e-05, -0.00027214491575279243, 9.681178105279275e-05, 5.768068141515151e-05, -0.005830304679296675, 6.96507716934003e-05, 0.000648258489648047, 0.00047261039507097825, -0.000963667561691297, 8.539139301663053e-06, -1.449047922994035e-05, 0.002883325552421944, -7.3389308970160656e-06, 3.9462247315447916e-05, -0.00045127636420094736, -2.2449252856630636e-07, -0.0004608626782221335, -1.5465866360390707e-05, 6.483196877186471e-05, -0.0004921280652300766, -3.6830494938656755e-05, 0.026613725338307578, 0.07746958585458828, 6.505184768635252e-05, 0.0018022526245632007, -0.0021014114446619905, -0.0006613875845357017, -4.2498466992989154e-07, -0.0005446307507835855, 0.0015820859101462643, 1.5517940098572716e-05, 0.0005935352607845765, -0.001105225936076578, 0.0001902361415771817, -0.001063920106674051, 2.9173606073320362e-05, 7.896692255585473e-07, -5.519979735637967e-05, -2.8650363857189415e-06, 0.012217059899150532, -0.023030261587848235, 4.042161489722489e-05, 1.1078833530953936e-06, 8.899265831537136e-06, -4.688832073983934e-05, 0.00010739189756897532, 1.2267888985298837e-05, -0.002017892346582988, 0.0007550241158634466, 6.657503071171432e-07, -0.0005678285011945348, 0.00023957690281819179, -0.000927702379146999, -1.0343434853674745e-06, -0.1833642369542048, 0.001335418298107535, -2.2168926408633235e-07, -0.002613501976295467, 3.101121442372919e-05, -0.0007007657726273095, -0.0004920825954967942, 0.0008757967759078517, 0.00015885707955165626, -0.0032602888343109706, -0.00011159802104367929, -7.750971573488304e-05, -2.980451568737872e-06, -9.795576939397531e-05, -3.742803675821812e-05, -0.0004391985279607157, -9.598105920451851e-05, 3.7642540165984916e-06, 3.309197853821829e-05, -6.525980078045697e-05, -0.01126909611108034, 9.15850379653293e-05, 0.00010425757250266366, 5.4926828298537644e-05, 0.0005305060166336131, -0.0016844701843726194, 4.936097100114171e-05, -3.77944881226724e-05, 4.629560169047741e-05, 0.0009414457638554321, 0.0007175926620504601, 0.0007430843488689247, 4.277072103647532e-05, 0.009855736471259282, 0.00010821200620573154, 0.0008689817612830945, 0.00010796176560917186, 2.9742801096943597e-05, -3.3724371176395397e-05, 7.134962742908407e-05, -1.9701634129445544e-05, -2.3879501857504376e-07, -4.58524137851766e-06, 0.00045829984339597834, 0.012260530576927687, 0.0008665232428568442, 2.2158085162031558e-05, -0.0001768151689312419, -0.0012989735758025356, 3.471422396281545e-05, -0.0005642449103092949, 0.0020521416110741513, 0.00023835725333411494, 5.527702578990721e-06, 0.0020155929045853798], "scale": [238.27417713172204, 1.8320217614689693, 1929.7669813595455, 1.3475951441098866, 4.9746442137544005, 2.8240662861582497, 649.8851714283896, 1.7329180221000564, 5011.190796000346, 9.623400619381812, 0.7703065474657396, 0.6030619551577623, 1.1324002276843517, 24.61753608134031, 8.28284233511746, 841.4849764931672, 200.8005382687225, 182.10585878306313, 4.0131209642953936, 13.973363326582698, 2.8263429953457044, 1878.2357793468932, 200.82250330110892, 1.2204880747996123, 304020918.855084, 1.1976369516195147, 0.5538487286351177, 3.977608728955865, 6101106.625306113, 11.73617963181699, 1.2068847869736086, 21036899.499552067, 21036899.35737111, 638366286.2120825, 4959.802184146053, 1881.141068108714, 0.7710363002491839, 7.681419479357841, 1.3489986976977582, 4.144865164748456, 730.3230570802035, 1.2176681725039065, 0.6006366548505075, 0.4238674140321679, 1.6097439548761938, 8.678771301320403, 592.1601781106464, 143.3601004509824, 40.00419058692647, 2.7973640163755675, 7.346704168032263, 2.118218078284036, 3.7724945378172055, 0.1696726764555906, 2134.953064058175, 11.755027968701482, 9.00016079759795, 0.40725419025556187, 25.37585494580248, 7.674625597300401, 2.165258198484743, 0.543664319034312, 0.4235973599444964, 5.3131816655420545, 290993301.3966436, 6101106.645181805, 0.17451250826225634, 887.0601153654164, 233.22198261665196, 4.923794892770277, 1.2111110898248543, 2.0745342454857685, 2476.5963756571095, 21036873.461330827, 0.5532506452051402, 720.368414096746, 7.595329527219522, 591.2025205456359, 0.6473992353638894, 7.554401770805783, 4.979657197203491, 1.828008201640765, 143.33932827752028, 688.2178717350724, 0.7644269497396028, 0.2206275929590759, 0.6287701388537806, 0.21719403031199278, 3.737708991950296, 0.42992406377658965, 530.412602629557, 0.3979341355844085, 0.42992406377658954, 7.597408949214924, 2.9640706279447318, 592.2056188835788, 0.66646472279015, 6101112.302332298, 2.0300590195458823, 1.7374066601320535, 688.1632898444103, 0.22391579856011207, 0.5066134782096677, 7.473447370602289, 1.6100771955661388, 24.362502108964613, 623.2785034999596, 220.5670572264869, 0.5893559489137365, 593823596.2896891, 2.826731617025389, 2.1173337724974375, 0.7608165262998224, 1.2004084842626195, 6101112.27388476, 2.5825886301091328, 0.5457937966516953, 200.80334788715354, 3.26053824141153, 1884.7541411094687, 0.6434928479912737, 4.977471157767449, 1878.2770520954314, 1.333418967849009, 0.5511591954241813, 24.586307597671478, 200.82964186738758, 1881.2682671787154, 24.36621967061161, 21036873.33102735, 688.2556848410459, 0.5211129002610803, 759.0206829420099, 22.71963640955836, 4.337194179849161, 40.20285830429307, 1.2603161809186687, 294.62281748766827, 24.939169433900044, 1.7404184751578247, 1.3328099433111336, 688.1331106483699, 1.588895840759247, 0.5487734901001236, 10.622483783103313, 1.5608084364073767, 1.7106710466758084, 13.70100738048018, 591.2199307556597, 4.1406037639947915, 0.7871009719888403, 229.96953846920044], "bias": null, "scaled_weights": [2.2765204803251188e-09, -2.5575103104955558e-05, -5.8961879685042733e-08, -0.00014574850103862437, 3.576643236294415e-05, -7.481773761911654e-05, 6.010659020830222e-07, -1.2786092978695556e-05, 3.723522252772605e-08, -2.659668923982188e-06, 0.00023511034785040404, 0.00017530818911685688, 5.374775659823388e-05, -2.396341648163625e-05, 4.541683851560172e-08, -1.4330922188632242e-07, -3.64250428807851e-05, -1.4964997060847045e-06, -1.3616901068521928e-06, 4.204521469493766e-05, -0.00012382545266554658, -3.158951582960357e-07, 6.60823992379192e-05, -1.748393793269245e-05, 4.236934832216935e-15, 2.0204874893505412e-05, 0.00019550543904181422, -1.2133661617017908e-05, 8.134514122506165e-13, -9.081091310366908e-06, -2.000183016138063e-05, 3.646088755215771e-15, 2.4221610730638264e-08, 8.073950291604746e-11, -3.9173598834553487e-08, 7.43050972289818e-07, 0.00011901995963762607, 0.00018798512191420534, -7.792808619238604e-05, -0.00022429109142641264, 1.620528702591054e-06, 2.362856913248827e-05, -2.7926733126272777e-05, 0.00011120518259726293, -0.00016906099564990956, 1.115501004595704e-05, 9.740722788754253e-08, -4.066894945633893e-05, 1.7410868879362466e-06, 0.0002317390535708576, 6.43295802119608e-05, -0.00045494256307734, 2.2635259550578077e-06, -8.540254997234648e-05, 1.350533461818239e-06, -6.24322708253561e-07, 4.384615808861991e-06, -0.0011080950791881614, -8.846698132763426e-09, -6.0050183866199924e-05, -7.142735388885162e-06, 0.00011924999765852392, -0.0011617826543927465, -6.93190958959979e-06, 9.145820611874246e-11, 1.2697628538548484e-08, 0.00037276323820062797, 2.0317141908931153e-06, -9.010348943461689e-06, -0.00013432476350849475, -3.5090477950404286e-07, -0.00026253157882002374, 6.388145947788901e-07, 7.376542967326964e-13, 0.0010728144032520724, -1.534250967211543e-06, 2.5046463210770376e-05, -1.7995865540155882e-06, 4.5062774992192406e-05, 1.0453100715535784e-07, -1.1085059708001414e-05, -1.5672995247764048e-06, 8.523173678822463e-05, -3.346362036456047e-05, 5.287832265855391e-05, 5.021508589367125e-06, 1.4153448584183869e-05, -0.00021588217996823238, 2.8732011454144638e-05, 2.8535013549913443e-05, -3.804382355508047e-06, 0.0018973595083885267, 1.5485299921781093e-06, -7.473975732913669e-05, 8.082698858775606e-05, -1.566520731255296e-06, -1.5519853489577102e-06, -3.005423074807349e-08, 0.0006578224008513132, -1.2759779801320817e-07, -3.797793365127577e-06, 0.00013849498169913175, -0.00138323554893123, -6.58441240159743e-05, 0.0005439470718047791, 6.5205568311968256e-06, -5.2308700139715025e-06, -5.059596045164898e-07, -0.00013151596395649188, -5.019085781299768e-15, -3.465336744528141e-05, -1.7676965835231072e-05, -0.0005772725917202755, -7.995699835750266e-05, 6.169783225775124e-13, 1.2813491917533887e-05, -0.0001195686011471898, -5.6120060893672406e-05, 2.8088932312500936e-05, 5.531627188323459e-08, 8.535732521347696e-05, 0.00010658143459168965, -8.968166770143955e-07, 3.701835071445538e-05, -6.857272533316826e-05, 1.8829830997014767e-06, 4.687782914422017e-06, 3.814409005721515e-07, 3.0496497155246764e-05, 2.0331310819556366e-12, 1.4319876592861685e-05, 0.00020765558893575032, 1.1448723082418107e-06, 4.751914320413656e-06, 6.8576134393821384e-06, -8.388550615266609e-07, 5.661248225590181e-05, -6.68707002989345e-08, -9.575099090928323e-09, -2.6345625744416787e-06, 0.00034385986216265194, 1.7817091471409683e-05, 0.0005453618925975537, 4.03774700523322e-05, -1.6645369627440008e-05, -0.000832244076532848, 2.0292752385253988e-05, -4.118273165177434e-05, 3.471029145535122e-06, 5.756582057109263e-05, 7.022863362782246e-06, 8.764608208557698e-06], "columns": ["tango_variance", "rth_wmean_2v_penalty_removed_tango", "rth_mean_2v", "rth_mean_2_penalty_removed", "rth_sum_2_penalty_removed", "rc_sum_2_penalty_removed", "rc_sum_2_tango", "ge_distances_mean", "rth_sum_2v", "rth_wmean_2v", "rc_mean_2_penalty_removed", "rth_cap_wmean_1v_tango", "rth_mean_1_tango", "rth_cap_sum_1v_tango", "rth_mean_2", "tango_v_variance", "rc_mean_1v_penalty_removed", "rc_mean_2_tango", "rth_sum_1_tango", "rth_mean_1v", "rc_sum_2_penalty_removed_tango", "rth_sum_2v_penalty_removed", "rc_mean_1v_penalty_removed_tango", "rc_wmean_2v_penalty_removed_tango", "rc_mean_2v", "rth_mean_1", "rth_mean_1_penalty_removed_tango", "rth_sum_1", "rc_mean_2v_penalty_removed", "rc_sum_1", "rc_cap_wmean_2v", "rc_cap_sum_2v_tango", "rc_sum_2v_penalty_removed_tango", "rc_sum_2v", "rth_sum_2v_tango", "rth_cap_sum_2v", "rc_mean_2_penalty_removed_tango", "rth_cap_mean_1v_tango", "rth_mean_2_penalty_removed_tango", "rth_cap_norm_2v_tango", "rc_sum_2", "rc_wmean_2v_penalty_removed", "rth_norm_2_tango", "rc_mean_1_penalty_removed_tango", "rc_sum_1_penalty_removed_tango", "ge_distances_sum", "rth_cap_mean_2v", "rc_cap_norm_2v_tango", "rth_sum_1v_tango", "rc_cap_sum_2", "rth_norm_2v_tango", "rth_sum_1_penalty_removed", "c_penalty_ell_mean_1", "rc_cap_norm_2", "rc_sum_1v_tango", "c_penalty_ell_sum_1", "rth_wmean_2v_tango", "rc_cap_mean_1_tango", "rth_sum_2", "rth_cap_mean_1v", "rc_norm_2_tango", "rc_cap_wmean_1v", "rc_mean_1_penalty_removed", "distances_mean", "rc_mean_2v_tango", "rc_cap_mean_2v", "rc_cap_norm_2_tango", "rc_mean_1v", "rc_mean_2", "rth_cap_sum_2", "rc_cap_wmean_2v_tango", "rth_cap_sum_1_tango", "rc_sum_1v", "rc_cap_sum_2v", "rth_mean_1_penalty_removed", "c_penalty_ell_sum_2", "rth_mean_1v_penalty_removed", "rth_mean_2v_penalty_removed", "rth_wmean_1v_penalty_removed_tango", "rth_mean_2_tango", "rth_cap_sum_2_tango", "rth_wmean_2v_penalty_removed", "rc_cap_norm_2v", "rc_sum_1v_penalty_removed_tango", "rc_cap_mean_2_tango", "c_penalty_mean_1", "rth_norm_2", "rth_cap_norm_2", "rc_mean_1", "first_is_not_largest", "rc_norm_2v_tango", "rc_cap_mean_1", "first_is_not_closest", "rth_mean_1v_penalty_removed_tango", "rc_mean_1_tango", "rth_cap_mean_2v_tango", "c_penalty_sum_1", "rc_cap_mean_2v_tango", "rth_cap_sum_1", "rth_cap_wmean_2v", "rc_cap_sum_1v", "rth_cap_norm_2_tango", "rth_cap_mean_1", "rth_norm_2v", "rc_sum_1_penalty_removed", "rth_sum_1v_penalty_removed", "rc_norm_2v", "rc_wmean_2v_tango", "rth_cap_wmean_1v", "rc_sum_2v_tango", "rc_cap_sum_2_tango", "rth_sum_1_penalty_removed_tango", "rc_cap_mean_2", "rth_wmean_1v_tango", "rc_mean_2v_penalty_removed_tango", "rc_norm_2", "rc_wmean_1v_penalty_removed", "rc_cap_mean_1v", "rc_wmean_1v_tango", "rth_mean_2v_tango", "rth_wmean_1v_penalty_removed", "rth_sum_2_penalty_removed_tango", "rth_sum_2v_penalty_removed_tango", "rth_cap_mean_2_tango", "rc_cap_wmean_1v_tango", "rth_cap_sum_1v", "rc_cap_mean_1v_tango", "rth_cap_sum_2v_tango", "rth_sum_1v_penalty_removed_tango", "rc_sum_2v_penalty_removed", "rc_cap_sum_1v_tango", "rth_cap_mean_1_tango", "rc_mean_1v_tango", "distances_sum", "rc_wmean_1v", "rth_sum_1v", "rth_wmean_1v", "rc_wmean_2v", "rth_sum_2_tango", "rth_cap_wmean_2v_tango", "rth_cap_mean_2", "rc_sum_1v_penalty_removed", "rc_cap_sum_1_tango", "rc_wmean_1v_penalty_removed_tango", "rc_sum_1_tango", "rc_cap_sum_1", "tango_v_sigma", "rth_mean_1v_tango", "rth_mean_2v_penalty_removed_tango", "rth_cap_norm_2v", "tango_sigma", "c_penalty_ell_mean_2"]}