{"learner": {"attributes": {}, "feature_names": ["distances_mean", "rc_sum_2v_penalty_removed", "rc_cap_mean_2v", "rc_mean_1", "rsl_sum_2", "rth_mean_1v", "tango_sigma", "rth_sum_1v", "c_penalty_ell_mean_1", "rth_cap_sum_1", "rc_mean_2v_penalty_removed", "rth_sum_1v_penalty_removed", "rsl_mean_2", "rc_norm_2v", "distances_sum", "rc_cap_wmean_2v", "rth_cap_norm_2v", "rc_cap_mean_1", "rth_mean_1_penalty_removed", "rc_sum_1v_penalty_removed", "rc_wmean_2v_penalty_removed", "rc_mean_2v", "rsl_wmean_1v", "rc_cap_sum_1v", "c_penalty_mean_1", "rc_cap_norm_2", "rth_cap_mean_2v", "rc_cap_sum_2v", "rc_sum_1", "rsl_sum_1v", "c_penalty_ell_sum_1", "first_is_not_closest", "rc_cap_sum_1", "rsl_mean_1", "first_is_not_largest", "rsl_wmean_2v", "tango_variance", "rsl_sum_1", "rc_cap_mean_2", "rc_mean_2", "rc_cap_mean_1v", "rth_cap_sum_2", "ge_distances_mean", "rth_mean_1", "rsl_norm_2", "rth_sum_2v", "rth_cap_sum_2v", "rth_norm_2v", "rc_mean_1_penalty_removed", "rth_sum_2_penalty_removed", "rth_mean_1v_penalty_removed", "rsl_mean_1v", "c_penalty_ell_mean_2", "rc_wmean_1v_penalty_removed", "rc_cap_sum_2", "rth_norm_2", "rth_cap_mean_1v", "rc_mean_2_penalty_removed", "rc_norm_2", "rc_sum_1_penalty_removed", "rth_mean_2", "rc_cap_wmean_1v", "rth_sum_1", "rth_sum_1_penalty_removed", "rth_mean_2v_penalty_removed", "tango_v_variance", "rc_wmean_1v", "rth_cap_mean_2", "rsl_norm_2v", "rc_sum_2_penalty_removed", "rth_cap_sum_1v", "rth_mean_2v", "rc_sum_1v", "rth_cap_norm_2", "rsl_sum_2v", "rth_sum_2", "ge_distances_sum", "c_penalty_ell_sum_2", "rth_cap_mean_1", "rth_wmean_1v_penalty_removed", "rsl_mean_2v", "rth_cap_wmean_1v", "rth_cap_wmean_2v", "rc_mean_1v_penalty_removed", "rth_sum_2v_penalty_removed", "rth_mean_2_penalty_removed", "c_penalty_sum_1", "rc_sum_2v", "rc_cap_norm_2v", "rc_sum_2", "rth_wmean_2v", "tango_v_sigma", "rc_mean_1v", "rc_wmean_2v", "rth_wmean_2v_penalty_removed", "rth_wmean_1v"], "feature_types": ["float", "float", "float", "float", "float", "float", "float", "float", "float", "float", "float", "float", "float", "float", "float", "float", "float", "float", "float", "float", "float", "float", "float", "float", "float", "float", "float", "float", "float", "float", "float", "float", "float", "float", "float", "float", "float", "float", "float", "float", "float", "float", "float", "float", "float", "float", "float", "float", "float", "float", "float", "float", "float", "float", "float", "float", "float", "float", "float", "float", "float", "float", "float", "float", "float", "float", "float", "float", "float", "float", "float", "float", "float", "float", "float", "float", "float", "float", "float", "float", "float", "float", "float", "float", "float", "float", "float", "float", "float", "float", "float", "float", "float", "float", "float", "float"], "gradient_booster": {"model": {"gbtree_model_param": {"num_parallel_tree": "1", "num_trees": "100"}, "iteration_indptr": [0, 1, 2, 3, 4, 5, 6, 7, 8, 9, 10, 11, 12, 13, 14, 15, 16, 17, 18, 19, 20, 21, 22, 23, 24, 25, 26, 27, 28, 29, 30, 31, 32, 33, 34, 35, 36, 37, 38, 39, 40, 41, 42, 43, 44, 45, 46, 47, 48, 49, 50, 51, 52, 53, 54, 55, 56, 57, 58, 59, 60, 61, 62, 63, 64, 65, 66, 67, 68, 69, 70, 71, 72, 73, 74, 75, 76, 77, 78, 79, 80, 81, 82, 83, 84, 85, 86, 87, 88, 89, 90, 91, 92, 93, 94, 95, 96, 97, 98, 99, 100], "tree_info": [0, 0, 0, 0, 0, 0, 0, 0, 0, 0, 0, 0, 0, 0, 0, 0, 0, 0, 0, 0, 0, 0, 0, 0, 0, 0, 0, 0, 0, 0, 0, 0, 0, 0, 0, 0, 0, 0, 0, 0, 0, 0, 0, 0, 0, 0, 0, 0, 0, 0, 0, 0, 0, 0, 0, 0, 0, 0, 0, 0, 0, 0, 0, 0, 0, 0, 0, 0, 0, 0, 0, 0, 0, 0, 0, 0, 0, 0, 0, 0, 0, 0, 0, 0, 0, 0, 0, 0, 0, 0, 0, 0, 0, 0, 0, 0, 0, 0, 0, 0], "trees": [{"base_weights": [-0.0, -0.73592687, 0.8114986, -0.8755931, -0.35959923, 0.27689043, 0.9216678, -0.89842916, -0.5508422, -0.19558653, -0.672966, 0.64447165, -0.2923583, 0.46051493, 0.9594447, -0.73131925, -0.936952, -0.086449645, -0.77260745, -0.33341992, 0.52424026, -0.51965183, -0.8546703, 0.33445063, 0.88994545, -0.56698066, 0.28652257, 0.6110283, -0.68310946, 0.61424196, 0.9763224, -0.24114162, -0.15322682, -0.28960094, -0.26082885, -0.12305507, 0.0657607, -0.04255739, -0.2487203, -0.141445, 0.05590941, 0.20538795, 0.0038101943, -0.20720683, -0.0, -0.25728965, -0.0, 0.029932017, 0.24469058, -0.0, 0.26866618, -0.19090125, -0.0, 0.2342532, -0.17343822, 0.12455581, 0.255397, -0.028355831, -0.2480595, 0.19871885, -0.11637387, 0.18919794, 0.29417723], "categories": [], "categories_nodes": [], "categories_segments": [], "categories_sizes": [], "default_left": [0, 0, 0, 0, 0, 0, 0, 0, 0, 0, 0, 0, 0, 0, 0, 0, 0, 0, 0, 0, 0, 0, 0, 0, 0, 0, 0, 0, 0, 0, 0, 0, 0, 0, 0, 0, 0, 0, 0, 0, 0, 0, 0, 0, 0, 0, 0, 0, 0, 0, 0, 0, 0, 0, 0, 0, 0, 0, 0, 0, 0, 0, 0], "id": 0, "left_children": [1, 3, 5, 7, 9, 11, 13, 15, 17, 19, 21, 23, 25, 27, 29, 31, 33, 35, 37, 39, 41, 43, 45, 47, 49, 51, 53, 55, 57, 59, 61, -1, -1, -1, -1, -1, -1, -1, -1, -1, -1, -1, -1, -1, -1, -1, -1, -1, -1, -1, -1, -1, -1, -1, -1, -1, -1, -1, -1, -1, -1, -1, -1], "loss_changes": [49202.312, 2258.2363, 2295.4824, 218.54883, 593.32715, 1408.1111, 551.04297, 171.84375, 207.64148, 763.515, 97.349976, 298.66003, 420.03177, 426.6784, 158.23633, 75.32568, 26.492188, 70.7209, 40.27124, 468.37207, 93.78967, 189.42303, 5.2058105, 197.03616, 14.0789795, 67.02344, 358.54834, 90.52832, 14.504974, 71.92981, 25.410156, 0.0, 0.0, 0.0, 0.0, 0.0, 0.0, 0.0, 0.0, 0.0, 0.0, 0.0, 0.0, 0.0, 0.0, 0.0, 0.0, 0.0, 0.0, 0.0, 0.0, 0.0, 0.0, 0.0, 0.0, 0.0, 0.0, 0.0, 0.0, 0.0, 0.0, 0.0, 0.0], "parents": [2147483647, 0, 0, 1, 1, 2, 2, 3, 3, 4, 4, 5, 5, 6, 6, 7, 7, 8, 8, 9, 9, 10, 10, 11, 11, 12, 12, 13, 13, 14, 14, 15, 15, 16, 16, 17, 17, 18, 18, 19, 19, 20, 20, 21, 21, 22, 22, 23, 23, 24, 24, 25, 25, 26, 26, 27, 27, 28, 28, 29, 29, 30, 30], "right_children": [2, 4, 6, 8, 10, 12, 14, 16, 18, 20, 22, 24, 26, 28, 30, 32, 34, 36, 38, 40, 42, 44, 46, 48, 50, 52, 54, 56, 58, 60, 62, -1, -1, -1, -1, -1, -1, -1, -1, -1, -1, -1, -1, -1, -1, -1, -1, -1, -1, -1, -1, -1, -1, -1, -1, -1, -1, -1, -1, -1, -1, -1, -1], "split_conditions": [1.6308724, 0.19903941, 0.6061292, 0.3468748, 0.61725277, 1.1855172, 3.1892335, 0.088444576, 0.016578292, 1.7623045, 0.036910176, 1.3882914, 3.7461011, 1.544247, 0.21989945, 0.1937877, 0.0941048, 0.7954755, 0.53364533, 1.0, 0.15271345, 1.3442432, 4.259764, 0.23123772, 6.483408, 15.32938, 0.022582512, 0.18947776, 0.009071085, 28.554886, 0.65644664, -0.24114162, -0.15322682, -0.28960094, -0.26082885, -0.12305507, 0.0657607, -0.04255739, -0.2487203, -0.141445, 0.05590941, 0.20538795, 0.0038101943, -0.20720683, -0.0, -0.25728965, -0.0, 0.029932017, 0.24469058, -0.0, 0.26866618, -0.19090125, -0.0, 0.2342532, -0.17343822, 0.12455581, 0.255397, -0.028355831, -0.2480595, 0.19871885, -0.11637387, 0.18919794, 0.29417723], "split_indices": [51, 68, 79, 8, 16, 16, 51, 6, 65, 52, 35, 77, 77, 16, 37, 66, 68, 8, 46, 34, 22, 3, 29, 33, 0, 76, 35, 22, 35, 90, 5, 0, 0, 0, 0, 0, 0, 0, 0, 0, 0, 0, 0, 0, 0, 0, 0, 0, 0, 0, 0, 0, 0, 0, 0, 0, 0, 0, 0, 0, 0, 0, 0], "split_type": [0, 0, 0, 0, 0, 0, 0, 0, 0, 0, 0, 0, 0, 0, 0, 0, 0, 0, 0, 0, 0, 0, 0, 0, 0, 0, 0, 0, 0, 0, 0, 0, 0, 0, 0, 0, 0, 0, 0, 0, 0, 0, 0, 0, 0, 0, 0, 0, 0, 0, 0, 0, 0, 0, 0, 0, 0, 0, 0, 0, 0, 0, 0], "sum_hessian": [82385.836, 43204.707, 39181.13, 31489.959, 11714.749, 6710.752, 32470.377, 29390.688, 2099.2717, 7711.9404, 4002.8088, 4088.2676, 2622.4841, 2479.5664, 29990.81, 5558.371, 23832.316, 693.50476, 1405.767, 6484.6753, 1227.2651, 2202.9502, 1799.8586, 1825.656, 2262.6116, 1790.4066, 832.07745, 2199.3215, 280.24475, 1427.3257, 28563.484, 4147.387, 1410.9839, 16665.332, 7166.9834, 352.5128, 340.99197, 130.3361, 1275.4309, 5139.003, 1345.6726, 919.18134, 308.08383, 1643.6295, 559.32074, 1794.5192, 5.3394966, 1241.9414, 583.71454, 10.708582, 2251.903, 1586.7041, 203.70253, 536.8322, 295.24527, 1236.1738, 963.1478, 68.99066, 211.25407, 1371.7307, 55.594963, 378.80237, 28184.682], "tree_param": {"num_deleted": "0", "num_feature": "96", "num_nodes": "63", "size_leaf_vector": "1"}}, {"base_weights": [-0.0, -0.42827764, 0.52917665, -0.627936, -0.25406358, 0.1867213, 0.7062421, -0.70103145, -0.45867857, -0.39102027, -0.14540847, 0.3717398, -0.24382396, 0.31187192, 0.76623887, -0.7237915, -0.49282673, -0.5539841, -0.2659268, -0.6423109, -0.35145232, -0.06009323, -0.41491786, -0.30439812, 0.4187815, -0.1219436, -0.65879995, 0.62747234, 0.039175496, 0.2583634, 0.7724603, -0.22432394, -0.18822773, -0.15663554, -0.0, -0.15105991, -0.23036355, 0.035286553, -0.09810977, -0.09816097, -0.23336487, -0.13301636, -0.08614428, -0.038508385, 0.041229483, -0.04406761, -0.16904403, -0.000862053, -0.19814572, 0.10253404, 0.21174546, -0.087377, 0.101738885, -0.2063406, 0.10854932, -0.021054434, 0.1980428, -0.052336127, 0.09478552, 0.18038827, -0.1307097, 0.18849353, 0.23645906], "categories": [], "categories_nodes": [], "categories_segments": [], "categories_sizes": [], "default_left": [0, 0, 0, 0, 0, 0, 0, 0, 0, 0, 0, 0, 0, 0, 0, 0, 0, 0, 0, 0, 0, 0, 0, 0, 0, 0, 0, 0, 0, 0, 0, 0, 0, 0, 0, 0, 0, 0, 0, 0, 0, 0, 0, 0, 0, 0, 0, 0, 0, 0, 0, 0, 0, 0, 0, 0, 0, 0, 0, 0, 0, 0, 0], "id": 1, "left_children": [1, 3, 5, 7, 9, 11, 13, 15, 17, 19, 21, 23, 25, 27, 29, 31, 33, 35, 37, 39, 41, 43, 45, 47, 49, 51, 53, 55, 57, 59, 61, -1, -1, -1, -1, -1, -1, -1, -1, -1, -1, -1, -1, -1, -1, -1, -1, -1, -1, -1, -1, -1, -1, -1, -1, -1, -1, -1, -1, -1, -1, -1, -1], "loss_changes": [29442.002, 2488.457, 3514.5352, 401.66895, 565.5884, 1580.6719, 894.8379, 97.90625, 177.68384, 158.20947, 488.1742, 442.8578, 292.71194, 430.42502, 94.416016, 34.166992, 29.749207, 59.63794, 81.516495, 85.585205, 79.27515, 219.90695, 196.94232, 88.90682, 276.49268, 359.80853, 42.890198, 59.21759, 163.64369, 102.55349, 59.708984, 0.0, 0.0, 0.0, 0.0, 0.0, 0.0, 0.0, 0.0, 0.0, 0.0, 0.0, 0.0, 0.0, 0.0, 0.0, 0.0, 0.0, 0.0, 0.0, 0.0, 0.0, 0.0, 0.0, 0.0, 0.0, 0.0, 0.0, 0.0, 0.0, 0.0, 0.0, 0.0], "parents": [2147483647, 0, 0, 1, 1, 2, 2, 3, 3, 4, 4, 5, 5, 6, 6, 7, 7, 8, 8, 9, 9, 10, 10, 11, 11, 12, 12, 13, 13, 14, 14, 15, 15, 16, 16, 17, 17, 18, 18, 19, 19, 20, 20, 21, 21, 22, 22, 23, 23, 24, 24, 25, 25, 26, 26, 27, 27, 28, 28, 29, 29, 30, 30], "right_children": [2, 4, 6, 8, 10, 12, 14, 16, 18, 20, 22, 24, 26, 28, 30, 32, 34, 36, 38, 40, 42, 44, 46, 48, 50, 52, 54, 56, 58, 60, 62, -1, -1, -1, -1, -1, -1, -1, -1, -1, -1, -1, -1, -1, -1, -1, -1, -1, -1, -1, -1, -1, -1, -1, -1, -1, -1, -1, -1, -1, -1, -1, -1], "split_conditions": [1.1306697, 0.28336376, 4.565006, 0.08324009, 0.14321224, 1.0049522, 0.19569203, 0.006044547, 0.033741247, 7.257511, 2.2049878, 0.35902384, 0.061997093, 29.890434, 0.3538831, 0.169173, 0.21761405, 43.86112, 28.430132, 5.505242, 0.36144254, 6.436986, 0.01647094, 40.729336, 0.27088383, 0.7009903, 7.592577, 2.3043146, 25.704584, 0.03329859, 0.08614175, -0.22432394, -0.18822773, -0.15663554, -0.0, -0.15105991, -0.23036355, 0.035286553, -0.09810977, -0.09816097, -0.23336487, -0.13301636, -0.08614428, -0.038508385, 0.041229483, -0.04406761, -0.16904403, -0.000862053, -0.19814572, 0.10253404, 0.21174546, -0.087377, 0.101738885, -0.2063406, 0.10854932, -0.021054434, 0.1980428, -0.052336127, 0.09478552, 0.18038827, -0.1307097, 0.18849353, 0.23645906], "split_indices": [51, 78, 51, 68, 68, 16, 37, 35, 44, 0, 26, 43, 35, 26, 11, 50, 35, 14, 14, 76, 3, 62, 35, 14, 22, 8, 29, 92, 29, 35, 4, 0, 0, 0, 0, 0, 0, 0, 0, 0, 0, 0, 0, 0, 0, 0, 0, 0, 0, 0, 0, 0, 0, 0, 0, 0, 0, 0, 0, 0, 0, 0, 0], "split_type": [0, 0, 0, 0, 0, 0, 0, 0, 0, 0, 0, 0, 0, 0, 0, 0, 0, 0, 0, 0, 0, 0, 0, 0, 0, 0, 0, 0, 0, 0, 0, 0, 0, 0, 0, 0, 0, 0, 0, 0, 0, 0, 0, 0, 0, 0, 0, 0, 0, 0, 0, 0, 0, 0, 0, 0, 0, 0, 0, 0, 0, 0, 0], "sum_hessian": [129907.62, 71798.914, 58108.7, 33428.316, 38370.598, 19824.82, 38283.88, 23302.63, 10125.685, 16932.734, 21437.861, 13882.464, 5942.358, 5078.0176, 33205.863, 20960.783, 2341.8481, 6739.57, 3386.1155, 2267.048, 14665.687, 16312.382, 5125.48, 888.8485, 12993.615, 4612.915, 1329.4426, 2336.2397, 2741.778, 421.81113, 32784.05, 16699.117, 4261.667, 2195.4746, 146.37343, 5493.846, 1245.7236, 442.7135, 2943.4019, 705.18146, 1561.8667, 5969.6133, 8696.073, 12160.482, 4151.8994, 1852.5452, 3272.9348, 497.05115, 391.79736, 10274.401, 2719.2136, 3390.0825, 1222.8326, 1302.5536, 26.889051, 90.765335, 2245.4744, 1527.2286, 1214.5493, 292.05203, 129.75908, 3293.3203, 29490.73], "tree_param": {"num_deleted": "0", "num_feature": "96", "num_nodes": "63", "size_leaf_vector": "1"}}, {"base_weights": [-0.0, -0.3339538, 0.554442, -0.52903116, -0.14560798, 0.28068787, 0.6626284, -0.58410275, -0.36918145, -0.25073215, 0.016952856, -0.18812755, 0.39239284, 0.37041816, 0.69528556, -0.60012984, -0.059459362, -0.40079972, -0.072072394, -0.0029487684, -0.28594112, 0.11829128, -0.27206936, 0.15747896, -0.42821252, 0.28025377, 0.6978568, 0.478228, -0.42332968, 0.3140885, 0.6982705, -0.1882961, -0.15237834, -0.09682546, 0.005593646, -0.08656937, -0.13785626, 0.02918312, -0.123395555, -0.019623313, 0.16808112, -0.0733395, -0.13435058, 0.009131564, 0.12633306, -0.0494612, -0.1792809, 0.13254918, -0.011440663, -0.15015922, 0.112686746, 0.0076561496, 0.13090897, 0.2156232, -0.04796542, 0.16088082, -0.030297488, -0.0, -0.16109803, 0.14677976, -0.0, 0.20988274, 0.03441421], "categories": [], "categories_nodes": [], "categories_segments": [], "categories_sizes": [], "default_left": [0, 0, 0, 0, 0, 0, 0, 0, 0, 0, 0, 0, 0, 0, 0, 0, 0, 0, 0, 0, 0, 0, 0, 0, 0, 0, 0, 0, 0, 0, 0, 0, 0, 0, 0, 0, 0, 0, 0, 0, 0, 0, 0, 0, 0, 0, 0, 0, 0, 0, 0, 0, 0, 0, 0, 0, 0, 0, 0, 0, 0, 0, 0], "id": 2, "left_children": [1, 3, 5, 7, 9, 11, 13, 15, 17, 19, 21, 23, 25, 27, 29, 31, 33, 35, 37, 39, 41, 43, 45, 47, 49, 51, 53, 55, 57, 59, 61, -1, -1, -1, -1, -1, -1, -1, -1, -1, -1, -1, -1, -1, -1, -1, -1, -1, -1, -1, -1, -1, -1, -1, -1, -1, -1, -1, -1, -1, -1, -1, -1], "loss_changes": [20006.832, 2470.8745, 1193.3359, 281.62793, 589.1281, 606.09235, 266.64258, 199.96289, 75.37915, 179.35608, 392.38058, 185.54109, 309.66565, 253.77133, 19.389648, 48.78125, 18.427622, 42.998413, 52.13708, 87.800354, 115.54736, 261.06372, 113.22464, 53.36771, 78.002655, 267.8191, 50.155273, 92.31085, 20.651066, 16.36318, 12.008789, 0.0, 0.0, 0.0, 0.0, 0.0, 0.0, 0.0, 0.0, 0.0, 0.0, 0.0, 0.0, 0.0, 0.0, 0.0, 0.0, 0.0, 0.0, 0.0, 0.0, 0.0, 0.0, 0.0, 0.0, 0.0, 0.0, 0.0, 0.0, 0.0, 0.0, 0.0, 0.0], "parents": [2147483647, 0, 0, 1, 1, 2, 2, 3, 3, 4, 4, 5, 5, 6, 6, 7, 7, 8, 8, 9, 9, 10, 10, 11, 11, 12, 12, 13, 13, 14, 14, 15, 15, 16, 16, 17, 17, 18, 18, 19, 19, 20, 20, 21, 21, 22, 22, 23, 23, 24, 24, 25, 25, 26, 26, 27, 27, 28, 28, 29, 29, 30, 30], "right_children": [2, 4, 6, 8, 10, 12, 14, 16, 18, 20, 22, 24, 26, 28, 30, 32, 34, 36, 38, 40, 42, 44, 46, 48, 50, 52, 54, 56, 58, 60, 62, -1, -1, -1, -1, -1, -1, -1, -1, -1, -1, -1, -1, -1, -1, -1, -1, -1, -1, -1, -1, -1, -1, -1, -1, -1, -1, -1, -1, -1, -1, -1, -1], "split_conditions": [2.0331285, 0.11752204, 0.39045796, 0.21078116, 0.8377063, 0.4860479, 4.2055345, 2.1402202, 2.094639, 27.58139, 0.88616174, 48.658012, 4.4266624, 3.9700377, 0.26786, 0.21974158, 12.125907, 30.192915, 0.21193862, 4.395422, 3.4010208, 1.3364636, 0.27088383, 5.1390205e-05, 42.70317, 1.1085178, 0.2278228, 3.1079605, 12.125907, 1.5199395, 2.961922, -0.1882961, -0.15237834, -0.09682546, 0.005593646, -0.08656937, -0.13785626, 0.02918312, -0.123395555, -0.019623313, 0.16808112, -0.0733395, -0.13435058, 0.009131564, 0.12633306, -0.0494612, -0.1792809, 0.13254918, -0.011440663, -0.15015922, 0.112686746, 0.0076561496, 0.13090897, 0.2156232, -0.04796542, 0.16088082, -0.030297488, -0.0, -0.16109803, 0.14677976, -0.0, 0.20988274, 0.03441421], "split_indices": [51, 68, 37, 66, 51, 3, 51, 65, 55, 14, 16, 14, 28, 56, 16, 92, 0, 14, 22, 28, 46, 30, 22, 65, 72, 83, 33, 63, 0, 23, 55, 0, 0, 0, 0, 0, 0, 0, 0, 0, 0, 0, 0, 0, 0, 0, 0, 0, 0, 0, 0, 0, 0, 0, 0, 0, 0, 0, 0, 0, 0, 0, 0], "split_type": [0, 0, 0, 0, 0, 0, 0, 0, 0, 0, 0, 0, 0, 0, 0, 0, 0, 0, 0, 0, 0, 0, 0, 0, 0, 0, 0, 0, 0, 0, 0, 0, 0, 0, 0, 0, 0, 0, 0, 0, 0, 0, 0, 0, 0, 0, 0, 0, 0, 0, 0, 0, 0, 0, 0, 0, 0, 0, 0, 0, 0, 0, 0], "sum_hessian": [108050.76, 67434.016, 40616.742, 33098.09, 34335.926, 11532.08, 29084.66, 24568.508, 8529.583, 20888.69, 13447.236, 2201.6694, 9330.41, 2955.7449, 26128.916, 23821.586, 746.92114, 7678.4395, 851.14404, 2634.3735, 18254.316, 9982.361, 3464.8755, 885.5693, 1316.1003, 6850.261, 2480.1494, 2613.7336, 342.0112, 229.86487, 25899.05, 18257.254, 5564.3315, 199.45552, 547.46564, 2697.9639, 4980.4756, 548.5484, 302.59564, 2388.1602, 246.21338, 14582.627, 3671.6882, 7764.0156, 2218.3452, 2630.7808, 834.09467, 381.2435, 504.32578, 1219.2283, 96.87199, 2627.7021, 4222.559, 2432.7297, 47.419727, 2391.4358, 222.29782, 58.225277, 283.78592, 162.4982, 67.36668, 25822.48, 76.57016], "tree_param": {"num_deleted": "0", "num_feature": "96", "num_nodes": "63", "size_leaf_vector": "1"}}, {"base_weights": [-0.0, -0.28337026, 0.52210605, -0.4629627, -0.099690184, 0.26495895, 0.6158979, -0.52179325, -0.3135902, -0.14637741, 0.20265923, 0.13796581, 0.59816474, -0.0, 0.6252948, -0.5644226, -0.3371224, -0.13284738, -0.36351982, -0.29374707, -0.07872715, 0.39446935, -0.26146746, 0.27448785, -0.10383378, -0.0, 0.60654324, 0.30538976, -0.46819612, 0.46272266, 0.6475803, -0.17061198, -0.07670718, -0.0, -0.123960145, -0.051186286, 0.17638749, -0.13115624, -0.060546186, -0.10996879, -0.03839734, -0.053650565, 0.007114626, 0.13177116, -0.054423448, 0.08611375, -0.11096887, -0.08196056, 0.09917586, -0.05921201, 0.12186551, -0.0, -0.038738977, 0.18539298, 0.011148419, -0.0, 0.14605962, -0.0, -0.15588757, 0.1566833, -0.07583126, -0.0, 0.19455658], "categories": [], "categories_nodes": [], "categories_segments": [], "categories_sizes": [], "default_left": [0, 0, 0, 0, 0, 0, 0, 0, 0, 0, 0, 0, 0, 0, 0, 0, 0, 0, 0, 0, 0, 0, 0, 0, 0, 0, 0, 0, 0, 0, 0, 0, 0, 0, 0, 0, 0, 0, 0, 0, 0, 0, 0, 0, 0, 0, 0, 0, 0, 0, 0, 0, 0, 0, 0, 0, 0, 0, 0, 0, 0, 0, 0], "id": 3, "left_children": [1, 3, 5, 7, 9, 11, 13, 15, 17, 19, 21, 23, 25, 27, 29, 31, 33, 35, 37, 39, 41, 43, 45, 47, 49, 51, 53, 55, 57, 59, 61, -1, -1, -1, -1, -1, -1, -1, -1, -1, -1, -1, -1, -1, -1, -1, -1, -1, -1, -1, -1, -1, -1, -1, -1, -1, -1, -1, -1, -1, -1, -1, -1], "loss_changes": [13896.452, 2002.7119, 787.99316, 261.75928, 424.74695, 367.5324, 142.80957, 164.11328, 73.871765, 256.7293, 357.67902, 214.3003, 17.0224, 51.949852, 74.92285, 15.208496, 105.592804, 48.665585, 74.5849, 93.656494, 185.68793, 76.06006, 69.6595, 127.933014, 107.62796, 0.26807675, 9.069763, 13.781092, 5.8243027, 127.681946, 6.602539, 0.0, 0.0, 0.0, 0.0, 0.0, 0.0, 0.0, 0.0, 0.0, 0.0, 0.0, 0.0, 0.0, 0.0, 0.0, 0.0, 0.0, 0.0, 0.0, 0.0, 0.0, 0.0, 0.0, 0.0, 0.0, 0.0, 0.0, 0.0, 0.0, 0.0, 0.0, 0.0], "parents": [2147483647, 0, 0, 1, 1, 2, 2, 3, 3, 4, 4, 5, 5, 6, 6, 7, 7, 8, 8, 9, 9, 10, 10, 11, 11, 12, 12, 13, 13, 14, 14, 15, 15, 16, 16, 17, 17, 18, 18, 19, 19, 20, 20, 21, 21, 22, 22, 23, 23, 24, 24, 25, 25, 26, 26, 27, 27, 28, 28, 29, 29, 30, 30], "right_children": [2, 4, 6, 8, 10, 12, 14, 16, 18, 20, 22, 24, 26, 28, 30, 32, 34, 36, 38, 40, 42, 44, 46, 48, 50, 52, 54, 56, 58, 60, 62, -1, -1, -1, -1, -1, -1, -1, -1, -1, -1, -1, -1, -1, -1, -1, -1, -1, -1, -1, -1, -1, -1, -1, -1, -1, -1, -1, -1, -1, -1, -1, -1], "split_conditions": [2.3024607, 0.12960483, 0.08614175, 0.3153067, 2.3892477, 3.2626965, 0.06111106, 0.062069103, 0.86651796, 0.21274492, 0.043900233, 50.147297, 1.3123605, 0.22241285, 5.4960117, 0.34029117, 0.04403928, 6.209058, 2.180397, 2.094639, 0.2966761, 2.9204385, 1.850769, 1.1258235, 94.68174, 0.22587109, 1.237351, 1.1922224, 0.30539787, 12.526713, 0.24202923, -0.17061198, -0.07670718, -0.0, -0.123960145, -0.051186286, 0.17638749, -0.13115624, -0.060546186, -0.10996879, -0.03839734, -0.053650565, 0.007114626, 0.13177116, -0.054423448, 0.08611375, -0.11096887, -0.08196056, 0.09917586, -0.05921201, 0.12186551, -0.0, -0.038738977, 0.18539298, 0.011148419, -0.0, 0.14605962, -0.0, -0.15588757, 0.1566833, -0.07583126, -0.0, 0.19455658], "split_indices": [51, 68, 4, 92, 30, 28, 94, 22, 70, 79, 35, 14, 92, 22, 51, 61, 6, 39, 43, 55, 68, 32, 42, 92, 72, 6, 17, 8, 81, 26, 47, 0, 0, 0, 0, 0, 0, 0, 0, 0, 0, 0, 0, 0, 0, 0, 0, 0, 0, 0, 0, 0, 0, 0, 0, 0, 0, 0, 0, 0, 0, 0, 0], "split_type": [0, 0, 0, 0, 0, 0, 0, 0, 0, 0, 0, 0, 0, 0, 0, 0, 0, 0, 0, 0, 0, 0, 0, 0, 0, 0, 0, 0, 0, 0, 0, 0, 0, 0, 0, 0, 0, 0, 0, 0, 0, 0, 0, 0, 0, 0, 0, 0, 0, 0, 0, 0, 0, 0, 0, 0, 0, 0, 0, 0, 0, 0, 0], "sum_hessian": [93925.11, 60882.12, 33042.99, 30755.297, 30126.824, 8860.576, 24182.41, 22015.154, 8740.142, 26126.15, 4000.6746, 6438.2295, 2422.3464, 356.14658, 23826.264, 17840.625, 4174.531, 1935.9694, 6804.1724, 8172.336, 17953.814, 2846.1423, 1154.5321, 4141.2607, 2296.9685, 20.218054, 2402.1282, 209.87515, 146.27144, 2929.0952, 20897.168, 17563.68, 276.94516, 777.57776, 3396.953, 1853.4753, 82.49406, 4630.8726, 2173.2996, 5635.2603, 2537.0754, 9129.364, 8824.45, 2657.1802, 188.96213, 175.06241, 979.4697, 367.84576, 3773.4153, 1958.089, 338.8794, 5.141038, 15.077017, 2337.5417, 64.586525, 69.76723, 140.10793, 6.1386566, 140.13278, 2717.1743, 211.92091, 44.93883, 20852.23], "tree_param": {"num_deleted": "0", "num_feature": "96", "num_nodes": "63", "size_leaf_vector": "1"}}, {"base_weights": [-0.0, -0.28556618, 0.4251224, -0.4630225, -0.15316579, 0.19730443, 0.57948744, -0.52616423, -0.3684136, -0.23521379, -0.03917016, 0.2979027, -0.10059027, 0.2782316, 0.6043698, -0.5401753, -0.233348, 0.025826458, -0.40056574, -0.39018404, -0.19149114, 0.067958504, -0.15459016, 0.2156026, 0.5465258, -0.20656177, 0.12885807, 0.08742231, 0.516479, -0.011160458, 0.6064154, -0.165409, -0.09647719, -0.08245212, 0.04902726, 0.04218641, -0.02527057, -0.1392932, -0.093009256, -0.12252738, 0.043593246, -0.024106653, -0.08091114, -0.11431507, 0.0361464, -0.11557852, -0.0267698, 0.025425952, 0.13460459, -0.0, 0.1711243, -0.081340715, 0.044326797, 0.09939548, -0.07104764, 0.0012005202, 0.13023157, -0.0, 0.16220108, 0.019135443, -0.122317635, -0.0, 0.18235877], "categories": [], "categories_nodes": [], "categories_segments": [], "categories_sizes": [], "default_left": [0, 0, 0, 0, 0, 0, 0, 0, 0, 0, 0, 0, 0, 0, 0, 0, 0, 0, 0, 0, 0, 0, 0, 0, 0, 0, 0, 0, 0, 0, 0, 0, 0, 0, 0, 0, 0, 0, 0, 0, 0, 0, 0, 0, 0, 0, 0, 0, 0, 0, 0, 0, 0, 0, 0, 0, 0, 0, 0, 0, 0, 0, 0], "id": 4, "left_children": [1, 3, 5, 7, 9, 11, 13, 15, 17, 19, 21, 23, 25, 27, 29, 31, 33, 35, 37, 39, 41, 43, 45, 47, 49, 51, 53, 55, 57, 59, 61, -1, -1, -1, -1, -1, -1, -1, -1, -1, -1, -1, -1, -1, -1, -1, -1, -1, -1, -1, -1, -1, -1, -1, -1, -1, -1, -1, -1, -1, -1, -1, -1], "loss_changes": [10033.352, 1155.3247, 1159.9746, 116.85791, 262.38025, 404.79333, 139.19287, 43.76587, 111.61487, 105.44745, 148.21565, 198.37317, 82.71463, 63.958748, 28.911621, 20.380127, 11.18478, 8.397845, 37.6521, 37.508606, 108.33319, 142.1589, 82.379715, 226.40814, 31.81842, 54.68952, 77.659386, 21.069242, 12.189987, 4.807845, 20.771484, 0.0, 0.0, 0.0, 0.0, 0.0, 0.0, 0.0, 0.0, 0.0, 0.0, 0.0, 0.0, 0.0, 0.0, 0.0, 0.0, 0.0, 0.0, 0.0, 0.0, 0.0, 0.0, 0.0, 0.0, 0.0, 0.0, 0.0, 0.0, 0.0, 0.0, 0.0, 0.0], "parents": [2147483647, 0, 0, 1, 1, 2, 2, 3, 3, 4, 4, 5, 5, 6, 6, 7, 7, 8, 8, 9, 9, 10, 10, 11, 11, 12, 12, 13, 13, 14, 14, 15, 15, 16, 16, 17, 17, 18, 18, 19, 19, 20, 20, 21, 21, 22, 22, 23, 23, 24, 24, 25, 25, 26, 26, 27, 27, 28, 28, 29, 29, 30, 30], "right_children": [2, 4, 6, 8, 10, 12, 14, 16, 18, 20, 22, 24, 26, 28, 30, 32, 34, 36, 38, 40, 42, 44, 46, 48, 50, 52, 54, 56, 58, 60, 62, -1, -1, -1, -1, -1, -1, -1, -1, -1, -1, -1, -1, -1, -1, -1, -1, -1, -1, -1, -1, -1, -1, -1, -1, -1, -1, -1, -1, -1, -1, -1, -1], "split_conditions": [1.405823, 0.0941048, 16.911007, 0.07389236, 0.6385691, 15.522283, 0.19569203, 0.22176965, 0.007910921, 0.038254518, 0.722994, 0.2749031, 0.94406307, 9.2846155, 5.4960117, 0.12750028, 0.9622485, 28.181639, 8.660704, 0.35415936, 0.22328755, 7.4680405, 0.49419302, 5.6996627, 0.2778609, 4.024592, 0.0015322376, 15.887737, 5.7710176, 0.23608635, 0.44477695, -0.165409, -0.09647719, -0.08245212, 0.04902726, 0.04218641, -0.02527057, -0.1392932, -0.093009256, -0.12252738, 0.043593246, -0.024106653, -0.08091114, -0.11431507, 0.0361464, -0.11557852, -0.0267698, 0.025425952, 0.13460459, -0.0, 0.1711243, -0.081340715, 0.044326797, 0.09939548, -0.07104764, 0.0012005202, 0.13023157, -0.0, 0.16220108, 0.019135443, -0.122317635, -0.0, 0.18235877], "split_indices": [51, 68, 29, 33, 51, 46, 37, 58, 6, 33, 2, 22, 30, 76, 51, 65, 3, 14, 0, 58, 6, 0, 75, 72, 50, 68, 65, 89, 51, 6, 60, 0, 0, 0, 0, 0, 0, 0, 0, 0, 0, 0, 0, 0, 0, 0, 0, 0, 0, 0, 0, 0, 0, 0, 0, 0, 0, 0, 0, 0, 0, 0, 0], "split_type": [0, 0, 0, 0, 0, 0, 0, 0, 0, 0, 0, 0, 0, 0, 0, 0, 0, 0, 0, 0, 0, 0, 0, 0, 0, 0, 0, 0, 0, 0, 0, 0, 0, 0, 0, 0, 0, 0, 0, 0, 0, 0, 0, 0, 0, 0, 0, 0, 0, 0, 0, 0, 0, 0, 0, 0, 0, 0, 0, 0, 0, 0, 0], "sum_hessian": [82644.65, 49436.887, 33207.76, 21090.82, 28346.066, 13439.817, 19767.945, 12582.819, 8508.002, 16431.068, 11914.999, 10072.073, 3367.7446, 1539.7653, 18228.18, 11974.836, 607.9832, 618.10846, 7889.8936, 3563.607, 12867.462, 6134.733, 5780.266, 7598.7847, 2473.288, 2333.6313, 1034.1132, 879.06976, 660.6955, 44.168312, 18184.012, 11346.793, 628.043, 573.5184, 34.464874, 346.88553, 271.22293, 4562.7285, 3327.165, 3464.507, 99.09981, 5368.713, 7498.7485, 621.9384, 5512.7944, 1241.3099, 4538.956, 4895.017, 2703.7678, 105.11255, 2368.1755, 1997.9633, 335.66815, 683.2647, 350.84848, 732.6357, 146.4341, 16.187464, 644.50806, 16.645206, 27.523106, 30.271114, 18153.74], "tree_param": {"num_deleted": "0", "num_feature": "96", "num_nodes": "63", "size_leaf_vector": "1"}}, {"base_weights": [-0.0, -0.21520482, 0.47683847, -0.37551984, -0.052368104, 0.24252732, 0.5634962, -0.4345677, -0.230212, -0.10547377, 0.15833618, -0.053831574, 0.3268439, 0.38616794, 0.58374685, -0.46146032, -0.1386405, -0.0832089, -0.2958785, -0.20497388, 0.00808915, 0.45926204, 0.03440148, -0.2272189, 0.105225675, 0.25125104, 0.5470493, 0.4475769, -0.0, 0.10954007, 0.5864089, -0.15115862, -0.10828895, -0.09138526, 0.006522108, -0.03755181, 0.14127721, -0.06750986, -0.1443832, -0.049061183, -0.13269097, 0.04048586, -0.059838243, 0.06781058, 0.17142577, 0.043676905, -0.05694139, -0.097330905, 0.009366139, -0.061592385, 0.06472118, 0.015785668, 0.10802768, 0.16965075, -0.0, -0.0, 0.14483951, 0.035247877, -0.06451141, -0.0064725173, 0.11251942, -0.0, 0.17609811], "categories": [], "categories_nodes": [], "categories_segments": [], "categories_sizes": [], "default_left": [0, 0, 0, 0, 0, 0, 0, 0, 0, 0, 0, 0, 0, 0, 0, 0, 0, 0, 0, 0, 0, 0, 0, 0, 0, 0, 0, 0, 0, 0, 0, 0, 0, 0, 0, 0, 0, 0, 0, 0, 0, 0, 0, 0, 0, 0, 0, 0, 0, 0, 0, 0, 0, 0, 0, 0, 0, 0, 0, 0, 0, 0, 0], "id": 5, "left_children": [1, 3, 5, 7, 9, 11, 13, 15, 17, 19, 21, 23, 25, 27, 29, 31, 33, 35, 37, 39, 41, 43, 45, 47, 49, 51, 53, 55, 57, 59, 61, -1, -1, -1, -1, -1, -1, -1, -1, -1, -1, -1, -1, -1, -1, -1, -1, -1, -1, -1, -1, -1, -1, -1, -1, -1, -1, -1, -1, -1, -1, -1, -1], "loss_changes": [7528.3516, 1315.2983, 455.03223, 211.53638, 280.4531, 157.48145, 49.766113, 137.49951, 67.638, 229.01631, 182.16129, 38.3684, 72.56555, 42.66086, 11.743164, 61.503906, 43.70195, 50.87439, 59.40979, 99.65271, 245.24635, 29.561401, 88.78668, 19.887833, 23.233545, 74.6375, 11.412872, 28.565948, 6.2328672, 7.20508, 3.0908203, 0.0, 0.0, 0.0, 0.0, 0.0, 0.0, 0.0, 0.0, 0.0, 0.0, 0.0, 0.0, 0.0, 0.0, 0.0, 0.0, 0.0, 0.0, 0.0, 0.0, 0.0, 0.0, 0.0, 0.0, 0.0, 0.0, 0.0, 0.0, 0.0, 0.0, 0.0, 0.0], "parents": [2147483647, 0, 0, 1, 1, 2, 2, 3, 3, 4, 4, 5, 5, 6, 6, 7, 7, 8, 8, 9, 9, 10, 10, 11, 11, 12, 12, 13, 13, 14, 14, 15, 15, 16, 16, 17, 17, 18, 18, 19, 19, 20, 20, 21, 21, 22, 22, 23, 23, 24, 24, 25, 25, 26, 26, 27, 27, 28, 28, 29, 29, 30, 30], "right_children": [2, 4, 6, 8, 10, 12, 14, 16, 18, 20, 22, 24, 26, 28, 30, 32, 34, 36, 38, 40, 42, 44, 46, 48, 50, 52, 54, 56, 58, 60, 62, -1, -1, -1, -1, -1, -1, -1, -1, -1, -1, -1, -1, -1, -1, -1, -1, -1, -1, -1, -1, -1, -1, -1, -1, -1, -1, -1, -1, -1, -1, -1, -1], "split_conditions": [2.7727864, 0.14321224, 0.39045796, 0.34919345, 1.2405365, 0.53629935, 5.4960117, 0.23046379, 0.64836836, 0.10900646, 0.0076350933, 2.6355171, 4.2304673, 7.8665915, 0.26786, 0.07363662, 10.925439, 2.5227168, 0.022582512, 47.073727, 1.2308083, 1.9161923, 3.0833964, 10.2227955, 0.3968762, 2.169124, 0.04097343, 7.4442706, 1.0952367, 0.19246927, 0.2913283, -0.15115862, -0.10828895, -0.09138526, 0.006522108, -0.03755181, 0.14127721, -0.06750986, -0.1443832, -0.049061183, -0.13269097, 0.04048586, -0.059838243, 0.06781058, 0.17142577, 0.043676905, -0.05694139, -0.097330905, 0.009366139, -0.061592385, 0.06472118, 0.015785668, 0.10802768, 0.16965075, -0.0, -0.0, 0.14483951, 0.035247877, -0.06451141, -0.0064725173, 0.11251942, -0.0, 0.17609811], "split_indices": [51, 68, 37, 92, 30, 3, 51, 65, 46, 33, 35, 42, 28, 23, 16, 68, 0, 52, 35, 14, 26, 92, 23, 56, 43, 19, 35, 0, 61, 44, 55, 0, 0, 0, 0, 0, 0, 0, 0, 0, 0, 0, 0, 0, 0, 0, 0, 0, 0, 0, 0, 0, 0, 0, 0, 0, 0, 0, 0, 0, 0, 0, 0], "split_type": [0, 0, 0, 0, 0, 0, 0, 0, 0, 0, 0, 0, 0, 0, 0, 0, 0, 0, 0, 0, 0, 0, 0, 0, 0, 0, 0, 0, 0, 0, 0, 0, 0, 0, 0, 0, 0, 0, 0, 0, 0, 0, 0, 0, 0, 0, 0, 0, 0, 0, 0, 0, 0, 0, 0, 0, 0, 0, 0, 0, 0, 0, 0], "sum_hessian": [73360.92, 50548.24, 22812.68, 25439.74, 25108.498, 6191.3296, 16621.35, 18038.67, 7401.071, 20092.395, 5016.1045, 1345.1409, 4846.1885, 1756.259, 14865.092, 16504.46, 1534.2092, 2332.9683, 5068.103, 10755.782, 9336.611, 1438.9053, 3577.1995, 673.45435, 671.6865, 3643.1196, 1203.069, 1520.0941, 236.16493, 104.189285, 14760.902, 11534.37, 4970.0903, 784.15, 750.0592, 2186.2283, 146.73997, 3707.5166, 1360.5862, 9194.32, 1561.4617, 5824.7793, 3511.832, 497.1909, 941.7144, 2421.3547, 1155.8447, 517.29956, 156.15474, 152.32173, 519.36475, 1322.6608, 2320.459, 1161.4581, 41.610798, 91.28935, 1428.8048, 146.36984, 89.79509, 45.151234, 59.038055, 20.425587, 14740.477], "tree_param": {"num_deleted": "0", "num_feature": "96", "num_nodes": "63", "size_leaf_vector": "1"}}, {"base_weights": [-0.0, -0.24203904, 0.36234686, -0.39474604, -0.1334729, 0.17732047, 0.5378376, -0.45862478, -0.30257592, -0.18580581, 0.016488506, 0.23593022, -0.09847716, 0.28531697, 0.56370836, -0.47332785, -0.19528726, 0.022330618, -0.33115882, -0.2787665, -0.10125464, -0.16920388, 0.05744824, -0.21241918, 0.27227098, -0.17836972, 0.15338747, 0.12458939, 0.46155277, 0.33562702, 0.5740854, -0.14684922, -0.07374885, -0.115837015, -0.007599664, -0.017805204, 0.041164115, -0.1078344, -0.035445053, -0.091031, -0.0, 0.0060531446, -0.06971457, 0.04257296, -0.06921868, -0.02505284, -0.15697086, -0.07729374, 0.08874426, -0.07208999, -0.0, 0.083548084, -0.044387262, 0.10811285, 0.00660686, -0.0, 0.1544624, 0.019636821, 0.14757335, -0.0, 0.1725404], "categories": [], "categories_nodes": [], "categories_segments": [], "categories_sizes": [], "default_left": [0, 0, 0, 0, 0, 0, 0, 0, 0, 0, 0, 0, 0, 0, 0, 0, 0, 0, 0, 0, 0, 0, 0, 0, 0, 0, 0, 0, 0, 0, 0, 0, 0, 0, 0, 0, 0, 0, 0, 0, 0, 0, 0, 0, 0, 0, 0, 0, 0, 0, 0, 0, 0, 0, 0, 0, 0, 0, 0, 0, 0], "id": 6, "left_children": [1, 3, 5, 7, 9, 11, 13, 15, 17, 19, 21, 23, 25, 27, 29, 31, 33, 35, 37, 39, 41, -1, 43, 45, 47, 49, 51, 53, 55, 57, 59, -1, -1, -1, -1, -1, -1, -1, -1, -1, -1, -1, -1, -1, -1, -1, -1, -1, -1, -1, -1, -1, -1, -1, -1, -1, -1, -1, -1, -1, -1], "loss_changes": [5728.359, 643.8728, 842.08813, 87.82349, 181.6261, 207.68661, 78.86572, 30.088623, 65.427795, 130.14758, 134.83965, 172.63928, 44.69695, 30.419151, 19.382812, 25.56604, 13.428501, 5.6228967, 32.52716, 56.436462, 145.18521, 0.0, 133.30449, 24.794594, 122.53546, 18.1026, 20.272018, 13.14499, 10.215584, 18.526207, 5.4570312, 0.0, 0.0, 0.0, 0.0, 0.0, 0.0, 0.0, 0.0, 0.0, 0.0, 0.0, 0.0, 0.0, 0.0, 0.0, 0.0, 0.0, 0.0, 0.0, 0.0, 0.0, 0.0, 0.0, 0.0, 0.0, 0.0, 0.0, 0.0, 0.0, 0.0], "parents": [2147483647, 0, 0, 1, 1, 2, 2, 3, 3, 4, 4, 5, 5, 6, 6, 7, 7, 8, 8, 9, 9, 10, 10, 11, 11, 12, 12, 13, 13, 14, 14, 15, 15, 16, 16, 17, 17, 18, 18, 19, 19, 20, 20, 22, 22, 23, 23, 24, 24, 25, 25, 26, 26, 27, 27, 28, 28, 29, 29, 30, 30], "right_children": [2, 4, 6, 8, 10, 12, 14, 16, 18, 20, 22, 24, 26, 28, 30, 32, 34, 36, 38, 40, 42, -1, 44, 46, 48, 50, 52, 54, 56, 58, 60, -1, -1, -1, -1, -1, -1, -1, -1, -1, -1, -1, -1, -1, -1, -1, -1, -1, -1, -1, -1, -1, -1, -1, -1, -1, -1, -1, -1, -1, -1], "split_conditions": [1.2652469, 0.0941048, 20.295118, 0.07389236, 6.436986, 29.071632, 0.24493663, 0.12750028, 0.007910921, 0.08099902, 0.33333334, 0.3968762, 7.685249, 9.529857, 0.90642875, 0.41070187, 12.372095, 0.24769454, 0.61527526, 0.67973065, 0.96465904, -0.16920388, 0.028846951, 55.00148, 7.4188066, 7.739436, 1.6890521, 2.034161e-06, 7.2881546, 0.0641921, 0.037808876, -0.14684922, -0.07374885, -0.115837015, -0.007599664, -0.017805204, 0.041164115, -0.1078344, -0.035445053, -0.091031, -0.0, 0.0060531446, -0.06971457, 0.04257296, -0.06921868, -0.02505284, -0.15697086, -0.07729374, 0.08874426, -0.07208999, -0.0, 0.083548084, -0.044387262, 0.10811285, 0.00660686, -0.0, 0.1544624, 0.019636821, 0.14757335, -0.0, 0.1725404], "split_indices": [51, 68, 29, 33, 62, 46, 37, 65, 6, 33, 24, 43, 62, 76, 43, 78, 0, 22, 66, 3, 46, 0, 35, 14, 0, 51, 78, 65, 92, 35, 22, 0, 0, 0, 0, 0, 0, 0, 0, 0, 0, 0, 0, 0, 0, 0, 0, 0, 0, 0, 0, 0, 0, 0, 0, 0, 0, 0, 0, 0, 0], "split_type": [0, 0, 0, 0, 0, 0, 0, 0, 0, 0, 0, 0, 0, 0, 0, 0, 0, 0, 0, 0, 0, 0, 0, 0, 0, 0, 0, 0, 0, 0, 0, 0, 0, 0, 0, 0, 0, 0, 0, 0, 0, 0, 0, 0, 0, 0, 0, 0, 0, 0, 0, 0, 0, 0, 0, 0, 0, 0, 0, 0, 0], "sum_hessian": [65314.1, 39157.895, 26156.205, 16231.807, 22926.09, 12760.904, 13395.301, 9520.871, 6710.9355, 17044.438, 5881.652, 10554.394, 2206.511, 1281.8547, 12113.446, 8980.678, 540.1937, 514.3694, 6196.5664, 8061.055, 8983.382, 370.7197, 5510.932, 770.3451, 9784.048, 1705.5111, 500.99985, 700.9946, 580.8601, 570.5327, 11542.914, 8342.615, 638.062, 226.14879, 314.04495, 250.03448, 264.3349, 5428.046, 768.5203, 7416.364, 644.6916, 4624.967, 4358.415, 4289.0625, 1221.8696, 568.14984, 202.19522, 397.70486, 9386.344, 1252.7482, 452.7629, 377.5266, 123.47325, 182.17874, 518.81586, 75.74213, 505.118, 233.05377, 337.47894, 25.583195, 11517.33], "tree_param": {"num_deleted": "0", "num_feature": "96", "num_nodes": "61", "size_leaf_vector": "1"}}, {"base_weights": [-0.0, -0.18224515, 0.4117493, -0.28837058, 0.003951876, 0.20653391, 0.5293686, -0.36877874, -0.17764558, -0.03290685, 0.24902321, 0.0012270196, 0.31345606, 0.336955, 0.5538603, -0.38656902, -0.08848241, -0.206055, 0.124095775, 0.014133461, -0.16820921, 0.43156064, 0.04642503, -0.14446945, 0.122362025, 0.23287153, 0.503136, 0.41924897, -0.0, 0.038506586, 0.16725841, -0.1292304, -0.07782342, -0.0, -0.12825945, -0.07104892, -0.016118702, 0.13548891, -0.05030181, -0.01707449, 0.06936057, -0.02154218, -0.095058724, 0.13436818, -0.0, 0.107736416, -0.006787085, -0.06845422, -0.0, -0.04571242, 0.04888539, 0.013796214, 0.09924608, 0.15964565, -0.0, -0.053757798, 0.13253736, -0.034708876, 0.049318373, -0.02829908, 0.10275678], "categories": [], "categories_nodes": [], "categories_segments": [], "categories_sizes": [], "default_left": [0, 0, 0, 0, 0, 0, 0, 0, 0, 0, 0, 0, 0, 0, 0, 0, 0, 0, 0, 0, 0, 0, 0, 0, 0, 0, 0, 0, 0, 0, 0, 0, 0, 0, 0, 0, 0, 0, 0, 0, 0, 0, 0, 0, 0, 0, 0, 0, 0, 0, 0, 0, 0, 0, 0, 0, 0, 0, 0, 0, 0], "id": 7, "left_children": [1, 3, 5, 7, 9, 11, 13, 15, 17, 19, 21, 23, 25, 27, 29, 31, 33, 35, 37, 39, 41, 43, 45, 47, 49, 51, 53, 55, 57, 59, -1, -1, -1, -1, -1, -1, -1, -1, -1, -1, -1, -1, -1, -1, -1, -1, -1, -1, -1, -1, -1, -1, -1, -1, -1, -1, -1, -1, -1, -1, -1], "loss_changes": [4376.953, 801.80664, 424.49316, 224.06738, 134.46318, 140.69724, 44.36548, 69.44531, 94.31009, 82.350685, 67.3259, 39.98322, 57.893707, 34.46837, 12.949463, 71.466064, 24.88583, 43.938843, 89.73981, 146.21742, 43.814888, 9.618637, 23.916018, 13.775885, 14.418999, 51.871445, 14.289917, 16.936676, 5.5404654, 6.194, 0.0, 0.0, 0.0, 0.0, 0.0, 0.0, 0.0, 0.0, 0.0, 0.0, 0.0, 0.0, 0.0, 0.0, 0.0, 0.0, 0.0, 0.0, 0.0, 0.0, 0.0, 0.0, 0.0, 0.0, 0.0, 0.0, 0.0, 0.0, 0.0, 0.0, 0.0], "parents": [2147483647, 0, 0, 1, 1, 2, 2, 3, 3, 4, 4, 5, 5, 6, 6, 7, 7, 8, 8, 9, 9, 10, 10, 11, 11, 12, 12, 13, 13, 14, 14, 15, 15, 16, 16, 17, 17, 18, 18, 19, 19, 20, 20, 21, 21, 22, 22, 23, 23, 24, 24, 25, 25, 26, 26, 27, 27, 28, 28, 29, 29], "right_children": [2, 4, 6, 8, 10, 12, 14, 16, 18, 20, 22, 24, 26, 28, 30, 32, 34, 36, 38, 40, 42, 44, 46, 48, 50, 52, 54, 56, 58, 60, -1, -1, -1, -1, -1, -1, -1, -1, -1, -1, -1, -1, -1, -1, -1, -1, -1, -1, -1, -1, -1, -1, -1, -1, -1, -1, -1, -1, -1, -1, -1], "split_conditions": [2.3024607, 0.59190863, 0.5057817, 0.21078116, 3.2237964, 0.37852496, 5.086602, 0.548373, 3.2315843, 0.6957074, 0.39956328, 2.7089572, 4.2304673, 4.945886, 0.26033685, 0.2361835, 0.14655645, 1.0, 0.1579084, 0.18812604, 0.015341295, 17.51377, 0.015895026, 0.64764994, 0.35902384, 0.7296966, 0.7658418, 0.16696869, 0.3647515, 8.602577, 0.16725841, -0.1292304, -0.07782342, -0.0, -0.12825945, -0.07104892, -0.016118702, 0.13548891, -0.05030181, -0.01707449, 0.06936057, -0.02154218, -0.095058724, 0.13436818, -0.0, 0.107736416, -0.006787085, -0.06845422, -0.0, -0.04571242, 0.04888539, 0.013796214, 0.09924608, 0.15964565, -0.0, -0.053757798, 0.13253736, -0.034708876, 0.049318373, -0.02829908, 0.10275678], "split_indices": [51, 51, 37, 66, 30, 58, 51, 65, 52, 16, 37, 42, 28, 70, 16, 50, 46, 34, 22, 33, 35, 27, 35, 78, 43, 50, 73, 33, 77, 0, 0, 0, 0, 0, 0, 0, 0, 0, 0, 0, 0, 0, 0, 0, 0, 0, 0, 0, 0, 0, 0, 0, 0, 0, 0, 0, 0, 0, 0, 0, 0], "split_type": [0, 0, 0, 0, 0, 0, 0, 0, 0, 0, 0, 0, 0, 0, 0, 0, 0, 0, 0, 0, 0, 0, 0, 0, 0, 0, 0, 0, 0, 0, 0, 0, 0, 0, 0, 0, 0, 0, 0, 0, 0, 0, 0, 0, 0, 0, 0, 0, 0, 0, 0, 0, 0, 0, 0, 0, 0, 0, 0, 0, 0], "sum_hessian": [58326.8, 40431.773, 17895.027, 25787.188, 14644.585, 6551.726, 11343.302, 14885.057, 10902.131, 12695.277, 1949.3081, 2275.9983, 4275.728, 1328.5913, 10014.71, 13962.789, 922.26776, 9994.583, 907.54767, 9366.004, 3329.2732, 998.86206, 950.44604, 995.6836, 1280.3147, 3039.4019, 1236.326, 1053.951, 274.64026, 90.118225, 9924.592, 10301.16, 3661.6294, 747.572, 174.69572, 8259.663, 1734.9202, 443.45694, 464.09073, 7022.234, 2343.77, 2061.2812, 1267.9921, 975.2152, 23.646843, 197.34886, 753.09717, 663.1147, 332.56888, 132.73643, 1147.5782, 1080.8073, 1958.5946, 1155.533, 80.79306, 21.903587, 1032.0475, 140.92834, 133.71191, 40.304348, 49.81388], "tree_param": {"num_deleted": "0", "num_feature": "96", "num_nodes": "61", "size_leaf_vector": "1"}}, {"base_weights": [-0.0, -0.15366706, 0.41503257, -0.255009, 0.023478378, 0.2124007, 0.52353483, -0.38645688, -0.18451491, -0.012517099, 0.24337418, 0.13500589, 0.45754215, 0.33961862, 0.54356325, -0.39481267, 0.18342529, -0.2015268, 0.1408052, -0.07066295, 0.09016341, 0.30792394, -0.056459777, -0.019762073, 0.21696882, 0.46623218, -0.0, 0.40123752, -0.0, 0.06257435, 0.16401322, -0.1276101, -0.07319062, 0.12403659, -0.0, -0.096689574, -0.05062842, 0.14963318, -0.023985693, -0.06848681, -0.0038310129, 0.055204093, -0.05727538, 0.013054402, 0.11914747, -0.04114416, 0.12783578, -0.05488671, 0.032642685, 0.02538017, 0.10752114, -0.0, 0.14331438, 0.12913017, -0.010481536, 0.046573754, -0.06361359, -0.008529849, 0.09258513], "categories": [], "categories_nodes": [], "categories_segments": [], "categories_sizes": [], "default_left": [0, 0, 0, 0, 0, 0, 0, 0, 0, 0, 0, 0, 0, 0, 0, 0, 0, 0, 0, 0, 0, 0, 0, 0, 0, 0, 0, 0, 0, 0, 0, 0, 0, 0, 0, 0, 0, 0, 0, 0, 0, 0, 0, 0, 0, 0, 0, 0, 0, 0, 0, 0, 0, 0, 0, 0, 0, 0, 0], "id": 8, "left_children": [1, 3, 5, 7, 9, 11, 13, 15, 17, 19, 21, 23, 25, 27, 29, 31, 33, 35, 37, 39, 41, 43, 45, 47, 49, 51, -1, 53, 55, 57, -1, -1, -1, -1, -1, -1, -1, -1, -1, -1, -1, -1, -1, -1, -1, -1, -1, -1, -1, -1, -1, -1, -1, -1, -1, -1, -1, -1, -1], "loss_changes": [3348.6646, 690.2242, 304.45654, 220.41211, 112.40601, 88.5244, 24.898193, 42.52234, 88.85565, 70.945984, 41.15695, 50.415512, 7.0232544, 21.734657, 6.365967, 31.761108, 4.943, 55.09662, 64.56611, 67.57499, 111.97006, 34.972763, 9.898846, 27.634306, 43.069466, 6.5712433, 0.0, 14.41037, 4.7893314, 4.4997206, 0.0, 0.0, 0.0, 0.0, 0.0, 0.0, 0.0, 0.0, 0.0, 0.0, 0.0, 0.0, 0.0, 0.0, 0.0, 0.0, 0.0, 0.0, 0.0, 0.0, 0.0, 0.0, 0.0, 0.0, 0.0, 0.0, 0.0, 0.0, 0.0], "parents": [2147483647, 0, 0, 1, 1, 2, 2, 3, 3, 4, 4, 5, 5, 6, 6, 7, 7, 8, 8, 9, 9, 10, 10, 11, 11, 12, 12, 13, 13, 14, 14, 15, 15, 16, 16, 17, 17, 18, 18, 19, 19, 20, 20, 21, 21, 22, 22, 23, 23, 24, 24, 25, 25, 27, 27, 28, 28, 29, 29], "right_children": [2, 4, 6, 8, 10, 12, 14, 16, 18, 20, 22, 24, 26, 28, 30, 32, 34, 36, 38, 40, 42, 44, 46, 48, 50, 52, -1, 54, 56, 58, -1, -1, -1, -1, -1, -1, -1, -1, -1, -1, -1, -1, -1, -1, -1, -1, -1, -1, -1, -1, -1, -1, -1, -1, -1, -1, -1, -1, -1], "split_conditions": [2.8745942, 0.6385691, 0.49595103, 0.063465945, 7.7681894, 3.2626965, 5.4960117, 0.36247364, 1.5351036, 0.07924618, 5.89468, 1.3228453, 0.143968, 139.67014, 0.26033685, 0.12806407, 27.885834, 0.034339234, 0.14025433, 0.3386366, 4.303804, 0.3152279, 1.1368312, 0.1516392, 1.5944192, 1.5229793, -0.0, 5.8733983, 3.702397, 7.965455, 0.16401322, -0.1276101, -0.07319062, 0.12403659, -0.0, -0.096689574, -0.05062842, 0.14963318, -0.023985693, -0.06848681, -0.0038310129, 0.055204093, -0.05727538, 0.013054402, 0.11914747, -0.04114416, 0.12783578, -0.05488671, 0.032642685, 0.02538017, 0.10752114, -0.0, 0.14331438, 0.12913017, -0.010481536, 0.046573754, -0.06361359, -0.008529849, 0.09258513], "split_indices": [51, 51, 37, 68, 77, 28, 51, 35, 8, 44, 70, 83, 44, 74, 16, 13, 14, 33, 22, 3, 26, 68, 6, 52, 49, 5, 0, 56, 49, 0, 0, 0, 0, 0, 0, 0, 0, 0, 0, 0, 0, 0, 0, 0, 0, 0, 0, 0, 0, 0, 0, 0, 0, 0, 0, 0, 0, 0, 0], "split_type": [0, 0, 0, 0, 0, 0, 0, 0, 0, 0, 0, 0, 0, 0, 0, 0, 0, 0, 0, 0, 0, 0, 0, 0, 0, 0, 0, 0, 0, 0, 0, 0, 0, 0, 0, 0, 0, 0, 0, 0, 0, 0, 0, 0, 0, 0, 0, 0, 0, 0, 0, 0, 0, 0, 0, 0, 0, 0, 0], "sum_hessian": [52503.97, 38317.45, 14186.521, 24409.305, 13908.143, 4980.4595, 9206.0625, 8469.739, 15939.566, 11913.456, 1994.6863, 3817.5466, 1162.9127, 954.8778, 8251.185, 8364.944, 104.79497, 15177.037, 762.53, 7668.592, 4244.8643, 1668.7535, 325.93277, 1279.7631, 2537.7834, 1152.239, 10.673763, 818.8341, 136.04367, 74.434494, 8176.75, 6899.331, 1465.6129, 48.73788, 56.057087, 3171.8206, 12005.216, 307.6674, 454.86267, 2012.7509, 5655.841, 3209.2502, 1035.6141, 449.72626, 1219.0272, 297.61005, 28.322725, 598.03705, 681.726, 1348.2579, 1189.5256, 25.977697, 1126.2614, 788.96295, 29.87118, 66.94935, 69.09432, 25.312798, 49.121696], "tree_param": {"num_deleted": "0", "num_feature": "96", "num_nodes": "59", "size_leaf_vector": "1"}}, {"base_weights": [-0.0, -0.13586056, 0.39874098, -0.26438636, -0.012739327, 0.17998506, 0.5027292, -0.39406466, -0.20424935, -0.044161316, 0.22933824, 0.107423946, 0.39735827, 0.338753, 0.5377463, -0.40851596, -0.10375607, -0.29883012, -0.120223336, -0.10460468, 0.03778579, 0.4073874, 0.118592985, 0.036229543, 0.29988366, 0.42016974, -0.0, 0.38505715, -0.0, 0.09992789, 0.5426874, -0.09448739, -0.13899733, -0.05982937, 0.004839481, -0.10245427, -0.025388898, -0.044547528, 0.017713355, 0.05828019, -0.036972705, 0.023681646, -0.05496409, -0.0, 0.13521099, 0.102177836, 0.007733542, 0.06415378, -0.015326322, 0.123326555, -0.0, 0.12955841, -0.0, 0.02699257, -0.012481396, -0.0, 0.12873995, 0.048629683, -0.043777242, 0.107971646, -0.040905222, -0.0, 0.16306195], "categories": [], "categories_nodes": [], "categories_segments": [], "categories_sizes": [], "default_left": [0, 0, 0, 0, 0, 0, 0, 0, 0, 0, 0, 0, 0, 0, 0, 0, 0, 0, 0, 0, 0, 0, 0, 0, 0, 0, 0, 0, 0, 0, 0, 0, 0, 0, 0, 0, 0, 0, 0, 0, 0, 0, 0, 0, 0, 0, 0, 0, 0, 0, 0, 0, 0, 0, 0, 0, 0, 0, 0, 0, 0, 0, 0], "id": 9, "left_children": [1, 3, 5, 7, 9, 11, 13, 15, 17, 19, 21, 23, 25, 27, 29, 31, 33, 35, 37, 39, 41, 43, 45, 47, 49, 51, 53, 55, 57, 59, 61, -1, -1, -1, -1, -1, -1, -1, -1, -1, -1, -1, -1, -1, -1, -1, -1, -1, -1, -1, -1, -1, -1, -1, -1, -1, -1, -1, -1, -1, -1, -1, -1], "loss_changes": [2586.8684, 560.8292, 269.13818, 129.52014, 136.83717, 57.09488, 38.101562, 17.7182, 90.60434, 80.785965, 35.275436, 37.62082, 7.296295, 20.272125, 8.01355, 18.544006, 5.194651, 46.517303, 33.21695, 51.557076, 60.782967, 14.805191, 23.216011, 36.114017, 23.281586, 4.7324677, 0.38243964, 21.038727, 4.939278, 8.340194, 3.840454, 0.0, 0.0, 0.0, 0.0, 0.0, 0.0, 0.0, 0.0, 0.0, 0.0, 0.0, 0.0, 0.0, 0.0, 0.0, 0.0, 0.0, 0.0, 0.0, 0.0, 0.0, 0.0, 0.0, 0.0, 0.0, 0.0, 0.0, 0.0, 0.0, 0.0, 0.0, 0.0], "parents": [2147483647, 0, 0, 1, 1, 2, 2, 3, 3, 4, 4, 5, 5, 6, 6, 7, 7, 8, 8, 9, 9, 10, 10, 11, 11, 12, 12, 13, 13, 14, 14, 15, 15, 16, 16, 17, 17, 18, 18, 19, 19, 20, 20, 21, 21, 22, 22, 23, 23, 24, 24, 25, 25, 26, 26, 27, 27, 28, 28, 29, 29, 30, 30], "right_children": [2, 4, 6, 8, 10, 12, 14, 16, 18, 20, 22, 24, 26, 28, 30, 32, 34, 36, 38, 40, 42, 44, 46, 48, 50, 52, 54, 56, 58, 60, 62, -1, -1, -1, -1, -1, -1, -1, -1, -1, -1, -1, -1, -1, -1, -1, -1, -1, -1, -1, -1, -1, -1, -1, -1, -1, -1, -1, -1, -1, -1, -1, -1], "split_conditions": [2.9758217, 0.15599066, 0.39045796, 0.038254518, 3.344412, 1.7353376, 7.256206, 0.053106315, 8.699005, 1.0064031, 0.30287033, 13.443064, 0.03329859, 2.474321, 0.4258496, 0.11073185, 0.013621458, 2.1932762, 6.4784803, 0.39270657, 15.77858, 2.0879378, 2.277548, 35.000122, 8.10583e-05, 34.426723, 3105.6736, 0.31915468, 1.029081, 0.8042188, 0.090341836, -0.09448739, -0.13899733, -0.05982937, 0.004839481, -0.10245427, -0.025388898, -0.044547528, 0.017713355, 0.05828019, -0.036972705, 0.023681646, -0.05496409, -0.0, 0.13521099, 0.102177836, 0.007733542, 0.06415378, -0.015326322, 0.123326555, -0.0, 0.12955841, -0.0, 0.02699257, -0.012481396, -0.0, 0.12873995, 0.048629683, -0.043777242, 0.107971646, -0.040905222, -0.0, 0.16306195], "split_indices": [51, 68, 37, 33, 30, 30, 51, 8, 0, 51, 37, 76, 35, 56, 55, 6, 94, 43, 62, 72, 0, 92, 42, 14, 65, 68, 45, 47, 17, 61, 73, 0, 0, 0, 0, 0, 0, 0, 0, 0, 0, 0, 0, 0, 0, 0, 0, 0, 0, 0, 0, 0, 0, 0, 0, 0, 0, 0, 0, 0, 0, 0, 0], "split_type": [0, 0, 0, 0, 0, 0, 0, 0, 0, 0, 0, 0, 0, 0, 0, 0, 0, 0, 0, 0, 0, 0, 0, 0, 0, 0, 0, 0, 0, 0, 0, 0, 0, 0, 0, 0, 0, 0, 0, 0, 0, 0, 0, 0, 0, 0, 0, 0, 0, 0, 0, 0, 0, 0, 0, 0, 0, 0, 0, 0, 0, 0, 0], "sum_hessian": [47749.83, 35615.453, 12134.375, 17384.975, 18230.479, 3941.5615, 8192.813, 5453.441, 11931.534, 16173.29, 2057.1877, 2990.7278, 950.83374, 1493.8325, 6698.981, 5161.6455, 291.79504, 5556.029, 6375.5054, 9377.957, 6795.3325, 753.2249, 1303.9629, 2221.9387, 768.789, 891.6159, 59.217876, 1292.659, 201.17346, 97.58138, 6601.4, 1976.6702, 3184.9756, 208.30624, 83.488785, 4593.4126, 962.6164, 5555.433, 820.07196, 518.4335, 8859.523, 5767.2803, 1028.0524, 65.1223, 688.10266, 351.8865, 952.07635, 769.57806, 1452.3607, 546.41003, 222.37897, 869.3138, 22.302074, 42.439487, 16.77839, 137.85023, 1154.8088, 122.02415, 79.14931, 66.36243, 31.218956, 7.6927023, 6593.707], "tree_param": {"num_deleted": "0", "num_feature": "96", "num_nodes": "63", "size_leaf_vector": "1"}}, {"base_weights": [-0.0, -0.119146615, 0.38260147, -0.29595992, -0.038723223, 0.18000169, 0.50180393, -0.37108415, -0.19580819, -0.11528361, 0.054222994, 0.1269005, 0.4350189, 0.3167149, 0.5333695, -0.3877313, -0.06683343, -0.24525045, -0.0045610783, -0.15189494, -0.0, -0.0, 0.1798654, 0.008474958, 0.23027709, 0.4496304, -0.0, 0.021394124, 0.41110742, 0.08070431, 0.53721225, -0.120450325, -0.011520691, -0.0, -0.05094133, -0.0780242, 0.0010376609, 0.031295, -0.03336342, -0.06351728, -0.018183654, 0.069710486, -0.027800718, -0.017011978, 0.044871315, 0.07984702, -0.0, -0.01843152, 0.043052796, 0.05089975, 0.14219996, 0.1391872, -0.0, -0.016015833, 0.087764, 0.12780969, -0.0, 0.105241686, -0.030668922, -0.0, 0.16135915], "categories": [], "categories_nodes": [], "categories_segments": [], "categories_sizes": [], "default_left": [0, 0, 0, 0, 0, 0, 0, 0, 0, 0, 0, 0, 0, 0, 0, 0, 0, 0, 0, 0, 0, 0, 0, 0, 0, 0, 0, 0, 0, 0, 0, 0, 0, 0, 0, 0, 0, 0, 0, 0, 0, 0, 0, 0, 0, 0, 0, 0, 0, 0, 0, 0, 0, 0, 0, 0, 0, 0, 0, 0, 0], "id": 10, "left_children": [1, 3, 5, 7, 9, 11, 13, 15, 17, 19, 21, 23, 25, 27, 29, 31, 33, 35, 37, 39, 41, 43, 45, 47, 49, 51, -1, 53, 55, 57, 59, -1, -1, -1, -1, -1, -1, -1, -1, -1, -1, -1, -1, -1, -1, -1, -1, -1, -1, -1, -1, -1, -1, -1, -1, -1, -1, -1, -1, -1, -1], "loss_changes": [1989.6362, 469.90588, 243.39429, 72.25256, 163.69034, 46.7565, 29.268188, 25.134644, 40.072388, 52.232986, 71.42312, 37.25648, 4.4597397, 23.394356, 3.3443604, 22.183044, 2.9359596, 15.608673, 11.313968, 49.345993, 65.58458, 59.980247, 50.32322, 15.5142145, 18.35865, 3.585701, 0.0, 7.834118, 6.249756, 5.9496374, 2.9907227, 0.0, 0.0, 0.0, 0.0, 0.0, 0.0, 0.0, 0.0, 0.0, 0.0, 0.0, 0.0, 0.0, 0.0, 0.0, 0.0, 0.0, 0.0, 0.0, 0.0, 0.0, 0.0, 0.0, 0.0, 0.0, 0.0, 0.0, 0.0, 0.0, 0.0], "parents": [2147483647, 0, 0, 1, 1, 2, 2, 3, 3, 4, 4, 5, 5, 6, 6, 7, 7, 8, 8, 9, 9, 10, 10, 11, 11, 12, 12, 13, 13, 14, 14, 15, 15, 16, 16, 17, 17, 18, 18, 19, 19, 20, 20, 21, 21, 22, 22, 23, 23, 24, 24, 25, 25, 27, 27, 28, 28, 29, 29, 30, 30], "right_children": [2, 4, 6, 8, 10, 12, 14, 16, 18, 20, 22, 24, 26, 28, 30, 32, 34, 36, 38, 40, 42, 44, 46, 48, 50, 52, -1, 54, 56, 58, 60, -1, -1, -1, -1, -1, -1, -1, -1, -1, -1, -1, -1, -1, -1, -1, -1, -1, -1, -1, -1, -1, -1, -1, -1, -1, -1, -1, -1, -1, -1], "split_conditions": [3.080051, 0.0941048, 0.46619573, 0.071585335, 0.78488547, 4.2304673, 7.256206, 0.12750028, 10.330742, 0.16575922, 0.09773736, 2.9682324, 0.0017796903, 0.00021582439, 0.4258496, 0.0858279, 4.754469, 1.117938, 31.629086, 0.053037565, 0.003430208, 0.4943167, 2.0356395, 0.5686814, 36.73494, 36.41287, -0.0, 0.47478214, 6.646315, 89.14605, 0.12848397, -0.120450325, -0.011520691, -0.0, -0.05094133, -0.0780242, 0.0010376609, 0.031295, -0.03336342, -0.06351728, -0.018183654, 0.069710486, -0.027800718, -0.017011978, 0.044871315, 0.07984702, -0.0, -0.01843152, 0.043052796, 0.05089975, 0.14219996, 0.1391872, -0.0, -0.016015833, 0.087764, 0.12780969, -0.0, 0.105241686, -0.030668922, -0.0, 0.16135915], "split_indices": [51, 68, 37, 33, 51, 28, 51, 65, 0, 77, 44, 42, 65, 65, 55, 8, 76, 66, 14, 44, 35, 77, 40, 48, 29, 68, 0, 8, 40, 45, 56, 0, 0, 0, 0, 0, 0, 0, 0, 0, 0, 0, 0, 0, 0, 0, 0, 0, 0, 0, 0, 0, 0, 0, 0, 0, 0, 0, 0, 0, 0], "split_type": [0, 0, 0, 0, 0, 0, 0, 0, 0, 0, 0, 0, 0, 0, 0, 0, 0, 0, 0, 0, 0, 0, 0, 0, 0, 0, 0, 0, 0, 0, 0, 0, 0, 0, 0, 0, 0, 0, 0, 0, 0, 0, 0, 0, 0, 0, 0, 0, 0, 0, 0, 0, 0, 0, 0, 0, 0, 0, 0, 0, 0], "sum_hessian": [43644.09, 33280.758, 10363.332, 10365.302, 22915.457, 3870.8054, 6492.527, 5864.077, 4501.2246, 12624.185, 10291.272, 3237.4045, 633.4008, 993.69495, 5498.832, 5528.445, 335.63232, 3534.8145, 966.4103, 9535.448, 3088.7366, 7149.1855, 3142.0867, 1554.4653, 1682.9392, 614.89856, 18.502285, 266.63992, 727.05505, 68.37797, 5430.454, 5291.1064, 237.33856, 182.65897, 152.97336, 3373.8008, 161.0138, 431.8245, 534.5858, 5693.136, 3842.3123, 858.8304, 2229.906, 5219.4644, 1929.7213, 2144.7969, 997.28986, 975.76025, 578.70514, 1381.9814, 300.9578, 594.106, 20.792511, 180.72258, 85.917366, 711.37103, 15.68401, 49.31356, 19.064407, 2.8135993, 5427.64], "tree_param": {"num_deleted": "0", "num_feature": "96", "num_nodes": "61", "size_leaf_vector": "1"}}, {"base_weights": [-0.0, -0.116832204, 0.33388746, -0.27478692, -0.043140154, 0.15439436, 0.4803493, -0.35032952, -0.17321391, -0.072703145, 0.15429977, 0.10448361, 0.41294956, 0.29302013, 0.52631986, -0.36909774, -0.13019025, -0.26520935, -0.07218785, -0.19543698, -0.036265474, 0.4253231, 0.06724318, 0.054934144, 0.30149645, 0.43509337, -0.0, 0.4067083, 0.10661784, 0.042360906, 0.5303642, -0.13457106, -0.0900311, -0.07054539, -0.0, -0.08460887, -0.0, -0.027349664, 0.09477066, -0.071924545, -0.0, -0.07398068, -0.003520737, -0.0, 0.14057706, -0.01970322, 0.06306525, 0.037747547, -0.029800793, -0.0, 0.099695794, 0.13222057, -0.0, 0.008941639, -0.0, -0.0, 0.1286649, 0.07126389, -0.06120473, 0.090318635, -0.004100937, -0.0, 0.15934671], "categories": [], "categories_nodes": [], "categories_segments": [], "categories_sizes": [], "default_left": [0, 0, 0, 0, 0, 0, 0, 0, 0, 0, 0, 0, 0, 0, 0, 0, 0, 0, 0, 0, 0, 0, 0, 0, 0, 0, 0, 0, 0, 0, 0, 0, 0, 0, 0, 0, 0, 0, 0, 0, 0, 0, 0, 0, 0, 0, 0, 0, 0, 0, 0, 0, 0, 0, 0, 0, 0, 0, 0, 0, 0, 0, 0], "id": 11, "left_children": [1, 3, 5, 7, 9, 11, 13, 15, 17, 19, 21, 23, 25, 27, 29, 31, 33, 35, 37, 39, 41, 43, 45, 47, 49, 51, 53, 55, 57, 59, 61, -1, -1, -1, -1, -1, -1, -1, -1, -1, -1, -1, -1, -1, -1, -1, -1, -1, -1, -1, -1, -1, -1, -1, -1, -1, -1, -1, -1, -1, -1, -1, -1], "loss_changes": [1566.737, 343.13104, 267.27014, 66.99713, 117.87189, 55.56504, 40.754395, 17.045593, 34.49758, 76.96208, 56.48903, 35.288586, 4.734047, 19.588768, 3.125122, 19.154907, 4.232451, 9.75943, 12.4841, 33.5607, 68.27661, 12.381798, 39.470387, 35.52923, 10.175789, 2.5046387, 0.01826471, 9.203049, 19.80046, 3.7355149, 2.9833984, 0.0, 0.0, 0.0, 0.0, 0.0, 0.0, 0.0, 0.0, 0.0, 0.0, 0.0, 0.0, 0.0, 0.0, 0.0, 0.0, 0.0, 0.0, 0.0, 0.0, 0.0, 0.0, 0.0, 0.0, 0.0, 0.0, 0.0, 0.0, 0.0, 0.0, 0.0, 0.0], "parents": [2147483647, 0, 0, 1, 1, 2, 2, 3, 3, 4, 4, 5, 5, 6, 6, 7, 7, 8, 8, 9, 9, 10, 10, 11, 11, 12, 12, 13, 13, 14, 14, 15, 15, 16, 16, 17, 17, 18, 18, 19, 19, 20, 20, 21, 21, 22, 22, 23, 23, 24, 24, 25, 25, 26, 26, 27, 27, 28, 28, 29, 29, 30, 30], "right_children": [2, 4, 6, 8, 10, 12, 14, 16, 18, 20, 22, 24, 26, 28, 30, 32, 34, 36, 38, 40, 42, 44, 46, 48, 50, 52, 54, 56, 58, 60, 62, -1, -1, -1, -1, -1, -1, -1, -1, -1, -1, -1, -1, -1, -1, -1, -1, -1, -1, -1, -1, -1, -1, -1, -1, -1, -1, -1, -1, -1, -1, -1, -1], "split_conditions": [2.3024607, 0.0941048, 0.5057817, 0.07389236, 1.9452481, 4.2304673, 7.256206, 0.082617596, 8.680088, 0.15523818, 0.0076350933, 28.073797, 2.902674, 0.48882192, 0.80367684, 0.04511265, 12.372095, 2.3779423, 9.316801, 0.9853585, 7.676017, 1.0773195, 3.272021, 46.790928, 0.6314605, 0.25294057, 5.767171, 0.16999072, 2.869444, 2.355379, 0.12848397, -0.13457106, -0.0900311, -0.07054539, -0.0, -0.08460887, -0.0, -0.027349664, 0.09477066, -0.071924545, -0.0, -0.07398068, -0.003520737, -0.0, 0.14057706, -0.01970322, 0.06306525, 0.037747547, -0.029800793, -0.0, 0.099695794, 0.13222057, -0.0, 0.008941639, -0.0, -0.0, 0.1286649, 0.07126389, -0.06120473, 0.090318635, -0.004100937, -0.0, 0.15934671], "split_indices": [51, 68, 37, 33, 30, 28, 51, 65, 0, 79, 35, 29, 67, 6, 43, 68, 0, 43, 77, 78, 0, 3, 66, 46, 43, 33, 56, 33, 63, 62, 56, 0, 0, 0, 0, 0, 0, 0, 0, 0, 0, 0, 0, 0, 0, 0, 0, 0, 0, 0, 0, 0, 0, 0, 0, 0, 0, 0, 0, 0, 0, 0, 0], "split_type": [0, 0, 0, 0, 0, 0, 0, 0, 0, 0, 0, 0, 0, 0, 0, 0, 0, 0, 0, 0, 0, 0, 0, 0, 0, 0, 0, 0, 0, 0, 0, 0, 0, 0, 0, 0, 0, 0, 0, 0, 0, 0, 0, 0, 0, 0, 0, 0, 0, 0, 0, 0, 0, 0, 0, 0, 0, 0, 0, 0, 0, 0, 0], "sum_hessian": [40161.68, 29751.748, 10409.931, 9420.663, 20331.086, 4709.1123, 5700.8184, 5344.737, 4075.9263, 17727.934, 2603.1511, 3980.7585, 728.35364, 1167.6344, 4533.1836, 4882.3813, 462.3555, 2080.652, 1995.274, 3994.4685, 13733.466, 604.00806, 1999.1431, 3222.3599, 758.3986, 681.01013, 47.343513, 691.22296, 476.4114, 58.15587, 4475.028, 2198.9868, 2683.3943, 217.57037, 244.78513, 1962.4548, 118.197296, 1927.5488, 67.72528, 3237.9048, 756.5637, 1390.8137, 12342.652, 50.17878, 553.8293, 1000.0309, 999.1122, 2252.3528, 970.0071, 42.19468, 716.204, 676.55524, 4.4549093, 19.559904, 27.783611, 19.697218, 671.52576, 357.9621, 118.44931, 41.347836, 16.808033, 2.7551618, 4472.273], "tree_param": {"num_deleted": "0", "num_feature": "96", "num_nodes": "63", "size_leaf_vector": "1"}}, {"base_weights": [-0.0, -0.14897117, 0.22353846, -0.2894622, -0.09274123, 0.110641316, 0.4683847, -0.32205716, 0.0066706594, -0.120268956, 0.059098836, 0.06532387, 0.29041135, 0.25640887, 0.5157376, -0.17878889, -0.37442106, 0.26292995, -0.07497093, -0.2761828, -0.095030606, 0.14681672, -0.034844212, 0.024988187, 0.31221068, 0.3940027, 0.06324791, -0.0, 0.30712363, 0.061100706, 0.5254483, -0.068215884, -0.0048289695, -0.13155255, -0.09090544, -0.0, 0.116308376, -0.05343407, 0.044228293, -0.09001885, 0.08244059, -0.059562813, -0.019210078, 0.064729586, -0.0, 0.061173305, -0.024236457, -0.07451992, 0.0145662315, 0.12624574, 0.04510948, 0.008575613, 0.13616714, 0.05081557, -0.082397595, 0.040575616, -0.05227012, 0.06280729, 0.14953263, 0.08822284, -0.0, -0.0, 0.15789485], "categories": [], "categories_nodes": [], "categories_segments": [], "categories_sizes": [], "default_left": [0, 0, 0, 0, 0, 0, 0, 0, 0, 0, 0, 0, 0, 0, 0, 0, 0, 0, 0, 0, 0, 0, 0, 0, 0, 0, 0, 0, 0, 0, 0, 0, 0, 0, 0, 0, 0, 0, 0, 0, 0, 0, 0, 0, 0, 0, 0, 0, 0, 0, 0, 0, 0, 0, 0, 0, 0, 0, 0, 0, 0, 0, 0], "id": 12, "left_children": [1, 3, 5, 7, 9, 11, 13, 15, 17, 19, 21, 23, 25, 27, 29, 31, 33, 35, 37, 39, 41, 43, 45, 47, 49, 51, 53, 55, 57, 59, 61, -1, -1, -1, -1, -1, -1, -1, -1, -1, -1, -1, -1, -1, -1, -1, -1, -1, -1, -1, -1, -1, -1, -1, -1, -1, -1, -1, -1, -1, -1, -1, -1], "loss_changes": [1244.3383, 173.29044, 407.2293, 64.526855, 67.772446, 79.98285, 39.19873, 37.59857, 14.472915, 50.00038, 20.989445, 78.65189, 42.94478, 13.23951, 10.843933, 10.166458, 11.510193, 6.452034, 10.127238, 24.636047, 35.256783, 13.692083, 10.958635, 43.86304, 13.945709, 24.86171, 22.814238, 3.3412664, 7.1307755, 3.8684201, 2.6184692, 0.0, 0.0, 0.0, 0.0, 0.0, 0.0, 0.0, 0.0, 0.0, 0.0, 0.0, 0.0, 0.0, 0.0, 0.0, 0.0, 0.0, 0.0, 0.0, 0.0, 0.0, 0.0, 0.0, 0.0, 0.0, 0.0, 0.0, 0.0, 0.0, 0.0, 0.0, 0.0], "parents": [2147483647, 0, 0, 1, 1, 2, 2, 3, 3, 4, 4, 5, 5, 6, 6, 7, 7, 8, 8, 9, 9, 10, 10, 11, 11, 12, 12, 13, 13, 14, 14, 15, 15, 16, 16, 17, 17, 18, 18, 19, 19, 20, 20, 21, 21, 22, 22, 23, 23, 24, 24, 25, 25, 26, 26, 27, 27, 28, 28, 29, 29, 30, 30], "right_children": [2, 4, 6, 8, 10, 12, 14, 16, 18, 20, 22, 24, 26, 28, 30, 32, 34, 36, 38, 40, 42, 44, 46, 48, 50, 52, 54, 56, 58, 60, 62, -1, -1, -1, -1, -1, -1, -1, -1, -1, -1, -1, -1, -1, -1, -1, -1, -1, -1, -1, -1, -1, -1, -1, -1, -1, -1, -1, -1, -1, -1, -1, -1], "split_conditions": [1.0064031, 0.11494938, 23.469345, 0.13317963, 2.0957704, 0.2792169, 0.07251693, 0.07004888, 0.18070102, 0.09069427, 3.912154, 4.3136015, 4.2651424, 0.8573177, 0.90642875, 0.16611841, 0.026161436, 0.06624315, 0.14629224, 10.244141, 0.024665007, 0.87889135, 0.00096849597, 0.4988443, 0.24667239, 8.026036, 0.014360425, 0.7706628, 14.405058, 1.8391768, 0.12848397, -0.068215884, -0.0048289695, -0.13155255, -0.09090544, -0.0, 0.116308376, -0.05343407, 0.044228293, -0.09001885, 0.08244059, -0.059562813, -0.019210078, 0.064729586, -0.0, 0.061173305, -0.024236457, -0.07451992, 0.0145662315, 0.12624574, 0.04510948, 0.008575613, 0.13616714, 0.05081557, -0.082397595, 0.040575616, -0.05227012, 0.06280729, 0.14953263, 0.08822284, -0.0, -0.0, 0.15789485], "split_indices": [51, 47, 29, 22, 55, 33, 4, 6, 72, 79, 5, 28, 23, 43, 43, 83, 22, 4, 90, 28, 44, 40, 65, 92, 6, 0, 65, 81, 76, 59, 56, 0, 0, 0, 0, 0, 0, 0, 0, 0, 0, 0, 0, 0, 0, 0, 0, 0, 0, 0, 0, 0, 0, 0, 0, 0, 0, 0, 0, 0, 0, 0, 0], "split_type": [0, 0, 0, 0, 0, 0, 0, 0, 0, 0, 0, 0, 0, 0, 0, 0, 0, 0, 0, 0, 0, 0, 0, 0, 0, 0, 0, 0, 0, 0, 0, 0, 0, 0, 0, 0, 0, 0, 0, 0, 0, 0, 0, 0, 0, 0, 0, 0, 0, 0, 0, 0, 0, 0, 0, 0, 0, 0, 0, 0, 0, 0, 0], "sum_hessian": [37364.633, 22422.258, 14942.375, 6357.07, 16065.188, 10255.787, 4686.588, 5757.077, 599.99243, 13655.578, 2409.611, 8236.4795, 2019.3081, 895.4934, 3791.0947, 1593.2664, 4163.811, 174.02455, 425.9679, 1845.9249, 11809.652, 1300.8484, 1108.7626, 7115.564, 1120.9154, 1356.129, 663.17914, 131.2671, 764.2263, 100.969894, 3690.1248, 1179.1748, 414.09164, 2117.7983, 2046.0125, 51.59818, 122.42638, 321.86075, 104.107155, 1787.0767, 58.848297, 2645.8909, 9163.762, 895.8731, 404.97534, 143.24942, 965.5132, 530.2507, 6585.313, 632.84814, 488.06723, 214.6788, 1141.4502, 527.563, 135.61618, 57.385204, 73.8819, 541.7492, 222.47711, 48.13352, 52.83638, 2.7101657, 3687.4146], "tree_param": {"num_deleted": "0", "num_feature": "96", "num_nodes": "63", "size_leaf_vector": "1"}}, {"base_weights": [-0.0, -0.08555845, 0.32985917, -0.20184442, -0.0, 0.18001759, 0.49350947, -0.28051928, -0.1138045, -0.025895752, 0.19123821, 0.104790084, 0.34755626, 0.17916554, 0.515093, -0.30087292, -0.0, -0.19777301, -0.020469008, -0.15970847, -0.0011161001, 0.12006598, 0.44708166, 0.057914738, 0.30585328, -0.0, 0.38603294, 0.34396464, -0.07902129, -0.0, 0.5227976, -0.067092314, -0.105360635, 0.07998063, -0.027414124, -0.06670821, -0.0, 0.06921228, -0.01409209, -0.061804015, 0.041853882, 0.009645779, -0.027619079, 0.07559263, 0.0003433734, 0.15334488, -0.0, 0.0029734161, 0.08396867, 0.11313676, 0.012146774, 0.073346674, -0.010302799, -0.0, 0.12019856, 0.13550483, -0.0, -0.0, -0.07084591, -0.008862778, 0.007280147, -0.0, 0.15726806], "categories": [], "categories_nodes": [], "categories_segments": [], "categories_sizes": [], "default_left": [0, 0, 0, 0, 0, 0, 0, 0, 0, 0, 0, 0, 0, 0, 0, 0, 0, 0, 0, 0, 0, 0, 0, 0, 0, 0, 0, 0, 0, 0, 0, 0, 0, 0, 0, 0, 0, 0, 0, 0, 0, 0, 0, 0, 0, 0, 0, 0, 0, 0, 0, 0, 0, 0, 0, 0, 0, 0, 0, 0, 0, 0, 0], "id": 13, "left_children": [1, 3, 5, 7, 9, 11, 13, 15, 17, 19, 21, 23, 25, 27, 29, 31, 33, 35, 37, 39, 41, 43, 45, 47, 49, 51, 53, 55, 57, 59, 61, -1, -1, -1, -1, -1, -1, -1, -1, -1, -1, -1, -1, -1, -1, -1, -1, -1, -1, -1, -1, -1, -1, -1, -1, -1, -1, -1, -1, -1, -1, -1, -1], "loss_changes": [981.85675, 275.18448, 168.88068, 77.18997, 79.06149, 43.00495, 15.981201, 36.59851, 41.63582, 44.82595, 28.963348, 21.293325, 14.207108, 13.28253, 12.401672, 16.448608, 10.652547, 14.441849, 16.185516, 30.136543, 36.54694, 21.349535, 11.111893, 20.416317, 4.5063057, 1.4863737, 5.3859253, 6.4022903, 2.2727141, 0.034085244, 1.8855591, 0.0, 0.0, 0.0, 0.0, 0.0, 0.0, 0.0, 0.0, 0.0, 0.0, 0.0, 0.0, 0.0, 0.0, 0.0, 0.0, 0.0, 0.0, 0.0, 0.0, 0.0, 0.0, 0.0, 0.0, 0.0, 0.0, 0.0, 0.0, 0.0, 0.0, 0.0, 0.0], "parents": [2147483647, 0, 0, 1, 1, 2, 2, 3, 3, 4, 4, 5, 5, 6, 6, 7, 7, 8, 8, 9, 9, 10, 10, 11, 11, 12, 12, 13, 13, 14, 14, 15, 15, 16, 16, 17, 17, 18, 18, 19, 19, 20, 20, 21, 21, 22, 22, 23, 23, 24, 24, 25, 25, 26, 26, 27, 27, 28, 28, 29, 29, 30, 30], "right_children": [2, 4, 6, 8, 10, 12, 14, 16, 18, 20, 22, 24, 26, 28, 30, 32, 34, 36, 38, 40, 42, 44, 46, 48, 50, 52, 54, 56, 58, 60, 62, -1, -1, -1, -1, -1, -1, -1, -1, -1, -1, -1, -1, -1, -1, -1, -1, -1, -1, -1, -1, -1, -1, -1, -1, -1, -1, -1, -1, -1, -1, -1, -1], "split_conditions": [3.080051, 0.14321224, 0.6874961, 0.07389236, 4.3136015, 13.591688, 4.565006, 0.10545789, 8.938383, 0.034339234, 8.828391, 6.427355, 0.9858905, 97.365295, 0.28945678, 0.13193975, 0.0009744885, 7.117818, 26.819056, 4.843378, 0.61064094, 9.201954, 1.3334588, 0.102810346, 0.3169175, 0.0009744885, 3.3118322, 4.466766, 2.3383205, 0.4917162, 1.3799646, -0.067092314, -0.105360635, 0.07998063, -0.027414124, -0.06670821, -0.0, 0.06921228, -0.01409209, -0.061804015, 0.041853882, 0.009645779, -0.027619079, 0.07559263, 0.0003433734, 0.15334488, -0.0, 0.0029734161, 0.08396867, 0.11313676, 0.012146774, 0.073346674, -0.010302799, -0.0, 0.12019856, 0.13550483, -0.0, -0.0, -0.07084591, -0.008862778, 0.007280147, -0.0, 0.15726806], "split_indices": [51, 68, 37, 33, 28, 76, 51, 77, 0, 33, 58, 89, 75, 74, 47, 6, 35, 62, 14, 42, 16, 76, 17, 44, 6, 35, 42, 70, 32, 33, 68, 0, 0, 0, 0, 0, 0, 0, 0, 0, 0, 0, 0, 0, 0, 0, 0, 0, 0, 0, 0, 0, 0, 0, 0, 0, 0, 0, 0, 0, 0, 0, 0], "split_type": [0, 0, 0, 0, 0, 0, 0, 0, 0, 0, 0, 0, 0, 0, 0, 0, 0, 0, 0, 0, 0, 0, 0, 0, 0, 0, 0, 0, 0, 0, 0, 0, 0, 0, 0, 0, 0, 0, 0, 0, 0, 0, 0, 0, 0, 0, 0, 0, 0, 0, 0, 0, 0, 0, 0, 0, 0, 0, 0, 0, 0, 0, 0], "sum_hessian": [34788.176, 27623.871, 7164.304, 11717.01, 15906.862, 3772.9343, 3391.3699, 6126.4644, 5590.5454, 14002.837, 1904.0249, 2646.1047, 1126.8297, 248.2638, 3143.1062, 5729.7705, 396.6937, 2885.9578, 2704.5874, 2124.0022, 11878.835, 1521.3589, 382.66595, 2187.2083, 458.89633, 118.28568, 1008.544, 174.97665, 73.28714, 46.612686, 3096.4934, 2341.221, 3388.5496, 115.75017, 280.94354, 2574.885, 311.07263, 221.40446, 2483.183, 1868.57, 255.43216, 8617.308, 3261.5276, 680.8935, 840.4654, 335.04514, 47.620827, 1836.2195, 350.9889, 331.70465, 127.19167, 21.945599, 96.34009, 38.823914, 969.7201, 132.43175, 42.544907, 25.216385, 48.07076, 18.225304, 28.387383, 10.005968, 3086.4875], "tree_param": {"num_deleted": "0", "num_feature": "96", "num_nodes": "63", "size_leaf_vector": "1"}}, {"base_weights": [-0.0, -0.11897941, 0.21009661, -0.2515525, -0.068907626, 0.11681608, 0.4622522, -0.27706268, -0.021196155, -0.09143537, 0.08490627, 0.08198424, 0.3240174, 0.21223459, 0.5060028, -0.29141572, 0.018966582, 0.07471954, -0.23377554, -0.20267877, -0.059901066, 0.34968933, -0.018704401, -0.09622406, 0.12114699, 0.37024087, -0.0, 0.30038035, 0.013551444, -0.0, 0.5149041, -0.09460306, -0.04202236, -0.0, 0.10368411, -0.00040746652, 0.06606014, -0.08105759, -0.0, -0.07780122, -0.019724436, -0.027204229, 0.012081106, -0.0, 0.11212933, -0.032653708, 0.052299876, -0.050223198, 0.024112822, -0.047262665, 0.044296913, -0.0, 0.11628195, -0.021513116, 0.07267361, -0.0, 0.105670646, -0.06565372, 0.05617781, -0.0, -0.01164754, -0.0, 0.15580398], "categories": [], "categories_nodes": [], "categories_segments": [], "categories_sizes": [], "default_left": [0, 0, 0, 0, 0, 0, 0, 0, 0, 0, 0, 0, 0, 0, 0, 0, 0, 0, 0, 0, 0, 0, 0, 0, 0, 0, 0, 0, 0, 0, 0, 0, 0, 0, 0, 0, 0, 0, 0, 0, 0, 0, 0, 0, 0, 0, 0, 0, 0, 0, 0, 0, 0, 0, 0, 0, 0, 0, 0, 0, 0, 0, 0], "id": 14, "left_children": [1, 3, 5, 7, 9, 11, 13, 15, 17, 19, 21, 23, 25, 27, 29, 31, 33, 35, 37, 39, 41, 43, 45, 47, 49, 51, 53, 55, 57, 59, 61, -1, -1, -1, -1, -1, -1, -1, -1, -1, -1, -1, -1, -1, -1, -1, -1, -1, -1, -1, -1, -1, -1, -1, -1, -1, -1, -1, -1, -1, -1, -1, -1], "loss_changes": [818.01166, 135.46643, 272.44934, 30.345764, 52.81511, 58.464424, 27.33789, 24.262756, 13.958548, 44.136505, 55.120804, 52.341225, 17.696037, 5.7396946, 13.36908, 13.021759, 4.2949533, 6.4580116, 3.36977, 19.033081, 32.75927, 7.113327, 22.524754, 17.21428, 45.46546, 10.084366, 2.8615174, 5.723999, 7.467426, 0.036798686, 7.8066406, 0.0, 0.0, 0.0, 0.0, 0.0, 0.0, 0.0, 0.0, 0.0, 0.0, 0.0, 0.0, 0.0, 0.0, 0.0, 0.0, 0.0, 0.0, 0.0, 0.0, 0.0, 0.0, 0.0, 0.0, 0.0, 0.0, 0.0, 0.0, 0.0, 0.0, 0.0, 0.0], "parents": [2147483647, 0, 0, 1, 1, 2, 2, 3, 3, 4, 4, 5, 5, 6, 6, 7, 7, 8, 8, 9, 9, 10, 10, 11, 11, 12, 12, 13, 13, 14, 14, 15, 15, 16, 16, 17, 17, 18, 18, 19, 19, 20, 20, 21, 21, 22, 22, 23, 23, 24, 24, 25, 25, 26, 26, 27, 27, 28, 28, 29, 29, 30, 30], "right_children": [2, 4, 6, 8, 10, 12, 14, 16, 18, 20, 22, 24, 26, 28, 30, 32, 34, 36, 38, 40, 42, 44, 46, 48, 50, 52, 54, 56, 58, 60, 62, -1, -1, -1, -1, -1, -1, -1, -1, -1, -1, -1, -1, -1, -1, -1, -1, -1, -1, -1, -1, -1, -1, -1, -1, -1, -1, -1, -1, -1, -1, -1, -1], "split_conditions": [1.1306697, 0.07363662, 29.268972, 0.2792169, 3.058591, 0.1901327, 0.28634894, 0.73495704, 0.0812668, 0.1283489, 0.009071085, 0.1879349, 1.3215772, 1.0779276, 0.43189657, 0.12750028, 3.804812, 0.064918034, 1.0, 18.377737, 1.0, 1.0328217, 39.233387, 4.5515976, 0.27474958, 7.0005484, 1.0, 1.7369173, 1.3234565, 1.7322457, 0.014089552, -0.09460306, -0.04202236, -0.0, 0.10368411, -0.00040746652, 0.06606014, -0.08105759, -0.0, -0.07780122, -0.019724436, -0.027204229, 0.012081106, -0.0, 0.11212933, -0.032653708, 0.052299876, -0.050223198, 0.024112822, -0.047262665, 0.044296913, -0.0, 0.11628195, -0.021513116, 0.07267361, -0.0, 0.105670646, -0.06565372, 0.05617781, -0.0, -0.01164754, -0.0, 0.15580398], "split_indices": [51, 68, 29, 33, 28, 44, 37, 78, 74, 79, 35, 39, 61, 81, 55, 65, 28, 64, 31, 90, 34, 3, 90, 42, 47, 0, 31, 76, 85, 69, 64, 0, 0, 0, 0, 0, 0, 0, 0, 0, 0, 0, 0, 0, 0, 0, 0, 0, 0, 0, 0, 0, 0, 0, 0, 0, 0, 0, 0, 0, 0, 0, 0], "split_type": [0, 0, 0, 0, 0, 0, 0, 0, 0, 0, 0, 0, 0, 0, 0, 0, 0, 0, 0, 0, 0, 0, 0, 0, 0, 0, 0, 0, 0, 0, 0, 0, 0, 0, 0, 0, 0, 0, 0, 0, 0, 0, 0, 0, 0, 0, 0, 0, 0, 0, 0, 0, 0, 0, 0, 0, 0, 0, 0, 0, 0, 0, 0], "sum_hessian": [32722.17, 20891.55, 11830.62, 5671.5293, 15220.0205, 8665.932, 3164.6882, 5066.806, 604.7235, 13332.716, 1887.3044, 7461.2983, 1204.6333, 506.2256, 2658.4626, 4864.7344, 202.07162, 384.73746, 219.98605, 2873.4653, 10459.251, 557.28094, 1330.0236, 1298.0015, 6163.297, 1051.4801, 153.15314, 315.43817, 190.7874, 40.729523, 2617.7332, 4142.608, 722.12646, 166.50362, 35.568, 208.14388, 176.59358, 210.5904, 9.395664, 1980.1875, 893.2777, 8077.27, 2381.9807, 18.685514, 538.59546, 942.2618, 387.76178, 965.49335, 332.50818, 502.14548, 5661.1514, 25.071873, 1026.4083, 115.60916, 37.543972, 40.176884, 275.2613, 56.872334, 133.91505, 17.317348, 23.412172, 15.666692, 2602.0664], "tree_param": {"num_deleted": "0", "num_feature": "96", "num_nodes": "63", "size_leaf_vector": "1"}}, {"base_weights": [-0.0, -0.13115984, 0.15958063, -0.23881482, -0.084062465, 0.08200149, 0.42624313, -0.33392212, -0.13351075, -0.099555224, 0.18599632, -0.015828576, 0.13448595, 0.2543084, 0.514253, -0.348096, -0.015854055, -0.19806972, 0.013269984, -0.05599897, -0.17236355, 0.33449367, -0.004168832, -0.07756548, 0.12103645, -0.2166332, 0.1513465, 0.002806519, 0.31787476, -0.0, 0.51847976, -0.12166629, -0.07751167, -0.03263003, -0.0, -0.08758773, -0.02941552, 0.046283357, -0.04899679, -0.0322514, 0.027107134, -0.0083369445, -0.07250623, 0.15737018, 0.046155974, 0.06037517, -0.040469386, -0.057019573, -0.0, 0.07742199, -0.0, 0.0101736225, -0.12631616, 0.03760297, 0.10810082, 0.063040674, -0.017227992, 0.04959376, 0.1263526, -0.0, 0.15614711], "categories": [], "categories_nodes": [], "categories_segments": [], "categories_sizes": [], "default_left": [0, 0, 0, 0, 0, 0, 0, 0, 0, 0, 0, 0, 0, 0, 0, 0, 0, 0, 0, 0, 0, 0, 0, 0, 0, 0, 0, 0, 0, 0, 0, 0, 0, 0, 0, 0, 0, 0, 0, 0, 0, 0, 0, 0, 0, 0, 0, 0, 0, 0, 0, 0, 0, 0, 0, 0, 0, 0, 0, 0, 0], "id": 15, "left_children": [1, 3, 5, 7, 9, 11, 13, 15, 17, 19, 21, 23, 25, 27, 29, 31, 33, 35, 37, 39, 41, 43, 45, 47, 49, 51, 53, 55, 57, -1, 59, -1, -1, -1, -1, -1, -1, -1, -1, -1, -1, -1, -1, -1, -1, -1, -1, -1, -1, -1, -1, -1, -1, -1, -1, -1, -1, -1, -1, -1, -1], "loss_changes": [645.9149, 82.63269, 282.8853, 46.256714, 48.731606, 56.71634, 39.215576, 8.183929, 25.227917, 33.358658, 20.480356, 30.926174, 41.442535, 14.262474, 5.498047, 6.050293, 1.2434227, 12.606018, 17.545336, 53.864807, 38.607224, 5.875778, 5.7591305, 21.472912, 20.802677, 19.18851, 32.091797, 4.7013783, 7.312378, 0.0, 2.8570557, 0.0, 0.0, 0.0, 0.0, 0.0, 0.0, 0.0, 0.0, 0.0, 0.0, 0.0, 0.0, 0.0, 0.0, 0.0, 0.0, 0.0, 0.0, 0.0, 0.0, 0.0, 0.0, 0.0, 0.0, 0.0, 0.0, 0.0, 0.0, 0.0, 0.0], "parents": [2147483647, 0, 0, 1, 1, 2, 2, 3, 3, 4, 4, 5, 5, 6, 6, 7, 7, 8, 8, 9, 9, 10, 10, 11, 11, 12, 12, 13, 13, 14, 14, 15, 15, 16, 16, 17, 17, 18, 18, 19, 19, 20, 20, 21, 21, 22, 22, 23, 23, 24, 24, 25, 25, 26, 26, 27, 27, 28, 28, 30, 30], "right_children": [2, 4, 6, 8, 10, 12, 14, 16, 18, 20, 22, 24, 26, 28, 30, 32, 34, 36, 38, 40, 42, 44, 46, 48, 50, 52, 54, 56, 58, -1, 60, -1, -1, -1, -1, -1, -1, -1, -1, -1, -1, -1, -1, -1, -1, -1, -1, -1, -1, -1, -1, -1, -1, -1, -1, -1, -1, -1, -1, -1, -1], "split_conditions": [0.78488547, 0.11494938, 21.883072, 0.016578292, 7.1330113, 0.16350701, 0.6874961, 4.1583967, 0.063465945, 0.4593038, 0.515346, 10.622467, 7.286029, 0.74247086, 0.24086371, 0.08273864, 0.008026409, 9.336632, 0.22083502, 0.13643193, 0.003564836, 3.7590384, 0.15271345, 0.4399062, 0.00014069473, 5.505242, 0.5177356, 2.7682488e-06, 9.445249, -0.0, 7.256206, -0.12166629, -0.07751167, -0.03263003, -0.0, -0.08758773, -0.02941552, 0.046283357, -0.04899679, -0.0322514, 0.027107134, -0.0083369445, -0.07250623, 0.15737018, 0.046155974, 0.06037517, -0.040469386, -0.057019573, -0.0, 0.07742199, -0.0, 0.0101736225, -0.12631616, 0.03760297, 0.10810082, 0.063040674, -0.017227992, 0.04959376, 0.1263526, -0.0, 0.15614711], "split_indices": [51, 47, 29, 65, 93, 37, 37, 42, 68, 26, 37, 76, 0, 3, 13, 47, 15, 0, 6, 33, 65, 7, 22, 3, 65, 76, 33, 65, 76, 0, 51, 0, 0, 0, 0, 0, 0, 0, 0, 0, 0, 0, 0, 0, 0, 0, 0, 0, 0, 0, 0, 0, 0, 0, 0, 0, 0, 0, 0, 0, 0], "split_type": [0, 0, 0, 0, 0, 0, 0, 0, 0, 0, 0, 0, 0, 0, 0, 0, 0, 0, 0, 0, 0, 0, 0, 0, 0, 0, 0, 0, 0, 0, 0, 0, 0, 0, 0, 0, 0, 0, 0, 0, 0, 0, 0, 0, 0, 0, 0, 0, 0, 0, 0, 0, 0, 0, 0, 0, 0, 0, 0, 0, 0], "sum_hessian": [30857.885, 16937.268, 13920.616, 5088.834, 11848.434, 10813.494, 3107.1223, 2622.837, 2465.997, 11241.207, 607.2262, 3709.4023, 7104.0923, 1091.7703, 2015.3519, 2480.7542, 142.08267, 1759.7715, 706.2256, 7120.572, 4120.6357, 370.0703, 237.15588, 2606.9573, 1102.445, 297.7861, 6806.306, 252.21913, 839.55115, 12.288977, 2003.063, 1442.2057, 1038.5486, 107.145744, 34.936924, 855.13446, 904.637, 424.2328, 281.9928, 5317.742, 1802.8298, 1382.6967, 2737.939, 152.42404, 217.64627, 62.272057, 174.88383, 1027.7515, 1579.2058, 554.059, 548.3859, 112.19331, 185.59279, 6097.1265, 709.17926, 93.59338, 158.62575, 379.08875, 460.46243, 4.9067345, 1998.1562], "tree_param": {"num_deleted": "0", "num_feature": "96", "num_nodes": "61", "size_leaf_vector": "1"}}, {"base_weights": [-0.0, -0.043270238, 0.40510806, -0.13258871, 0.060940232, 0.23533149, 0.507278, -0.15402871, 0.074759245, 0.032755334, 0.23224756, -0.0, 0.2814555, -0.0, 0.15391964, -0.21713226, -0.09403153, 0.24627842, -0.0066963164, 0.007375894, 0.20344695, 0.38420114, 0.13324066, 0.07679709, -0.17095637, -0.0, 0.30649972, -0.0775449, -0.019600026, -0.015152868, -0.054595217, 0.10480092, -0.0, 0.022912834, -0.036327023, -0.05021807, 0.00925595, 0.10177956, -0.00639909, -0.0, 0.12269616, 0.067930624, -0.016652113, -0.0, 0.054521706, -0.08980285, -0.0, -0.0, -0.037058514, 0.0327114, 0.115675196], "categories": [], "categories_nodes": [], "categories_segments": [], "categories_sizes": [], "default_left": [0, 0, 0, 0, 0, 0, 0, 0, 0, 0, 0, 0, 0, 0, 0, 0, 0, 0, 0, 0, 0, 0, 0, 0, 0, 0, 0, 0, 0, 0, 0, 0, 0, 0, 0, 0, 0, 0, 0, 0, 0, 0, 0, 0, 0, 0, 0, 0, 0, 0, 0], "id": 16, "left_children": [1, 3, 5, 7, 9, 11, 13, 15, 17, 19, 21, 23, 25, -1, -1, 27, 29, 31, 33, 35, 37, 39, 41, 43, 45, 47, 49, -1, -1, -1, -1, -1, -1, -1, -1, -1, -1, -1, -1, -1, -1, -1, -1, -1, -1, -1, -1, -1, -1, -1, -1], "loss_changes": [511.05835, 245.90694, 41.258575, 64.09134, 55.794334, 13.031906, 6.3860474, 45.88214, 20.434925, 43.147545, 19.749794, 2.57591, 8.403183, 0.0, 0.0, 35.83612, 23.386707, 9.886267, 8.408331, 36.170227, 42.911568, 9.138626, 20.13102, 1.8238317, 2.3939881, 0.5818691, 8.66185, 0.0, 0.0, 0.0, 0.0, 0.0, 0.0, 0.0, 0.0, 0.0, 0.0, 0.0, 0.0, 0.0, 0.0, 0.0, 0.0, 0.0, 0.0, 0.0, 0.0, 0.0, 0.0, 0.0, 0.0], "parents": [2147483647, 0, 0, 1, 1, 2, 2, 3, 3, 4, 4, 5, 5, 6, 6, 7, 7, 8, 8, 9, 9, 10, 10, 11, 11, 12, 12, 15, 15, 16, 16, 17, 17, 18, 18, 19, 19, 20, 20, 21, 21, 22, 22, 23, 23, 24, 24, 25, 25, 26, 26], "right_children": [2, 4, 6, 8, 10, 12, 14, 16, 18, 20, 22, 24, 26, -1, -1, 28, 30, 32, 34, 36, 38, 40, 42, 44, 46, 48, 50, -1, -1, -1, -1, -1, -1, -1, -1, -1, -1, -1, -1, -1, -1, -1, -1, -1, -1, -1, -1, -1, -1, -1, -1], "split_conditions": [20.295118, 0.6385691, 0.6874961, 0.9691153, 4.4266624, 0.8316608, 0.25848442, 0.056072474, 0.022880586, 0.31520808, 0.0014585495, 0.8156038, 1.2488718, -0.0, 0.15391964, 12.204169, 0.65307176, 3.7145314, 2.0629978, 0.075095676, 9.627673, 1.323815, 3.4217255, 8.419395, 3.956158, 51.464043, 1.5664293, -0.0775449, -0.019600026, -0.015152868, -0.054595217, 0.10480092, -0.0, 0.022912834, -0.036327023, -0.05021807, 0.00925595, 0.10177956, -0.00639909, -0.0, 0.12269616, 0.067930624, -0.016652113, -0.0, 0.054521706, -0.08980285, -0.0, -0.0, -0.037058514, 0.0327114, 0.115675196], "split_indices": [29, 51, 37, 66, 28, 43, 47, 64, 65, 33, 65, 81, 62, 0, 0, 0, 84, 46, 42, 39, 27, 55, 9, 51, 42, 14, 64, 0, 0, 0, 0, 0, 0, 0, 0, 0, 0, 0, 0, 0, 0, 0, 0, 0, 0, 0, 0, 0, 0, 0, 0], "split_type": [0, 0, 0, 0, 0, 0, 0, 0, 0, 0, 0, 0, 0, 0, 0, 0, 0, 0, 0, 0, 0, 0, 0, 0, 0, 0, 0, 0, 0, 0, 0, 0, 0, 0, 0, 0, 0, 0, 0, 0, 0, 0, 0, 0, 0, 0, 0, 0, 0, 0, 0], "sum_hessian": [29152.816, 26340.264, 2812.5525, 14235.096, 12105.168, 1094.6854, 1717.8671, 12945.049, 1290.0466, 10446.062, 1659.1068, 165.1808, 929.50464, 14.299542, 1703.5675, 6226.684, 6718.3647, 454.26138, 835.7853, 9145.833, 1300.228, 613.554, 1045.5527, 98.02697, 67.15383, 56.400578, 873.10406, 4841.3086, 1385.3752, 4571.5, 2146.8647, 306.28055, 147.98083, 433.72815, 402.05716, 1031.9226, 8113.9106, 837.91187, 462.3162, 17.59725, 595.9568, 735.28485, 310.2679, 26.125374, 71.901596, 47.945957, 19.207874, 19.26838, 37.132202, 286.52344, 586.5806], "tree_param": {"num_deleted": "0", "num_feature": "96", "num_nodes": "51", "size_leaf_vector": "1"}}, {"base_weights": [-0.0, -0.067785256, 0.23035578, -0.18365076, -0.018418148, 0.13357806, 0.44564247, -0.25103578, -0.09645331, -0.028868029, 0.3813796, 0.075417355, 0.33163786, -0.0, 0.47956264, -0.26569763, -0.0, -0.20064059, -0.04184233, -0.05164064, 0.08266482, 0.43805486, -0.0, -0.24423963, 0.10036099, -0.0, 0.35655642, -0.06391216, 0.16614215, -0.0, 0.49763373, -0.086025886, -0.01316457, 0.01807629, -0.04479025, -0.076425806, -0.0, -0.017072167, 0.09370429, -0.031805534, -0.0, 0.06864987, 0.0024105017, 0.13430737, -0.0, -0.0046409103, -0.0, -0.0942603, -0.0, -0.013021178, 0.042252738, -0.0, -0.024350384, 0.07044156, 0.1397402, -0.065916285, -0.0, -0.0, 0.08420704, -0.041033506, 0.06272476, -0.0, 0.15224968], "categories": [], "categories_nodes": [], "categories_segments": [], "categories_sizes": [], "default_left": [0, 0, 0, 0, 0, 0, 0, 0, 0, 0, 0, 0, 0, 0, 0, 0, 0, 0, 0, 0, 0, 0, 0, 0, 0, 0, 0, 0, 0, 0, 0, 0, 0, 0, 0, 0, 0, 0, 0, 0, 0, 0, 0, 0, 0, 0, 0, 0, 0, 0, 0, 0, 0, 0, 0, 0, 0, 0, 0, 0, 0, 0, 0], "id": 17, "left_children": [1, 3, 5, 7, 9, 11, 13, 15, 17, 19, 21, 23, 25, 27, 29, 31, 33, 35, 37, 39, 41, 43, 45, 47, 49, 51, 53, 55, 57, 59, 61, -1, -1, -1, -1, -1, -1, -1, -1, -1, -1, -1, -1, -1, -1, -1, -1, -1, -1, -1, -1, -1, -1, -1, -1, -1, -1, -1, -1, -1, -1, -1, -1], "loss_changes": [434.8374, 121.04863, 126.064575, 33.91739, 59.778133, 46.605896, 26.808289, 12.973862, 13.738155, 37.25634, 11.166176, 26.035421, 9.653534, 2.0893483, 15.970215, 12.242859, 1.7718523, 9.1710205, 7.756137, 34.0973, 24.175455, 2.2761612, 0.0063486113, 4.6213217, 19.738861, 0.21615954, 4.9382324, 2.8468168, 2.57541, 1.7773535, 5.194153, 0.0, 0.0, 0.0, 0.0, 0.0, 0.0, 0.0, 0.0, 0.0, 0.0, 0.0, 0.0, 0.0, 0.0, 0.0, 0.0, 0.0, 0.0, 0.0, 0.0, 0.0, 0.0, 0.0, 0.0, 0.0, 0.0, 0.0, 0.0, 0.0, 0.0, 0.0, 0.0], "parents": [2147483647, 0, 0, 1, 1, 2, 2, 3, 3, 4, 4, 5, 5, 6, 6, 7, 7, 8, 8, 9, 9, 10, 10, 11, 11, 12, 12, 13, 13, 14, 14, 15, 15, 16, 16, 17, 17, 18, 18, 19, 19, 20, 20, 21, 21, 22, 22, 23, 23, 24, 24, 25, 25, 26, 26, 27, 27, 28, 28, 29, 29, 30, 30], "right_children": [2, 4, 6, 8, 10, 12, 14, 16, 18, 20, 22, 24, 26, 28, 30, 32, 34, 36, 38, 40, 42, 44, 46, 48, 50, 52, 54, 56, 58, 60, 62, -1, -1, -1, -1, -1, -1, -1, -1, -1, -1, -1, -1, -1, -1, -1, -1, -1, -1, -1, -1, -1, -1, -1, -1, -1, -1, -1, -1, -1, -1, -1, -1], "split_conditions": [4.5050635, 0.0941048, 0.24031964, 0.07389236, 219.43266, 6.427355, 0.45113993, 0.13844863, 8.124022, 6.7878404, 4.5210724, 0.28945678, 0.50981104, 0.007257272, 0.35035875, 0.082617596, 1.0439223, 0.6160817, 1.2446921, 0.08099902, 0.06580846, 10.875959, 0.37179, 1.0331124, 5.505242, 0.11582201, 0.48515823, 1.5902815, 0.13389419, 0.66258836, 0.08614175, -0.086025886, -0.01316457, 0.01807629, -0.04479025, -0.076425806, -0.0, -0.017072167, 0.09370429, -0.031805534, -0.0, 0.06864987, 0.0024105017, 0.13430737, -0.0, -0.0046409103, -0.0, -0.0942603, -0.0, -0.013021178, 0.042252738, -0.0, -0.024350384, 0.07044156, 0.1397402, -0.065916285, -0.0, -0.0, 0.08420704, -0.041033506, 0.06272476, -0.0, 0.15224968], "split_indices": [29, 68, 22, 33, 52, 89, 71, 93, 0, 62, 54, 47, 68, 65, 85, 65, 70, 3, 22, 33, 22, 47, 12, 15, 76, 22, 59, 85, 61, 4, 4, 0, 0, 0, 0, 0, 0, 0, 0, 0, 0, 0, 0, 0, 0, 0, 0, 0, 0, 0, 0, 0, 0, 0, 0, 0, 0, 0, 0, 0, 0, 0, 0], "split_type": [0, 0, 0, 0, 0, 0, 0, 0, 0, 0, 0, 0, 0, 0, 0, 0, 0, 0, 0, 0, 0, 0, 0, 0, 0, 0, 0, 0, 0, 0, 0, 0, 0, 0, 0, 0, 0, 0, 0, 0, 0, 0, 0, 0, 0, 0, 0, 0, 0, 0, 0, 0, 0, 0, 0, 0, 0, 0, 0, 0, 0, 0, 0], "sum_hessian": [27845.904, 21515.414, 6330.4907, 6366.8994, 15148.514, 4400.4355, 1930.0554, 3525.714, 2841.1855, 14787.929, 360.58527, 3441.6558, 958.7795, 146.94392, 1783.1116, 3331.0056, 194.7083, 913.1957, 1927.9897, 12355.415, 2432.5134, 331.2644, 29.320862, 219.46599, 3222.19, 53.531105, 905.2484, 84.97432, 61.969604, 62.73416, 1720.3773, 3000.788, 330.2177, 139.02673, 55.681564, 707.3858, 205.80988, 1877.2181, 50.77163, 5964.247, 6391.168, 776.2023, 1656.3113, 328.4712, 2.7932336, 25.528635, 3.7922273, 179.0281, 40.43789, 653.66833, 2568.5215, 21.721172, 31.80993, 472.89764, 432.35077, 65.242355, 19.731966, 8.219753, 53.749855, 41.08922, 21.644945, 46.10552, 1674.2719], "tree_param": {"num_deleted": "0", "num_feature": "96", "num_nodes": "63", "size_leaf_vector": "1"}}, {"base_weights": [-0.0, -0.07331731, 0.18549506, -0.15861976, -0.019487003, 0.118818834, 0.46095428, -0.19805652, 0.0031183602, -0.04234012, 0.15580659, -0.11972281, 0.1363071, 0.049485225, 0.5067137, -0.21617405, 0.14601488, -0.19806665, 0.105332784, 0.11634866, -0.05615374, 0.30101424, 0.037774883, -0.0, -0.1699322, -0.12802213, 0.152025, 0.22847417, -0.05189569, -0.0, 0.15446493, -0.08321847, -0.045164436, 0.11664463, -0.0, -0.0, -0.0749294, -0.0, 0.06966248, -0.0036685406, 0.08432654, -0.0032445488, -0.034566432, 0.0025710897, 0.10765536, 0.074585885, -0.0333948, -0.014503318, 0.065398596, -0.059743986, -0.0, 0.0075922073, -0.08407703, 0.054571036, -0.0, -0.0, 0.08145121, -0.0, -0.051664185], "categories": [], "categories_nodes": [], "categories_segments": [], "categories_sizes": [], "default_left": [0, 0, 0, 0, 0, 0, 0, 0, 0, 0, 0, 0, 0, 0, 0, 0, 0, 0, 0, 0, 0, 0, 0, 0, 0, 0, 0, 0, 0, 0, 0, 0, 0, 0, 0, 0, 0, 0, 0, 0, 0, 0, 0, 0, 0, 0, 0, 0, 0, 0, 0, 0, 0, 0, 0, 0, 0, 0, 0], "id": 18, "left_children": [1, 3, 5, 7, 9, 11, 13, 15, 17, 19, 21, 23, 25, 27, 29, 31, 33, 35, 37, 39, 41, 43, 45, 47, 49, 51, 53, 55, 57, -1, -1, -1, -1, -1, -1, -1, -1, -1, -1, -1, -1, -1, -1, -1, -1, -1, -1, -1, -1, -1, -1, -1, -1, -1, -1, -1, -1, -1, -1], "loss_changes": [362.5282, 85.943886, 132.8399, 48.63846, 46.088284, 25.672379, 21.564667, 37.72757, 27.598991, 22.373661, 19.037914, 3.251616, 24.076118, 4.8134685, 5.3743896, 18.441803, 10.611162, 3.9641056, 11.511375, 19.244175, 24.709642, 5.6060677, 25.331165, 1.817869, 2.8718863, 9.245805, 25.952553, 1.1893997, 1.4228576, 0.0, 0.0, 0.0, 0.0, 0.0, 0.0, 0.0, 0.0, 0.0, 0.0, 0.0, 0.0, 0.0, 0.0, 0.0, 0.0, 0.0, 0.0, 0.0, 0.0, 0.0, 0.0, 0.0, 0.0, 0.0, 0.0, 0.0, 0.0, 0.0, 0.0], "parents": [2147483647, 0, 0, 1, 1, 2, 2, 3, 3, 4, 4, 5, 5, 6, 6, 7, 7, 8, 8, 9, 9, 10, 10, 11, 11, 12, 12, 13, 13, 14, 14, 15, 15, 16, 16, 17, 17, 18, 18, 19, 19, 20, 20, 21, 21, 22, 22, 23, 23, 24, 24, 25, 25, 26, 26, 27, 27, 28, 28], "right_children": [2, 4, 6, 8, 10, 12, 14, 16, 18, 20, 22, 24, 26, 28, 30, 32, 34, 36, 38, 40, 42, 44, 46, 48, 50, 52, 54, 56, 58, -1, -1, -1, -1, -1, -1, -1, -1, -1, -1, -1, -1, -1, -1, -1, -1, -1, -1, -1, -1, -1, -1, -1, -1, -1, -1, -1, -1, -1, -1], "split_conditions": [3.160529, 0.21078116, 44.489094, 0.13643193, 4.2304673, 0.3968762, 0.18771558, 4.843378, 8.52631, 0.00042287915, 0.14516835, 2.648761, 7.4188066, 1.0779276, 0.43189657, 0.034339234, 0.00020877749, 0.14448611, 0.12960483, 3.0831623, 0.552123, 0.04845633, 7.177618, 2.3044102, 26.884823, 6.0044746, 80.49466, 1.7369173, 2.196455e-06, -0.0, 0.15446493, -0.08321847, -0.045164436, 0.11664463, -0.0, -0.0, -0.0749294, -0.0, 0.06966248, -0.0036685406, 0.08432654, -0.0032445488, -0.034566432, 0.0025710897, 0.10765536, 0.074585885, -0.0333948, -0.014503318, 0.065398596, -0.059743986, -0.0, 0.0075922073, -0.08407703, 0.054571036, -0.0, -0.0, 0.08145121, -0.0, -0.051664185], "split_indices": [29, 66, 29, 33, 28, 43, 37, 42, 0, 65, 22, 70, 0, 81, 55, 33, 65, 4, 68, 42, 26, 44, 76, 72, 19, 76, 46, 76, 65, 0, 0, 0, 0, 0, 0, 0, 0, 0, 0, 0, 0, 0, 0, 0, 0, 0, 0, 0, 0, 0, 0, 0, 0, 0, 0, 0, 0, 0, 0], "split_type": [0, 0, 0, 0, 0, 0, 0, 0, 0, 0, 0, 0, 0, 0, 0, 0, 0, 0, 0, 0, 0, 0, 0, 0, 0, 0, 0, 0, 0, 0, 0, 0, 0, 0, 0, 0, 0, 0, 0, 0, 0, 0, 0, 0, 0, 0, 0, 0, 0, 0, 0, 0, 0, 0, 0, 0, 0, 0, 0], "sum_hessian": [26654.482, 19104.137, 7550.3457, 7318.743, 11785.395, 6109.296, 1441.05, 5933.561, 1385.1823, 10477.272, 1308.1217, 377.84183, 5731.454, 166.29947, 1274.7506, 5664.7134, 268.8475, 433.38824, 951.794, 780.4331, 9696.84, 547.85443, 760.26733, 78.19496, 299.64688, 285.5736, 5445.8804, 95.34727, 70.95221, 19.889544, 1254.8611, 2850.213, 2814.5005, 107.24636, 161.60114, 97.66928, 335.71896, 543.25494, 408.539, 404.753, 375.6801, 5582.422, 4114.418, 119.19757, 428.65686, 342.4207, 417.84662, 43.11115, 35.083813, 290.32208, 9.324788, 109.964226, 175.60939, 4587.8154, 858.06506, 11.984262, 83.36301, 17.44225, 53.509956], "tree_param": {"num_deleted": "0", "num_feature": "96", "num_nodes": "59", "size_leaf_vector": "1"}}, {"base_weights": [-0.0, -0.09651072, 0.12585318, -0.20177674, -0.062856525, 0.08365715, 0.46373525, -0.2275862, -0.0, -0.13082753, -0.0163077, -0.0023454586, 0.13344274, 0.072117835, 0.50122684, -0.10647122, -0.28001186, -0.07261878, 0.15425652, -0.15424718, 0.021146722, 0.037242923, -0.0809789, -0.031978525, 0.25767368, 0.19692594, 0.068735406, 0.28286138, -0.0, -0.0, 0.50804436, -0.04112159, 0.007136912, -0.089801826, -0.0, -0.048763234, 0.053299107, 0.08145371, -0.0, -0.06633683, -0.026979744, 0.025076635, -0.07557218, -0.007947194, 0.05625908, -0.045450695, 0.017971247, -0.02166068, 0.028425008, 0.09468085, -0.0, 0.03662886, 0.091806725, 0.004964727, 0.061562408, -0.0, 0.112455554, -0.0, -0.0193074, -0.0, 0.15259336], "categories": [], "categories_nodes": [], "categories_segments": [], "categories_sizes": [], "default_left": [0, 0, 0, 0, 0, 0, 0, 0, 0, 0, 0, 0, 0, 0, 0, 0, 0, 0, 0, 0, 0, 0, 0, 0, 0, 0, 0, 0, 0, 0, 0, 0, 0, 0, 0, 0, 0, 0, 0, 0, 0, 0, 0, 0, 0, 0, 0, 0, 0, 0, 0, 0, 0, 0, 0, 0, 0, 0, 0, 0, 0], "id": 19, "left_children": [1, 3, 5, 7, 9, 11, 13, 15, 17, 19, 21, 23, 25, 27, 29, 31, 33, 35, 37, 39, 41, 43, 45, 47, 49, 51, 53, 55, 57, -1, 59, -1, -1, -1, -1, -1, -1, -1, -1, -1, -1, -1, -1, -1, -1, -1, -1, -1, -1, -1, -1, -1, -1, -1, -1, -1, -1, -1, -1, -1, -1], "loss_changes": [309.03815, 48.356186, 151.92917, 18.942001, 33.283363, 43.462227, 11.8411255, 15.4774475, 4.5261393, 16.915245, 23.32687, 25.002357, 23.245071, 3.5344615, 1.9998169, 5.0460787, 9.458115, 4.9943867, 4.3595333, 13.42997, 7.3471136, 35.438156, 31.510098, 16.145927, 7.9050426, 21.03733, 20.596443, 2.3355336, 0.18135875, 0.0, 0.031677246, 0.0, 0.0, 0.0, 0.0, 0.0, 0.0, 0.0, 0.0, 0.0, 0.0, 0.0, 0.0, 0.0, 0.0, 0.0, 0.0, 0.0, 0.0, 0.0, 0.0, 0.0, 0.0, 0.0, 0.0, 0.0, 0.0, 0.0, 0.0, 0.0, 0.0], "parents": [2147483647, 0, 0, 1, 1, 2, 2, 3, 3, 4, 4, 5, 5, 6, 6, 7, 7, 8, 8, 9, 9, 10, 10, 11, 11, 12, 12, 13, 13, 14, 14, 15, 15, 16, 16, 17, 17, 18, 18, 19, 19, 20, 20, 21, 21, 22, 22, 23, 23, 24, 24, 25, 25, 26, 26, 27, 27, 28, 28, 30, 30], "right_children": [2, 4, 6, 8, 10, 12, 14, 16, 18, 20, 22, 24, 26, 28, 30, 32, 34, 36, 38, 40, 42, 44, 46, 48, 50, 52, 54, 56, 58, -1, 60, -1, -1, -1, -1, -1, -1, -1, -1, -1, -1, -1, -1, -1, -1, -1, -1, -1, -1, -1, -1, -1, -1, -1, -1, -1, -1, -1, -1, -1, -1], "split_conditions": [0.78488547, 0.034339234, 48.89433, 0.30334532, 8.979492, 0.16350701, 0.18771558, 0.025328785, 2.4387703, 7.1607013, 0.3262149, 15.472331, 0.2774684, 2.034161e-06, 0.8316608, 16.237106, 6.403146, 0.7823983, 3.802964, 0.062030487, 0.043900233, 0.13643193, 1.4952269, 0.6917054, 0.009455349, 0.04379571, 0.18089472, 34.49583, 530.06006, -0.0, 0.18827319, -0.04112159, 0.007136912, -0.089801826, -0.0, -0.048763234, 0.053299107, 0.08145371, -0.0, -0.06633683, -0.026979744, 0.025076635, -0.07557218, -0.007947194, 0.05625908, -0.045450695, 0.017971247, -0.02166068, 0.028425008, 0.09468085, -0.0, 0.03662886, 0.091806725, 0.004964727, 0.061562408, -0.0, 0.112455554, -0.0, -0.0193074, -0.0, 0.15259336], "split_indices": [51, 33, 29, 66, 0, 37, 37, 6, 42, 62, 26, 76, 6, 65, 43, 0, 62, 30, 42, 10, 35, 33, 32, 30, 35, 12, 44, 7, 84, 0, 32, 0, 0, 0, 0, 0, 0, 0, 0, 0, 0, 0, 0, 0, 0, 0, 0, 0, 0, 0, 0, 0, 0, 0, 0, 0, 0, 0, 0, 0, 0], "split_type": [0, 0, 0, 0, 0, 0, 0, 0, 0, 0, 0, 0, 0, 0, 0, 0, 0, 0, 0, 0, 0, 0, 0, 0, 0, 0, 0, 0, 0, 0, 0, 0, 0, 0, 0, 0, 0, 0, 0, 0, 0, 0, 0, 0, 0, 0, 0, 0, 0, 0, 0, 0, 0, 0, 0, 0, 0, 0, 0, 0, 0], "sum_hessian": [25441.232, 14399.322, 11041.911, 3415.1223, 10984.2, 9843.465, 1198.4465, 3049.9514, 365.1708, 4376.686, 6607.514, 3535.7278, 6307.737, 128.26868, 1070.1779, 979.9125, 2070.039, 226.3411, 138.8297, 3849.2861, 527.39966, 3530.1714, 3077.3428, 3209.3142, 326.4136, 3104.9453, 3202.7913, 51.57787, 76.69081, 20.807957, 1049.3699, 855.62646, 124.28604, 1916.7843, 153.25467, 196.16525, 30.175846, 103.27158, 35.558117, 1809.6528, 2039.6333, 459.6121, 67.787544, 2432.771, 1097.4004, 2098.0193, 979.3235, 2496.3196, 712.9947, 296.61417, 29.799423, 1897.3358, 1207.6096, 2370.6606, 832.1306, 6.017923, 45.559948, 33.904987, 42.785824, 2.3547137, 1047.0153], "tree_param": {"num_deleted": "0", "num_feature": "96", "num_nodes": "61", "size_leaf_vector": "1"}}, {"base_weights": [-0.0, -0.082571186, 0.12883149, -0.1898223, -0.049597424, 0.087563224, 0.45609397, -0.20232332, 0.30999783, -0.06410143, 0.14574054, 0.07124108, 0.3591537, 0.082189806, 0.49432966, -0.2362678, -0.056483537, -0.0, 0.4326517, -0.07298438, 0.15500063, 0.22477901, -0.034947503, -0.06417296, 0.09565874, -0.0, 0.4054048, 0.20928374, -0.0, -0.0, 0.4983583, -0.07449765, 0.019277716, -0.02643104, 0.039859086, 0.15194745, -0.0, 0.0131597575, -0.026852695, 0.061543267, -0.046581313, 0.07538545, -0.0, 0.018607713, -0.043050613, -0.04215822, 0.009624447, 0.022448523, 0.088343285, 0.12792923, -0.0, 0.09259099, -0.0, -0.0, -0.0060234335, 0.15048818, -0.0], "categories": [], "categories_nodes": [], "categories_segments": [], "categories_sizes": [], "default_left": [0, 0, 0, 0, 0, 0, 0, 0, 0, 0, 0, 0, 0, 0, 0, 0, 0, 0, 0, 0, 0, 0, 0, 0, 0, 0, 0, 0, 0, 0, 0, 0, 0, 0, 0, 0, 0, 0, 0, 0, 0, 0, 0, 0, 0, 0, 0, 0, 0, 0, 0, 0, 0, 0, 0, 0, 0], "id": 20, "left_children": [1, 3, 5, 7, 9, 11, 13, 15, 17, 19, 21, 23, 25, 27, 29, 31, 33, -1, 35, 37, 39, 41, 43, 45, 47, -1, 49, 51, 53, -1, 55, -1, -1, -1, -1, -1, -1, -1, -1, -1, -1, -1, -1, -1, -1, -1, -1, -1, -1, -1, -1, -1, -1, -1, -1, -1, -1], "loss_changes": [261.36002, 50.546936, 124.127686, 20.53714, 31.844107, 33.572662, 9.165939, 13.817001, 3.0473843, 20.164848, 12.605907, 27.108196, 9.777065, 2.7861874, 1.7146301, 11.604416, 3.7315667, 0.0, 1.6784859, 20.543682, 6.3856535, 5.453079, 2.827556, 9.729654, 24.971584, 0.0, 5.435341, 1.7282603, 0.011839279, 0.0, 0.51049805, 0.0, 0.0, 0.0, 0.0, 0.0, 0.0, 0.0, 0.0, 0.0, 0.0, 0.0, 0.0, 0.0, 0.0, 0.0, 0.0, 0.0, 0.0, 0.0, 0.0, 0.0, 0.0, 0.0, 0.0, 0.0, 0.0], "parents": [2147483647, 0, 0, 1, 1, 2, 2, 3, 3, 4, 4, 5, 5, 6, 6, 7, 7, 8, 8, 9, 9, 10, 10, 11, 11, 12, 12, 13, 13, 14, 14, 15, 15, 16, 16, 18, 18, 19, 19, 20, 20, 21, 21, 22, 22, 23, 23, 24, 24, 26, 26, 27, 27, 28, 28, 30, 30], "right_children": [2, 4, 6, 8, 10, 12, 14, 16, 18, 20, 22, 24, 26, 28, 30, 32, 34, -1, 36, 38, 40, 42, 44, 46, 48, -1, 50, 52, 54, -1, 56, -1, -1, -1, -1, -1, -1, -1, -1, -1, -1, -1, -1, -1, -1, -1, -1, -1, -1, -1, -1, -1, -1, -1, -1, -1, -1], "split_conditions": [1.9384854, 0.063465945, 48.89433, 0.7238032, 4.2304673, 5.33749, 0.18771558, 0.12750028, 0.7279334, 4.9218187, 3.0833964, 0.37745062, 0.27820733, 0.12218062, 0.40076196, 0.24104828, 0.36247364, -0.0, 1.0080357, 0.39270657, 2.3817549, 0.2051181, 2.1005585, 3.428258, 0.45478636, -0.0, 2.1254644, 1.0, 58.80272, -0.0, 2.961922, -0.07449765, 0.019277716, -0.02643104, 0.039859086, 0.15194745, -0.0, 0.0131597575, -0.026852695, 0.061543267, -0.046581313, 0.07538545, -0.0, 0.018607713, -0.043050613, -0.04215822, 0.009624447, 0.022448523, 0.088343285, 0.12792923, -0.0, 0.09259099, -0.0, -0.0, -0.0060234335, 0.15048818, -0.0], "split_indices": [29, 68, 29, 94, 28, 66, 37, 65, 43, 42, 23, 78, 68, 22, 55, 52, 35, 0, 6, 72, 92, 35, 42, 42, 33, 0, 78, 34, 14, 0, 55, 0, 0, 0, 0, 0, 0, 0, 0, 0, 0, 0, 0, 0, 0, 0, 0, 0, 0, 0, 0, 0, 0, 0, 0, 0, 0], "split_type": [0, 0, 0, 0, 0, 0, 0, 0, 0, 0, 0, 0, 0, 0, 0, 0, 0, 0, 0, 0, 0, 0, 0, 0, 0, 0, 0, 0, 0, 0, 0, 0, 0, 0, 0, 0, 0, 0, 0, 0, 0, 0, 0, 0, 0, 0, 0, 0, 0, 0, 0, 0, 0, 0, 0, 0, 0], "sum_hessian": [24567.062, 14971.699, 9595.362, 3448.1504, 11523.549, 8549.129, 1046.2332, 3384.1128, 64.03769, 10775.337, 748.2126, 8100.391, 448.73785, 121.61866, 924.6145, 2689.0442, 695.06854, 15.368671, 48.66902, 10400.002, 375.3349, 558.8531, 189.35947, 1174.6908, 6925.7, 37.27597, 411.46188, 81.52335, 40.095306, 8.000716, 916.61383, 2617.4749, 71.56926, 641.31946, 53.749065, 41.785446, 6.8835745, 1213.3359, 9186.666, 351.15305, 24.181862, 533.3336, 25.519487, 51.586018, 137.77345, 712.73816, 461.9526, 6315.6777, 610.02264, 401.68054, 9.781342, 55.088066, 26.435284, 11.726957, 28.36835, 906.7219, 9.891892], "tree_param": {"num_deleted": "0", "num_feature": "96", "num_nodes": "57", "size_leaf_vector": "1"}}, {"base_weights": [-0.0, -0.064942285, 0.14512765, -0.15121955, -0.021935696, 0.10057868, 0.44791934, -0.20548947, -0.07739101, -0.049129482, 0.06463501, 0.07406836, 0.2700818, 0.08111144, 0.4850496, -0.22637567, -0.0, -0.120476596, -0.0, -0.07396683, 0.050470147, 0.2711397, -0.00841731, -0.0222848, 0.11467749, -0.0, 0.313549, -0.0, 0.07722378, -0.0, 0.49132705, -0.07183901, -0.0, 0.04760196, -0.02997536, -0.0420397, 0.023465091, -0.00798242, 0.051531132, -0.026185364, 0.035433847, 0.070513576, -0.014041784, -0.0, 0.11007444, 0.031109106, -0.0436518, -0.020095645, 0.053113665, 0.024423964, 0.10001052, 0.050090875, -0.0054537486, 0.09716806, -0.0, 0.009492202, -0.036904186, -0.0, 0.14780709], "categories": [], "categories_nodes": [], "categories_segments": [], "categories_sizes": [], "default_left": [0, 0, 0, 0, 0, 0, 0, 0, 0, 0, 0, 0, 0, 0, 0, 0, 0, 0, 0, 0, 0, 0, 0, 0, 0, 0, 0, 0, 0, 0, 0, 0, 0, 0, 0, 0, 0, 0, 0, 0, 0, 0, 0, 0, 0, 0, 0, 0, 0, 0, 0, 0, 0, 0, 0, 0, 0, 0, 0], "id": 21, "left_children": [1, 3, 5, 7, 9, 11, 13, 15, 17, 19, 21, 23, 25, 27, 29, 31, 33, 35, 37, 39, 41, 43, 45, 47, 49, 51, 53, 55, -1, -1, 57, -1, -1, -1, -1, -1, -1, -1, -1, -1, -1, -1, -1, -1, -1, -1, -1, -1, -1, -1, -1, -1, -1, -1, -1, -1, -1, -1, -1], "loss_changes": [224.26424, 59.26094, 93.69644, 18.754707, 25.859215, 25.489212, 6.7527466, 14.690491, 8.470699, 21.256685, 41.15232, 22.931074, 7.837204, 1.77794, 2.6649628, 7.4079437, 4.3770676, 6.718363, 4.397157, 17.304539, 30.90949, 21.442463, 28.890179, 13.125257, 25.137802, 1.2552357, 1.6771393, 0.3617154, 0.0, 0.0, 0.5510559, 0.0, 0.0, 0.0, 0.0, 0.0, 0.0, 0.0, 0.0, 0.0, 0.0, 0.0, 0.0, 0.0, 0.0, 0.0, 0.0, 0.0, 0.0, 0.0, 0.0, 0.0, 0.0, 0.0, 0.0, 0.0, 0.0, 0.0, 0.0], "parents": [2147483647, 0, 0, 1, 1, 2, 2, 3, 3, 4, 4, 5, 5, 6, 6, 7, 7, 8, 8, 9, 9, 10, 10, 11, 11, 12, 12, 13, 13, 14, 14, 15, 15, 16, 16, 17, 17, 18, 18, 19, 19, 20, 20, 21, 21, 22, 22, 23, 23, 24, 24, 25, 25, 26, 26, 27, 27, 30, 30], "right_children": [2, 4, 6, 8, 10, 12, 14, 16, 18, 20, 22, 24, 26, 28, 30, 32, 34, 36, 38, 40, 42, 44, 46, 48, 50, 52, 54, 56, -1, -1, 58, -1, -1, -1, -1, -1, -1, -1, -1, -1, -1, -1, -1, -1, -1, -1, -1, -1, -1, -1, -1, -1, -1, -1, -1, -1, -1, -1, -1], "split_conditions": [2.597126, 0.0941048, 48.89433, 0.008849278, 0.19436854, 11.606712, 2.1841676, 3.73822, 9.653725, 1.7506905, 0.65305126, 0.34237418, 1.2652469, 0.03788582, 0.43189657, 0.0858279, 0.17007802, 7.1607013, 0.53382164, 4.9218187, 0.005757302, 8.680088, 0.03410791, 4.065903, 0.24407694, 0.10973703, 272.4303, 1.9486302, 0.07722378, -0.0, 0.06915441, -0.07183901, -0.0, 0.04760196, -0.02997536, -0.0420397, 0.023465091, -0.00798242, 0.051531132, -0.026185364, 0.035433847, 0.070513576, -0.014041784, -0.0, 0.11007444, 0.031109106, -0.0436518, -0.020095645, 0.053113665, 0.024423964, 0.10001052, 0.050090875, -0.0054537486, 0.09716806, -0.0, 0.009492202, -0.036904186, -0.0, 0.14780709], "split_indices": [29, 68, 29, 12, 33, 77, 62, 42, 0, 28, 27, 64, 51, 12, 55, 8, 6, 62, 61, 42, 35, 0, 65, 42, 22, 22, 46, 69, 0, 0, 37, 0, 0, 0, 0, 0, 0, 0, 0, 0, 0, 0, 0, 0, 0, 0, 0, 0, 0, 0, 0, 0, 0, 0, 0, 0, 0, 0, 0], "split_type": [0, 0, 0, 0, 0, 0, 0, 0, 0, 0, 0, 0, 0, 0, 0, 0, 0, 0, 0, 0, 0, 0, 0, 0, 0, 0, 0, 0, 0, 0, 0, 0, 0, 0, 0, 0, 0, 0, 0, 0, 0, 0, 0, 0, 0, 0, 0, 0, 0, 0, 0, 0, 0, 0, 0, 0, 0, 0, 0], "sum_hessian": [23792.81, 16437.74, 7355.0713, 5389.868, 11047.872, 6441.681, 913.3901, 3027.3154, 2362.553, 8495.265, 2552.607, 5622.7197, 818.96155, 109.008385, 804.3817, 2780.9548, 246.36066, 1557.9044, 804.6485, 6880.1963, 1615.0684, 702.09564, 1850.5114, 1594.2496, 4028.4702, 131.86713, 687.0944, 72.25339, 36.754997, 9.408985, 794.9727, 2614.3608, 166.59395, 123.89067, 122.46998, 1463.7288, 94.175575, 672.78577, 131.8627, 6483.2896, 396.90695, 592.404, 1022.6644, 159.87584, 542.2198, 977.98804, 872.5233, 1343.7417, 250.50792, 3537.4937, 490.97635, 42.95888, 88.90825, 659.83057, 27.263903, 52.917114, 19.336277, 2.1284943, 792.84424], "tree_param": {"num_deleted": "0", "num_feature": "96", "num_nodes": "59", "size_leaf_vector": "1"}}, {"base_weights": [-0.0, -0.07142958, 0.11505031, -0.14063445, -0.028005494, 0.0815529, 0.43769732, -0.17523904, -0.03933296, -0.04288272, 0.1565771, -0.0008087131, 0.11589128, 0.06974546, 0.481253, -0.2337049, -0.10099703, -0.1404509, 0.0069447905, 0.011606495, -0.09765664, 0.22244205, -0.0, -0.21144436, 0.012425935, 0.13739738, -0.08266455, 0.18665646, -0.0, -0.0, 0.49231812, -0.07833731, -0.0, -0.0344667, 0.040724322, -0.05337147, -0.0, 0.015338387, -0.03986772, -0.011860873, 0.06739599, -0.04228236, 0.0019167323, 0.08566216, -0.0007029319, -0.048238073, 0.0012021151, -0.093311146, -0.0, 0.0363736, -0.012463846, 6.561142e-05, 0.0502906, -0.071117006, 0.029158177, -0.0, 0.07107252, 0.14882503, -0.0], "categories": [], "categories_nodes": [], "categories_segments": [], "categories_sizes": [], "default_left": [0, 0, 0, 0, 0, 0, 0, 0, 0, 0, 0, 0, 0, 0, 0, 0, 0, 0, 0, 0, 0, 0, 0, 0, 0, 0, 0, 0, 0, 0, 0, 0, 0, 0, 0, 0, 0, 0, 0, 0, 0, 0, 0, 0, 0, 0, 0, 0, 0, 0, 0, 0, 0, 0, 0, 0, 0, 0, 0], "id": 22, "left_children": [1, 3, 5, 7, 9, 11, 13, 15, 17, 19, 21, 23, 25, 27, 29, 31, 33, 35, 37, 39, 41, 43, 45, 47, 49, 51, 53, 55, -1, -1, 57, -1, -1, -1, -1, -1, -1, -1, -1, -1, -1, -1, -1, -1, -1, -1, -1, -1, -1, -1, -1, -1, -1, -1, -1, -1, -1, -1, -1], "loss_changes": [188.49277, 40.835403, 89.72592, 16.660866, 22.994236, 23.744091, 7.2460785, 13.672676, 8.081009, 25.27775, 8.318904, 8.309487, 24.999878, 2.0005813, 1.8965302, 13.571762, 5.7498283, 3.0618505, 4.8853216, 45.556503, 20.132343, 9.47135, 1.5530658, 3.861846, 13.066694, 19.933212, 15.709988, 0.9826734, 0.0, 0.0, 0.22558594, 0.0, 0.0, 0.0, 0.0, 0.0, 0.0, 0.0, 0.0, 0.0, 0.0, 0.0, 0.0, 0.0, 0.0, 0.0, 0.0, 0.0, 0.0, 0.0, 0.0, 0.0, 0.0, 0.0, 0.0, 0.0, 0.0, 0.0, 0.0], "parents": [2147483647, 0, 0, 1, 1, 2, 2, 3, 3, 4, 4, 5, 5, 6, 6, 7, 7, 8, 8, 9, 9, 10, 10, 11, 11, 12, 12, 13, 13, 14, 14, 15, 15, 16, 16, 17, 17, 18, 18, 19, 19, 20, 20, 21, 21, 22, 22, 23, 23, 24, 24, 25, 25, 26, 26, 27, 27, 30, 30], "right_children": [2, 4, 6, 8, 10, 12, 14, 16, 18, 20, 22, 24, 26, 28, 30, 32, 34, 36, 38, 40, 42, 44, 46, 48, 50, 52, 54, 56, -1, -1, 58, -1, -1, -1, -1, -1, -1, -1, -1, -1, -1, -1, -1, -1, -1, -1, -1, -1, -1, -1, -1, -1, -1, -1, -1, -1, -1, -1, -1], "split_conditions": [1.9384854, 0.2722087, 48.89433, 11.419095, 40.197403, 0.4860479, 0.18771558, 0.008849278, 0.020736855, 0.64836836, 70.80841, 7.805673, 1.1587602, 0.12218062, 0.90642875, 0.10781786, 5.07983, 0.03410791, 15.350559, 0.14179969, 2.399675, 2.969492, 13.19001, 0.2134404, 1.8437033, 0.55014473, 0.21193862, 15.532798, -0.0, -0.0, 2.961922, -0.07833731, -0.0, -0.0344667, 0.040724322, -0.05337147, -0.0, 0.015338387, -0.03986772, -0.011860873, 0.06739599, -0.04228236, 0.0019167323, 0.08566216, -0.0007029319, -0.048238073, 0.0012021151, -0.093311146, -0.0, 0.0363736, -0.012463846, 6.561142e-05, 0.0502906, -0.071117006, 0.029158177, -0.0, 0.07107252, 0.14882503, -0.0], "split_indices": [29, 51, 29, 0, 75, 3, 37, 12, 33, 46, 45, 0, 17, 22, 43, 93, 28, 65, 0, 33, 95, 32, 7, 16, 46, 56, 22, 13, 0, 0, 55, 0, 0, 0, 0, 0, 0, 0, 0, 0, 0, 0, 0, 0, 0, 0, 0, 0, 0, 0, 0, 0, 0, 0, 0, 0, 0, 0, 0], "split_type": [0, 0, 0, 0, 0, 0, 0, 0, 0, 0, 0, 0, 0, 0, 0, 0, 0, 0, 0, 0, 0, 0, 0, 0, 0, 0, 0, 0, 0, 0, 0, 0, 0, 0, 0, 0, 0, 0, 0, 0, 0, 0, 0, 0, 0, 0, 0, 0, 0, 0, 0, 0, 0, 0, 0, 0, 0, 0, 0], "sum_hessian": [22934.588, 